{"learner":{"attributes":{"scikit_learn":"{\"_estimator_type\": \"regressor\"}"},"feature_names":["year","month","peak_season","philippine_holidays","top10market_holidays","avg_hightemp","avg_lowtemp","precipitation","inflation_rate","is_december","is_lockdown"],"feature_types":["int","int","int","int","int","int","int","float","float","int","int"],"gradient_booster":{"model":{"cats":{"enc":[],"feature_segments":[],"sorted_idx":[]},"gbtree_model_param":{"num_parallel_tree":"1","num_trees":"400"},"iteration_indptr":[0,1,2,3,4,5,6,7,8,9,10,11,12,13,14,15,16,17,18,19,20,21,22,23,24,25,26,27,28,29,30,31,32,33,34,35,36,37,38,39,40,41,42,43,44,45,46,47,48,49,50,51,52,53,54,55,56,57,58,59,60,61,62,63,64,65,66,67,68,69,70,71,72,73,74,75,76,77,78,79,80,81,82,83,84,85,86,87,88,89,90,91,92,93,94,95,96,97,98,99,100,101,102,103,104,105,106,107,108,109,110,111,112,113,114,115,116,117,118,119,120,121,122,123,124,125,126,127,128,129,130,131,132,133,134,135,136,137,138,139,140,141,142,143,144,145,146,147,148,149,150,151,152,153,154,155,156,157,158,159,160,161,162,163,164,165,166,167,168,169,170,171,172,173,174,175,176,177,178,179,180,181,182,183,184,185,186,187,188,189,190,191,192,193,194,195,196,197,198,199,200,201,202,203,204,205,206,207,208,209,210,211,212,213,214,215,216,217,218,219,220,221,222,223,224,225,226,227,228,229,230,231,232,233,234,235,236,237,238,239,240,241,242,243,244,245,246,247,248,249,250,251,252,253,254,255,256,257,258,259,260,261,262,263,264,265,266,267,268,269,270,271,272,273,274,275,276,277,278,279,280,281,282,283,284,285,286,287,288,289,290,291,292,293,294,295,296,297,298,299,300,301,302,303,304,305,306,307,308,309,310,311,312,313,314,315,316,317,318,319,320,321,322,323,324,325,326,327,328,329,330,331,332,333,334,335,336,337,338,339,340,341,342,343,344,345,346,347,348,349,350,351,352,353,354,355,356,357,358,359,360,361,362,363,364,365,366,367,368,369,370,371,372,373,374,375,376,377,378,379,380,381,382,383,384,385,386,387,388,389,390,391,392,393,394,395,396,397,398,399,400],"tree_info":[0,0,0,0,0,0,0,0,0,0,0,0,0,0,0,0,0,0,0,0,0,0,0,0,0,0,0,0,0,0,0,0,0,0,0,0,0,0,0,0,0,0,0,0,0,0,0,0,0,0,0,0,0,0,0,0,0,0,0,0,0,0,0,0,0,0,0,0,0,0,0,0,0,0,0,0,0,0,0,0,0,0,0,0,0,0,0,0,0,0,0,0,0,0,0,0,0,0,0,0,0,0,0,0,0,0,0,0,0,0,0,0,0,0,0,0,0,0,0,0,0,0,0,0,0,0,0,0,0,0,0,0,0,0,0,0,0,0,0,0,0,0,0,0,0,0,0,0,0,0,0,0,0,0,0,0,0,0,0,0,0,0,0,0,0,0,0,0,0,0,0,0,0,0,0,0,0,0,0,0,0,0,0,0,0,0,0,0,0,0,0,0,0,0,0,0,0,0,0,0,0,0,0,0,0,0,0,0,0,0,0,0,0,0,0,0,0,0,0,0,0,0,0,0,0,0,0,0,0,0,0,0,0,0,0,0,0,0,0,0,0,0,0,0,0,0,0,0,0,0,0,0,0,0,0,0,0,0,0,0,0,0,0,0,0,0,0,0,0,0,0,0,0,0,0,0,0,0,0,0,0,0,0,0,0,0,0,0,0,0,0,0,0,0,0,0,0,0,0,0,0,0,0,0,0,0,0,0,0,0,0,0,0,0,0,0,0,0,0,0,0,0,0,0,0,0,0,0,0,0,0,0,0,0,0,0,0,0,0,0,0,0,0,0,0,0,0,0,0,0,0,0,0,0,0,0,0,0,0,0,0,0,0,0,0,0,0,0,0,0,0,0,0,0,0,0,0,0,0,0,0,0,0,0,0,0,0,0,0,0,0,0,0,0,0,0,0,0,0,0],"trees":[{"base_weights":[9.2696356E2,1.5080436E4,-8.972715E3,1.8011088E4,-1.8728863E4,-1.8959572E4,8.0459106E3,-1.3319787E4,2.1758205E4,-1.5984995E3,5.248629E2,8.762172E2,-2.1340945E4,1.7019408E4,-4.1063496E3,9.417011E3,-1.5808329E3,2.2190613E4,1.5478789E2,-1.7288256E3,-8.9799375E3,6.0346367E3,9.733325E2,-1.2298495E3,3.180125E3,9.688789E1,6.093879E2,1.5077365E3,1.959263E4,1.6469637E4,-1.4136513E4,1.1831719E2,4.2598788E2,8.441585E3,-5.0783282E2,6.6532104E2,1.2495874E3,1.0391005E3,8.831289E1,-7.382018E1,-9.4461084E2,1.6920482E2,9.696629E2],"categories":[],"categories_nodes":[],"categories_segments":[],"categories_sizes":[],"default_left":[0,0,0,0,0,0,0,0,0,0,0,0,0,0,0,0,0,0,0,0,0,0,0,0,0,0,0,0,0,0,0,0,0,0,0,0,0,0,0,0,0,0,0],"id":0,"left_children":[1,3,5,7,9,11,13,15,17,-1,-1,-1,19,21,23,25,-1,27,-1,-1,29,31,-1,-1,33,-1,-1,-1,35,37,39,-1,-1,41,-1,-1,-1,-1,-1,-1,-1,-1,-1],"loss_changes":[1.4987483E10,4.696993E9,1.086019E10,5.103233E9,1.8835443E9,3.849259E9,2.687046E9,2.3777956E9,2.298839E8,0E0,0E0,0E0,5.9064934E9,2.5887974E8,1.7205714E9,3.855245E7,0E0,1.5405056E8,0E0,0E0,2.9887086E9,1.6303936E7,0E0,0E0,7.172767E8,0E0,0E0,0E0,6.856489E8,2.1691955E8,1.0558464E9,0E0,0E0,3.220871E8,0E0,0E0,0E0,0E0,0E0,0E0,0E0,0E0,0E0],"parents":[2147483647,0,0,1,1,2,2,3,3,4,4,5,5,6,6,7,7,8,8,12,12,13,13,14,14,15,15,17,17,20,20,21,21,24,24,28,28,29,29,30,30,33,33],"right_children":[2,4,6,8,10,12,14,16,18,-1,-1,-1,20,22,24,26,-1,28,-1,-1,30,32,-1,-1,34,-1,-1,-1,36,38,40,-1,-1,42,-1,-1,-1,-1,-1,-1,-1,-1,-1],"split_conditions":[4.4E-1,2.7E1,2.6E1,4E0,5E0,2E-1,3.1E1,1E0,7.4E0,-1.5984995E3,5.248629E2,8.762172E2,3.1E0,5E-1,5.3E-1,4E0,-1.5808329E3,8E-1,1.5478789E2,-1.7288256E3,2E0,1.1E1,9.733325E2,-1.2298495E3,1E1,9.688789E1,6.093879E2,1.5077365E3,3.4E0,3.7E1,6.2E-1,1.1831719E2,4.2598788E2,2.3E1,-5.0783282E2,6.6532104E2,1.2495874E3,1.0391005E3,8.831289E1,-7.382018E1,-9.4461084E2,1.6920482E2,9.696629E2],"split_indices":[7,4,6,4,1,8,5,3,8,0,0,0,8,7,7,1,0,8,0,0,1,1,0,0,1,0,0,0,8,4,7,0,0,4,0,0,0,0,0,0,0,0,0],"split_type":[0,0,0,0,0,0,0,0,0,0,0,0,0,0,0,0,0,0,0,0,0,0,0,0,0,0,0,0,0,0,0,0,0,0,0,0,0,0,0,0,0,0,0],"sum_hessian":[1.05E2,4.3E1,6.2E1,4E1,3E0,3.9E1,2.3E1,4E0,3.6E1,2E0,1E0,2E0,3.7E1,1.3E1,1E1,2E0,2E0,3.5E1,1E0,1.7E1,2E1,3E0,1E1,2E0,8E0,1E0,1E0,6E0,2.9E1,3E0,1.7E1,2E0,1E0,6E0,2E0,1.5E1,1.4E1,2E0,1E0,5E0,1.2E1,5E0,1E0],"tree_param":{"num_deleted":"0","num_feature":"11","num_nodes":"43","size_leaf_vector":"1"}},{"base_weights":[5.0207077E2,4.3607324E3,-2.1213867E3,1.4796413E4,-4.102952E3,4.126936E3,2.4822568E4,-2.936278E4,1.5759505E4,1.4232858E4,-4.7416855E3,1.7775574E4,2.9801012E4,-3.5794082E4,-1.3952234E4,6.082367E3,1.0630834E3,2.8113315E2,2.047091E4,-6.9115454E3,1.12399216E2,9.519581E2,9.690313E1,8.717404E2,1.6902382E3,-4.8600558E2,-1.8408098E3,-7.8193274E2,-1.1521875E1,4.2324834E3,5.41891E2,1.4140275E3,1.617211E2,-3.7540283E1,-4.9333908E2,3.304225E1,-2.3675652E1,8.235547E1,2.3119994E2],"categories":[],"categories_nodes":[],"categories_segments":[],"categories_sizes":[],"default_left":[0,0,0,0,0,0,0,0,0,0,0,0,0,0,0,0,0,0,0,0,0,0,0,0,0,0,0,0,0,0,0,0,0,0,0,0,0,0,0],"id":1,"left_children":[1,3,-1,5,7,9,11,13,15,17,19,21,23,25,27,29,-1,-1,31,33,35,-1,-1,-1,-1,-1,-1,-1,-1,37,-1,-1,-1,-1,-1,-1,-1,-1,-1],"loss_changes":[1.8075388E10,8.89314E9,0E0,4.711381E9,2.8559186E10,2.1288763E9,2.771804E8,1.9783414E9,1.5745249E9,4.757184E8,1.3770173E8,2.0324557E8,4.754432E6,9.520128E7,2.0466266E8,6.849056E7,0E0,0E0,7.161933E8,1.5644995E8,1.9196245E6,0E0,0E0,0E0,0E0,0E0,0E0,0E0,0E0,3.518112E6,0E0,0E0,0E0,0E0,0E0,0E0,0E0,0E0,0E0],"parents":[2147483647,0,0,1,1,3,3,4,4,5,5,6,6,7,7,8,8,9,9,10,10,11,11,12,12,13,13,14,14,15,15,18,18,19,19,20,20,29,29],"right_children":[2,4,-1,6,8,10,12,14,16,18,20,22,24,26,28,30,-1,-1,32,34,36,-1,-1,-1,-1,-1,-1,-1,-1,38,-1,-1,-1,-1,-1,-1,-1,-1,-1],"split_conditions":[1E0,2.02E3,-2.1213867E3,2.018E3,2.023E3,6E0,2.019E3,5.1E0,2.024E3,2.017E3,1.1E1,1.2E1,7E0,7E-1,1.2E1,1E0,1.0630834E3,2.8113315E2,3.8E0,8E0,2.017E3,9.519581E2,9.690313E1,8.717404E2,1.6902382E3,-4.8600558E2,-1.8408098E3,-7.8193274E2,-1.1521875E1,3E0,5.41891E2,1.4140275E3,1.617211E2,-3.7540283E1,-4.9333908E2,3.304225E1,-2.3675652E1,8.235547E1,2.3119994E2],"split_indices":[10,0,0,0,0,1,0,8,0,0,1,1,4,8,1,2,0,0,8,1,0,0,0,0,0,0,0,0,0,1,0,0,0,0,0,0,0,0,0],"split_type":[0,0,0,0,0,0,0,0,0,0,0,0,0,0,0,0,0,0,0,0,0,0,0,0,0,0,0,0,0,0,0,0,0,0,0,0,0,0,0],"sum_hessian":[1.07E2,9.9E1,8E0,4.4E1,5.5E1,2.2E1,2.2E1,2.4E1,3.1E1,1E1,1.2E1,1.1E1,1.1E1,1.6E1,8E0,1.2E1,1.9E1,5E0,5E0,8E0,4E0,1E1,1E0,4E0,7E0,1E0,1.5E1,7E0,1E0,1E1,2E0,3E0,2E0,3E0,5E0,2E0,2E0,2E0,8E0],"tree_param":{"num_deleted":"0","num_feature":"11","num_nodes":"39","size_leaf_vector":"1"}},{"base_weights":[-8.329338E2,3.0100344E3,-2.0439027E3,-3.9772434E3,1.2965869E4,5.6767495E3,-1.1945843E4,1.538064E4,-6.0042676E2,-7.4062274E2,1.3595714E3,-2.1754254E4,-2.5886658E3,2.1453678E4,1.1450217E4,-1.1055602E4,1.7403168E4,-1.5855441E3,-1.52508545E4,7.6384956E3,-7.486524E3,1.1475363E3,8.722784E1,5.29857E3,1.5465782E4,1.8354053E2,-1.3153208E3,9.712296E2,8.133018E1,-9.465343E2,5.3868646E2,5.3239935E2,5.3983723E1,-6.858714E2,5.153086E1,4.255709E2,-3.053083E2,2.3167747E2,8.442513E2],"categories":[],"categories_nodes":[],"categories_segments":[],"categories_sizes":[],"default_left":[0,0,0,0,0,0,0,0,0,0,0,0,0,0,0,0,0,0,0,0,0,0,0,0,0,0,0,0,0,0,0,0,0,0,0,0,0,0,0],"id":2,"left_children":[1,3,-1,5,7,9,11,13,-1,15,-1,17,19,21,23,25,27,-1,29,31,33,-1,-1,35,37,-1,-1,-1,-1,-1,-1,-1,-1,-1,-1,-1,-1,-1,-1],"loss_changes":[1.5820041E10,6.590601E9,0E0,4.375826E9,2.5366902E9,3.6098985E9,2.7888353E9,6.1365555E8,0E0,4.1226117E9,0E0,4.8766054E8,9.08736E8,3.4353306E8,5.1090995E8,3.2408233E9,2.235328E8,0E0,1.2573809E9,1.0693594E8,6.5097114E8,0E0,0E0,4.5503056E8,1.3699226E8,0E0,0E0,0E0,0E0,0E0,0E0,0E0,0E0,0E0,0E0,0E0,0E0,0E0,0E0],"parents":[2147483647,0,0,1,1,3,3,4,4,5,5,6,6,7,7,9,9,11,11,12,12,13,13,14,14,15,15,16,16,18,18,19,19,20,20,23,23,24,24],"right_children":[2,4,-1,6,8,10,12,14,-1,16,-1,18,20,22,24,26,28,-1,30,32,34,-1,-1,36,38,-1,-1,-1,-1,-1,-1,-1,-1,-1,-1,-1,-1,-1,-1],"split_conditions":[1E0,2.6E1,-2.0439027E3,4.4E-1,7.2E0,8E0,3.5E0,6E0,-6.0042676E2,3.4E0,1.3595714E3,2.3E0,2.5E1,5.2E0,2E0,1.8E-1,4E0,-1.5855441E3,1.8E1,1.2E1,7.7E0,1.1475363E3,8.722784E1,3.2E1,2.9E-1,1.8354053E2,-1.3153208E3,9.712296E2,8.133018E1,-9.465343E2,5.3868646E2,5.3239935E2,5.3983723E1,-6.858714E2,5.153086E1,4.255709E2,-3.053083E2,2.3167747E2,8.442513E2],"split_indices":[10,6,0,7,8,1,8,1,0,8,0,8,6,8,3,7,3,0,4,1,8,0,0,5,7,0,0,0,0,0,0,0,0,0,0,0,0,0,0],"split_type":[0,0,0,0,0,0,0,0,0,0,0,0,0,0,0,0,0,0,0,0,0,0,0,0,0,0,0,0,0,0,0,0,0,0,0,0,0,0,0],"sum_hessian":[1.01E2,9.3E1,8E0,5.5E1,3.8E1,2.5E1,3E1,3.5E1,3E0,2E1,5E0,1.4E1,1.6E1,1.2E1,2.3E1,1.3E1,7E0,4E0,1E1,5E0,1.1E1,1.1E1,1E0,1E1,1.3E1,7E0,6E0,6E0,1E0,9E0,1E0,3E0,2E0,6E0,5E0,8E0,2E0,2E0,1.1E1],"tree_param":{"num_deleted":"0","num_feature":"11","num_nodes":"39","size_leaf_vector":"1"}},{"base_weights":[6.528502E1,3.8667773E3,-1.9738381E3,1.4038812E4,-4.442747E3,3.8485002E3,2.3644174E4,-2.7659865E4,1.3984157E4,9.675785E2,1.1846213E3,1.6611238E4,1.464642E3,-3.3490406E4,-1.2925469E4,4.630195E3,1.8450674E4,1.0117794E4,-2.318826E3,8.8425354E2,9.313096E1,-4.4097247E2,-1.7211425E3,-7.239271E2,-1.2522071E1,6.592819E3,1.4123901E2,1.88753E4,2.3833829E2,1.6720714E2,7.888366E2,-1.9310172E2,5.7703094E1,3.7530832E2,7.348574E1,2.7259042E2,9.636943E2],"categories":[],"categories_nodes":[],"categories_segments":[],"categories_sizes":[],"default_left":[0,0,0,0,0,0,0,0,0,0,0,0,0,0,0,0,0,0,0,0,0,0,0,0,0,0,0,0,0,0,0,0,0,0,0,0,0],"id":3,"left_children":[1,3,-1,5,7,9,11,13,15,17,-1,19,-1,21,23,25,27,29,31,-1,-1,-1,-1,-1,-1,33,-1,35,-1,-1,-1,-1,-1,-1,-1,-1,-1],"loss_changes":[1.7138671E10,8.852948E9,0E0,4.509442E9,2.5200337E10,1.3491268E9,4.668508E8,1.8007675E9,1.2932982E9,6.8503014E8,0E0,1.7294771E8,0E0,1.104855E8,1.7354125E8,2.3896912E7,3.785728E7,1.7723046E8,9.556665E7,0E0,0E0,0E0,0E0,0E0,0E0,1.2363952E7,0E0,7.28064E6,0E0,0E0,0E0,0E0,0E0,0E0,0E0,0E0,0E0],"parents":[2147483647,0,0,1,1,3,3,4,4,5,5,6,6,7,7,8,8,9,9,11,11,13,13,14,14,15,15,16,16,17,17,18,18,25,25,27,27],"right_children":[2,4,-1,6,8,10,12,14,16,18,-1,20,-1,22,24,26,28,30,32,-1,-1,-1,-1,-1,-1,34,-1,36,-1,-1,-1,-1,-1,-1,-1,-1,-1],"split_conditions":[1E0,2.02E3,-1.9738381E3,2.018E3,2.023E3,2.3E1,2.019E3,5.1E0,2.024E3,2.3E-1,1.1846213E3,1E0,1.464642E3,7E-1,9.4E0,5.6E0,1.02E0,1.4E-1,3.3E0,8.8425354E2,9.313096E1,-4.4097247E2,-1.7211425E3,-7.239271E2,-1.2522071E1,1.3E1,1.4123901E2,2.6E1,2.3833829E2,1.6720714E2,7.888366E2,-1.9310172E2,5.7703094E1,3.7530832E2,7.348574E1,2.7259042E2,9.636943E2],"split_indices":[10,0,0,0,0,4,0,8,0,7,0,9,0,8,8,8,7,7,8,0,0,0,0,0,0,4,0,6,0,0,0,0,0,0,0,0,0],"split_type":[0,0,0,0,0,0,0,0,0,0,0,0,0,0,0,0,0,0,0,0,0,0,0,0,0,0,0,0,0,0,0,0,0,0,0,0,0],"sum_hessian":[1.12E2,1.03E2,9E0,4.6E1,5.7E1,2.3E1,2.3E1,2.5E1,3.2E1,2.1E1,2E0,1.2E1,1.1E1,1.7E1,8E0,1.1E1,2.1E1,5E0,1.6E1,1.1E1,1E0,1E0,1.6E1,7E0,1E0,4E0,7E0,2E1,1E0,3E0,2E0,1.1E1,5E0,3E0,1E0,1E0,1.9E1],"tree_param":{"num_deleted":"0","num_feature":"11","num_nodes":"37","size_leaf_vector":"1"}},{"base_weights":[-1.5808894E2,3.1149475E3,-1.9162975E3,1.1502234E4,-3.6192458E3,-1.1719367E4,1.3934927E4,-1.0113544E4,8.6139375E3,-1.3665082E3,7.797883E3,1.615002E4,-1.1699737E4,8.083403E2,-1.1971044E4,1.531078E4,-4.182279E3,6.0874023E1,5.239672E2,1.254496E4,2.3516412E4,-1.0682382E3,4.323835E2,-1.5556644E3,-7.262439E3,4.6329688E3,1.7801732E4,2.6842803E3,-8.83907E3,8.190646E2,3.6322568E2,4.1723322E2,1.2858148E3,8.318009E1,-6.493748E2,6.1329952E1,3.7130197E2,1.02216644E3,4.0340524E2,-2.9093458E1,1.9834766E2,-1.5363438E2,-5.8295483E2],"categories":[],"categories_nodes":[],"categories_segments":[],"categories_sizes":[],"default_left":[0,0,0,0,0,0,0,0,0,0,0,0,0,0,0,0,0,0,0,0,0,0,0,0,0,0,0,0,0,0,0,0,0,0,0,0,0,0,0,0,0,0,0],"id":4,"left_children":[1,3,-1,5,7,9,11,13,15,-1,17,19,21,-1,23,25,27,-1,-1,29,31,-1,-1,-1,33,35,37,39,41,-1,-1,-1,-1,-1,-1,-1,-1,-1,-1,-1,-1,-1,-1],"loss_changes":[1.4235886E10,5.9721984E9,0E0,2.818386E9,4.7744276E9,1.7365165E9,2.6306278E9,2.0973481E9,1.863613E9,0E0,4.017688E7,7.6723814E8,9.713882E8,0E0,3.1089725E9,2.8989568E8,2.795356E8,0E0,0E0,4.684667E8,1.8591898E8,0E0,0E0,0E0,1.6057709E9,2.8948144E7,1.1789696E8,1.906585E7,4.548195E7,0E0,0E0,0E0,0E0,0E0,0E0,0E0,0E0,0E0,0E0,0E0,0E0,0E0,0E0],"parents":[2147483647,0,0,1,1,3,3,4,4,5,5,6,6,7,7,8,8,10,10,11,11,12,12,14,14,15,15,16,16,19,19,20,20,24,24,25,25,26,26,27,27,28,28],"right_children":[2,4,-1,6,8,10,12,14,16,-1,18,20,22,-1,24,26,28,-1,-1,30,32,-1,-1,-1,34,36,38,40,42,-1,-1,-1,-1,-1,-1,-1,-1,-1,-1,-1,-1,-1,-1],"split_conditions":[1E0,4.4E-1,-1.9162975E3,4E0,2.6E1,2.5E1,2.7E1,2E-1,3.1E1,-1.3665082E3,4E0,3E-1,2E0,8.083403E2,2.4E0,5E-1,8E0,6.0874023E1,5.239672E2,3.1E1,6E0,-1.0682382E3,4.323835E2,-1.5556644E3,6.9E-1,1.1E1,3.5E0,2.5E0,3.2E1,8.190646E2,3.6322568E2,4.1723322E2,1.2858148E3,8.318009E1,-6.493748E2,6.1329952E1,3.7130197E2,1.02216644E3,4.0340524E2,-2.9093458E1,1.9834766E2,-1.5363438E2,-5.8295483E2],"split_indices":[10,7,0,4,6,6,4,8,5,0,1,7,1,0,8,7,1,0,0,5,4,0,0,0,7,1,8,8,5,0,0,0,0,0,0,0,0,0,0,0,0,0,0],"split_type":[0,0,0,0,0,0,0,0,0,0,0,0,0,0,0,0,0,0,0,0,0,0,0,0,0,0,0,0,0,0,0,0,0,0,0,0,0,0,0,0,0,0,0],"sum_hessian":[1.12E2,1.04E2,8E0,4.6E1,5.8E1,4E0,4.2E1,3.8E1,2E1,2E0,2E0,3.9E1,3E0,2E0,3.6E1,1.3E1,7E0,1E0,1E0,2.8E1,1.1E1,2E0,1E0,6E0,3E1,3E0,1E1,3E0,4E0,1.5E1,1.3E1,2E0,9E0,1.2E1,1.8E1,2E0,1E0,7E0,3E0,1E0,2E0,2E0,2E0],"tree_param":{"num_deleted":"0","num_feature":"11","num_nodes":"43","size_leaf_vector":"1"}},{"base_weights":[-5.657369E2,1.3133325E4,-1.0941385E4,3.1780105E3,2.176688E4,-3.0012143E4,1.3287825E4,1.3253045E4,-4.245443E3,2.594583E4,1.5077532E4,-3.484275E4,-1.4451342E4,5.6109395E3,1.6628934E4,2.2355891E2,1.8362426E4,1.6454141E2,-6.025891E3,1.6197593E4,1.4780892E3,8.029496E2,1.0703701E2,-4.390288E2,-1.7767008E3,-8.037469E2,4.0253906E0,1.7295813E2,4.739349E2,2.4529903E2,8.5038275E2,1.2746285E3,1.3673796E2,2.4466894E1,-2.8366114E1,-4.3552344E2,1.7859277E2,8.978701E2,1.8496378E2,-4.553229E1,8.6157715E1],"categories":[],"categories_nodes":[],"categories_segments":[],"categories_sizes":[],"default_left":[0,0,0,0,0,0,0,0,0,0,0,0,0,0,0,0,0,0,0,0,0,0,0,0,0,0,0,0,0,0,0,0,0,0,0,0,0,0,0,0,0],"id":5,"left_children":[1,3,5,7,9,11,13,15,17,19,21,23,25,27,29,-1,31,33,35,37,-1,-1,-1,-1,-1,-1,-1,-1,-1,-1,-1,-1,-1,-1,-1,-1,39,-1,-1,-1,-1],"loss_changes":[1.5494454E10,3.9704622E9,2.9047101E10,1.7764708E9,3.0766387E8,2.12736E9,6.2487654E8,3.6659725E8,1.1091597E8,1.465856E7,1.1798502E8,1.5640371E8,2.3723251E8,5.0437184E7,9.15456E5,0E0,5.988489E8,1.4661461E6,1.681198E8,6.553843E7,0E0,0E0,0E0,0E0,0E0,0E0,0E0,0E0,0E0,0E0,0E0,0E0,0E0,0E0,0E0,0E0,8.2987675E6,0E0,0E0,0E0,0E0],"parents":[2147483647,0,0,1,1,2,2,3,3,4,4,5,5,6,6,7,7,8,8,9,9,10,10,11,11,12,12,13,13,14,14,16,16,17,17,18,18,19,19,36,36],"right_children":[2,4,6,8,10,12,14,16,18,20,22,24,26,28,30,-1,32,34,36,38,-1,-1,-1,-1,-1,-1,-1,-1,-1,-1,-1,-1,-1,-1,-1,-1,40,-1,-1,-1,-1],"split_conditions":[2.02E3,2.018E3,2.023E3,6E0,4.3E0,4E0,2.024E3,2.017E3,8E0,2.7E-1,1.2E1,7E-1,1.2E1,1E0,2.6E1,2.2355891E2,3.8E0,2.6E1,1.1E1,4E0,1.4780892E3,8.029496E2,1.0703701E2,-4.390288E2,-1.7767008E3,-8.037469E2,4.0253906E0,1.7295813E2,4.739349E2,2.4529903E2,8.5038275E2,1.2746285E3,1.3673796E2,2.4466894E1,-2.8366114E1,-4.3552344E2,6.2E-1,8.978701E2,1.8496378E2,-4.553229E1,8.6157715E1],"split_indices":[0,0,0,1,8,8,0,0,1,7,1,8,1,2,6,0,8,6,1,3,0,0,0,0,0,0,0,0,0,0,0,0,0,0,0,0,7,0,0,0,0],"split_type":[0,0,0,0,0,0,0,0,0,0,0,0,0,0,0,0,0,0,0,0,0,0,0,0,0,0,0,0,0,0,0,0,0,0,0,0,0,0,0,0,0],"sum_hessian":[1.07E2,4.6E1,6.1E1,2.2E1,2.4E1,3.4E1,2.7E1,9E0,1.3E1,1.3E1,1.1E1,2.5E1,9E0,9E0,1.8E1,4E0,5E0,4E0,9E0,5E0,8E0,1E1,1E0,1E0,2.4E1,8E0,1E0,7E0,2E0,1E0,1.7E1,3E0,2E0,3E0,1E0,6E0,3E0,4E0,1E0,2E0,1E0],"tree_param":{"num_deleted":"0","num_feature":"11","num_nodes":"41","size_leaf_vector":"1"}},{"base_weights":[5.73749E2,3.489009E3,-1.6912643E3,1.196241E4,-2.9579653E3,2.2437805E3,2.0777662E4,-2.4464016E4,1.2656348E4,1.6242471E4,-1.5581793E3,1.4776128E4,2.5547854E4,-1.5029117E3,-1.6557625E4,4.942257E3,1.6307466E4,1.8973941E4,1.3291484E2,1.9006312E3,-4.861172E3,7.829801E2,1.0436114E2,7.7840924E2,3.0452162E4,-1.1491344E3,-9.669126E3,1.6709598E2,4.5813712E2,2.391665E2,8.300273E2,2.5867657E2,1.0924784E3,1.5190538E2,7.77668E0,-4.1035275E2,6.3060937E0,6.272641E2,1.755293E3,-5.536429E2,3.9248047E0],"categories":[],"categories_nodes":[],"categories_segments":[],"categories_sizes":[],"default_left":[0,0,0,0,0,0,0,0,0,0,0,0,0,0,0,0,0,0,0,0,0,0,0,0,0,0,0,0,0,0,0,0,0,0,0,0,0,0,0,0,0],"id":6,"left_children":[1,3,-1,5,7,9,11,13,15,17,19,21,23,-1,25,27,29,31,-1,33,35,-1,-1,-1,37,-1,39,-1,-1,-1,-1,-1,-1,-1,-1,-1,-1,-1,-1,-1,-1],"loss_changes":[1.1550179E10,5.8259313E9,0E0,3.8943002E9,2.079356E10,1.2494253E9,3.095849E8,6.52289E8,9.333463E8,1.3508531E8,2.263034E8,1.1304883E8,1.1323597E8,0E0,3.531451E8,5.718349E7,1.654272E6,4.569984E7,0E0,1.937754E7,1.679041E8,0E0,0E0,0E0,1.4291917E8,0E0,1.1033357E8,0E0,0E0,0E0,0E0,0E0,0E0,0E0,0E0,0E0,0E0,0E0,0E0,0E0,0E0],"parents":[2147483647,0,0,1,1,3,3,4,4,5,5,6,6,7,7,8,8,9,9,10,10,11,11,12,12,14,14,15,15,16,16,17,17,19,19,20,20,24,24,26,26],"right_children":[2,4,-1,6,8,10,12,14,16,18,20,22,24,-1,26,28,30,32,-1,34,36,-1,-1,-1,38,-1,40,-1,-1,-1,-1,-1,-1,-1,-1,-1,-1,-1,-1,-1,-1],"split_conditions":[1E0,2.02E3,-1.6912643E3,2.018E3,2.023E3,3.1E1,2.019E3,2.022E3,2.024E3,3E0,8E0,1.2E1,2.7E-1,-1.5029117E3,6E0,1E0,2.6E1,2.017E3,1.3291484E2,6E0,1.1E1,7.829801E2,1.0436114E2,7.7840924E2,5E0,-1.1491344E3,1.2E1,1.6709598E2,4.5813712E2,2.391665E2,8.300273E2,2.5867657E2,1.0924784E3,1.5190538E2,7.77668E0,-4.1035275E2,6.3060937E0,6.272641E2,1.755293E3,-5.536429E2,3.9248047E0],"split_indices":[10,0,0,0,0,5,0,0,0,1,1,1,7,0,1,2,6,0,0,1,1,0,0,0,4,0,1,0,0,0,0,0,0,0,0,0,0,0,0,0,0],"split_type":[0,0,0,0,0,0,0,0,0,0,0,0,0,0,0,0,0,0,0,0,0,0,0,0,0,0,0,0,0,0,0,0,0,0,0,0,0,0,0,0,0],"sum_hessian":[1.13E2,1.05E2,8E0,4.5E1,6E1,2.2E1,2.3E1,2.5E1,3.5E1,4E0,1.8E1,1.2E1,1.1E1,1.3E1,1.2E1,1.2E1,2.3E1,3E0,1E0,9E0,9E0,1.1E1,1E0,5E0,6E0,5E0,7E0,1E1,2E0,1E0,2.2E1,1E0,2E0,5E0,4E0,5E0,4E0,2E0,4E0,6E0,1E0],"tree_param":{"num_deleted":"0","num_feature":"11","num_nodes":"41","size_leaf_vector":"1"}},{"base_weights":[2.3705205E2,1.189658E4,-7.9647573E3,3.0969744E3,1.9467195E4,-2.814075E4,1.1841197E4,1.3507273E4,-3.8165735E3,1.4105578E4,2.3653346E4,-1.6403248E3,-1.4595456E4,4.911654E3,1.5082713E4,2.2637437E2,1.7242586E4,-5.4037417E3,1.21078125E2,7.4709344E2,1.0175215E2,1.1787117E4,2.811307E4,-1.0817278E3,-8.488049E3,1.6183946E2,4.4286588E2,9.240068E3,9.208423E2,2.0198643E4,6.155752E1,2.3257666E1,-7.985433E3,8.384619E1,-6.8711426E2,6.562551E2,1.608794E2,1.945246E3,9.015817E2,-4.9641177E2,3.8266602E0,6.5183746E2,2.8360376E3,1.29592E2,1.1976191E3,-4.2571335E2,-1.20310844E2,-6.0117775E1,-5.7291017E0,2.595312E2,-2.3194727E1],"categories":[],"categories_nodes":[],"categories_segments":[],"categories_sizes":[],"default_left":[0,0,0,0,0,0,0,0,0,0,0,0,0,0,0,0,0,0,0,0,0,0,0,0,0,0,0,0,0,0,0,0,0,0,0,0,0,0,0,0,0,0,0,0,0,0,0,0,0,0,0],"id":7,"left_children":[1,3,5,7,9,11,13,15,17,19,21,-1,23,25,27,-1,29,31,33,-1,-1,35,37,-1,39,-1,-1,41,-1,43,-1,-1,45,-1,47,-1,-1,-1,-1,-1,-1,-1,49,-1,-1,-1,-1,-1,-1,-1,-1],"loss_changes":[1.042271E10,2.937539E9,2.5907927E10,1.6349377E9,2.0502528E8,1.5435407E9,6.6717184E8,2.2381504E8,8.81503E7,1.0082099E8,3.0366925E8,0E0,2.4627123E8,5.063216E7,2.5839104E8,0E0,2.591168E8,1.552312E8,7.4393515E6,0E0,0E0,1.5098304E7,1.6885914E8,0E0,8.710192E7,0E0,0E0,2.0616794E8,0E0,2.6837632E8,0E0,0E0,1.66144E5,0E0,1.0422005E6,0E0,0E0,0E0,0E0,0E0,0E0,0E0,4.125777E7,0E0,0E0,0E0,0E0,0E0,0E0,0E0,0E0],"parents":[2147483647,0,0,1,1,2,2,3,3,4,4,5,5,6,6,7,7,8,8,9,9,10,10,12,12,13,13,14,14,16,16,17,17,18,18,21,21,22,22,24,24,27,27,29,29,32,32,34,34,42,42],"right_children":[2,4,6,8,10,12,14,16,18,20,22,-1,24,26,28,-1,30,32,34,-1,-1,36,38,-1,40,-1,-1,42,-1,44,-1,-1,46,-1,48,-1,-1,-1,-1,-1,-1,-1,50,-1,-1,-1,-1,-1,-1,-1,-1],"split_conditions":[2.02E3,2.018E3,2.023E3,6E0,2.019E3,2.022E3,2.024E3,2.017E3,1.1E1,1.2E1,2.7E-1,-1.6403248E3,6E0,1E0,2E0,2.2637437E2,4E0,8E0,8E0,7.4709344E2,1.0175215E2,4E0,3.2E1,-1.0817278E3,1.2E1,1.6183946E2,4.4286588E2,8E0,9.208423E2,3E0,6.155752E1,2.3257666E1,8.3E-1,8.384619E1,2.017E3,6.562551E2,1.608794E2,1.945246E3,9.015817E2,-4.9641177E2,3.8266602E0,6.5183746E2,2.025E3,1.29592E2,1.1976191E3,-4.2571335E2,-1.20310844E2,-6.0117775E1,-5.7291017E0,2.595312E2,-2.3194727E1],"split_indices":[0,0,0,1,0,0,0,0,1,1,7,0,1,2,3,0,3,1,4,0,0,3,5,0,1,0,0,1,0,4,0,0,7,0,0,0,0,0,0,0,0,0,0,0,0,0,0,0,0,0,0],"split_type":[0,0,0,0,0,0,0,0,0,0,0,0,0,0,0,0,0,0,0,0,0,0,0,0,0,0,0,0,0,0,0,0,0,0,0,0,0,0,0,0,0,0,0,0,0,0,0,0,0,0,0],"sum_hessian":[1.07E2,4.4E1,6.3E1,2.1E1,2.3E1,3.1E1,3.2E1,8E0,1.3E1,1.2E1,1.1E1,2.2E1,9E0,1.1E1,2.1E1,3E0,5E0,9E0,4E0,1.1E1,1E0,4E0,7E0,3E0,6E0,9E0,2E0,9E0,1.2E1,4E0,1E0,3E0,6E0,1E0,3E0,3E0,1E0,2E0,5E0,5E0,1E0,5E0,4E0,1E0,3E0,5E0,1E0,1E0,2E0,2E0,2E0],"tree_param":{"num_deleted":"0","num_feature":"11","num_nodes":"51","size_leaf_vector":"1"}},{"base_weights":[-7.3597296E2,2.2753804E3,-1.568909E3,1.1198819E4,-4.4179536E3,3.5414033E3,1.80364E4,-2.258627E4,1.058091E4,1.1239529E4,-3.8103293E3,2.6650799E4,1.4820169E4,-2.7468469E4,-1.5215559E4,4.773814E3,1.3267466E4,1.9969438E2,1.6611916E4,-5.406852E3,7.344287E2,2.925958E4,4.053918E2,1.5423049E4,9.9208305E1,-5.633549E2,-1.4547144E3,-1.056182E3,-8.882555E3,1.5799773E2,4.2810367E2,6.798837E2,1.5832706E2,1.2635215E2,9.4617413E2,3.6919434E0,-4.079752E2,8.175E1,-5.538086E0,4.4414316E2,1.6545432E3,1.5685742E2,7.9806055E2,-5.0864053E2,3.730957E0],"categories":[],"categories_nodes":[],"categories_segments":[],"categories_sizes":[],"default_left":[0,0,0,0,0,0,0,0,0,0,0,0,0,0,0,0,0,0,0,0,0,0,0,0,0,0,0,0,0,0,0,0,0,0,0,0,0,0,0,0,0,0,0,0,0],"id":8,"left_children":[1,3,-1,5,7,9,11,13,15,17,19,21,23,25,27,29,31,-1,33,35,37,39,-1,41,-1,-1,-1,-1,43,-1,-1,-1,-1,-1,-1,-1,-1,-1,-1,-1,-1,-1,-1,-1,-1],"loss_changes":[1.0313867E10,6.1416873E9,0E0,2.2398868E9,1.6316725E10,1.2879067E9,2.4226662E8,5.536543E8,4.5149952E8,3.6184422E8,9.104066E7,4.640512E6,1.1643059E8,6.72983E7,2.9877504E8,4.630883E7,3.0321408E7,0E0,1.475282E8,1.3638037E8,3.2257122E6,1.8334208E7,0E0,6.893978E7,0E0,0E0,0E0,0E0,9.321549E7,0E0,0E0,0E0,0E0,0E0,0E0,0E0,0E0,0E0,0E0,0E0,0E0,0E0,0E0,0E0,0E0],"parents":[2147483647,0,0,1,1,3,3,4,4,5,5,6,6,7,7,8,8,9,9,10,10,11,11,12,12,13,13,14,14,15,15,16,16,18,18,19,19,20,20,21,21,23,23,28,28],"right_children":[2,4,-1,6,8,10,12,14,16,18,20,22,24,26,28,30,32,-1,34,36,38,40,-1,42,-1,-1,-1,-1,44,-1,-1,-1,-1,-1,-1,-1,-1,-1,-1,-1,-1,-1,-1,-1,-1],"split_conditions":[1E0,2.02E3,-1.568909E3,2.018E3,2.023E3,6E0,3.1E1,2.022E3,2.024E3,2.017E3,1.1E1,3E0,1.2E1,2.5E-1,6E0,1E0,1.02E0,1.9969438E2,3E0,8E0,2.017E3,2.019E3,4.053918E2,1.4E-1,9.9208305E1,-5.633549E2,-1.4547144E3,-1.056182E3,1.2E1,1.5799773E2,4.2810367E2,6.798837E2,1.5832706E2,1.2635215E2,9.4617413E2,3.6919434E0,-4.079752E2,8.175E1,-5.538086E0,4.4414316E2,1.6545432E3,1.5685742E2,7.9806055E2,-5.0864053E2,3.730957E0],"split_indices":[10,0,0,0,0,1,5,0,0,0,1,1,1,7,1,2,7,0,4,1,0,0,0,7,0,0,0,0,1,0,0,0,0,0,0,0,0,0,0,0,0,0,0,0,0],"split_type":[0,0,0,0,0,0,0,0,0,0,0,0,0,0,0,0,0,0,0,0,0,0,0,0,0,0,0,0,0,0,0,0,0,0,0,0,0,0,0,0,0,0,0,0,0],"sum_hessian":[1.1E2,1.01E2,9E0,4.3E1,5.8E1,2.1E1,2.2E1,2.6E1,3.2E1,1E1,1.1E1,4E0,1.8E1,1.4E1,1.2E1,1.1E1,2.1E1,5E0,5E0,8E0,3E0,3E0,1E0,1.7E1,1E0,2E0,1.2E1,5E0,7E0,9E0,2E0,2E1,1E0,1E0,4E0,3E0,5E0,1E0,2E0,1E0,2E0,1E0,1.6E1,6E0,1E0],"tree_param":{"num_deleted":"0","num_feature":"11","num_nodes":"45","size_leaf_vector":"1"}},{"base_weights":[5.5189986E0,2.6024446E3,-1.4713458E3,-1.8479594E3,1.0470666E4,-8.223061E3,5.614995E3,1.1918289E4,-4.451794E3,1.578226E4,-1.35502E4,2.1226668E4,-7.380506E2,8.46285E2,9.126631E3,6.0060253E1,-3.3682645E2,-3.353884E2,1.032428E3,-1.0222095E4,-1.6196832E4,2.8169652E4,2.7527637E2,-8.1685786E3,5.606093E3,3.183575E3,1.3144272E4,2.2880864E2,-7.7680994E2,-1.1608094E3,-4.468842E2,1.5503966E3,3.4945627E2,-5.6199274E2,8.058594E-1,7.08969E2,1.1012804E1,2.780875E2,-2.5060704E2,7.983076E2,3.3603705E2],"categories":[],"categories_nodes":[],"categories_segments":[],"categories_sizes":[],"default_left":[0,0,0,0,0,0,0,0,0,0,0,0,0,0,0,0,0,0,0,0,0,0,0,0,0,0,0,0,0,0,0,0,0,0,0,0,0,0,0,0,0],"id":9,"left_children":[1,3,-1,5,7,9,11,13,15,17,19,21,23,-1,25,-1,-1,-1,-1,27,29,31,-1,33,35,37,39,-1,-1,-1,-1,-1,-1,-1,-1,-1,-1,-1,-1,-1,-1],"loss_changes":[8.4843044E9,3.5910595E9,0E0,3.1862605E9,8.5233536E8,4.8175217E9,3.0902986E9,3.208105E8,5.975436E7,9.046084E8,9.868288E7,8.2727526E8,1.1300215E9,0E0,5.3120397E8,0E0,0E0,0E0,0E0,1.3293288E9,5.5681946E8,1.4397952E8,0E0,2.766932E8,5.9714304E8,2.4227557E8,1.4646554E8,0E0,0E0,0E0,0E0,0E0,0E0,0E0,0E0,0E0,0E0,0E0,0E0,0E0,0E0],"parents":[2147483647,0,0,1,1,3,3,4,4,5,5,6,6,7,7,8,8,9,9,10,10,11,11,12,12,14,14,19,19,20,20,21,21,23,23,24,24,25,25,26,26],"right_children":[2,4,-1,6,8,10,12,14,16,18,20,22,24,-1,26,-1,-1,-1,-1,28,30,32,-1,34,36,38,40,-1,-1,-1,-1,-1,-1,-1,-1,-1,-1,-1,-1,-1,-1],"split_conditions":[1E0,2.6E1,-1.4713458E3,3.5E0,6.7E0,7E-1,2.5E1,6E0,6E0,3E0,2.5E1,3E0,5.6E0,8.46285E2,2E0,6.0060253E1,-3.3682645E2,-3.353884E2,1.032428E3,1.8E0,2.3E0,3.1E1,2.7527637E2,1.9E1,7.4E0,3.2E1,3.1E1,2.2880864E2,-7.7680994E2,-1.1608094E3,-4.468842E2,1.5503966E3,3.4945627E2,-5.6199274E2,8.058594E-1,7.08969E2,1.1012804E1,2.780875E2,-2.5060704E2,7.983076E2,3.3603705E2],"split_indices":[10,6,0,8,8,8,6,1,1,1,6,1,8,0,3,0,0,0,0,8,8,5,0,4,8,5,5,0,0,0,0,0,0,0,0,0,0,0,0,0,0],"split_type":[0,0,0,0,0,0,0,0,0,0,0,0,0,0,0,0,0,0,0,0,0,0,0,0,0,0,0,0,0,0,0,0,0,0,0,0,0,0,0,0,0],"sum_hessian":[1.09E2,1.01E2,8E0,6.5E1,3.6E1,3.5E1,3E1,3.3E1,3E0,6E0,2.9E1,8E0,2.2E1,1E1,2.3E1,1E0,2E0,1E0,5E0,1.5E1,1.4E1,5E0,3E0,1E1,1.2E1,1E1,1.3E1,4E0,1.1E1,6E0,8E0,4E0,1E0,7E0,3E0,4E0,8E0,8E0,2E0,8E0,5E0],"tree_param":{"num_deleted":"0","num_feature":"11","num_nodes":"41","size_leaf_vector":"1"}},{"base_weights":[-1.8120502E2,1.0509207E4,-7.615387E3,2.7927998E3,1.8109248E4,-2.3896482E4,9.847401E3,5.161481E2,9.658099E2,2.229029E4,1.2070681E4,-2.7910668E4,-1.0668532E4,3.4748748E3,1.274405E4,1.0392109E4,-1.4848516E3,6.727795E2,1.3065013E3,6.420651E2,8.984619E1,-3.2700372E2,-1.4240536E3,3.3624024E0,-5.934434E2,4.9589595E3,1.05648125E2,1.4011291E4,5.3797217E3,1.16311424E2,6.1526636E2,1.8235112E3,-3.4065479E3,2.8660196E2,4.6666016E1,1.444368E4,1.5570763E2,3.5951587E2,-4.6566505E1,1.3159438E2,1.7858154E1,2.4456787E1,-2.3120833E2,3.5745944E2,7.712983E2],"categories":[],"categories_nodes":[],"categories_segments":[],"categories_sizes":[],"default_left":[0,0,0,0,0,0,0,0,0,0,0,0,0,0,0,0,0,0,0,0,0,0,0,0,0,0,0,0,0,0,0,0,0,0,0,0,0,0,0,0,0,0,0,0,0],"id":10,"left_children":[1,3,5,7,9,11,13,15,-1,17,19,21,23,25,27,29,31,-1,-1,-1,-1,-1,-1,-1,-1,33,-1,35,37,-1,-1,39,41,-1,-1,43,-1,-1,-1,-1,-1,-1,-1,-1,-1],"loss_changes":[9.299069E9,2.7643853E9,1.9852935E10,9.304804E8,3.3688064E8,1.6138158E9,5.833208E8,4.6995203E8,0E0,8.940339E7,7.193126E7,1.4285824E8,1.2966362E8,1.377624E7,1.392681E8,3.3102144E7,1.3336525E8,0E0,0E0,0E0,0E0,0E0,0E0,0E0,0E0,1.0210872E7,0E0,4.4544256E7,6.383037E7,0E0,0E0,8.542874E6,6.3926784E7,0E0,0E0,1.869184E7,0E0,0E0,0E0,0E0,0E0,0E0,0E0,0E0,0E0],"parents":[2147483647,0,0,1,1,2,2,3,3,4,4,5,5,6,6,7,7,9,9,10,10,11,11,12,12,13,13,14,14,15,15,16,16,25,25,27,27,28,28,31,31,32,32,35,35],"right_children":[2,4,6,8,10,12,14,16,-1,18,20,22,24,26,28,30,32,-1,-1,-1,-1,-1,-1,-1,-1,34,-1,36,38,-1,-1,40,42,-1,-1,44,-1,-1,-1,-1,-1,-1,-1,-1,-1],"split_conditions":[2.02E3,2.018E3,2.023E3,2.3E1,4.3E0,4.9E0,2.024E3,3.1E1,9.658099E2,2.7E-1,6.9E-1,7E-1,3E1,5.6E0,1.7E1,3E0,2.5E0,6.727795E2,1.3065013E3,6.420651E2,8.984619E1,-3.2700372E2,-1.4240536E3,3.3624024E0,-5.934434E2,1.3E1,1.05648125E2,5E0,2.025E3,1.16311424E2,6.1526636E2,3E-1,2.5E1,2.8660196E2,4.6666016E1,1.6E-1,1.5570763E2,3.5951587E2,-4.6566505E1,1.3159438E2,1.7858154E1,2.4456787E1,-2.3120833E2,3.5745944E2,7.712983E2],"split_indices":[0,0,0,4,8,8,0,5,0,7,7,8,5,8,4,4,8,0,0,0,0,0,0,0,0,4,0,8,0,0,0,7,6,0,0,7,0,0,0,0,0,0,0,0,0],"split_type":[0,0,0,0,0,0,0,0,0,0,0,0,0,0,0,0,0,0,0,0,0,0,0,0,0,0,0,0,0,0,0,0,0,0,0,0,0,0,0,0,0,0,0,0,0],"sum_hessian":[1.15E2,4.7E1,6.8E1,2.4E1,2.3E1,3.5E1,3.3E1,2.2E1,2E0,1.2E1,1.1E1,2.6E1,9E0,1.1E1,2.2E1,3E0,1.9E1,5E0,7E0,1E1,1E0,1E0,2.5E1,1E0,8E0,4E0,7E0,1.8E1,4E0,1E0,2E0,7E0,1.2E1,3E0,1E0,1.7E1,1E0,3E0,1E0,4E0,3E0,3E0,9E0,3E0,1.4E1],"tree_param":{"num_deleted":"0","num_feature":"11","num_nodes":"45","size_leaf_vector":"1"}},{"base_weights":[-1.8757089E2,1.006896E4,-6.920404E3,2.9017944E3,1.7780531E4,-2.262868E4,9.949599E3,1.0101763E4,-2.962595E3,1.1803175E4,2.2141479E4,-1.3386156E3,-1.3556972E4,3.9817751E3,1.3170175E4,1.7876088E2,1.4944682E4,4.815289E2,-4.3883975E3,6.316546E2,8.76E1,4.8334277E2,2.3839521E4,-9.443755E2,-7.8644463E3,1.293621E2,3.8839023E2,9.442798E3,1.5700264E4,1.7484064E4,5.619414E1,4.144878E1,-2.2706446E1,-6.8566904E3,1.0282148E3,1.224706E4,2.7594576E4,-4.503336E2,3.2783203E0,6.278406E2,8.540703E2,1.7022334E2,1.6589396E4,1.1340362E2,1.0360522E3,-3.6992316E2,-9.015137E1,9.851504E1,2.8709636E0,7.2953986E2,1.303962E2,1.764578E3,7.4615967E2,1.8505606E2,-6.6432686E1,4.377347E2,9.3482275E2],"categories":[],"categories_nodes":[],"categories_segments":[],"categories_sizes":[],"default_left":[0,0,0,0,0,0,0,0,0,0,0,0,0,0,0,0,0,0,0,0,0,0,0,0,0,0,0,0,0,0,0,0,0,0,0,0,0,0,0,0,0,0,0,0,0,0,0,0,0,0,0,0,0,0,0,0,0],"id":11,"left_children":[1,3,5,7,9,11,13,15,17,19,21,-1,23,25,27,-1,29,31,33,-1,-1,-1,35,-1,37,-1,-1,39,41,43,-1,-1,-1,45,47,49,51,-1,-1,-1,53,-1,55,-1,-1,-1,-1,-1,-1,-1,-1,-1,-1,-1,-1,-1,-1],"loss_changes":[7.6657874E9,2.38029E9,1.7980056E10,1.0432895E9,2.8606566E8,9.526907E8,5.8181376E8,2.942524E8,7.086209E7,6.962483E7,2.553344E6,0E0,2.459351E8,4.853947E7,4.978816E7,0E0,1.9092774E8,2.0019176E6,1.4074802E8,0E0,0E0,0E0,5.382093E7,0E0,7.305341E7,0E0,0E0,2.8347526E8,6.378035E7,1.9927245E8,0E0,0E0,0E0,5.82592E6,3.5451585E6,5.231475E7,5.8525184E7,0E0,0E0,0E0,2.9774812E7,0E0,1.400064E6,0E0,0E0,0E0,0E0,0E0,0E0,0E0,0E0,0E0,0E0,0E0,0E0,0E0,0E0],"parents":[2147483647,0,0,1,1,2,2,3,3,4,4,5,5,6,6,7,7,8,8,9,9,10,10,12,12,13,13,14,14,16,16,17,17,18,18,22,22,24,24,27,27,28,28,29,29,33,33,34,34,35,35,36,36,40,40,42,42],"right_children":[2,4,6,8,10,12,14,16,18,20,22,-1,24,26,28,-1,30,32,34,-1,-1,-1,36,-1,38,-1,-1,40,42,44,-1,-1,-1,46,48,50,52,-1,-1,-1,54,-1,56,-1,-1,-1,-1,-1,-1,-1,-1,-1,-1,-1,-1,-1,-1],"split_conditions":[2.02E3,2.018E3,2.023E3,6E0,2.019E3,2.022E3,2.024E3,2.017E3,8E0,1.1E1,5E0,-1.3386156E3,6E0,1E0,2E0,1.7876088E2,4E0,6E0,1.1E1,6.316546E2,8.76E1,4.8334277E2,2.1E-1,-9.443755E2,1.2E1,1.293621E2,3.8839023E2,8E0,1E-1,3E0,5.619414E1,4.144878E1,-2.2706446E1,8.3E-1,2.017E3,3E0,3.2E1,-4.503336E2,3.2783203E0,6.278406E2,2.025E3,1.7022334E2,5E0,1.1340362E2,1.0360522E3,-3.6992316E2,-9.015137E1,9.851504E1,2.8709636E0,7.2953986E2,1.303962E2,1.764578E3,7.4615967E2,1.8505606E2,-6.6432686E1,4.377347E2,9.3482275E2],"split_indices":[0,0,0,1,0,0,0,0,1,1,4,0,1,2,3,0,3,4,1,0,0,0,7,0,1,0,0,1,7,4,0,0,0,7,0,3,5,0,0,0,0,0,4,0,0,0,0,0,0,0,0,0,0,0,0,0,0],"split_type":[0,0,0,0,0,0,0,0,0,0,0,0,0,0,0,0,0,0,0,0,0,0,0,0,0,0,0,0,0,0,0,0,0,0,0,0,0,0,0,0,0,0,0,0,0,0,0,0,0,0,0,0,0,0,0,0,0],"sum_hessian":[1.09E2,4.3E1,6.6E1,2.3E1,2E1,3.4E1,3.2E1,1E1,1.3E1,1E1,1E1,2.2E1,1.2E1,1.2E1,2E1,5E0,5E0,4E0,9E0,9E0,1E0,2E0,8E0,5E0,7E0,1E1,2E0,1E1,1E1,4E0,1E0,3E0,1E0,6E0,3E0,3E0,5E0,6E0,1E0,7E0,3E0,1E0,9E0,1E0,3E0,5E0,1E0,1E0,2E0,2E0,1E0,2E0,3E0,1E0,2E0,3E0,6E0],"tree_param":{"num_deleted":"0","num_feature":"11","num_nodes":"57","size_leaf_vector":"1"}},{"base_weights":[3.099757E2,9.985925E3,-6.244666E3,3.2449766E3,1.6579373E4,-2.2072998E4,9.772898E3,9.72253E3,-2.4856443E3,2.0529096E4,1.0763369E4,-2.5189084E4,-1.0964648E4,2.7157703E3,1.2306164E4,1.7131247E2,1.439839E4,4.6120078E2,-3.8465977E3,6.192038E2,1.2288907E3,5.749033E2,8.5409966E1,-2.853632E2,-1.2881512E3,-6.175606E2,3.1963868E0,8.862927E1,2.8011084E2,1.2596221E4,1.4087158E2,9.972004E2,1.1023854E2,3.9894436E1,-2.213877E1,-2.7511154E2,-4.0149805E2,6.2278994E3,1.3240073E4,1.3820605E1,-3.5980274E1,-6.421823E1,7.191173E2,1.7519034E2,6.784049E2],"categories":[],"categories_nodes":[],"categories_segments":[],"categories_sizes":[],"default_left":[0,0,0,0,0,0,0,0,0,0,0,0,0,0,0,0,0,0,0,0,0,0,0,0,0,0,0,0,0,0,0,0,0,0,0,0,0,0,0,0,0,0,0,0,0],"id":12,"left_children":[1,3,5,7,9,11,13,15,17,19,21,23,25,27,29,-1,31,33,35,-1,-1,-1,-1,-1,-1,-1,-1,-1,-1,37,-1,-1,-1,-1,-1,-1,39,41,43,-1,-1,-1,-1,-1,-1],"loss_changes":[6.9119754E9,1.9018286E9,1.6695252E10,8.7793606E8,2.8441293E8,8.66091E8,5.565394E8,2.7451334E8,5.39108E7,9.134899E7,5.353984E7,1.3249843E8,1.3841587E8,1.729412E7,3.0565376E7,0E0,3.6175488E8,1.8750745E6,4.9125264E7,0E0,0E0,0E0,0E0,0E0,0E0,0E0,0E0,0E0,0E0,1.1848448E7,0E0,0E0,0E0,0E0,0E0,0E0,1.0615008E6,2.6350558E8,1.6334592E7,0E0,0E0,0E0,0E0,0E0,0E0],"parents":[2147483647,0,0,1,1,2,2,3,3,4,4,5,5,6,6,7,7,8,8,9,9,10,10,11,11,12,12,13,13,14,14,16,16,17,17,18,18,29,29,36,36,37,37,38,38],"right_children":[2,4,6,8,10,12,14,16,18,20,22,24,26,28,30,-1,32,34,36,-1,-1,-1,-1,-1,-1,-1,-1,-1,-1,38,-1,-1,-1,-1,-1,-1,40,42,44,-1,-1,-1,-1,-1,-1],"split_conditions":[2.02E3,2.018E3,2.023E3,6E0,4.3E0,4E0,2.024E3,2.017E3,8E0,2.7E-1,1.2E1,7E-1,1.2E1,1.2E1,5.2E0,1.7131247E2,3.8E0,2.6E1,1.1E1,6.192038E2,1.2288907E3,5.749033E2,8.5409966E1,-2.853632E2,-1.2881512E3,-6.175606E2,3.1963868E0,8.862927E1,2.8011084E2,1.5E0,1.4087158E2,9.972004E2,1.1023854E2,3.9894436E1,-2.213877E1,-2.7511154E2,1.2E1,1.1E1,2.6E1,1.3820605E1,-3.5980274E1,-6.421823E1,7.191173E2,1.7519034E2,6.784049E2],"split_indices":[0,0,0,1,8,8,0,0,1,7,1,8,1,1,8,0,8,6,1,0,0,0,0,0,0,0,0,0,0,8,0,0,0,0,0,0,1,1,6,0,0,0,0,0,0],"split_type":[0,0,0,0,0,0,0,0,0,0,0,0,0,0,0,0,0,0,0,0,0,0,0,0,0,0,0,0,0,0,0,0,0,0,0,0,0,0,0,0,0,0,0,0,0],"sum_hessian":[1.07E2,4.3E1,6.4E1,2.2E1,2.1E1,3.2E1,3.2E1,1E1,1.2E1,1.1E1,1E1,2.4E1,8E0,9E0,2.3E1,5E0,5E0,4E0,8E0,5E0,6E0,9E0,1E0,1E0,2.3E1,7E0,1E0,8E0,1E0,2.2E1,1E0,3E0,2E0,3E0,1E0,5E0,3E0,3E0,1.9E1,1E0,2E0,2E0,1E0,1E0,1.8E1],"tree_param":{"num_deleted":"0","num_feature":"11","num_nodes":"45","size_leaf_vector":"1"}},{"base_weights":[1.00392535E3,3.3344075E3,-1.2889347E3,9.609248E3,-1.5080033E3,2.9168735E3,1.5883829E4,-1.7682086E4,9.316606E3,9.973611E3,-2.3320017E3,1.0938692E4,1.9505312E4,3.116504E0,-1.8456291E4,3.4689434E3,1.1750821E4,1.6557855E2,1.3863044E4,-4.1097607E3,3.286607E1,5.815151E2,8.327471E1,6.070243E2,2.4846727E4,-2.1159348E4,-1.3583926E4,1.9469426E3,3.6929825E2,8.302721E3,1.3866991E4,8.109693E2,5.2033302E1,8.958008E0,-3.3594727E2,7.3238625E1,-7.036285E1,1.6647958E3,6.1490765E2,-4.1960962E2,-1.1358861E3,-8.681183E2,-3.7707498E2,3.760625E1,1.07581566E2,5.784788E2,7.076035E1,3.0267355E2,7.7238184E2],"categories":[],"categories_nodes":[],"categories_segments":[],"categories_sizes":[],"default_left":[0,0,0,0,0,0,0,0,0,0,0,0,0,0,0,0,0,0,0,0,0,0,0,0,0,0,0,0,0,0,0,0,0,0,0,0,0,0,0,0,0,0,0,0,0,0,0,0,0],"id":13,"left_children":[1,3,-1,5,7,9,11,13,15,17,19,21,23,-1,25,27,29,-1,31,33,35,-1,-1,-1,37,39,41,43,-1,45,47,-1,-1,-1,-1,-1,-1,-1,-1,-1,-1,-1,-1,-1,-1,-1,-1,-1,-1],"loss_changes":[7.014179E9,3.1441823E9,0E0,1.8433019E9,1.0494346E10,8.75177E8,1.9853824E8,3.308585E8,4.7167795E8,2.132071E8,5.899339E7,5.759091E7,1.7041203E8,0E0,1.5489536E7,5.7160464E7,6.72855E7,0E0,1.644046E8,9.072846E7,1.6496159E7,0E0,0E0,0E0,2.266729E8,6.799667E7,1.2020198E8,8.27364E5,0E0,2.5363277E8,7.939379E7,0E0,0E0,0E0,0E0,0E0,0E0,0E0,0E0,0E0,0E0,0E0,0E0,0E0,0E0,0E0,0E0,0E0,0E0],"parents":[2147483647,0,0,1,1,3,3,4,4,5,5,6,6,7,7,8,8,9,9,10,10,11,11,12,12,14,14,15,15,16,16,18,18,19,19,20,20,24,24,25,25,26,26,27,27,29,29,30,30],"right_children":[2,4,-1,6,8,10,12,14,16,18,20,22,24,-1,26,28,30,-1,32,34,36,-1,-1,-1,38,40,42,44,-1,46,48,-1,-1,-1,-1,-1,-1,-1,-1,-1,-1,-1,-1,-1,-1,-1,-1,-1,-1],"split_conditions":[1E0,2.02E3,-1.2889347E3,2.018E3,2.023E3,6E0,2.019E3,3E1,2.024E3,2.017E3,2E0,1.2E1,1E1,3.116504E0,2.022E3,1E0,2E0,1.6557855E2,4E0,8E0,1E0,5.815151E2,8.327471E1,6.070243E2,1.5E1,2.021E3,6E0,1E1,3.6929825E2,8E0,1.6E-1,8.109693E2,5.2033302E1,8.958008E0,-3.3594727E2,7.3238625E1,-7.036285E1,1.6647958E3,6.1490765E2,-4.1960962E2,-1.1358861E3,-8.681183E2,-3.7707498E2,3.760625E1,1.07581566E2,5.784788E2,7.076035E1,3.0267355E2,7.7238184E2],"split_indices":[10,0,0,0,0,1,0,5,0,0,3,1,4,0,0,2,3,0,3,1,2,0,0,0,4,0,1,4,0,1,7,0,0,0,0,0,0,0,0,0,0,0,0,0,0,0,0,0,0],"split_type":[0,0,0,0,0,0,0,0,0,0,0,0,0,0,0,0,0,0,0,0,0,0,0,0,0,0,0,0,0,0,0,0,0,0,0,0,0,0,0,0,0,0,0,0,0,0,0,0,0],"sum_hessian":[1.1E2,1.02E2,8E0,4.4E1,5.8E1,2.2E1,2.2E1,2.3E1,3.5E1,9E0,1.3E1,1.1E1,1.1E1,1E0,2.2E1,1.1E1,2.4E1,4E0,5E0,7E0,6E0,1E1,1E0,6E0,5E0,1.2E1,1E1,9E0,2E0,1.1E1,1.3E1,4E0,1E0,3E0,4E0,3E0,3E0,2E0,3E0,2E0,1E1,5E0,5E0,2E0,7E0,7E0,4E0,3E0,1E1],"tree_param":{"num_deleted":"0","num_feature":"11","num_nodes":"49","size_leaf_vector":"1"}},{"base_weights":[-3.0237527E2,1.7466517E3,-1.1745542E3,-1.9547065E3,7.7758896E3,2.1859548E3,-1.0537297E4,9.228265E3,-3.6197272E2,-5.5169272E3,5.2469395E3,-1.3798132E4,-8.551888E1,5.8224795E3,1.1383706E4,-1.0581124E4,8.522797E3,1.2878925E4,3.3566116E3,-5.735983E3,-1.6007517E4,-1.8594815E2,1.3849625E3,-2.1633372E3,9.649063E3,1.4365E4,7.9506533E3,-8.2959125E2,-6.2602966E1,3.354844E1,5.4582086E2,7.006138E2,1.803044E2,-3.2733383E2,3.9354895E2,7.8288284E1,-5.5628687E2,-9.546562E2,-2.531512E2,8.504087E1,3.0385742E0,-5.4739847E0,-3.1081564E2,7.4310223E2,2.2735338E2,2.1144669E2,7.510674E2,9.561089E1,4.875498E2],"categories":[],"categories_nodes":[],"categories_segments":[],"categories_sizes":[],"default_left":[0,0,0,0,0,0,0,0,0,0,0,0,0,0,0,0,0,0,0,0,0,0,0,0,0,0,0,0,0,0,0,0,0,0,0,0,0,0,0,0,0,0,0,0,0,0,0,0,0],"id":14,"left_children":[1,3,-1,5,7,9,11,13,-1,15,17,19,21,23,25,27,29,31,33,35,37,-1,39,41,43,45,47,-1,-1,-1,-1,-1,-1,-1,-1,-1,-1,-1,-1,-1,-1,-1,-1,-1,-1,-1,-1,-1,-1],"loss_changes":[5.2676035E9,2.291469E9,0E0,2.2974405E9,9.173161E8,1.06639674E9,7.1453184E8,1.9799347E8,0E0,1.01447994E9,4.184331E8,1.9317914E8,3.7208096E7,5.098085E8,1.0072269E8,5.399681E8,6.785258E7,1.252672E7,1.2586199E9,2.1419347E8,3.08576E8,0E0,1.987899E6,4.926484E7,2.24984E8,3.003392E6,1.1180909E8,0E0,0E0,0E0,0E0,0E0,0E0,0E0,0E0,0E0,0E0,0E0,0E0,0E0,0E0,0E0,0E0,0E0,0E0,0E0,0E0,0E0,0E0],"parents":[2147483647,0,0,1,1,3,3,4,4,5,5,6,6,7,7,9,9,10,10,11,11,12,12,13,13,14,14,15,15,16,16,17,17,18,18,19,19,20,20,22,22,23,23,24,24,25,25,26,26],"right_children":[2,4,-1,6,8,10,12,14,-1,16,18,20,22,24,26,28,30,32,34,36,38,-1,40,42,44,46,48,-1,-1,-1,-1,-1,-1,-1,-1,-1,-1,-1,-1,-1,-1,-1,-1,-1,-1,-1,-1,-1,-1],"split_conditions":[1E0,2.6E1,-1.1745542E3,6.9E-1,7.2E0,6E0,5.6E0,2E0,-3.6197272E2,5.1E0,1E0,8E0,5E0,2.7E0,2.1E0,5.3E-1,3.1E1,7.4E0,2E0,8.2E-1,1.9E1,-1.8594815E2,4E0,2.5E0,3.4E0,1.6E-1,2.9E-1,-8.2959125E2,-6.2602966E1,3.354844E1,5.4582086E2,7.006138E2,1.803044E2,-3.2733383E2,3.9354895E2,7.8288284E1,-5.5628687E2,-9.546562E2,-2.531512E2,8.504087E1,3.0385742E0,-5.4739847E0,-3.1081564E2,7.4310223E2,2.2735338E2,2.1144669E2,7.510674E2,9.561089E1,4.875498E2],"split_indices":[10,6,0,7,8,4,8,3,0,8,3,4,4,8,8,7,5,8,3,7,4,0,3,8,8,7,7,0,0,0,0,0,0,0,0,0,0,0,0,0,0,0,0,0,0,0,0,0,0],"split_type":[0,0,0,0,0,0,0,0,0,0,0,0,0,0,0,0,0,0,0,0,0,0,0,0,0,0,0,0,0,0,0,0,0,0,0,0,0,0,0,0,0,0,0,0,0,0,0,0,0],"sum_hessian":[1.09E2,1.01E2,8E0,6.3E1,3.8E1,4.3E1,2E1,3.5E1,3E0,1.2E1,3.1E1,1.5E1,5E0,1.5E1,2E1,9E0,3E0,5E0,2.6E1,4E0,1.1E1,1E0,4E0,5E0,1E1,9E0,1.1E1,5E0,4E0,1E0,2E0,4E0,1E0,8E0,1.8E1,2E0,2E0,8E0,3E0,3E0,1E0,4E0,1E0,4E0,6E0,1E0,8E0,3E0,8E0],"tree_param":{"num_deleted":"0","num_feature":"11","num_nodes":"49","size_leaf_vector":"1"}},{"base_weights":[-6.4624243E2,8.046356E3,-6.179983E3,2.370196E3,1.4150235E4,-1.9143133E4,8.541731E3,9.239884E3,-2.3676091E3,2.2411242E4,1.0888161E4,-2.1981668E4,-7.86973E3,1.0657823E4,3.340654E3,2.9369414E3,1.2952355E4,5.855453E2,-3.4947148E3,4.6434848E2,1.4032551E3,1.1371004E4,7.9066895E1,-2.7757764E2,-1.1185094E3,-4.43413E2,2.9625976E0,7.3958755E3,1.3031619E4,1.811444E3,3.4073666E2,3.2518594E3,4.193174E1,9.0642816E2,8.666472E1,4.7432766E1,-2.1672363E1,-5.829399E3,4.7278595E2,5.9492755E2,8.6444824E1,1.0335525E4,1.213261E3,2.8629004E2,7.415346E2,4.3770157E1,1.192598E2,4.944873E1,1.8382481E2,-3.2379672E2,-4.875469E1,-3.3125E1,7.252383E1,3.1006235E2,6.459746E2,1.65359E2,-6.425391E1],"categories":[],"categories_nodes":[],"categories_segments":[],"categories_sizes":[],"default_left":[0,0,0,0,0,0,0,0,0,0,0,0,0,0,0,0,0,0,0,0,0,0,0,0,0,0,0,0,0,0,0,0,0,0,0,0,0,0,0,0,0,0,0,0,0,0,0,0,0,0,0,0,0,0,0,0,0],"id":15,"left_children":[1,3,5,7,9,11,13,15,17,19,21,23,25,27,29,31,33,35,37,-1,-1,39,-1,-1,-1,-1,-1,41,43,45,-1,47,-1,-1,-1,-1,-1,49,51,-1,-1,53,55,-1,-1,-1,-1,-1,-1,-1,-1,-1,-1,-1,-1,-1,-1],"loss_changes":[5.437215E9,1.4909115E9,1.3331462E10,8.0301024E8,3.2189133E8,1.0110085E9,3.2759245E8,1.9595462E8,5.197409E7,1.103744E8,5.841216E7,6.093005E7,7.178138E7,8.171315E7,4.6094056E7,5.76848E5,3.1701088E8,2.2612235E6,1.0464752E8,0E0,0E0,6.081523E7,0E0,0E0,0E0,0E0,0E0,2.05557E8,7.280691E7,2.745492E6,0E0,2.07652E5,0E0,0E0,0E0,0E0,0E0,1.565472E7,6.510732E6,0E0,0E0,5.345728E6,3.0406578E7,0E0,0E0,0E0,0E0,0E0,0E0,0E0,0E0,0E0,0E0,0E0,0E0,0E0,0E0],"parents":[2147483647,0,0,1,1,2,2,3,3,4,4,5,5,6,6,7,7,8,8,9,9,10,10,11,11,12,12,13,13,14,14,15,15,16,16,17,17,18,18,21,21,27,27,28,28,29,29,31,31,37,37,38,38,41,41,42,42],"right_children":[2,4,6,8,10,12,14,16,18,20,22,24,26,28,30,32,34,36,38,-1,-1,40,-1,-1,-1,-1,-1,42,44,46,-1,48,-1,-1,-1,-1,-1,50,52,-1,-1,54,56,-1,-1,-1,-1,-1,-1,-1,-1,-1,-1,-1,-1,-1,-1],"split_conditions":[2.02E3,2.018E3,2.023E3,6E0,3.1E1,5.1E0,5E0,2.017E3,8E0,3.3E0,1.2E1,7E-1,1.2E1,2E0,1E0,5E0,3.8E0,2.6E1,1.1E1,4.6434848E2,1.4032551E3,4E0,7.9066895E1,-2.7757764E2,-1.1185094E3,-4.43413E2,2.9625976E0,8E0,1.6E-1,2E0,3.4073666E2,2E0,4.193174E1,9.0642816E2,8.666472E1,4.7432766E1,-2.1672363E1,8.3E-1,6.2E-1,5.9492755E2,8.6444824E1,2.025E3,2.025E3,2.8629004E2,7.415346E2,4.3770157E1,1.192598E2,4.944873E1,1.8382481E2,-3.2379672E2,-4.875469E1,-3.3125E1,7.252383E1,3.1006235E2,6.459746E2,1.65359E2,-6.425391E1],"split_indices":[0,0,0,1,5,8,8,0,1,8,1,8,1,3,2,1,8,6,1,0,0,3,0,0,0,0,0,1,7,3,0,1,0,0,0,0,0,7,7,0,0,0,0,0,0,0,0,0,0,0,0,0,0,0,0,0,0],"split_type":[0,0,0,0,0,0,0,0,0,0,0,0,0,0,0,0,0,0,0,0,0,0,0,0,0,0,0,0,0,0,0,0,0,0,0,0,0,0,0,0,0,0,0,0,0,0,0,0,0,0,0,0,0,0,0,0,0],"sum_hessian":[1.11E2,4.3E1,6.8E1,2.3E1,2E1,3.6E1,3.2E1,9E0,1.4E1,4E0,1.6E1,2.8E1,8E0,2.2E1,1E1,4E0,5E0,4E0,1E1,2E0,2E0,1.5E1,1E0,1E0,2.7E1,7E0,1E0,1.1E1,1.1E1,8E0,2E0,3E0,1E0,3E0,2E0,3E0,1E0,6E0,4E0,1.4E1,1E0,7E0,4E0,3E0,8E0,4E0,4E0,1E0,2E0,5E0,1E0,2E0,2E0,4E0,3E0,2E0,2E0],"tree_param":{"num_deleted":"0","num_feature":"11","num_nodes":"57","size_leaf_vector":"1"}},{"base_weights":[2.633251E2,8.600878E3,-5.754964E3,2.5483276E3,1.4537595E4,-1.8019262E4,7.518785E3,8.313393E3,-2.5258293E3,9.582297E3,1.8621773E4,-2.0919893E4,-1.1441552E4,3.4529126E3,1.0860617E4,2.7709668E3,1.2470253E4,-3.7147505E3,1.0779307E3,5.0865436E2,7.709023E1,9.520135E3,2.2462691E4,-3.0454913E2,-1.0678395E3,-6.8647687E2,-3.4331963E3,4.855855E3,1.1558561E3,1.0194701E2,1.1975218E4,1.4990465E2,4.08834E1,1.4654486E4,3.872705E1,4.976377E2,-5.591151E3,9.010537E1,2.3583594E2,5.528666E2,8.428369E1,1.5834935E3,6.2229236E2,-2.3080547E2,2.8885744E0,1.9700687E3,3.3852353E2,2.3635437E3,-6.211211E1,7.9865806E3,7.981152E2,8.693682E1,8.72437E2,4.726289E1,-2.1130568E1,-3.1030518E2,-4.753584E1,2.633496E0,1.5054199E1,4.5188087E1,1.5588243E2,3.7114975E1,1.5984702E2,4.2352768E2,1.0286993E2],"categories":[],"categories_nodes":[],"categories_segments":[],"categories_sizes":[],"default_left":[0,0,0,0,0,0,0,0,0,0,0,0,0,0,0,0,0,0,0,0,0,0,0,0,0,0,0,0,0,0,0,0,0,0,0,0,0,0,0,0,0,0,0,0,0,0,0,0,0,0,0,0,0,0,0,0,0,0,0,0,0,0,0,0,0],"id":16,"left_children":[1,3,5,7,9,11,13,15,17,19,21,23,25,27,29,31,33,35,37,-1,-1,39,41,-1,-1,-1,43,45,47,-1,49,-1,-1,51,-1,53,55,-1,57,-1,-1,-1,-1,-1,-1,59,-1,61,-1,63,-1,-1,-1,-1,-1,-1,-1,-1,-1,-1,-1,-1,-1,-1,-1],"loss_changes":[5.267989E9,1.5439734E9,1.0065869E10,6.938136E8,2.6680371E8,3.711877E8,3.7012314E8,2.1887533E8,5.9703856E7,4.131789E7,1.7069722E8,5.968896E6,1.7273997E8,4.2726896E7,1.329056E8,2.10428E5,1.4192653E8,8.182363E7,2.0143005E6,0E0,0E0,4.157648E7,2.5142989E8,0E0,0E0,0E0,1.6784724E7,3.638824E7,2.320917E7,0E0,9.51584E7,0E0,0E0,1.5011072E8,0E0,2.0471646E6,1.4075296E7,0E0,1.9995594E4,0E0,0E0,0E0,0E0,0E0,0E0,3.30075E6,0E0,4.382608E6,0E0,8.398784E6,0E0,0E0,0E0,0E0,0E0,0E0,0E0,0E0,0E0,0E0,0E0,0E0,0E0,0E0,0E0],"parents":[2147483647,0,0,1,1,2,2,3,3,4,4,5,5,6,6,7,7,8,8,9,9,10,10,11,11,12,12,13,13,14,14,15,15,16,16,17,17,18,18,21,21,22,22,26,26,27,27,28,28,30,30,33,33,35,35,36,36,38,38,45,45,47,47,49,49],"right_children":[2,4,6,8,10,12,14,16,18,20,22,24,26,28,30,32,34,36,38,-1,-1,40,42,-1,-1,-1,44,46,48,-1,50,-1,-1,52,-1,54,56,-1,58,-1,-1,-1,-1,-1,-1,60,-1,62,-1,64,-1,-1,-1,-1,-1,-1,-1,-1,-1,-1,-1,-1,-1,-1,-1],"split_conditions":[2.02E3,2.018E3,2.023E3,6E0,2.019E3,2.022E3,2E0,2.017E3,1.1E1,1.1E1,2.7E-1,2E0,1E1,8E0,2.6E1,5E0,4E0,8E0,2.017E3,5.0865436E2,7.709023E1,4E0,3.2E1,-3.0454913E2,-1.0678395E3,-6.8647687E2,1.2E1,2.024E3,2.025E3,1.0194701E2,1.3E1,1.4990465E2,4.08834E1,3E0,3.872705E1,6E0,8.3E-1,9.010537E1,1.2E1,5.528666E2,8.428369E1,1.5834935E3,6.2229236E2,-2.3080547E2,2.8885744E0,6E0,3.3852353E2,2.024E3,-6.211211E1,5.4E-1,7.981152E2,8.693682E1,8.72437E2,4.726289E1,-2.1130568E1,-3.1030518E2,-4.753584E1,2.633496E0,1.5054199E1,4.5188087E1,1.5588243E2,3.7114975E1,1.5984702E2,4.2352768E2,1.0286993E2],"split_indices":[0,0,0,1,0,0,3,0,1,1,7,1,1,1,6,1,3,1,0,0,0,3,5,0,0,0,1,0,0,0,4,0,0,4,0,4,7,0,1,0,0,0,0,0,0,1,0,0,0,7,0,0,0,0,0,0,0,0,0,0,0,0,0,0,0],"split_type":[0,0,0,0,0,0,0,0,0,0,0,0,0,0,0,0,0,0,0,0,0,0,0,0,0,0,0,0,0,0,0,0,0,0,0,0,0,0,0,0,0,0,0,0,0,0,0,0,0,0,0,0,0,0,0,0,0,0,0,0,0,0,0,0,0],"sum_hessian":[1.03E2,4.3E1,6E1,2.2E1,2.1E1,3.1E1,2.9E1,1E1,1.2E1,1.1E1,1E1,2E1,1.1E1,1.4E1,1.5E1,5E0,5E0,9E0,3E0,1E1,1E0,4E0,6E0,1E0,1.9E1,8E0,3E0,8E0,6E0,2E0,1.3E1,4E0,1E0,4E0,1E0,3E0,6E0,1E0,2E0,3E0,1E0,2E0,4E0,2E0,1E0,4E0,4E0,4E0,2E0,8E0,5E0,1E0,3E0,2E0,1E0,5E0,1E0,1E0,1E0,3E0,1E0,2E0,2E0,7E0,1E0],"tree_param":{"num_deleted":"0","num_feature":"11","num_nodes":"65","size_leaf_vector":"1"}},{"base_weights":[4.545431E2,2.3362317E3,-1.0251807E3,7.593716E3,-1.2953196E3,3.7046892E3,1.1901816E4,-5.6940244E3,5.539989E3,-3.2358337E3,9.292463E3,2.1561111E4,7.8885967E3,7.9119867E2,-8.0580825E3,7.777206E3,-2.467864E3,2.2551504E3,-6.704422E2,5.5732025E2,-6.028099E2,1.2599491E3,1.7524072E2,8.738975E3,7.870469E1,-1.4594613E4,-5.1211465E3,7.6816064E2,4.7300566E3,7.4513184E2,-2.9646185E2,2.1370442E2,-2.9693536E2,1.21305176E2,-1.6651591E2,4.6706796E2,3.775889E1,-8.0104626E2,-2.963123E2,3.2176974E2,-3.4947784E2,-3.5235107E0,4.469663E2,4.2688736E1,1.0480079E1],"categories":[],"categories_nodes":[],"categories_segments":[],"categories_sizes":[],"default_left":[0,0,0,0,0,0,0,0,0,0,0,0,0,0,0,0,0,0,0,0,0,0,0,0,0,0,0,0,0,0,0,0,0,0,0,0,0,0,0,0,0,0,0,0,0],"id":17,"left_children":[1,3,-1,5,7,9,11,13,15,17,19,21,23,-1,25,27,29,31,-1,-1,33,-1,-1,35,-1,37,39,-1,41,43,-1,-1,-1,-1,-1,-1,-1,-1,-1,-1,-1,-1,-1,-1,-1],"loss_changes":[4.307068E9,1.9191186E9,0E0,6.428344E8,1.8355351E9,9.2205645E8,5.664458E8,2.0096932E9,4.4916032E8,6.446971E8,2.4520768E8,2.4011469E8,6.678976E7,0E0,5.7796966E8,3.665294E8,7.114632E7,1.5772566E8,0E0,0E0,3.2863856E7,0E0,0E0,5.546675E7,0E0,2.8694016E7,5.8478944E8,0E0,3.0373066E8,5.3774E4,0E0,0E0,0E0,0E0,0E0,0E0,0E0,0E0,0E0,0E0,0E0,0E0,0E0,0E0,0E0],"parents":[2147483647,0,0,1,1,3,3,4,4,5,5,6,6,7,7,8,8,9,9,10,10,11,11,12,12,14,14,15,15,16,16,17,17,20,20,23,23,25,25,26,26,28,28,29,29],"right_children":[2,4,-1,6,8,10,12,14,16,18,20,22,24,-1,26,28,30,32,-1,-1,34,-1,-1,36,-1,38,40,-1,42,44,-1,-1,-1,-1,-1,-1,-1,-1,-1,-1,-1,-1,-1,-1,-1],"split_conditions":[1E0,3.8E-1,-1.0251807E3,3.4E0,2.6E1,2.6E1,2.5E1,7E-1,5.6E0,1.8E-1,2.1E0,3E0,7.4E0,7.9119867E2,2.9E0,6E0,7.2E0,2.1E1,-6.704422E2,5.5732025E2,4E0,1.2599491E3,1.7524072E2,4E0,7.870469E1,8.6E-1,3E0,7.6816064E2,2E0,2E0,-2.9646185E2,2.1370442E2,-2.9693536E2,1.21305176E2,-1.6651591E2,4.6706796E2,3.775889E1,-8.0104626E2,-2.963123E2,3.2176974E2,-3.4947784E2,-3.5235107E0,4.469663E2,4.2688736E1,1.0480079E1],"split_indices":[10,7,0,8,6,6,6,8,8,7,8,1,8,0,8,1,8,4,0,0,1,0,0,3,0,7,1,0,3,3,0,0,0,0,0,0,0,0,0,0,0,0,0,0,0],"split_type":[0,0,0,0,0,0,0,0,0,0,0,0,0,0,0,0,0,0,0,0,0,0,0,0,0,0,0,0,0,0,0,0,0,0,0,0,0,0,0,0,0,0,0,0,0],"sum_hessian":[1.07E2,9.9E1,8E0,4E1,5.9E1,2.2E1,1.8E1,3.6E1,2.3E1,1E1,1.2E1,4E0,1.4E1,3E0,3.3E1,1.8E1,5E0,7E0,3E0,1E1,2E0,3E0,1E0,1.2E1,2E0,9E0,2.4E1,4E0,1.4E1,3E0,2E0,6E0,1E0,1E0,1E0,1.1E1,1E0,7E0,2E0,3E0,2.1E1,7E0,7E0,2E0,1E0],"tree_param":{"num_deleted":"0","num_feature":"11","num_nodes":"45","size_leaf_vector":"1"}},{"base_weights":[9.843684E2,2.968889E3,-1.0367115E3,8.490705E3,-1.5025432E3,5.0253047E3,1.7312996E4,-1.4913593E4,7.890084E3,-5.548675E2,8.68016E3,4.820106E2,2.3379076E4,-1.7377795E4,-5.0353887E3,2.8656392E3,9.950032E3,1.9086866E3,-4.1577207E3,1.068519E4,2.2208914E3,1.3783214E3,5.0014584E2,-3.444621E2,-9.1291437E2,-3.0674466E2,1.1553321E1,1.5022661E3,3.0002728E2,7.0650786E3,1.2005815E4,1.2057135E2,4.9698567E0,-3.4065405E2,3.8433334E1,8.103471E2,3.977087E2,-4.7305665E0,2.2839656E2,1.5207344E2,4.6484108E1,3.6916357E2,8.912402E1,1.7448213E2,6.231387E2],"categories":[],"categories_nodes":[],"categories_segments":[],"categories_sizes":[],"default_left":[0,0,0,0,0,0,0,0,0,0,0,0,0,0,0,0,0,0,0,0,0,0,0,0,0,0,0,0,0,0,0,0,0,0,0,0,0,0,0,0,0,0,0,0,0],"id":18,"left_children":[1,3,-1,5,7,9,11,13,15,17,19,-1,21,23,25,27,29,31,33,35,37,-1,-1,-1,-1,-1,-1,39,-1,41,43,-1,-1,-1,-1,-1,-1,-1,-1,-1,-1,-1,-1,-1,-1],"loss_changes":[4.6302643E9,2.432419E9,0E0,1.2581988E9,7.045744E9,6.7784224E8,3.331451E8,4.7235942E8,3.1304E8,1.3219733E8,2.3528986E8,0E0,6.0319744E7,4.044595E7,3.616051E7,3.8000104E7,5.158733E7,7.946738E6,8.3724984E7,9.728704E7,3.3039634E7,0E0,0E0,0E0,0E0,0E0,0E0,5.104306E6,0E0,7.010048E6,3.20768E6,0E0,0E0,0E0,0E0,0E0,0E0,0E0,0E0,0E0,0E0,0E0,0E0,0E0,0E0],"parents":[2147483647,0,0,1,1,3,3,4,4,5,5,6,6,7,7,8,8,9,9,10,10,12,12,13,13,14,14,15,15,16,16,17,17,18,18,19,19,20,20,27,27,29,29,30,30],"right_children":[2,4,-1,6,8,10,12,14,16,18,20,-1,22,24,26,28,30,32,34,36,38,-1,-1,-1,-1,-1,-1,40,-1,42,44,-1,-1,-1,-1,-1,-1,-1,-1,-1,-1,-1,-1,-1,-1],"split_conditions":[1E0,2.02E3,-1.0367115E3,2.019E3,2.023E3,3.3E0,1E1,5.6E0,2.024E3,8E0,1.1E1,4.820106E2,3.2E1,2.5E-1,1.1E1,1E0,2.025E3,5.6E-1,1E1,3.8E0,2.018E3,1.3783214E3,5.0014584E2,-3.444621E2,-9.1291437E2,-3.0674466E2,1.1553321E1,4.3E0,3.0002728E2,5.2E0,1.6E-1,1.2057135E2,4.9698567E0,-3.4065405E2,3.8433334E1,8.103471E2,3.977087E2,-4.7305665E0,2.2839656E2,1.5207344E2,4.6484108E1,3.6916357E2,8.912402E1,1.7448213E2,6.231387E2],"split_indices":[10,0,0,0,0,8,4,8,0,1,1,0,5,7,1,2,0,7,1,8,0,0,0,0,0,0,0,8,0,8,7,0,0,0,0,0,0,0,0,0,0,0,0,0,0],"split_type":[0,0,0,0,0,0,0,0,0,0,0,0,0,0,0,0,0,0,0,0,0,0,0,0,0,0,0,0,0,0,0,0,0,0,0,0,0,0,0,0,0,0,0,0,0],"sum_hessian":[1.05E2,9.7E1,8E0,4.3E1,5.4E1,3.2E1,1.1E1,2.2E1,3.2E1,1.3E1,1.9E1,6E0,5E0,1.7E1,5E0,1E1,2.2E1,8E0,5E0,1.4E1,5E0,3E0,2E0,2E0,1.5E1,4E0,1E0,8E0,2E0,1.1E1,1.1E1,6E0,2E0,3E0,2E0,3E0,1.1E1,3E0,2E0,1E0,7E0,1E1,1E0,1E0,1E1],"tree_param":{"num_deleted":"0","num_feature":"11","num_nodes":"45","size_leaf_vector":"1"}},{"base_weights":[4.3302182E2,2.0009366E3,-9.708016E2,4.4549795E3,-3.9554644E3,8.688616E3,1.8731718E3,-9.490777E3,4.0130818E3,5.3793613E3,1.3013044E4,-1.0917066E4,3.0193992E3,-1.1753359E4,1.3666006E3,6.252429E2,1.3323171E3,-4.760695E3,8.865586E3,1.9694957E4,4.1622905E3,-7.6172504E2,5.088096E1,6.429085E3,-1.6259451E3,-4.545039E3,-1.3961382E4,7.424414E0,8.61571E1,3.0171216E3,-2.0831009E2,3.131006E2,-7.0982513E2,2.1596313E2,5.2031287E2,8.355762E1,1.1482744E3,2.7356153E1,2.3879497E2,8.557303E1,5.0067715E2,-5.556847E2,4.2380676E1,7.9441216E1,-4.581945E2,-8.702861E2,-1.791179E2,1.972671E2,-7.7216797E0],"categories":[],"categories_nodes":[],"categories_segments":[],"categories_sizes":[],"default_left":[0,0,0,0,0,0,0,0,0,0,0,0,0,0,0,0,0,0,0,0,0,0,0,0,0,0,0,0,0,0,0,0,0,0,0,0,0,0,0,0,0,0,0,0,0,0,0,0,0],"id":19,"left_children":[1,3,-1,5,7,9,11,13,15,17,19,21,23,25,27,-1,29,31,33,35,37,-1,-1,39,41,43,45,-1,-1,47,-1,-1,-1,-1,-1,-1,-1,-1,-1,-1,-1,-1,-1,-1,-1,-1,-1,-1,-1],"loss_changes":[3.399986E9,1.4939652E9,0E0,7.7071616E8,1.3613391E9,3.1638528E8,7.07347E8,4.5824486E8,2.7927744E8,6.4316506E8,5.6856346E8,2.2161184E8,6.9153734E8,1.7528704E8,1.4813635E6,0E0,1.1447315E8,6.089394E8,4.6109696E7,3.1530547E8,1.0696784E7,0E0,0E0,4.0561542E8,4.5532166E8,1.562168E8,3.3088397E8,0E0,0E0,2.7104424E7,0E0,0E0,0E0,0E0,0E0,0E0,0E0,0E0,0E0,0E0,0E0,0E0,0E0,0E0,0E0,0E0,0E0,0E0,0E0],"parents":[2147483647,0,0,1,1,3,3,4,4,5,5,6,6,7,7,8,8,9,9,10,10,11,11,12,12,13,13,14,14,16,16,17,17,18,18,19,19,20,20,23,23,24,24,25,25,26,26,29,29],"right_children":[2,4,-1,6,8,10,12,14,16,18,20,22,24,26,28,-1,30,32,34,36,38,-1,-1,40,42,44,46,-1,-1,48,-1,-1,-1,-1,-1,-1,-1,-1,-1,-1,-1,-1,-1,-1,-1,-1,-1,-1,-1],"split_conditions":[1E0,6.9E-1,-9.708016E2,3.1E1,2.6E1,3.4E0,4E0,5.6E0,3E1,2.5E1,2.5E1,2.5E1,4.4E-1,1.2E1,2E0,6.252429E2,6E0,1.8E-1,2E0,3E0,1E0,-7.6172504E2,5.088096E1,2.5E-1,4.8E-1,2.5E1,1.9E1,7.424414E0,8.61571E1,3.2E1,-2.0831009E2,3.131006E2,-7.0982513E2,2.1596313E2,5.2031287E2,8.355762E1,1.1482744E3,2.7356153E1,2.3879497E2,8.557303E1,5.0067715E2,-5.556847E2,4.2380676E1,7.9441216E1,-4.581945E2,-8.702861E2,-1.791179E2,1.972671E2,-7.7216797E0],"split_indices":[10,7,0,5,6,8,4,8,5,6,6,6,7,4,3,0,8,7,3,4,3,0,0,7,7,6,4,0,0,5,0,0,0,0,0,0,0,0,0,0,0,0,0,0,0,0,0,0,0],"split_type":[0,0,0,0,0,0,0,0,0,0,0,0,0,0,0,0,0,0,0,0,0,0,0,0,0,0,0,0,0,0,0,0,0,0,0,0,0,0,0,0,0,0,0,0,0,0,0,0,0],"sum_hessian":[1.07E2,1E2,7E0,7.1E1,2.9E1,2.6E1,4.5E1,1.7E1,1.2E1,1.6E1,1E1,3E0,4.2E1,1.4E1,3E0,2E0,1E1,4E0,1.2E1,5E0,5E0,2E0,1E0,2.4E1,1.8E1,4E0,1E1,1E0,2E0,8E0,2E0,2E0,2E0,4E0,8E0,1E0,4E0,1E0,4E0,1.1E1,1.3E1,3E0,1.5E1,2E0,2E0,7E0,3E0,6E0,2E0],"tree_param":{"num_deleted":"0","num_feature":"11","num_nodes":"49","size_leaf_vector":"1"}},{"base_weights":[2.021667E2,5.806449E3,-2.8299072E3,6.9787954E3,-5.4893744E2,1.3108403E4,-4.4289995E3,3.2275896E3,1.0560128E4,3.5245834E2,7.94527E2,-8.279791E3,2.525554E3,5.7661787E3,-6.539904E2,1.9271078E4,6.9524688E3,-1.2853291E4,-1.5855382E3,6.474017E3,-2.2914495E3,5.1065112E2,1.1874016E3,1.1250536E3,1.5877763E2,7.6927407E3,7.135671E1,-1.453188E4,-7.2599824E3,7.227894E3,-5.2494707E3,-4.912871E2,8.418309E3,-4.4545645E3,5.375703E2,-4.696311E0,3.179838E2,4.1224472E2,2.6672266E1,-7.671867E2,-2.5437048E2,8.223965E1,-6.4659033E2,4.2505484E2,2.1546972E1,-4.240123E2,2.3580208E1,-8.789427E1,8.27127E1,5.643001E2,1.3599376E2,-5.5527124E2,-8.7132965E1],"categories":[],"categories_nodes":[],"categories_segments":[],"categories_sizes":[],"default_left":[0,0,0,0,0,0,0,0,0,0,0,0,0,0,0,0,0,0,0,0,0,0,0,0,0,0,0,0,0,0,0,0,0,0,0,0,0,0,0,0,0,0,0,0,0,0,0,0,0,0,0,0,0],"id":20,"left_children":[1,3,5,7,-1,9,11,13,15,-1,-1,17,19,21,-1,23,25,27,29,31,33,-1,35,-1,-1,37,-1,39,41,43,45,47,49,51,-1,-1,-1,-1,-1,-1,-1,-1,-1,-1,-1,-1,-1,-1,-1,-1,-1,-1,-1],"loss_changes":[1.9365952E9,8.6374106E8,1.9440822E9,4.7642022E8,0E0,5.988352E6,1.8419876E9,9.033762E8,4.6311514E8,0E0,0E0,1.3267318E9,4.9032896E8,3.5437293E8,0E0,1.8848883E8,5.0375104E7,1.3860915E8,6.5148717E8,1.937319E8,3.8645114E8,0E0,6.687113E7,0E0,0E0,4.6991296E7,0E0,6.762342E7,4.2532067E8,4.825997E7,2.6276845E8,1.3778143E7,1.4905843E8,1.790485E8,0E0,0E0,0E0,0E0,0E0,0E0,0E0,0E0,0E0,0E0,0E0,0E0,0E0,0E0,0E0,0E0,0E0,0E0,0E0],"parents":[2147483647,0,0,1,1,2,2,3,3,5,5,6,6,7,7,8,8,11,11,12,12,13,13,15,15,16,16,17,17,18,18,19,19,20,20,22,22,25,25,27,27,28,28,29,29,30,30,31,31,32,32,33,33],"right_children":[2,4,6,8,-1,10,12,14,16,-1,-1,18,20,22,-1,24,26,28,30,32,34,-1,36,-1,-1,38,-1,40,42,44,46,48,50,52,-1,-1,-1,-1,-1,-1,-1,-1,-1,-1,-1,-1,-1,-1,-1,-1,-1,-1,-1],"split_conditions":[3.8E-1,3.3E1,8E-1,3.2E0,-5.4893744E2,1E1,2.6E1,2.7E0,2.5E1,3.5245834E2,7.94527E2,3.5E0,3.1E1,3.1E1,-6.539904E2,3E0,4E0,3.1E0,2.5E1,1.7E0,2.3E1,5.1065112E2,2.3E1,1.1250536E3,1.5877763E2,7.4E0,7.135671E1,9.5E-1,3.3E0,1.2E1,7.7E0,2.7E1,3.5E0,5.3E-1,5.375703E2,-4.696311E0,3.179838E2,4.1224472E2,2.6672266E1,-7.671867E2,-2.5437048E2,8.223965E1,-6.4659033E2,4.2505484E2,2.1546972E1,-4.240123E2,2.3580208E1,-8.789427E1,8.27127E1,5.643001E2,1.3599376E2,-5.5527124E2,-8.7132965E1],"split_indices":[7,4,8,8,0,1,6,8,6,0,0,8,5,5,0,1,3,8,6,8,4,0,4,0,0,8,0,7,8,1,8,6,8,7,0,0,0,0,0,0,0,0,0,0,0,0,0,0,0,0,0,0,0],"split_type":[0,0,0,0,0,0,0,0,0,0,0,0,0,0,0,0,0,0,0,0,0,0,0,0,0,0,0,0,0,0,0,0,0,0,0,0,0,0,0,0,0,0,0,0,0,0,0,0,0,0,0,0,0],"sum_hessian":[1.12E2,3.9E1,7.3E1,3.7E1,2E0,6E0,6.7E1,1.9E1,1.8E1,3E0,3E0,4.3E1,2.4E1,1.7E1,2E0,4E0,1.4E1,2.5E1,1.8E1,1.3E1,1.1E1,8E0,9E0,3E0,1E0,1.2E1,2E0,1.8E1,7E0,5E0,1.3E1,3E0,1E1,1E1,1E0,8E0,1E0,1.1E1,1E0,1.6E1,2E0,3E0,4E0,4E0,1E0,8E0,5E0,2E0,1E0,6E0,4E0,2E0,8E0],"tree_param":{"num_deleted":"0","num_feature":"11","num_nodes":"53","size_leaf_vector":"1"}},{"base_weights":[8.244396E2,7.004733E3,-3.5619902E3,1.1703953E3,1.1858761E4,-1.4154799E4,6.512476E3,9.251171E3,-1.1392866E3,2.200226E4,1.0020098E4,-1.6169362E4,-4.650019E3,2.0935125E3,8.534871E3,1.0855541E4,7.0842285E1,1.3211E3,-3.7464622E3,3.3500293E2,1.3151666E3,1.0338289E4,7.549737E1,-3.0546356E2,-1.675315E4,-2.7409143E2,8.520996E0,1.3719988E3,1.90036E2,7.119598E3,6.738759E2,1.6043204E2,6.1674805E2,9.4046326E1,6.3439453E2,-4.86959E3,1.22989586E2,5.2768634E2,1.4535245E2,-8.895927E2,-4.6238547E2,1.4551826E2,4.3884766E1,7.445488E2,8.20081E3,4.537051E1,-1.826709E1,-2.7058798E2,-4.0414356E1,-1.1784082E1,2.10083E1,2.0190157E2,-8.4964455E1,2.6604147E2,5.387842E2],"categories":[],"categories_nodes":[],"categories_segments":[],"categories_sizes":[],"default_left":[0,0,0,0,0,0,0,0,0,0,0,0,0,0,0,0,0,0,0,0,0,0,0,0,0,0,0,0,0,0,0,0,0,0,0,0,0,0,0,0,0,0,0,0,0,0,0,0,0,0,0,0,0,0,0],"id":21,"left_children":[1,3,5,7,9,11,13,15,17,19,21,23,25,27,29,31,-1,33,35,-1,-1,37,-1,-1,39,-1,-1,41,-1,43,-1,-1,-1,-1,45,47,49,-1,-1,-1,-1,-1,-1,51,53,-1,-1,-1,-1,-1,-1,-1,-1,-1,-1],"loss_changes":[3.0069875E9,1.2888425E9,7.0287805E9,4.211482E8,2.4579738E8,5.375483E8,2.8598643E8,4.746515E7,1.2041333E8,2.1213824E7,4.667008E7,5.034752E7,2.9002016E7,9.566696E6,6.493491E7,5.673472E6,0E0,2.65111E6,3.971192E7,0E0,0E0,4.541184E6,0E0,0E0,2.2567424E7,0E0,0E0,5.049786E6,0E0,1.317497E8,0E0,0E0,0E0,0E0,1.9691765E6,1.103912E7,4.187913E5,0E0,0E0,0E0,0E0,0E0,0E0,3.9056732E7,6.872947E7,0E0,0E0,0E0,0E0,0E0,0E0,0E0,0E0,0E0,0E0],"parents":[2147483647,0,0,1,1,2,2,3,3,4,4,5,5,6,6,7,7,8,8,9,9,10,10,11,11,12,12,13,13,14,14,15,15,17,17,18,18,21,21,24,24,27,27,29,29,34,34,35,35,36,36,43,43,44,44],"right_children":[2,4,6,8,10,12,14,16,18,20,22,24,26,28,30,32,-1,34,36,-1,-1,38,-1,-1,40,-1,-1,42,-1,44,-1,-1,-1,-1,46,48,50,-1,-1,-1,-1,-1,-1,52,54,-1,-1,-1,-1,-1,-1,-1,-1,-1,-1],"split_conditions":[2.02E3,2.018E3,2.023E3,3.1E1,2E0,5.6E0,2.024E3,3E0,8E0,2.019E3,6.9E-1,1E0,1.2E1,4E0,4E0,2.017E3,7.0842285E1,7E0,8.3E-1,3.3500293E2,1.3151666E3,7.4E0,7.549737E1,-3.0546356E2,4E0,-2.7409143E2,8.520996E0,4.3E0,1.90036E2,1.5E0,6.738759E2,1.6043204E2,6.1674805E2,9.4046326E1,6E0,1.1E1,2.017E3,5.2768634E2,1.4535245E2,-8.895927E2,-4.6238547E2,1.4551826E2,4.3884766E1,8E0,2.025E3,4.537051E1,-1.826709E1,-2.7058798E2,-4.0414356E1,-1.1784082E1,2.10083E1,2.0190157E2,-8.4964455E1,2.6604147E2,5.387842E2],"split_indices":[0,0,0,5,1,8,0,1,1,0,7,8,1,3,3,0,0,4,7,0,0,8,0,0,8,0,0,8,0,8,0,0,0,0,1,1,0,0,0,0,0,0,0,1,0,0,0,0,0,0,0,0,0,0,0],"split_type":[0,0,0,0,0,0,0,0,0,0,0,0,0,0,0,0,0,0,0,0,0,0,0,0,0,0,0,0,0,0,0,0,0,0,0,0,0,0,0,0,0,0,0,0,0,0,0,0,0,0,0,0,0,0,0],"sum_hessian":[1.09E2,4.5E1,6.4E1,2.1E1,2.4E1,3.1E1,3.3E1,4E0,1.7E1,2E0,2.2E1,2.5E1,6E0,1.1E1,2.2E1,3E0,1E0,9E0,8E0,1E0,1E0,2.1E1,1E0,2E0,2.3E1,5E0,1E0,9E0,2E0,1.9E1,3E0,1E0,2E0,4E0,5E0,6E0,2E0,2E1,1E0,1.9E1,4E0,1E0,8E0,3E0,1.6E1,4E0,1E0,5E0,1E0,1E0,1E0,1E0,2E0,9E0,7E0],"tree_param":{"num_deleted":"0","num_feature":"11","num_nodes":"55","size_leaf_vector":"1"}},{"base_weights":[-4.6309378E2,5.702648E3,-4.120084E3,1.9750304E3,9.517895E3,-1.4369811E4,6.2473594E3,6.576731E3,-2.407781E3,4.6955015E3,5.2150116E2,-1.6266244E4,-5.9360645E3,2.4718489E3,8.109719E3,3.5817683E3,6.6846875E2,8.452529E2,-3.5860425E3,2.7988794E2,2.7161818E1,-2.9528143E2,-8.418037E2,-3.415774E2,8.308008E0,1.4776442E3,2.6466583E2,7.0046934E3,6.5708295E2,6.400707E3,1.1055143E3,-1.781045E1,6.822383E1,-2.6583444E2,-1.1381875E3,1.4188028E2,1.0578875E3,7.3655566E2,8.0084634E3,3.8066635E2,6.907119E1,6.2578747E1,9.380274E0,2.1974024E1,-8.212373E1,2.8574415E1,7.149945E1,1.96854E2,-8.213229E1,4.7846143E2,2.4306766E2],"categories":[],"categories_nodes":[],"categories_segments":[],"categories_sizes":[],"default_left":[0,0,0,0,0,0,0,0,0,0,0,0,0,0,0,0,0,0,0,0,0,0,0,0,0,0,0,0,0,0,0,0,0,0,0,0,0,0,0,0,0,0,0,0,0,0,0,0,0,0,0],"id":22,"left_children":[1,3,5,7,9,11,13,15,17,19,-1,21,23,25,27,29,-1,31,33,-1,-1,-1,-1,-1,-1,35,-1,37,-1,39,41,-1,-1,-1,43,-1,45,47,49,-1,-1,-1,-1,-1,-1,-1,-1,-1,-1,-1,-1],"loss_changes":[2.4812337E9,5.6429504E8,7.4219515E9,4.5953978E8,3.8998656E7,4.6323456E8,2.2605171E8,1.7589485E8,4.9026216E7,1.5691152E7,0E0,6.5878016E7,4.485069E7,2.8644864E7,3.583629E7,5.574761E7,0E0,2.9813485E6,3.2075952E7,0E0,0E0,0E0,0E0,0E0,0E0,3.277514E6,0E0,1.2622848E8,0E0,1.3828688E7,5.6962E5,0E0,0E0,0E0,4.699823E6,0E0,9.92676E5,3.6926E7,4.189491E7,0E0,0E0,0E0,0E0,0E0,0E0,0E0,0E0,0E0,0E0,0E0,0E0],"parents":[2147483647,0,0,1,1,2,2,3,3,4,4,5,5,6,6,7,7,8,8,9,9,11,11,12,12,13,13,14,14,15,15,17,17,18,18,25,25,27,27,29,29,30,30,34,34,36,36,37,37,38,38],"right_children":[2,4,6,8,10,12,14,16,18,20,-1,22,24,26,28,30,-1,32,34,-1,-1,-1,-1,-1,-1,36,-1,38,-1,40,42,-1,-1,-1,44,-1,46,48,50,-1,-1,-1,-1,-1,-1,-1,-1,-1,-1,-1,-1],"split_conditions":[2.02E3,2.018E3,2.023E3,6E0,2.7E-1,5.1E0,2.024E3,2.3E1,8E0,4E0,5.2150116E2,1E0,1.2E1,1E0,1.2E1,3.1E1,6.6846875E2,2.017E3,1E1,2.7988794E2,2.7161818E1,-2.9528143E2,-8.418037E2,-3.415774E2,8.308008E0,4.3E0,2.6466583E2,1.5E0,6.5708295E2,3E0,5E0,-1.781045E1,6.822383E1,-2.6583444E2,1E1,1.4188028E2,1.5E1,8E0,3E0,3.8066635E2,6.907119E1,6.2578747E1,9.380274E0,2.1974024E1,-8.212373E1,2.8574415E1,7.149945E1,1.96854E2,-8.213229E1,4.7846143E2,2.4306766E2],"split_indices":[0,0,0,1,7,8,0,4,1,3,0,8,1,2,1,5,0,0,1,0,0,0,0,0,0,8,0,8,0,1,1,0,0,0,4,0,4,1,8,0,0,0,0,0,0,0,0,0,0,0,0],"split_type":[0,0,0,0,0,0,0,0,0,0,0,0,0,0,0,0,0,0,0,0,0,0,0,0,0,0,0,0,0,0,0,0,0,0,0,0,0,0,0,0,0,0,0,0,0,0,0,0,0,0,0],"sum_hessian":[1.08E2,4E1,6.8E1,2.1E1,1.9E1,3.4E1,3.4E1,1E1,1.1E1,4E0,1.5E1,2.7E1,7E0,1.2E1,2.2E1,8E0,2E0,3E0,8E0,3E0,1E0,2E0,2.5E1,6E0,1E0,1E1,2E0,2E1,2E0,3E0,5E0,1E0,2E0,4E0,4E0,1E0,9E0,3E0,1.7E1,2E0,1E0,4E0,1E0,1E0,3E0,5E0,4E0,1E0,2E0,1E1,7E0],"tree_param":{"num_deleted":"0","num_feature":"11","num_nodes":"51","size_leaf_vector":"1"}},{"base_weights":[7.6357184E2,2.4480671E3,-1.5989289E4,6.997775E3,-1.3189313E3,-2.2258511E2,-8.388305E2,2.213527E3,1.1091762E4,-1.1700462E4,5.9566484E3,4.963205E2,6.4618646E2,2.1104537E4,9.222212E3,-7.0477057E2,-4.21266E3,4.0823677E3,8.896442E3,3.191164E3,-2.5176394E3,3.1359033E2,1.26925E3,9.545988E3,6.057246E1,-2.484386E2,8.100293E0,4.5702163E3,3.722471E1,5.332768E2,4.286603E3,3.0965533E2,6.456487E1,-2.497678E2,4.7957424E1,4.882963E2,1.2868115E2,2.6604425E2,1.4364685E2,-7.939453E1,4.3661148E2],"categories":[],"categories_nodes":[],"categories_segments":[],"categories_sizes":[],"default_left":[0,0,0,0,0,0,0,0,0,0,0,0,0,0,0,0,0,0,0,0,0,0,0,0,0,0,0,0,0,0,0,0,0,0,0,0,0,0,0,0,0],"id":23,"left_children":[1,3,5,7,9,-1,-1,11,13,15,17,19,-1,21,23,-1,25,27,29,31,33,-1,-1,35,-1,-1,-1,37,-1,-1,39,-1,-1,-1,-1,-1,-1,-1,-1,-1,-1],"loss_changes":[3.0869153E9,1.7059653E9,1.6153344E7,8.5684685E8,4.223936E9,0E0,0E0,3.9820154E8,2.5463475E8,3.53078E8,1.4551142E8,1.704772E8,0E0,3.1262976E7,4.549696E7,0E0,2.3959136E7,3.2421792E7,5.2143936E7,5.473905E7,9.093623E7,0E0,0E0,7.069056E6,0E0,0E0,0E0,8.921248E6,0E0,0E0,1.4444483E8,0E0,0E0,0E0,0E0,0E0,0E0,0E0,0E0,0E0,0E0],"parents":[2147483647,0,0,1,1,2,2,3,3,4,4,7,7,8,8,9,9,10,10,11,11,13,13,14,14,16,16,17,17,18,18,19,19,20,20,23,23,27,27,30,30],"right_children":[2,4,6,8,10,-1,-1,12,14,16,18,20,-1,22,24,-1,26,28,30,32,34,-1,-1,36,-1,-1,-1,38,-1,-1,40,-1,-1,-1,-1,-1,-1,-1,-1,-1,-1],"split_conditions":[1E0,2.02E3,4E0,2.018E3,2.023E3,-2.2258511E2,-8.388305E2,2.3E1,2E0,5.6E0,2.025E3,8E0,6.4618646E2,2.019E3,6.9E-1,-7.0477057E2,1.2E1,7.6E0,9E0,3.1E1,1.1E1,3.1359033E2,1.26925E3,7.4E0,6.057246E1,-2.484386E2,8.100293E0,5.4E-1,3.722471E1,5.332768E2,1.1E1,3.0965533E2,6.456487E1,-2.497678E2,4.7957424E1,4.882963E2,1.2868115E2,2.6604425E2,1.4364685E2,-7.939453E1,4.3661148E2],"split_indices":[10,0,1,0,0,0,0,4,1,8,0,1,0,0,7,0,1,8,1,5,1,0,0,8,0,0,0,7,0,0,1,0,0,0,0,0,0,0,0,0,0],"split_type":[0,0,0,0,0,0,0,0,0,0,0,0,0,0,0,0,0,0,0,0,0,0,0,0,0,0,0,0,0,0,0,0,0,0,0,0,0,0,0,0,0],"sum_hessian":[1.07E2,9.8E1,9E0,4.4E1,5.4E1,1E0,8E0,2.1E1,2.3E1,2.2E1,3.2E1,1.9E1,2E0,2E0,2.1E1,1.6E1,6E0,2.1E1,1.1E1,1E1,9E0,1E0,1E0,2E1,1E0,5E0,1E0,1.8E1,3E0,7E0,4E0,3E0,7E0,5E0,4E0,1.9E1,1E0,1.1E1,7E0,2E0,2E0],"tree_param":{"num_deleted":"0","num_feature":"11","num_nodes":"41","size_leaf_vector":"1"}},{"base_weights":[4.8236063E2,6.176241E3,-3.4071394E3,1.2725671E3,1.0811384E4,-1.2874882E4,5.3464287E3,5.3151875E3,-1.237843E3,2.0576924E4,8.901479E3,-1.5161899E4,-6.327252E3,3.3340054E3,8.495606E3,8.0065054E3,1.560832E3,1.1358828E3,-2.204278E3,3.0575058E2,1.2375188E3,9.228437E3,5.9058105E1,-2.699828E2,-7.917255E2,-3.5326904E2,7.897754E0,4.0733955E3,1.0620575E3,4.9846835E2,4.1437173E3,5.3759377E1,9.470538E3,1.3916309E2,5.594092E2,8.0482376E1,-1.8979395E1,-4.1215674E3,9.2078284E2,7.528427E3,1.2822778E4,5.0639937E3,2.8735774E3,4.1760156E2,7.204995E1,-7.674805E1,8.441156E3,5.9603027E1,5.9163385E2,3.2272854E1,7.5316405E0,-2.3936075E2,-3.1920898E0,7.682383E1,-3.8549805E1,3.9961273E2,1.4275391E1,1.8869395E2,7.0707666E2,6.6350685E1,2.7041373E2,2.1638931E2,5.914036E1,3.907129E0,2.5235352E1,1.0799961E2,5.250871E2],"categories":[],"categories_nodes":[],"categories_segments":[],"categories_sizes":[],"default_left":[0,0,0,0,0,0,0,0,0,0,0,0,0,0,0,0,0,0,0,0,0,0,0,0,0,0,0,0,0,0,0,0,0,0,0,0,0,0,0,0,0,0,0,0,0,0,0,0,0,0,0,0,0,0,0,0,0,0,0,0,0,0,0,0,0,0,0],"id":24,"left_children":[1,3,5,7,9,11,13,15,17,19,21,23,25,27,29,31,33,35,37,-1,-1,39,-1,-1,-1,-1,-1,41,43,-1,45,-1,47,-1,49,-1,-1,51,53,55,57,59,61,63,-1,-1,65,-1,-1,-1,-1,-1,-1,-1,-1,-1,-1,-1,-1,-1,-1,-1,-1,-1,-1,-1,-1],"loss_changes":[2.4571418E9,1.009057E9,5.5386854E9,2.3999798E8,2.4581376E8,3.8325197E8,1.9348736E8,7.844067E7,3.691458E7,2.9719296E7,4.210816E7,6.5521664E7,4.8985216E7,3.4310496E7,4.2067136E7,4.0555776E7,4.563863E6,4.200885E6,6.970318E7,0E0,0E0,2.567296E7,0E0,0E0,0E0,0E0,0E0,5.653376E6,1.107714E6,0E0,1.3497571E8,0E0,6.41144E7,0E0,4.3470375E4,0E0,0E0,1.8601472E7,6.392706E6,5.146963E7,6.297984E6,3.115712E6,1.9468384E7,7.883581E4,0E0,0E0,1.614496E7,0E0,0E0,0E0,0E0,0E0,0E0,0E0,0E0,0E0,0E0,0E0,0E0,0E0,0E0,0E0,0E0,0E0,0E0,0E0,0E0],"parents":[2147483647,0,0,1,1,2,2,3,3,4,4,5,5,6,6,7,7,8,8,9,9,10,10,11,11,12,12,13,13,14,14,15,15,16,16,17,17,18,18,21,21,27,27,28,28,30,30,32,32,34,34,37,37,38,38,39,39,40,40,41,41,42,42,43,43,46,46],"right_children":[2,4,6,8,10,12,14,16,18,20,22,24,26,28,30,32,34,36,38,-1,-1,40,-1,-1,-1,-1,-1,42,44,-1,46,-1,48,-1,50,-1,-1,52,54,56,58,60,62,64,-1,-1,66,-1,-1,-1,-1,-1,-1,-1,-1,-1,-1,-1,-1,-1,-1,-1,-1,-1,-1,-1,-1],"split_conditions":[2.02E3,2.018E3,2.023E3,6E0,2E0,4E0,2.025E3,2E0,8E0,2.019E3,6.8E-1,1E0,1.2E1,6.4E0,9E0,2.017E3,3.1E1,6E0,1.1E1,3.0575058E2,1.2375188E3,1E1,5.9058105E1,-2.699828E2,-7.917255E2,-3.5326904E2,7.897754E0,4.9E-1,1.3E1,4.9846835E2,1.1E1,5.3759377E1,3E0,1.3916309E2,5E0,8.0482376E1,-1.8979395E1,8.3E-1,1.2E1,4E0,2.019E3,3.4E0,6E0,3E0,7.204995E1,-7.674805E1,1.2E1,5.9603027E1,5.9163385E2,3.2272854E1,7.5316405E0,-2.3936075E2,-3.1920898E0,7.682383E1,-3.8549805E1,3.9961273E2,1.4275391E1,1.8869395E2,7.0707666E2,6.6350685E1,2.7041373E2,2.1638931E2,5.914036E1,3.907129E0,2.5235352E1,1.0799961E2,5.250871E2],"split_indices":[0,0,0,1,1,8,0,3,1,0,7,8,1,8,1,0,5,4,1,0,0,1,0,0,0,0,0,7,4,0,1,0,4,0,1,0,0,7,4,3,0,8,4,1,0,0,1,0,0,0,0,0,0,0,0,0,0,0,0,0,0,0,0,0,0,0,0],"split_type":[0,0,0,0,0,0,0,0,0,0,0,0,0,0,0,0,0,0,0,0,0,0,0,0,0,0,0,0,0,0,0,0,0,0,0,0,0,0,0,0,0,0,0,0,0,0,0,0,0,0,0,0,0,0,0,0,0,0,0,0,0,0,0,0,0,0,0],"sum_hessian":[1.09E2,4.4E1,6.5E1,2.2E1,2.2E1,3.1E1,3.4E1,8E0,1.4E1,2E0,2E1,2.2E1,9E0,2.2E1,1.2E1,4E0,4E0,4E0,1E1,1E0,1E0,1.9E1,1E0,2E0,2E1,8E0,1E0,1.6E1,6E0,8E0,4E0,1E0,3E0,1E0,3E0,3E0,1E0,6E0,4E0,1.5E1,4E0,7E0,9E0,3E0,3E0,2E0,2E0,1E0,2E0,2E0,1E0,5E0,1E0,3E0,1E0,1.4E1,1E0,1E0,3E0,1E0,6E0,4E0,5E0,1E0,2E0,1E0,1E0],"tree_param":{"num_deleted":"0","num_feature":"11","num_nodes":"67","size_leaf_vector":"1"}},{"base_weights":[7.9962164E2,6.321062E3,-3.0951353E3,1.8982122E3,1.0111964E4,-1.2292164E4,5.3814243E3,2.5063261E2,6.12467E2,9.4143256E2,7.97012E3,-1.3704847E4,-4.1218438E3,2.216082E3,6.798932E3,2.9689275E3,-2.7645552E3,3.6649656E3,9.086421E3,-2.6098334E2,-7.0972296E2,-2.5039075E2,7.700293E0,1.2315277E3,2.3796179E2,5.687101E3,6.1577203E2,5.7632646E3,1.2006431E3,-4.7127173E3,-6.8032745E2,4.2866104E3,1.3918555E1,6.964898E3,1.2360792E4,1.2933232E2,7.9355383E2,5.4854395E2,6.5130527E3,3.4547568E2,5.8112988E1,6.651007E1,7.3433595E0,-9.9308464E1,-2.9341797E2,2.5147917E1,-6.98855E1,2.3912231E2,5.7581642E1,3.7286826E2,1.5008542E2,1.8397656E2,6.805612E2,2.0713411E1,5.820469E1,1.6613896E2,-7.418972E1,2.3604695E2,4.3274057E2],"categories":[],"categories_nodes":[],"categories_segments":[],"categories_sizes":[],"default_left":[0,0,0,0,0,0,0,0,0,0,0,0,0,0,0,0,0,0,0,0,0,0,0,0,0,0,0,0,0,0,0,0,0,0,0,0,0,0,0,0,0,0,0,0,0,0,0,0,0,0,0,0,0,0,0,0,0,0,0],"id":25,"left_children":[1,3,5,7,9,11,13,15,-1,-1,17,19,21,23,25,27,29,31,33,-1,-1,-1,-1,35,-1,37,-1,39,41,43,45,47,-1,49,51,-1,53,55,57,-1,-1,-1,-1,-1,-1,-1,-1,-1,-1,-1,-1,-1,-1,-1,-1,-1,-1,-1,-1],"loss_changes":[2.3420687E9,7.353019E8,5.055536E9,3.721246E8,2.9800832E8,3.0131456E8,1.3748749E8,1.7213115E8,0E0,0E0,6.762138E7,3.392563E7,2.3500912E7,2.418534E7,7.10297E7,4.743339E7,3.7397936E7,1.1438288E7,2.5054848E7,0E0,0E0,0E0,0E0,3.882422E6,0E0,8.555546E7,0E0,1.3064928E7,8.96841E5,4.099024E6,5.796201E6,2.264552E6,0E0,1.036032E6,4.193728E6,0E0,7.82617E5,2.7483058E7,2.8230144E7,0E0,0E0,0E0,0E0,0E0,0E0,0E0,0E0,0E0,0E0,0E0,0E0,0E0,0E0,0E0,0E0,0E0,0E0,0E0,0E0],"parents":[2147483647,0,0,1,1,2,2,3,3,4,4,5,5,6,6,7,7,10,10,11,11,12,12,13,13,14,14,15,15,16,16,17,17,18,18,23,23,25,25,27,27,28,28,29,29,30,30,31,31,33,33,34,34,36,36,37,37,38,38],"right_children":[2,4,6,8,10,12,14,16,-1,-1,18,20,22,24,26,28,30,32,34,-1,-1,-1,-1,36,-1,38,-1,40,42,44,46,48,-1,50,52,-1,54,56,58,-1,-1,-1,-1,-1,-1,-1,-1,-1,-1,-1,-1,-1,-1,-1,-1,-1,-1,-1,-1],"split_conditions":[2.02E3,2.018E3,2.023E3,2.3E1,3.1E1,5.1E0,2.024E3,8E0,6.12467E2,9.4143256E2,2.5E1,1E0,1.1E1,1E0,1.2E1,3.1E1,1E1,2.019E3,1E1,-2.6098334E2,-7.0972296E2,-2.5039075E2,7.700293E0,4.3E0,2.3796179E2,1.5E0,6.1577203E2,3E0,1.8E1,9E0,1.2E1,1.2E1,1.3918555E1,4.4E-1,2.019E3,1.2933232E2,1.5E1,8E0,2.025E3,3.4547568E2,5.8112988E1,6.651007E1,7.3433595E0,-9.9308464E1,-2.9341797E2,2.5147917E1,-6.98855E1,2.3912231E2,5.7581642E1,3.7286826E2,1.5008542E2,1.8397656E2,6.805612E2,2.0713411E1,5.820469E1,1.6613896E2,-7.418972E1,2.3604695E2,4.3274057E2],"split_indices":[0,0,0,4,5,8,0,1,0,0,6,8,1,2,1,5,1,0,1,0,0,0,0,8,0,8,0,1,4,1,4,1,0,7,0,0,4,1,0,0,0,0,0,0,0,0,0,0,0,0,0,0,0,0,0,0,0,0,0],"split_type":[0,0,0,0,0,0,0,0,0,0,0,0,0,0,0,0,0,0,0,0,0,0,0,0,0,0,0,0,0,0,0,0,0,0,0,0,0,0,0,0,0,0,0,0,0,0,0,0,0,0,0,0,0,0,0,0,0,0,0],"sum_hessian":[1.07E2,4.4E1,6.3E1,2.1E1,2.3E1,3E1,3.3E1,1.9E1,2E0,3E0,2E1,2.5E1,5E0,1.1E1,2.2E1,1E1,9E0,5E0,1.5E1,2E0,2.3E1,4E0,1E0,9E0,2E0,2E1,2E0,3E0,7E0,4E0,5E0,4E0,1E0,1.1E1,4E0,1E0,8E0,3E0,1.7E1,2E0,1E0,6E0,1E0,2E0,2E0,2E0,3E0,3E0,1E0,9E0,2E0,1E0,3E0,5E0,3E0,1E0,2E0,1.1E1,6E0],"tree_param":{"num_deleted":"0","num_feature":"11","num_nodes":"59","size_leaf_vector":"1"}},{"base_weights":[1.1760819E3,2.3163833E3,-6.754886E2,5.857318E3,2.9621738E2,4.44854E3,1.2394579E4,-6.9101556E2,1.187803E3,-4.9624985E3,5.2413594E3,1.1830452E3,2.704567E2,1.0065649E4,2.4892572E2,2.2114649E1,-3.9430206E2,5.6577866E3,-1.7087589E2,5.615781E2,1.0590215E2,4.153688E3,-2.2526982E3,2.0305649E2,3.790645E2,-3.319618E2,2.74887E2,-1.4214037E2,4.6002792E2],"categories":[],"categories_nodes":[],"categories_segments":[],"categories_sizes":[],"default_left":[0,0,0,0,0,0,0,0,0,0,0,0,0,0,0,0,0,0,0,0,0,0,0,0,0,0,0,0,0],"id":26,"left_children":[1,3,-1,5,7,9,11,-1,13,15,17,-1,-1,19,21,-1,-1,23,-1,-1,-1,25,27,-1,-1,-1,-1,-1,-1],"loss_changes":[1.8566404E9,7.278991E8,0E0,2.8561536E8,8.470979E8,2.647703E8,3.4421664E8,0E0,5.2261254E8,5.089136E7,1.2750938E8,0E0,0E0,3.1808384E7,5.759154E8,0E0,0E0,5.8275456E7,0E0,0E0,0E0,3.7014442E8,2.694676E8,0E0,0E0,0E0,0E0,0E0,0E0],"parents":[2147483647,0,0,1,1,3,3,4,4,5,5,6,6,8,8,9,9,10,10,13,13,14,14,17,17,21,21,22,22],"right_children":[2,4,-1,6,8,10,12,-1,14,16,18,-1,-1,20,22,-1,-1,24,-1,-1,-1,26,28,-1,-1,-1,-1,-1,-1],"split_conditions":[1E0,3.8E-1,-6.754886E2,3.4E-1,2.4E1,4E0,2E0,-6.9101556E2,8E-1,4E0,2.7E1,1.1830452E3,2.704567E2,4.4E-1,3.1E1,2.2114649E1,-3.9430206E2,5E0,-1.7087589E2,5.615781E2,1.0590215E2,4.3E-1,2.3E1,2.0305649E2,3.790645E2,-3.319618E2,2.74887E2,-1.4214037E2,4.6002792E2],"split_indices":[10,7,0,7,6,4,1,0,8,1,4,0,0,7,5,0,0,1,0,0,0,7,4,0,0,0,0,0,0],"split_type":[0,0,0,0,0,0,0,0,0,0,0,0,0,0,0,0,0,0,0,0,0,0,0,0,0,0,0,0,0],"sum_hessian":[1.08E2,1.01E2,7E0,3.6E1,6.5E1,3.1E1,5E0,3E0,6.2E1,2E0,2.9E1,1E0,4E0,5E0,5.7E1,1E0,1E0,2.8E1,1E0,4E0,1E0,2.2E1,3.5E1,1.7E1,1.1E1,2E0,2E1,3.4E1,1E0],"tree_param":{"num_deleted":"0","num_feature":"11","num_nodes":"29","size_leaf_vector":"1"}},{"base_weights":[-9.952506E1,5.514519E3,-3.4829998E3,6.236026E2,7.0721177E3,-1.196196E4,5.347783E3,1.5616328E3,-2.3983555E3,7.485653E3,3.5862045E1,-1.3431353E4,-2.661921E2,1.6014375E3,6.8420337E3,2.115991E3,-2.5241406E2,-1.4759131E2,-3.228535E1,4.4655258E2,4.69375E3,-2.4440999E2,-6.950256E2,9.5317145E2,1.5062115E2,5.658596E3,5.6722864E2,2.4540671E3,2.188379E0,-2.3168945E0,-1.661416E1,-1.1024244E3,5.9632275E3,1.2965254E2,4.2405518E2,4.6360645E2,6.498672E3,2.2227148E1,1.3835316E2,1.1090137E1,-9.377197E1,3.1802472E2,5.9695606E1,-3.5805664E0,2.5254744E1,1.5250879E2,-7.0765434E1,3.9012958E2,1.9467247E2],"categories":[],"categories_nodes":[],"categories_segments":[],"categories_sizes":[],"default_left":[0,0,0,0,0,0,0,0,0,0,0,0,0,0,0,0,0,0,0,0,0,0,0,0,0,0,0,0,0,0,0,0,0,0,0,0,0,0,0,0,0,0,0,0,0,0,0,0,0],"id":27,"left_children":[1,3,5,7,9,11,13,15,17,19,-1,21,-1,23,25,27,29,-1,-1,-1,31,-1,-1,33,-1,35,-1,37,-1,-1,-1,39,41,-1,43,45,47,-1,-1,-1,-1,-1,-1,-1,-1,-1,-1,-1,-1],"loss_changes":[2.0706644E9,3.0793126E8,5.155528E9,3.4926916E7,7.609805E7,2.698839E8,1.7937408E8,9.58479E6,1.004106E6,7.510669E7,0E0,4.427776E7,0E0,7.19028E6,6.368909E7,4.796578E6,3.398008E4,0E0,0E0,0E0,9.487134E7,0E0,0E0,6.709585E6,0E0,8.863501E7,0E0,2.54376E6,0E0,0E0,0E0,3.4869202E6,1.1353056E7,0E0,3.5751975E5,2.3756716E7,3.0766976E7,0E0,0E0,0E0,0E0,0E0,0E0,0E0,0E0,0E0,0E0,0E0,0E0],"parents":[2147483647,0,0,1,1,2,2,3,3,4,4,5,5,6,6,7,7,8,8,9,9,11,11,13,13,14,14,15,15,16,16,20,20,23,23,25,25,27,27,31,31,32,32,34,34,35,35,36,36],"right_children":[2,4,6,8,10,12,14,16,18,20,-1,22,-1,24,26,28,30,-1,-1,-1,32,-1,-1,34,-1,36,-1,38,-1,-1,-1,40,42,-1,44,46,48,-1,-1,-1,-1,-1,-1,-1,-1,-1,-1,-1,-1],"split_conditions":[2.02E3,2.017E3,2.023E3,1E0,7.9E-1,4.9E0,2.024E3,2.6E1,9E0,3.9E0,3.5862045E1,1E0,-2.661921E2,4E0,4E0,7.3E-1,6E0,-1.4759131E2,-3.228535E1,4.4655258E2,2.018E3,-2.4440999E2,-6.950256E2,4.3E0,1.5062115E2,1.5E0,5.6722864E2,2E0,2.188379E0,-2.3168945E0,-1.661416E1,5E0,1.2E1,1.2965254E2,3E0,8E0,3E0,2.2227148E1,1.3835316E2,1.1090137E1,-9.377197E1,3.1802472E2,5.9695606E1,-3.5805664E0,2.5254744E1,1.5250879E2,-7.0765434E1,3.9012958E2,1.9467247E2],"split_indices":[0,0,0,2,7,8,0,6,1,8,0,8,0,3,3,7,1,0,0,0,0,0,0,8,0,8,0,1,0,0,0,1,1,0,1,1,8,0,0,0,0,0,0,0,0,0,0,0,0],"split_type":[0,0,0,0,0,0,0,0,0,0,0,0,0,0,0,0,0,0,0,0,0,0,0,0,0,0,0,0,0,0,0,0,0,0,0,0,0,0,0,0,0,0,0,0,0,0,0,0,0],"sum_hessian":[1.07E2,4E1,6.7E1,1E1,3E1,3.4E1,3.3E1,8E0,2E0,2.8E1,2E0,2.7E1,7E0,1E1,2.3E1,6E0,2E0,1E0,1E0,1.7E1,1.1E1,2E0,2.5E1,8E0,2E0,2E1,3E0,5E0,1E0,1E0,1E0,2E0,9E0,1E0,7E0,3E0,1.7E1,1E0,4E0,1E0,1E0,8E0,1E0,1E0,6E0,1E0,2E0,1E1,7E0],"tree_param":{"num_deleted":"0","num_feature":"11","num_nodes":"49","size_leaf_vector":"1"}},{"base_weights":[3.2624274E2,5.263654E3,-2.9961777E3,2.6347715E3,1.1835369E4,-1.1215119E4,4.5856855E3,3.0978308E2,4.9403984E3,1.1455184E3,8.74579E3,-1.2325482E4,-2.976132E3,3.7245203E3,5.0566464E2,2.1677048E3,-2.654063E3,7.0368384E3,1.964353E3,5.7961504E3,6.2293115E2,-2.1998485E2,-1.2783558E4,-1.8965347E2,7.2904296E0,4.5837856E3,1.4616848E3,1.3583352E3,2.5653506E2,-4.609798E3,1.4901823E3,5.3001044E2,2.2522087E2,-8.324609E1,4.0327637E3,6.6394263E3,-2.6695313E0,-6.789978E2,-3.4409857E2,5.851211E3,1.6343896E3,8.9589844E2,1.6384404E2,8.130691E1,9.570768E0,-1.0492963E2,-2.7922018E2,2.1336915E0,1.0962998E2,4.0510937E1,-9.1427635E1,2.3004875E2,5.8203224E1,3.8625797E2,1.3083647E2,1.13293884E2,3.1142514E2,-6.840658E1,1.431626E2,2.6649546E1,6.081426E1],"categories":[],"categories_nodes":[],"categories_segments":[],"categories_sizes":[],"default_left":[0,0,0,0,0,0,0,0,0,0,0,0,0,0,0,0,0,0,0,0,0,0,0,0,0,0,0,0,0,0,0,0,0,0,0,0,0,0,0,0,0,0,0,0,0,0,0,0,0,0,0,0,0,0,0,0,0,0,0,0,0],"id":28,"left_children":[1,3,5,7,9,11,13,15,17,-1,19,21,23,25,-1,27,29,31,33,35,-1,-1,37,-1,-1,39,41,43,-1,45,47,-1,-1,49,51,53,-1,-1,-1,55,57,59,-1,-1,-1,-1,-1,-1,-1,-1,-1,-1,-1,-1,-1,-1,-1,-1,-1,-1,-1],"loss_changes":[1.7546113E9,7.11696E8,4.0395822E9,1.7000733E8,2.1023578E8,2.4691405E8,1.2417907E8,9.936533E7,8.600282E7,0E0,4.825472E7,4.178253E7,1.3305212E7,5.3575584E7,0E0,1.941054E7,6.3604748E7,3.3467776E7,3.421792E7,3.9816704E7,0E0,0E0,2.404352E7,0E0,0E0,7.267587E7,7.334378E6,2.81378E6,0E0,5.17792E5,2.956698E6,0E0,0E0,9.278378E6,1.164284E6,1.0358368E7,0E0,0E0,0E0,6.177728E6,3.3434784E7,3.98168E5,0E0,0E0,0E0,0E0,0E0,0E0,0E0,0E0,0E0,0E0,0E0,0E0,0E0,0E0,0E0,0E0,0E0,0E0,0E0],"parents":[2147483647,0,0,1,1,2,2,3,3,4,4,5,5,6,6,7,7,8,8,10,10,11,11,12,12,13,13,15,15,16,16,17,17,18,18,19,19,22,22,25,25,26,26,27,27,29,29,30,30,33,33,34,34,35,35,39,39,40,40,41,41],"right_children":[2,4,6,8,10,12,14,16,18,-1,20,22,24,26,-1,28,30,32,34,36,-1,-1,38,-1,-1,40,42,44,-1,46,48,-1,-1,50,52,54,-1,-1,-1,56,58,60,-1,-1,-1,-1,-1,-1,-1,-1,-1,-1,-1,-1,-1,-1,-1,-1,-1,-1,-1],"split_conditions":[2.02E3,2.019E3,2.023E3,3.3E0,2E0,5.6E0,1.2E1,8E0,6.1E-1,1.1455184E3,9E0,1.3E0,1.2E1,5.2E0,5.0566464E2,2.018E3,1E1,2.018E3,2.018E3,4E0,6.2293115E2,-2.1998485E2,4E0,-1.8965347E2,7.2904296E0,9E0,1E0,5.6E-1,2.5653506E2,9E0,1.1E1,5.3001044E2,2.2522087E2,1.2E1,1.2E1,7E0,-2.6695313E0,-6.789978E2,-3.4409857E2,1E-1,1.5E0,1.5E1,1.6384404E2,8.130691E1,9.570768E0,-1.0492963E2,-2.7922018E2,2.1336915E0,1.0962998E2,4.0510937E1,-9.1427635E1,2.3004875E2,5.8203224E1,3.8625797E2,1.3083647E2,1.13293884E2,3.1142514E2,-6.840658E1,1.431626E2,2.6649546E1,6.081426E1],"split_indices":[0,0,0,8,1,8,1,1,7,0,1,8,1,8,0,0,1,0,0,3,0,0,8,0,0,1,2,7,0,1,1,0,0,4,1,1,0,0,0,7,8,4,0,0,0,0,0,0,0,0,0,0,0,0,0,0,0,0,0,0,0],"split_type":[0,0,0,0,0,0,0,0,0,0,0,0,0,0,0,0,0,0,0,0,0,0,0,0,0,0,0,0,0,0,0,0,0,0,0,0,0,0,0,0,0,0,0,0,0,0,0,0,0,0,0,0,0,0,0,0,0,0,0,0,0],"sum_hessian":[1.05E2,4.2E1,6.3E1,3.1E1,1.1E1,3E1,3.3E1,1.6E1,1.5E1,1E0,1E1,2.6E1,4E0,3E1,3E0,1E1,6E0,8E0,7E0,7E0,3E0,2E0,2.4E1,3E0,1E0,2.1E1,9E0,9E0,1E0,4E0,2E0,2E0,6E0,4E0,3E0,6E0,1E0,2E1,4E0,1.4E1,7E0,8E0,1E0,7E0,2E0,2E0,2E0,1E0,1E0,3E0,1E0,2E0,1E0,4E0,2E0,2E0,1.2E1,2E0,5E0,5E0,3E0],"tree_param":{"num_deleted":"0","num_feature":"11","num_nodes":"61","size_leaf_vector":"1"}},{"base_weights":[1.9912791E2,1.4380616E3,-1.2334016E4,5.2267056E3,-6.502601E2,-1.7524927E2,-6.462788E2,2.3958003E3,8.6156E3,1.0189392E4,-1.7057953E3,4.19934E3,-6.319079E3,1.5022506E4,5.2280884E3,2.1951082E2,5.995713E2,-4.259509E3,2.6985796E3,7.144591E3,4.6024567E2,4.601504E1,-4.5194864E2,8.950138E2,8.778574E1,5.508059E3,5.3710255E1,-7.0190244E3,-9.8533325E2,7.96434E3,1.5104987E3,2.0210934E2,4.2695816E2,1.2655133E2,-8.512922E1,1.13646484E2,2.9872144E2,-6.135766E2,-2.7309274E2,2.4901363E2,-2.0608939E2,5.1066953E2,3.0429688E1,-1.2408813E0,3.0607056E2],"categories":[],"categories_nodes":[],"categories_segments":[],"categories_sizes":[],"default_left":[0,0,0,0,0,0,0,0,0,0,0,0,0,0,0,0,0,0,0,0,0,0,0,0,0,0,0,0,0,0,0,0,0,0,0,0,0,0,0,0,0,0,0,0,0],"id":29,"left_children":[1,3,5,7,9,-1,-1,11,13,15,17,19,21,23,25,-1,-1,27,29,31,33,-1,-1,-1,-1,35,-1,37,39,41,43,-1,-1,-1,-1,-1,-1,-1,-1,-1,-1,-1,-1,-1,-1],"loss_changes":[1.7257879E9,8.025014E8,6.925184E6,3.247296E8,7.7252896E8,0E0,0E0,3.5660624E8,2.6871654E8,1.0056896E7,6.975928E8,1.9493802E8,8.707994E7,1.5946611E8,8.038784E6,0E0,0E0,3.4545434E8,1.318613E8,8.74832E6,4.461801E7,0E0,0E0,0E0,0E0,3.016992E6,0E0,1.0473459E8,3.7603376E8,5.9958E7,1.417361E8,0E0,0E0,0E0,0E0,0E0,0E0,0E0,0E0,0E0,0E0,0E0,0E0,0E0,0E0],"parents":[2147483647,0,0,1,1,2,2,3,3,4,4,7,7,8,8,9,9,10,10,11,11,12,12,13,13,14,14,17,17,18,18,19,19,20,20,25,25,27,27,28,28,29,29,30,30],"right_children":[2,4,6,8,10,-1,-1,12,14,16,18,20,22,24,26,-1,-1,28,30,32,34,-1,-1,-1,-1,36,-1,38,40,42,44,-1,-1,-1,-1,-1,-1,-1,-1,-1,-1,-1,-1,-1,-1],"split_conditions":[1E0,3.8E-1,4E0,3.4E0,8E-1,-1.7524927E2,-6.462788E2,2.7E0,2.5E1,1E1,2.6E1,3.1E1,3E1,3E0,4E0,2.1951082E2,5.995713E2,3.5E0,6E0,2E-1,2.1E-1,4.601504E1,-4.5194864E2,8.950138E2,8.778574E1,3E0,5.3710255E1,2.4E1,2.5E1,3.4E0,3E0,2.0210934E2,4.2695816E2,1.2655133E2,-8.512922E1,1.13646484E2,2.9872144E2,-6.135766E2,-2.7309274E2,2.4901363E2,-2.0608939E2,5.1066953E2,3.0429688E1,-1.2408813E0,3.0607056E2],"split_indices":[10,7,1,8,8,0,0,8,6,1,6,5,5,1,3,0,0,8,1,7,7,0,0,0,0,1,0,6,6,8,3,0,0,0,0,0,0,0,0,0,0,0,0,0,0],"split_type":[0,0,0,0,0,0,0,0,0,0,0,0,0,0,0,0,0,0,0,0,0,0,0,0,0,0,0,0,0,0,0,0,0,0,0,0,0,0,0,0,0,0,0,0,0],"sum_hessian":[1.09E2,1E2,9E0,3.5E1,6.5E1,1E0,8E0,2E1,1.5E1,5E0,6E1,1.7E1,3E0,4E0,1.1E1,2E0,3E0,3.8E1,2.2E1,9E0,8E0,1E0,2E0,3E0,1E0,1E1,1E0,2E1,1.8E1,3E0,1.9E1,4E0,5E0,4E0,4E0,2E0,8E0,3E0,1.7E1,6E0,1.2E1,2E0,1E0,1.5E1,4E0],"tree_param":{"num_deleted":"0","num_feature":"11","num_nodes":"45","size_leaf_vector":"1"}},{"base_weights":[4.2269943E2,5.241043E3,-2.6120122E3,1.5968087E3,8.812695E3,-1.0129945E4,4.769645E3,1.9189621E2,5.4494635E2,1.8019389E4,6.9910566E3,-5.995079E2,-5.565359E3,1.733522E3,6.2154766E3,4.757259E3,-8.3328973E2,2.5694904E2,1.0945051E3,6.0061704E3,6.425973E2,-6.1158843E3,1.2260449E1,9.754109E2,1.967711E2,5.141789E3,5.1492334E2,2.8896884E2,4.2272655E1,4.6442802E1,-3.1298828E3,3.1763306E2,-5.7666016E0,-4.0029214E2,-1.9461081E2,3.033444E2,1.4849088E3,5.8970234E3,2.2708665E3,-5.5138058E1,4.0370922E1,-1.2380339E1,-2.4844324E2,3.8079884E1,2.968711E0,1.1865664E2,4.1631878E1,1.7978264E2,3.8744687E2,1.5734285E2,-5.272715E1],"categories":[],"categories_nodes":[],"categories_segments":[],"categories_sizes":[],"default_left":[0,0,0,0,0,0,0,0,0,0,0,0,0,0,0,0,0,0,0,0,0,0,0,0,0,0,0,0,0,0,0,0,0,0,0,0,0,0,0,0,0,0,0,0,0,0,0,0,0,0,0],"id":30,"left_children":[1,3,5,7,9,11,13,15,-1,17,19,-1,21,23,25,27,29,-1,-1,31,-1,33,-1,35,-1,37,-1,-1,-1,39,41,-1,-1,-1,-1,43,45,47,49,-1,-1,-1,-1,-1,-1,-1,-1,-1,-1,-1,-1],"loss_changes":[1.6660078E9,5.586291E8,3.9329528E9,2.984878E8,2.4299328E8,2.3045914E8,1.472553E8,1.0225143E8,0E0,3.707629E7,3.825517E7,0E0,3.988605E7,1.7862052E7,5.226003E7,1.1107112E7,3.6512336E7,0E0,0E0,4.103251E7,0E0,1.5068576E7,0E0,3.316142E6,0E0,3.2141184E7,0E0,0E0,0E0,1.3133615E7,2.5271944E7,0E0,0E0,0E0,0E0,6.2558156E5,1.50022E6,4.0328576E7,2.0796656E7,0E0,0E0,0E0,0E0,0E0,0E0,0E0,0E0,0E0,0E0,0E0,0E0],"parents":[2147483647,0,0,1,1,2,2,3,3,4,4,5,5,6,6,7,7,9,9,10,10,12,12,13,13,14,14,15,15,16,16,19,19,21,21,23,23,25,25,29,29,30,30,35,35,36,36,37,37,38,38],"right_children":[2,4,6,8,10,12,14,16,-1,18,20,-1,22,24,26,28,30,-1,-1,32,-1,34,-1,36,-1,38,-1,-1,-1,40,42,-1,-1,-1,-1,44,46,48,50,-1,-1,-1,-1,-1,-1,-1,-1,-1,-1,-1,-1],"split_conditions":[2.02E3,2.018E3,2.023E3,2.3E1,2E0,2.022E3,2.024E3,3.1E1,5.4494635E2,2.019E3,1.2E1,-5.995079E2,1.2E1,1E0,4E0,3E0,2.6E1,2.5694904E2,1.0945051E3,4E0,6.425973E2,6E0,1.2260449E1,3.1E1,1.967711E2,9E0,5.1492334E2,2.8896884E2,4.2272655E1,2E0,7E0,3.1763306E2,-5.7666016E0,-4.0029214E2,-1.9461081E2,2E0,6E0,2.025E3,2E1,-5.5138058E1,4.0370922E1,-1.2380339E1,-2.4844324E2,3.8079884E1,2.968711E0,1.1865664E2,4.1631878E1,1.7978264E2,3.8744687E2,1.5734285E2,-5.272715E1],"split_indices":[0,0,0,4,1,0,0,5,0,0,1,0,1,2,3,1,6,0,0,3,0,1,0,5,0,1,0,0,0,3,1,0,0,0,0,1,4,0,4,0,0,0,0,0,0,0,0,0,0,0,0],"split_type":[0,0,0,0,0,0,0,0,0,0,0,0,0,0,0,0,0,0,0,0,0,0,0,0,0,0,0,0,0,0,0,0,0,0,0,0,0,0,0,0,0,0,0,0,0,0,0,0,0,0,0],"sum_hessian":[1.12E2,4.3E1,6.9E1,2.2E1,2.1E1,3.4E1,3.5E1,2E1,2E0,2E0,1.9E1,2.3E1,1.1E1,1.2E1,2.3E1,3E0,1.7E1,1E0,1E0,1.8E1,1E0,1E1,1E0,1E1,2E0,2E1,3E0,2E0,1E0,1.3E1,4E0,1.7E1,1E0,4E0,6E0,5E0,5E0,1.5E1,5E0,5E0,8E0,2E0,2E0,1E0,4E0,1E0,4E0,8E0,7E0,4E0,1E0],"tree_param":{"num_deleted":"0","num_feature":"11","num_nodes":"51","size_leaf_vector":"1"}},{"base_weights":[-8.9494156E1,9.9588116E2,-1.125991E4,3.744461E3,-1.4709603E3,-1.5588033E2,-5.909105E2,1.5982631E3,7.049075E3,-3.730374E3,2.6695325E3,4.550166E3,-6.123074E3,1.406419E4,4.2407646E3,-5.096935E3,9.356341E2,5.058317E3,-1.5459341E3,2.9582732E3,7.088348E2,2.7145078E3,-9.035885E3,8.401868E2,7.76502E1,2.214971E3,5.345186E3,-2.7450046E3,-6.68932E3,-9.5961006E1,2.0254811E3,6.018641E2,6.972089E3,3.3062267E1,-1.9592125E2,-4.6304577E1,2.1150089E2,1.6321797E2,4.0370117E1,-5.6377216E2,-1.14566345E2,5.288347E0,1.5187497E2,2.8370544E2,6.7845116E1,-4.107673E2,-1.41184E1,-3.870033E2,-8.01032E1,1.7999908E2,3.378422E1,1.5126836E2,-2.2730371E2,4.3524902E2,1.3148648E2],"categories":[],"categories_nodes":[],"categories_segments":[],"categories_sizes":[],"default_left":[0,0,0,0,0,0,0,0,0,0,0,0,0,0,0,0,0,0,0,0,0,0,0,0,0,0,0,0,0,0,0,0,0,0,0,0,0,0,0,0,0,0,0,0,0,0,0,0,0,0,0,0,0,0,0],"id":31,"left_children":[1,3,5,7,9,-1,-1,11,13,15,17,19,21,23,25,27,29,31,33,35,-1,37,39,-1,-1,41,43,45,47,-1,49,51,53,-1,-1,-1,-1,-1,-1,-1,-1,-1,-1,-1,-1,-1,-1,-1,-1,-1,-1,-1,-1,-1,-1],"loss_changes":[1.369112E9,7.0387994E8,8.614016E6,3.362592E8,5.244881E8,0E0,0E0,7.3443283E8,3.1466874E8,2.3431872E8,2.0921664E8,3.1052278E8,2.5620774E8,1.4527872E8,2.1720512E7,8.650278E7,3.1889532E7,1.0667603E8,4.4483144E7,1.076557E8,0E0,5.10224E5,7.989811E7,0E0,0E0,1.1822892E7,4.107328E6,1.7280925E8,7.312653E7,0E0,1.2444338E7,7.613377E7,4.4831776E7,0E0,0E0,0E0,0E0,0E0,0E0,0E0,0E0,0E0,0E0,0E0,0E0,0E0,0E0,0E0,0E0,0E0,0E0,0E0,0E0,0E0,0E0],"parents":[2147483647,0,0,1,1,2,2,3,3,4,4,7,7,8,8,9,9,10,10,11,11,12,12,13,13,14,14,15,15,16,16,17,17,18,18,19,19,21,21,22,22,25,25,26,26,27,27,28,28,30,30,31,31,32,32],"right_children":[2,4,6,8,10,-1,-1,12,14,16,18,20,22,24,26,28,30,32,34,36,-1,38,40,-1,-1,42,44,46,48,-1,50,52,54,-1,-1,-1,-1,-1,-1,-1,-1,-1,-1,-1,-1,-1,-1,-1,-1,-1,-1,-1,-1,-1,-1],"split_conditions":[1E0,4.4E-1,4E0,3.4E0,2.6E1,-1.5588033E2,-5.909105E2,2.4E0,2.5E1,5.6E0,5E0,1.2E1,1E-1,3E0,2.4E-1,6.8E-1,8E0,2.7E0,7.2E0,4E0,7.088348E2,7E0,5E0,8.401868E2,7.76502E1,1.4E1,1.6E1,5.3E-1,1.9E1,-9.5961006E1,6.9E-1,3.1E1,3.5E0,3.3062267E1,-1.9592125E2,-4.6304577E1,2.1150089E2,1.6321797E2,4.0370117E1,-5.6377216E2,-1.14566345E2,5.288347E0,1.5187497E2,2.8370544E2,6.7845116E1,-4.107673E2,-1.41184E1,-3.870033E2,-8.01032E1,1.7999908E2,3.378422E1,1.5126836E2,-2.2730371E2,4.3524902E2,1.3148648E2],"split_indices":[10,7,1,8,6,0,0,8,6,8,8,1,7,1,7,7,4,8,8,1,0,4,1,0,0,4,4,7,4,0,7,5,8,0,0,0,0,0,0,0,0,0,0,0,0,0,0,0,0,0,0,0,0,0,0],"split_type":[0,0,0,0,0,0,0,0,0,0,0,0,0,0,0,0,0,0,0,0,0,0,0,0,0,0,0,0,0,0,0,0,0,0,0,0,0,0,0,0,0,0,0,0,0,0,0,0,0,0,0,0,0,0,0],"sum_hessian":[1.11E2,1.02E2,9E0,4.8E1,5.4E1,1E0,8E0,3E1,1.8E1,3.5E1,1.9E1,2.2E1,8E0,4E0,1.4E1,2.7E1,8E0,1.2E1,7E0,2E1,2E0,2E0,6E0,3E0,1E0,6E0,8E0,1.2E1,1.5E1,2E0,6E0,4E0,8E0,4E0,3E0,5E0,1.5E1,1E0,1E0,4E0,2E0,2E0,4E0,7E0,1E0,3E0,9E0,1.2E1,3E0,2E0,4E0,3E0,1E0,5E0,3E0],"tree_param":{"num_deleted":"0","num_feature":"11","num_nodes":"55","size_leaf_vector":"1"}},{"base_weights":[2.3016359E2,1.3065107E3,-1.0771595E4,4.395202E3,-1.01906415E3,-1.519833E2,-5.646479E2,2.474661E3,9.931855E3,-8.581442E3,4.411751E3,1.6547723E3,5.1976263E2,6.7404907E3,1.0461377E3,-1.022783E4,-2.8867573E3,6.133553E3,2.444851E3,-1.1082357E2,3.6631692E3,4.783605E3,6.088115E2,-1.4987247E2,-5.231496E2,1.1109278E1,-1.7209727E2,6.450613E1,6.6583496E3,3.68287E3,1.3222145E3,4.5625977E1,-1.4770097E2,2.1381506E2,-1.0739584E1,9.881836E1,2.6516675E2,1.9840459E2,3.9378476E2,6.517559E1,2.1293689E2,1.4588554E2,1.7959473E1],"categories":[],"categories_nodes":[],"categories_segments":[],"categories_sizes":[],"default_left":[0,0,0,0,0,0,0,0,0,0,0,0,0,0,0,0,0,0,0,0,0,0,0,0,0,0,0,0,0,0,0,0,0,0,0,0,0,0,0,0,0,0,0],"id":32,"left_children":[1,3,5,7,9,-1,-1,11,13,15,17,19,-1,21,-1,23,25,27,29,31,33,35,-1,-1,-1,-1,-1,-1,37,39,41,-1,-1,-1,-1,-1,-1,-1,-1,-1,-1,-1,-1],"loss_changes":[1.3285033E9,7.371433E8,5.984384E6,4.4329024E8,2.460982E9,0E0,0E0,2.0359432E8,2.4480614E8,2.0486618E8,1.0353581E8,1.1387851E8,0E0,4.812493E7,0E0,9.43616E5,1.2847092E7,3.716256E7,2.0147672E7,5.5067776E7,3.658403E7,2.649696E6,0E0,0E0,0E0,0E0,0E0,0E0,2.1148096E7,5.410256E6,1.5853522E7,0E0,0E0,0E0,0E0,0E0,0E0,0E0,0E0,0E0,0E0,0E0,0E0],"parents":[2147483647,0,0,1,1,2,2,3,3,4,4,7,7,8,8,9,9,10,10,11,11,13,13,15,15,16,16,17,17,18,18,19,19,20,20,21,21,28,28,29,29,30,30],"right_children":[2,4,6,8,10,-1,-1,12,14,16,18,20,-1,22,-1,24,26,28,30,32,34,36,-1,-1,-1,-1,-1,-1,38,40,42,-1,-1,-1,-1,-1,-1,-1,-1,-1,-1,-1,-1],"split_conditions":[1E0,2.02E3,1E0,2.019E3,2.023E3,-1.519833E2,-5.646479E2,2.3E1,2.7E0,5.6E0,3.5E0,3.7E0,5.1976263E2,1E0,1.0461377E3,2.5E-1,3E1,1.6E-1,4.9E-1,2.6E1,1.7E1,3.2E1,6.088115E2,-1.4987247E2,-5.231496E2,1.1109278E1,-1.7209727E2,6.450613E1,1.6E0,2.6E1,6E0,4.5625977E1,-1.4770097E2,2.1381506E2,-1.0739584E1,9.881836E1,2.6516675E2,1.9840459E2,3.9378476E2,6.517559E1,2.1293689E2,1.4588554E2,1.7959473E1],"split_indices":[10,0,8,0,0,0,0,4,8,8,8,8,0,9,0,7,5,7,7,6,4,5,0,0,0,0,0,0,8,6,4,0,0,0,0,0,0,0,0,0,0,0,0],"split_type":[0,0,0,0,0,0,0,0,0,0,0,0,0,0,0,0,0,0,0,0,0,0,0,0,0,0,0,0,0,0,0,0,0,0,0,0,0,0,0,0,0,0,0],"sum_hessian":[1.1E2,1.01E2,9E0,4.3E1,5.8E1,1E0,8E0,3.3E1,1E1,2.4E1,3.4E1,3.1E1,2E0,9E0,1E0,1.8E1,6E0,1.7E1,1.7E1,1.7E1,1.4E1,8E0,1E0,1E0,1.7E1,1E0,5E0,2E0,1.5E1,7E0,1E1,1.3E1,4E0,1.2E1,2E0,2E0,6E0,6E0,9E0,2E0,5E0,3E0,7E0],"tree_param":{"num_deleted":"0","num_feature":"11","num_nodes":"43","size_leaf_vector":"1"}},{"base_weights":[3.261961E2,4.656142E3,-2.7910493E3,2.6776597E3,1.0038703E4,-8.870967E3,3.967281E3,1.92642E3,5.024371E2,7.2422793E3,1.0199842E3,-1.0080533E4,-2.7654175E3,1.2308529E3,5.410774E3,2.6115997E2,4.818862E3,1.6048409E2,8.353293E3,-1.9620628E2,-5.201588E2,-1.6492653E2,1.0831543E1,2.5466074E3,5.0931165E2,4.1147183E3,4.7831583E2,4.288951E3,-6.005413E2,2.577074E2,2.8267872E1,3.9455703E3,5.1044064E2,1.0960352E1,1.6246693E2,-7.530762E1,8.1417255E2,-4.8083984E1,5.010182E3,3.622334E1,2.617812E2,4.3942818E1,-8.7818146E1,2.7195834E2,-1.3380469E1,-7.6864586E0,3.998926E0,8.692448E0,5.4543606E1,1.1592403E2,-8.048828E1,1.2564855E2,3.2844846E2],"categories":[],"categories_nodes":[],"categories_segments":[],"categories_sizes":[],"default_left":[0,0,0,0,0,0,0,0,0,0,0,0,0,0,0,0,0,0,0,0,0,0,0,0,0,0,0,0,0,0,0,0,0,0,0,0,0,0,0,0,0,0,0,0,0,0,0,0,0,0,0,0,0],"id":33,"left_children":[1,3,5,7,9,11,13,15,-1,17,-1,19,21,23,25,27,29,-1,31,-1,-1,-1,-1,33,35,37,-1,39,41,-1,-1,43,-1,-1,-1,45,47,49,51,-1,-1,-1,-1,-1,-1,-1,-1,-1,-1,-1,-1,-1,-1],"loss_changes":[1.4842234E9,4.6298765E8,2.6649592E9,1.744526E8,1.9994406E8,2.2321562E8,1.1579056E8,1.5769158E8,0E0,2.2471552E7,0E0,1.4793472E7,1.1842944E7,1.0095438E7,6.835354E7,7.893226E7,1.4199744E7,0E0,2.5149312E7,0E0,0E0,0E0,0E0,5.829868E6,1.6653612E6,6.361075E7,0E0,9.70456E6,3.4032068E7,0E0,0E0,2.6626732E7,0E0,0E0,0E0,6.1006145E4,8.7341675E5,1.8515492E7,3.7989056E7,0E0,0E0,0E0,0E0,0E0,0E0,0E0,0E0,0E0,0E0,0E0,0E0,0E0,0E0],"parents":[2147483647,0,0,1,1,2,2,3,3,4,4,5,5,6,6,7,7,9,9,11,11,12,12,13,13,14,14,15,15,16,16,18,18,23,23,24,24,25,25,27,27,28,28,31,31,35,35,36,36,37,37,38,38],"right_children":[2,4,6,8,10,12,14,16,-1,18,-1,20,22,24,26,28,30,-1,32,-1,-1,-1,-1,34,36,38,-1,40,42,-1,-1,44,-1,-1,-1,46,48,50,52,-1,-1,-1,-1,-1,-1,-1,-1,-1,-1,-1,-1,-1,-1],"split_conditions":[2.02E3,2.019E3,2.023E3,2.3E1,3.9E0,5.6E0,2.024E3,2.018E3,5.024371E2,6E0,1.0199842E3,1E0,3E0,6E0,3E0,3.1E1,1E0,1.6048409E2,2.5E1,-1.9620628E2,-5.201588E2,-1.6492653E2,1.0831543E1,4E0,6E0,1.5E0,4.7831583E2,3E0,2.6E0,2.577074E2,2.8267872E1,3E0,5.1044064E2,1.0960352E1,1.6246693E2,3.1E1,1.3E1,5E0,2.025E3,3.622334E1,2.617812E2,4.3942818E1,-8.7818146E1,2.7195834E2,-1.3380469E1,-7.6864586E0,3.998926E0,8.692448E0,5.4543606E1,1.1592403E2,-8.048828E1,1.2564855E2,3.2844846E2],"split_indices":[0,0,0,4,8,8,0,0,0,4,0,8,3,4,3,5,9,0,6,0,0,0,0,4,8,8,0,4,8,0,0,3,0,0,0,5,4,4,0,0,0,0,0,0,0,0,0,0,0,0,0,0,0],"split_type":[0,0,0,0,0,0,0,0,0,0,0,0,0,0,0,0,0,0,0,0,0,0,0,0,0,0,0,0,0,0,0,0,0,0,0,0,0,0,0,0,0,0,0,0,0,0,0,0,0,0,0,0,0],"sum_hessian":[1.08E2,4.5E1,6.3E1,3.4E1,1.1E1,3.3E1,3E1,3.2E1,2E0,1E1,1E0,2.7E1,6E0,1.1E1,1.9E1,2.1E1,1.1E1,3E0,7E0,2E0,2.5E1,5E0,1E0,3E0,8E0,1.6E1,3E0,3E0,1.8E1,1E1,1E0,3E0,4E0,1E0,2E0,3E0,5E0,3E0,1.3E1,1E0,2E0,8E0,1E1,2E0,1E0,2E0,1E0,2E0,3E0,1E0,2E0,6E0,7E0],"tree_param":{"num_deleted":"0","num_feature":"11","num_nodes":"53","size_leaf_vector":"1"}},{"base_weights":[2.8382614E2,4.8167637E3,-2.4534426E3,1.1902994E4,3.007746E3,-8.629735E3,3.6164832E3,2.4600708E2,7.5543384E2,2.79438E2,5.1469663E3,1.0560742E1,-8.904044E3,2.9011768E3,4.217407E2,2.1661973E3,-1.42873E3,6.7833203E2,5.632786E3,-4.8880695E2,-5.9206104E3,3.7205352E3,7.2653516E2,4.712871E3,5.3182745E2,-3.4415483E3,8.6983435E2,6.39209E1,-1.3045997E1,4.53276E3,5.8083026E2,-3.9010568E2,-1.2393426E2,2.4234087E3,3.1695972E2,-3.973711E2,2.5117373E3,-7.8209963E0,3.6128635E2,1.0014648E1,5.47375E1,-2.2395781E2,1.772207E1,-2.57569E1,9.8243095E1,2.3807237E2,2.7561132E1,4.4855568E1,1.4923033E2,1.8867228E1,-7.780534E1,-5.677246E0,1.71234E2],"categories":[],"categories_nodes":[],"categories_segments":[],"categories_sizes":[],"default_left":[0,0,0,0,0,0,0,0,0,0,0,0,0,0,0,0,0,0,0,0,0,0,0,0,0,0,0,0,0,0,0,0,0,0,0,0,0,0,0,0,0,0,0,0,0,0,0,0,0,0,0,0,0],"id":34,"left_children":[1,3,5,7,9,11,13,-1,-1,15,17,-1,19,21,-1,23,25,27,29,-1,31,33,35,37,39,41,43,-1,-1,45,-1,-1,-1,47,-1,49,51,-1,-1,-1,-1,-1,-1,-1,-1,-1,-1,-1,-1,-1,-1,-1,-1],"loss_changes":[1.3518674E9,4.897826E8,2.5805046E9,1.0474163E8,1.9700112E8,8.433587E7,9.615952E7,0E0,0E0,5.4661344E7,3.742717E7,0E0,2.7980032E7,5.431485E7,0E0,3.079122E7,4.463291E7,2.0244605E6,5.92448E7,0E0,4.542096E7,6.276237E7,2.1062092E7,3.7837724E7,9.004984E5,2.1281336E7,8.595091E6,0E0,0E0,1.194384E7,0E0,0E0,0E0,1.1883912E7,0E0,6.8710225E6,9.975778E6,0E0,0E0,0E0,0E0,0E0,0E0,0E0,0E0,0E0,0E0,0E0,0E0,0E0,0E0,0E0,0E0],"parents":[2147483647,0,0,1,1,2,2,3,3,4,4,5,5,6,6,9,9,10,10,12,12,13,13,15,15,16,16,17,17,18,18,20,20,21,21,22,22,23,23,24,24,25,25,26,26,29,29,33,33,35,35,36,36],"right_children":[2,4,6,8,10,12,14,-1,-1,16,18,-1,20,22,-1,24,26,28,30,-1,32,34,36,38,40,42,44,-1,-1,46,-1,-1,-1,48,-1,50,52,-1,-1,-1,-1,-1,-1,-1,-1,-1,-1,-1,-1,-1,-1,-1,-1],"split_conditions":[2.02E3,3.1E1,2.023E3,1.8E-1,2.018E3,3E1,1.2E1,2.4600708E2,7.5543384E2,7E0,1.7E-1,1.0560742E1,2.022E3,9E0,4.217407E2,2E0,2E0,2.019E3,4E0,-4.8880695E2,6E0,2.025E3,1.1E1,2.017E3,6E0,8.3E-1,5.9E-1,6.39209E1,-1.3045997E1,1.2E1,5.8083026E2,-3.9010568E2,-1.2393426E2,2.6E1,3.1695972E2,2.025E3,2.024E3,-7.8209963E0,3.6128635E2,1.0014648E1,5.47375E1,-2.2395781E2,1.772207E1,-2.57569E1,9.8243095E1,2.3807237E2,2.7561132E1,4.4855568E1,1.4923033E2,1.8867228E1,-7.780534E1,-5.677246E0,1.71234E2],"split_indices":[0,5,0,7,0,5,1,0,0,1,7,0,0,1,0,3,3,0,3,0,1,0,1,0,1,7,7,0,0,1,0,0,0,6,0,0,0,0,0,0,0,0,0,0,0,0,0,0,0,0,0,0,0],"split_type":[0,0,0,0,0,0,0,0,0,0,0,0,0,0,0,0,0,0,0,0,0,0,0,0,0,0,0,0,0,0,0,0,0,0,0,0,0,0,0,0,0,0,0,0,0,0,0,0,0,0,0,0,0],"sum_hessian":[1.07E2,4E1,6.7E1,7E0,3.3E1,3.3E1,3.4E1,3E0,4E0,1.5E1,1.8E1,1E0,3.2E1,3.1E1,3E0,7E0,8E0,2E0,1.6E1,2.3E1,9E0,2.2E1,9E0,2E0,5E0,4E0,4E0,1E0,1E0,1.5E1,1E0,5E0,4E0,1.6E1,6E0,6E0,3E0,1E0,1E0,4E0,1E0,3E0,1E0,2E0,2E0,1.4E1,1E0,5E0,1.1E1,4E0,2E0,1E0,2E0],"tree_param":{"num_deleted":"0","num_feature":"11","num_nodes":"53","size_leaf_vector":"1"}},{"base_weights":[7.2592175E2,4.336244E3,-1.9367512E3,1.0796593E4,2.9357683E3,-7.7259897E3,3.3986353E3,7.750094E2,4.8743984E3,2.530582E2,5.3509316E3,-8.956479E3,-4.674512E3,2.2491697E3,5.5975933E3,5.9286787E3,1.6431934E1,-4.7521054E2,3.5225412E2,2.2805781E3,6.167881E3,-1.0177627E2,-4.600375E2,-3.752435E2,-2.6750195E3,1.408811E3,2.9721277E3,3.3744866E3,3.7952118E2,9.152451E1,3.342289E2,3.2100208E2,-2.7688062E3,2.8384524E3,-1.2719825E1,2.4207132E2,5.1510223E2,-1.5580017E2,1.02966795E1,7.6092865E2,1.6573882E2,1.4888125E3,3.3011423E3,2.4154634E2,-1.7774219E2,6.1442383E1,-2.1038347E1,-8.282291E0,-2.2245157E2,1.6396724E2,2.687207E1,9.909213E0,5.984258E1,8.454766E1,2.2059767E1,8.7054054E1,1.8954965E2,-5.6624218E1,4.3293556E1],"categories":[],"categories_nodes":[],"categories_segments":[],"categories_sizes":[],"default_left":[0,0,0,0,0,0,0,0,0,0,0,0,0,0,0,0,0,0,0,0,0,0,0,0,0,0,0,0,0,0,0,0,0,0,0,0,0,0,0,0,0,0,0,0,0,0,0,0,0,0,0,0,0,0,0,0,0,0,0],"id":35,"left_children":[1,3,5,7,9,11,13,-1,15,17,19,21,23,25,27,29,-1,31,-1,33,35,-1,-1,-1,37,39,41,43,-1,-1,-1,45,47,49,-1,-1,-1,-1,-1,51,-1,53,55,-1,57,-1,-1,-1,-1,-1,-1,-1,-1,-1,-1,-1,-1,-1,-1],"loss_changes":[1.06584006E9,3.9353914E8,2.0030785E9,1.4729075E8,2.5781322E8,7.453184E7,7.334931E7,0E0,2.2014128E7,1.0227627E8,3.860845E7,1.6774144E7,4.21764E7,1.0393888E7,2.3119232E7,1.55216E5,0E0,3.55864E7,0E0,9.207274E6,3.7864E7,0E0,0E0,0E0,1.0805316E7,1.353063E7,9.41608E5,3.707391E7,0E0,0E0,0E0,1.0618234E7,2.1132512E7,3.31004E6,0E0,0E0,0E0,0E0,0E0,2.461248E6,0E0,1.01023E5,2.77352E5,0E0,3.9697305E6,0E0,0E0,0E0,0E0,0E0,0E0,0E0,0E0,0E0,0E0,0E0,0E0,0E0,0E0],"parents":[2147483647,0,0,1,1,2,2,3,3,4,4,5,5,6,6,8,8,9,9,10,10,11,11,12,12,13,13,14,14,15,15,17,17,19,19,20,20,24,24,25,25,26,26,27,27,31,31,32,32,33,33,39,39,41,41,42,42,44,44],"right_children":[2,4,6,8,10,12,14,-1,16,18,20,22,24,26,28,30,-1,32,-1,34,36,-1,-1,-1,38,40,42,44,-1,-1,-1,46,48,50,-1,-1,-1,-1,-1,52,-1,54,56,-1,58,-1,-1,-1,-1,-1,-1,-1,-1,-1,-1,-1,-1,-1,-1],"split_conditions":[2.02E3,3.1E1,2.023E3,2E0,2.018E3,2.022E3,2.025E3,7.750094E2,3E0,2.3E1,2.5E1,2E0,6E0,2.024E3,1.3E1,2.017E3,1.6431934E1,2.6E1,3.5225412E2,2.019E3,1.1E1,-1.0177627E2,-4.600375E2,-3.752435E2,1.2E1,1E0,4E0,9E0,3.7952118E2,9.152451E1,3.342289E2,2.017E3,7E0,1.2E1,-1.2719825E1,2.4207132E2,5.1510223E2,-1.5580017E2,1.02966795E1,3.1E1,1.6573882E2,3E0,1E0,2.4154634E2,1E1,6.1442383E1,-2.1038347E1,-8.282291E0,-2.2245157E2,1.6396724E2,2.687207E1,9.909213E0,5.984258E1,8.454766E1,2.2059767E1,8.7054054E1,1.8954965E2,-5.6624218E1,4.3293556E1],"split_indices":[0,5,0,1,0,0,0,0,1,4,6,1,1,0,4,0,0,6,0,0,1,0,0,0,1,2,1,1,0,0,0,0,1,1,0,0,0,0,0,5,0,1,3,0,1,0,0,0,0,0,0,0,0,0,0,0,0,0,0],"split_type":[0,0,0,0,0,0,0,0,0,0,0,0,0,0,0,0,0,0,0,0,0,0,0,0,0,0,0,0,0,0,0,0,0,0,0,0,0,0,0,0,0,0,0,0,0,0,0,0,0,0,0,0,0,0,0,0,0,0,0],"sum_hessian":[1.09E2,4.6E1,6.3E1,7E0,3.9E1,3E1,3.3E1,3E0,4E0,1.9E1,2E1,2E1,1E1,2.3E1,1E1,3E0,1E0,1.8E1,1E0,5E0,1.5E1,1E0,1.9E1,3E0,7E0,1.2E1,1.1E1,6E0,4E0,1E0,2E0,1.4E1,4E0,4E0,1E0,1.3E1,2E0,6E0,1E0,1E1,2E0,3E0,8E0,4E0,2E0,6E0,8E0,2E0,2E0,3E0,1E0,5E0,5E0,2E0,1E0,3E0,5E0,1E0,1E0],"tree_param":{"num_deleted":"0","num_feature":"11","num_nodes":"59","size_leaf_vector":"1"}},{"base_weights":[-4.9241924E1,3.680915E3,-2.3439656E3,-5.779659E2,5.1198076E3,-7.930986E3,3.6654924E3,9.974883E2,-3.5843828E3,4.2011885E3,4.436332E2,-9.255202E3,-3.8273455E3,1.1379672E3,4.935245E3,1.4100469E3,-8.00625E0,-2.1503645E2,-3.5883595E1,5.950709E3,1.6641891E3,-2.7645035E2,-5.198556E2,-4.297225E3,1.0039258E1,4.042754E2,1.602142E2,3.8820322E3,4.2204465E2,1.25977545E1,1.5912742E3,6.398034E3,-7.796094E0,3.9807715E2,3.3571304E3,-4.6752735E1,-4.6006143E3,-1.3298535E2,6.535279E2,1.7410385E3,4.807443E3,9.158315E1,1.5742969E1,2.5936615E2,5.5343207E2,4.379573E1,-7.366963E1,5.2866604E1,2.2689427E2,-2.458614E2,-5.960801E1,-1.3279297E0,