{"learner":{"attributes":{"scikit_learn":"{\"_estimator_type\": \"regressor\"}"},"feature_names":["year","month","peak_season","philippine_holidays","top10market_holidays","avg_hightemp","avg_lowtemp","precipitation","lag_1","lag_2","rolling_mean_3m","growth_rate","sudden_increase","inflation_rate","is_december","is_lockdown"],"feature_types":["int","int","int","int","int","float","float","float","float","float","float","float","int","float","int","int"],"gradient_booster":{"model":{"cats":{"enc":[],"feature_segments":[],"sorted_idx":[]},"gbtree_model_param":{"num_parallel_tree":"1","num_trees":"400"},"iteration_indptr":[0,1,2,3,4,5,6,7,8,9,10,11,12,13,14,15,16,17,18,19,20,21,22,23,24,25,26,27,28,29,30,31,32,33,34,35,36,37,38,39,40,41,42,43,44,45,46,47,48,49,50,51,52,53,54,55,56,57,58,59,60,61,62,63,64,65,66,67,68,69,70,71,72,73,74,75,76,77,78,79,80,81,82,83,84,85,86,87,88,89,90,91,92,93,94,95,96,97,98,99,100,101,102,103,104,105,106,107,108,109,110,111,112,113,114,115,116,117,118,119,120,121,122,123,124,125,126,127,128,129,130,131,132,133,134,135,136,137,138,139,140,141,142,143,144,145,146,147,148,149,150,151,152,153,154,155,156,157,158,159,160,161,162,163,164,165,166,167,168,169,170,171,172,173,174,175,176,177,178,179,180,181,182,183,184,185,186,187,188,189,190,191,192,193,194,195,196,197,198,199,200,201,202,203,204,205,206,207,208,209,210,211,212,213,214,215,216,217,218,219,220,221,222,223,224,225,226,227,228,229,230,231,232,233,234,235,236,237,238,239,240,241,242,243,244,245,246,247,248,249,250,251,252,253,254,255,256,257,258,259,260,261,262,263,264,265,266,267,268,269,270,271,272,273,274,275,276,277,278,279,280,281,282,283,284,285,286,287,288,289,290,291,292,293,294,295,296,297,298,299,300,301,302,303,304,305,306,307,308,309,310,311,312,313,314,315,316,317,318,319,320,321,322,323,324,325,326,327,328,329,330,331,332,333,334,335,336,337,338,339,340,341,342,343,344,345,346,347,348,349,350,351,352,353,354,355,356,357,358,359,360,361,362,363,364,365,366,367,368,369,370,371,372,373,374,375,376,377,378,379,380,381,382,383,384,385,386,387,388,389,390,391,392,393,394,395,396,397,398,399,400],"tree_info":[0,0,0,0,0,0,0,0,0,0,0,0,0,0,0,0,0,0,0,0,0,0,0,0,0,0,0,0,0,0,0,0,0,0,0,0,0,0,0,0,0,0,0,0,0,0,0,0,0,0,0,0,0,0,0,0,0,0,0,0,0,0,0,0,0,0,0,0,0,0,0,0,0,0,0,0,0,0,0,0,0,0,0,0,0,0,0,0,0,0,0,0,0,0,0,0,0,0,0,0,0,0,0,0,0,0,0,0,0,0,0,0,0,0,0,0,0,0,0,0,0,0,0,0,0,0,0,0,0,0,0,0,0,0,0,0,0,0,0,0,0,0,0,0,0,0,0,0,0,0,0,0,0,0,0,0,0,0,0,0,0,0,0,0,0,0,0,0,0,0,0,0,0,0,0,0,0,0,0,0,0,0,0,0,0,0,0,0,0,0,0,0,0,0,0,0,0,0,0,0,0,0,0,0,0,0,0,0,0,0,0,0,0,0,0,0,0,0,0,0,0,0,0,0,0,0,0,0,0,0,0,0,0,0,0,0,0,0,0,0,0,0,0,0,0,0,0,0,0,0,0,0,0,0,0,0,0,0,0,0,0,0,0,0,0,0,0,0,0,0,0,0,0,0,0,0,0,0,0,0,0,0,0,0,0,0,0,0,0,0,0,0,0,0,0,0,0,0,0,0,0,0,0,0,0,0,0,0,0,0,0,0,0,0,0,0,0,0,0,0,0,0,0,0,0,0,0,0,0,0,0,0,0,0,0,0,0,0,0,0,0,0,0,0,0,0,0,0,0,0,0,0,0,0,0,0,0,0,0,0,0,0,0,0,0,0,0,0,0,0,0,0,0,0,0,0,0,0,0,0,0,0,0,0,0,0,0,0,0,0,0,0,0,0,0,0,0,0,0,0],"trees":[{"base_weights":[8.753038E2,-3.3405945E4,1.6361954E4,-1.4162776E3,-5.124866E2,1.8215358E2,9.616893E2],"categories":[],"categories_nodes":[],"categories_segments":[],"categories_sizes":[],"default_left":[0,0,0,0,0,0,0],"id":0,"left_children":[1,3,5,-1,-1,-1,-1],"loss_changes":[4.2223784E10,2.259886E9,6.1898813E9,0E0,0E0,0E0,0E0],"parents":[2147483647,0,0,1,1,2,2],"right_children":[2,4,6,-1,-1,-1,-1],"split_conditions":[3.5973332E4,1.227E4,6.5030668E4,-1.4162776E3,-5.124866E2,1.8215358E2,9.616893E2],"split_indices":[10,8,10,0,0,0,0],"split_type":[0,0,0,0,0,0,0],"sum_hessian":[7.8E1,2.4E1,5.4E1,1.8E1,6E0,2.6E1,2.8E1],"tree_param":{"num_deleted":"0","num_feature":"16","num_nodes":"7","size_leaf_vector":"1"}},{"base_weights":[3.676021E3,-2.470973E4,2.0821697E4,-1.295978E3,-2.5754095E2,4.0219485E2,1.1152544E3],"categories":[],"categories_nodes":[],"categories_segments":[],"categories_sizes":[],"default_left":[0,0,0,0,0,0,0],"id":1,"left_children":[1,3,5,-1,-1,-1,-1],"loss_changes":[3.9691293E10,5.760758E9,4.6372127E9,0E0,0E0,0E0,0E0],"parents":[2147483647,0,0,1,1,2,2],"right_children":[2,4,6,-1,-1,-1,-1],"split_conditions":[4.2119E4,2.5664E4,6.6966664E4,-1.295978E3,-2.5754095E2,4.0219485E2,1.1152544E3],"split_indices":[8,10,10,0,0,0,0],"split_type":[0,0,0,0,0,0,0],"sum_hessian":[8E1,3E1,5E1,1.8E1,1.2E1,2.6E1,2.4E1],"tree_param":{"num_deleted":"0","num_feature":"16","num_nodes":"7","size_leaf_vector":"1"}},{"base_weights":[-1.4642239E3,-3.1422277E4,1.4065348E4,-1.236908E3,-3.2922992E2,8.466216E1,8.460288E2],"categories":[],"categories_nodes":[],"categories_segments":[],"categories_sizes":[],"default_left":[0,0,0,0,0,0,0],"id":2,"left_children":[1,3,5,-1,-1,-1,-1],"loss_changes":[3.5112358E10,1.2902769E9,5.35156E9,0E0,0E0,0E0,0E0],"parents":[2147483647,0,0,1,1,2,2],"right_children":[2,4,6,-1,-1,-1,-1],"split_conditions":[3.4409E4,2.5664E4,6.1379668E4,-1.236908E3,-3.2922992E2,8.466216E1,8.460288E2],"split_indices":[8,10,10,0,0,0,0],"split_type":[0,0,0,0,0,0,0],"sum_hessian":[7.4E1,2.5E1,4.9E1,2.2E1,3E0,2.2E1,2.7E1],"tree_param":{"num_deleted":"0","num_feature":"16","num_nodes":"7","size_leaf_vector":"1"}},{"base_weights":[-4.0680972E2,-2.9370719E4,1.6094937E4,-1.2886696E3,-4.6521307E2,2.891422E2,1.1112637E3],"categories":[],"categories_nodes":[],"categories_segments":[],"categories_sizes":[],"default_left":[0,0,0,0,0,0,0],"id":3,"left_children":[1,3,5,-1,-1,-1,-1],"loss_changes":[4.1821872E10,2.8761866E9,6.395299E9,0E0,0E0,0E0,0E0],"parents":[2147483647,0,0,1,1,2,2],"right_children":[2,4,6,-1,-1,-1,-1],"split_conditions":[3.9165668E4,4E0,7.2463E4,-1.2886696E3,-4.6521307E2,2.891422E2,1.1112637E3],"split_indices":[10,13,10,0,0,0,0],"split_type":[0,0,0,0,0,0,0],"sum_hessian":[8.6E1,3.1E1,5.5E1,2.2E1,9E0,3.6E1,1.9E1],"tree_param":{"num_deleted":"0","num_feature":"16","num_nodes":"7","size_leaf_vector":"1"}},{"base_weights":[-1.0042001E3,-2.6425504E4,1.6919076E4,-1.1713472E3,-3.038979E2,3.5765237E2,1.0377206E3],"categories":[],"categories_nodes":[],"categories_segments":[],"categories_sizes":[],"default_left":[0,0,0,0,0,0,0],"id":4,"left_children":[1,3,5,-1,-1,-1,-1],"loss_changes":[3.9410336E10,3.564419E9,3.971497E9,0E0,0E0,0E0,0E0],"parents":[2147483647,0,0,1,1,2,2],"right_children":[2,4,6,-1,-1,-1,-1],"split_conditions":[4.1123E4,2.5664E4,7.2463E4,-1.1713472E3,-3.038979E2,3.5765237E2,1.0377206E3],"split_indices":[8,10,10,0,0,0,0],"split_type":[0,0,0,0,0,0,0],"sum_hessian":[8.5E1,3.5E1,5E1,2.6E1,9E0,3.2E1,1.8E1],"tree_param":{"num_deleted":"0","num_feature":"16","num_nodes":"7","size_leaf_vector":"1"}},{"base_weights":[-2.9260315E2,-2.2201168E4,1.886795E4,-1.1310184E3,-2.1555222E2,5.433262E2,1.4843765E3],"categories":[],"categories_nodes":[],"categories_segments":[],"categories_sizes":[],"default_left":[0,0,0,0,0,0,0],"id":5,"left_children":[1,3,5,-1,-1,-1,-1],"loss_changes":[3.7573825E10,5.938936E9,3.6416287E9,0E0,0E0,0E0,0E0],"parents":[2147483647,0,0,1,1,2,2],"right_children":[2,4,6,-1,-1,-1,-1],"split_conditions":[5.0169E4,2.5664E4,1.9512337E1,-1.1310184E3,-2.1555222E2,5.433262E2,1.4843765E3],"split_indices":[8,10,11,0,0,0,0],"split_type":[0,0,0,0,0,0,0],"sum_hessian":[8.8E1,4.1E1,4.7E1,2.6E1,1.5E1,4.1E1,6E0],"tree_param":{"num_deleted":"0","num_feature":"16","num_nodes":"7","size_leaf_vector":"1"}},{"base_weights":[5.7698517E2,-2.080668E4,1.7921533E4,-1.0896035E3,-2.1533688E2,5.117717E2,1.4365073E3],"categories":[],"categories_nodes":[],"categories_segments":[],"categories_sizes":[],"default_left":[0,0,0,0,0,0,0],"id":6,"left_children":[1,3,5,-1,-1,-1,-1],"loss_changes":[3.2087171E10,5.1720806E9,3.5332403E9,0E0,0E0,0E0,0E0],"parents":[2147483647,0,0,1,1,2,2],"right_children":[2,4,6,-1,-1,-1,-1],"split_conditions":[5.0169E4,2.5664E4,1.9512337E1,-1.0896035E3,-2.1533688E2,5.117717E2,1.4365073E3],"split_indices":[8,10,11,0,0,0,0],"split_type":[0,0,0,0,0,0,0],"sum_hessian":[8.5E1,3.8E1,4.7E1,2.3E1,1.5E1,4.1E1,6E0],"tree_param":{"num_deleted":"0","num_feature":"16","num_nodes":"7","size_leaf_vector":"1"}},{"base_weights":[1.3126852E3,-2.0831766E4,1.8487076E4,-1.0433035E3,-1.9959067E2,3.833798E2,1.0547712E3],"categories":[],"categories_nodes":[],"categories_segments":[],"categories_sizes":[],"default_left":[0,0,0,0,0,0,0],"id":7,"left_children":[1,3,5,-1,-1,-1,-1],"loss_changes":[3.024263E10,4.0932598E9,3.5167263E9,0E0,0E0,0E0,0E0],"parents":[2147483647,0,0,1,1,2,2],"right_children":[2,4,6,-1,-1,-1,-1],"split_conditions":[4.9526E4,2.1597E4,7.2463E4,-1.0433035E3,-1.9959067E2,3.833798E2,1.0547712E3],"split_indices":[8,9,10,0,0,0,0],"split_type":[0,0,0,0,0,0,0],"sum_hessian":[7.8E1,3.4E1,4.4E1,2.2E1,1.2E1,2.6E1,1.8E1],"tree_param":{"num_deleted":"0","num_feature":"16","num_nodes":"7","size_leaf_vector":"1"}},{"base_weights":[-1.1986727E3,-2.4503928E4,1.240491E4,-1.0862357E3,-3.823824E2,2.5263919E2,9.0265375E2],"categories":[],"categories_nodes":[],"categories_segments":[],"categories_sizes":[],"default_left":[0,0,0,0,0,0,0],"id":8,"left_children":[1,3,5,-1,-1,-1,-1],"loss_changes":[2.646571E10,2.0887593E9,3.4486108E9,0E0,0E0,0E0,0E0],"parents":[2147483647,0,0,1,1,2,2],"right_children":[2,4,6,-1,-1,-1,-1],"split_conditions":[3.9165668E4,4E0,7.2463E4,-1.0862357E3,-3.823824E2,2.5263919E2,9.0265375E2],"split_indices":[10,13,10,0,0,0,0],"split_type":[0,0,0,0,0,0,0],"sum_hessian":[8.2E1,3E1,5.2E1,2.1E1,9E0,3.7E1,1.5E1],"tree_param":{"num_deleted":"0","num_feature":"16","num_nodes":"7","size_leaf_vector":"1"}},{"base_weights":[-6.311308E2,-1.9748164E4,1.6407234E4,-9.816303E2,-2.0042178E2,4.564845E2,1.3483644E3],"categories":[],"categories_nodes":[],"categories_segments":[],"categories_sizes":[],"default_left":[0,0,0,0,0,0,0],"id":9,"left_children":[1,3,5,-1,-1,-1,-1],"loss_changes":[2.8176984E10,4.1139845E9,3.2843284E9,0E0,0E0,0E0,0E0],"parents":[2147483647,0,0,1,1,2,2],"right_children":[2,4,6,-1,-1,-1,-1],"split_conditions":[5.0169E4,2.5664E4,1.9512337E1,-9.816303E2,-2.0042178E2,4.564845E2,1.3483644E3],"split_indices":[8,10,11,0,0,0,0],"split_type":[0,0,0,0,0,0,0],"sum_hessian":[8.5E1,4E1,4.5E1,2.6E1,1.4E1,3.9E1,6E0],"tree_param":{"num_deleted":"0","num_feature":"16","num_nodes":"7","size_leaf_vector":"1"}},{"base_weights":[1.51784E1,-1.8763504E4,1.5396834E4,-9.773647E2,-2.1301755E2,4.33726E2,1.3080085E3],"categories":[],"categories_nodes":[],"categories_segments":[],"categories_sizes":[],"default_left":[0,0,0,0,0,0,0],"id":10,"left_children":[1,3,5,-1,-1,-1,-1],"loss_changes":[2.6143576E10,4.1676206E9,3.2168827E9,0E0,0E0,0E0,0E0],"parents":[2147483647,0,0,1,1,2,2],"right_children":[2,4,6,-1,-1,-1,-1],"split_conditions":[5.0169E4,2.2309666E4,7.9832E4,-9.773647E2,-2.1301755E2,4.33726E2,1.3080085E3],"split_indices":[8,10,10,0,0,0,0],"split_type":[0,0,0,0,0,0,0],"sum_hessian":[8.9E1,4E1,4.9E1,2.4E1,1.6E1,4.3E1,6E0],"tree_param":{"num_deleted":"0","num_feature":"16","num_nodes":"7","size_leaf_vector":"1"}},{"base_weights":[-7.410071E2,-2.1946994E4,9.445065E3,-9.4438947E2,-3.4331757E2,-1.4137889E1,5.5896783E2],"categories":[],"categories_nodes":[],"categories_segments":[],"categories_sizes":[],"default_left":[0,0,0,0,0,0,0],"id":11,"left_children":[1,3,5,-1,-1,-1,-1],"loss_changes":[1.7816046E10,1.17265E9,3.2674627E9,0E0,0E0,0E0,0E0],"parents":[2147483647,0,0,1,1,2,2],"right_children":[2,4,6,-1,-1,-1,-1],"split_conditions":[3.5973332E4,4E0,5.6852332E4,-9.4438947E2,-3.4331757E2,-1.4137889E1,5.5896783E2],"split_indices":[10,13,10,0,0,0,0],"split_type":[0,0,0,0,0,0,0],"sum_hessian":[8.1E1,2.6E1,5.5E1,1.9E1,7E0,2.1E1,3.4E1],"tree_param":{"num_deleted":"0","num_feature":"16","num_nodes":"7","size_leaf_vector":"1"}},{"base_weights":[1.1913702E3,-1.8197156E4,1.6477555E4,-9.5203784E2,-2.8216943E2,4.665742E2,1.247801E3],"categories":[],"categories_nodes":[],"categories_segments":[],"categories_sizes":[],"default_left":[0,0,0,0,0,0,0],"id":12,"left_children":[1,3,5,-1,-1,-1,-1],"loss_changes":[2.2678366E10,2.6701998E9,2.4405821E9,0E0,0E0,0E0,0E0],"parents":[2147483647,0,0,1,1,2,2],"right_children":[2,4,6,-1,-1,-1,-1],"split_conditions":[5.0169E4,1.545E4,7.9832E4,-9.5203784E2,-2.8216943E2,4.665742E2,1.247801E3],"split_indices":[8,8,10,0,0,0,0],"split_type":[0,0,0,0,0,0,0],"sum_hessian":[7.5E1,3.3E1,4.2E1,1.8E1,1.5E1,3.6E1,6E0],"tree_param":{"num_deleted":"0","num_feature":"16","num_nodes":"7","size_leaf_vector":"1"}},{"base_weights":[1.1864656E3,-2.1733588E4,1.2168988E4,-9.141476E2,-3.1656683E2,2.2493802E2,8.606095E2],"categories":[],"categories_nodes":[],"categories_segments":[],"categories_sizes":[],"default_left":[0,0,0,0,0,0,0],"id":13,"left_children":[1,3,5,-1,-1,-1,-1],"loss_changes":[2.077902E10,1.03379354E9,3.7308483E9,0E0,0E0,0E0,0E0],"parents":[2147483647,0,0,1,1,2,2],"right_children":[2,4,6,-1,-1,-1,-1],"split_conditions":[3.4641E4,3.4E0,7.2463E4,-9.141476E2,-3.1656683E2,2.2493802E2,8.606095E2],"split_indices":[10,13,10,0,0,0,0],"split_type":[0,0,0,0,0,0,0],"sum_hessian":[8.1E1,2.6E1,5.5E1,2E1,6E0,3.7E1,1.8E1],"tree_param":{"num_deleted":"0","num_feature":"16","num_nodes":"7","size_leaf_vector":"1"}},{"base_weights":[-7.1208105E2,-1.6385365E4,1.3602745E4,-8.524781E2,-1.7214162E2,3.6929913E2,1.311231E3],"categories":[],"categories_nodes":[],"categories_segments":[],"categories_sizes":[],"default_left":[0,0,0,0,0,0,0],"id":14,"left_children":[1,3,5,-1,-1,-1,-1],"loss_changes":[1.9632646E10,3.3653484E9,3.2568438E9,0E0,0E0,0E0,0E0],"parents":[2147483647,0,0,1,1,2,2],"right_children":[2,4,6,-1,-1,-1,-1],"split_conditions":[5.0258E4,2.5664E4,1.9512337E1,-8.524781E2,-1.7214162E2,3.6929913E2,1.311231E3],"split_indices":[8,10,11,0,0,0,0],"split_type":[0,0,0,0,0,0,0],"sum_hessian":[8.6E1,4.1E1,4.5E1,2.5E1,1.6E1,4E1,5E0],"tree_param":{"num_deleted":"0","num_feature":"16","num_nodes":"7","size_leaf_vector":"1"}},{"base_weights":[2.4167013E1,-1.5641819E4,1.4956917E4,-8.0755286E2,-1.4891682E2,3.9286963E2,1.0923107E3],"categories":[],"categories_nodes":[],"categories_segments":[],"categories_sizes":[],"default_left":[0,0,0,0,0,0,0],"id":15,"left_children":[1,3,5,-1,-1,-1,-1],"loss_changes":[1.9536011E10,3.0356163E9,2.4294963E9,0E0,0E0,0E0,0E0],"parents":[2147483647,0,0,1,1,2,2],"right_children":[2,4,6,-1,-1,-1,-1],"split_conditions":[5.028E4,2.5664E4,1.3058462E1,-8.0755286E2,-1.4891682E2,3.9286963E2,1.0923107E3],"split_indices":[8,10,11,0,0,0,0],"split_type":[0,0,0,0,0,0,0],"sum_hessian":[8.2E1,4E1,4.2E1,2.5E1,1.5E1,3.4E1,8E0],"tree_param":{"num_deleted":"0","num_feature":"16","num_nodes":"7","size_leaf_vector":"1"}},{"base_weights":[4.204886E2,-1.7998473E4,8.741998E3,-7.9118365E2,-2.7452493E2,9.244296E1,4.9066153E2],"categories":[],"categories_nodes":[],"categories_segments":[],"categories_sizes":[],"default_left":[0,0,0,0,0,0,0],"id":16,"left_children":[1,3,5,-1,-1,-1,-1],"loss_changes":[1.2189834E10,8.556728E8,1.5930714E9,0E0,0E0,0E0,0E0],"parents":[2147483647,0,0,1,1,2,2],"right_children":[2,4,6,-1,-1,-1,-1],"split_conditions":[3.4409E4,4E0,-2.3179831E-2,-7.9118365E2,-2.7452493E2,9.244296E1,4.9066153E2],"split_indices":[9,13,11,0,0,0,0],"split_type":[0,0,0,0,0,0,0],"sum_hessian":[7.8E1,2.4E1,5.4E1,1.7E1,7E0,2.4E1,3E1],"tree_param":{"num_deleted":"0","num_feature":"16","num_nodes":"7","size_leaf_vector":"1"}},{"base_weights":[2.9790955E2,-1.6345787E4,1.2665085E4,-8.058337E2,-2.643529E2,3.0669586E2,1.098012E3],"categories":[],"categories_nodes":[],"categories_segments":[],"categories_sizes":[],"default_left":[0,0,0,0,0,0,0],"id":17,"left_children":[1,3,5,-1,-1,-1,-1],"loss_changes":[1.6778529E10,1.7208187E9,3.273386E9,0E0,0E0,0E0,0E0],"parents":[2147483647,0,0,1,1,2,2],"right_children":[2,4,6,-1,-1,-1,-1],"split_conditions":[4.2119E4,1.545E4,7.7321336E4,-8.058337E2,-2.643529E2,3.0669586E2,1.098012E3],"split_indices":[8,8,10,0,0,0,0],"split_type":[0,0,0,0,0,0,0],"sum_hessian":[8E1,3.4E1,4.6E1,2E1,1.4E1,3.8E1,8E0],"tree_param":{"num_deleted":"0","num_feature":"16","num_nodes":"7","size_leaf_vector":"1"}},{"base_weights":[3.3130637E2,-1.405598E4,1.3366736E4,-7.192434E2,-1.708611E2,3.603745E2,1.110791E3],"categories":[],"categories_nodes":[],"categories_segments":[],"categories_sizes":[],"default_left":[0,0,0,0,0,0,0],"id":18,"left_children":[1,3,5,-1,-1,-1,-1],"loss_changes":[1.528699E10,2.0147231E9,2.3051766E9,0E0,0E0,0E0,0E0],"parents":[2147483647,0,0,1,1,2,2],"right_children":[2,4,6,-1,-1,-1,-1],"split_conditions":[5.4442E4,2.5664E4,1E0,-7.192434E2,-1.708611E2,3.603745E2,1.110791E3],"split_indices":[10,10,12,0,0,0,0],"split_type":[0,0,0,0,0,0,0],"sum_hessian":[8E1,3.8E1,4.2E1,2.3E1,1.5E1,3.6E1,6E0],"tree_param":{"num_deleted":"0","num_feature":"16","num_nodes":"7","size_leaf_vector":"1"}},{"base_weights":[5.2330566E2,-1.3309026E4,1.187428E4,-7.4175793E2,-2.0519666E2,-3.8605164E2,4.9680505E2],"categories":[],"categories_nodes":[],"categories_segments":[],"categories_sizes":[],"default_left":[0,0,0,0,0,0,0],"id":19,"left_children":[1,3,5,-1,-1,-1,-1],"loss_changes":[1.2798682E10,1.917076E9,1.9324713E9,0E0,0E0,0E0,0E0],"parents":[2147483647,0,0,1,1,2,2],"right_children":[2,4,6,-1,-1,-1,-1],"split_conditions":[5.028E4,1.227E4,-3.4079456E1,-7.4175793E2,-2.0519666E2,-3.8605164E2,4.9680505E2],"split_indices":[8,8,11,0,0,0,0],"split_type":[0,0,0,0,0,0,0],"sum_hessian":[8E1,3.6E1,4.4E1,1.8E1,1.8E1,3E0,4.1E1],"tree_param":{"num_deleted":"0","num_feature":"16","num_nodes":"7","size_leaf_vector":"1"}},{"base_weights":[1.830795E2,-1.2699321E4,1.1213067E4,-6.732295E2,-1.4565211E2,2.9693134E2,1.0589481E3],"categories":[],"categories_nodes":[],"categories_segments":[],"categories_sizes":[],"default_left":[0,0,0,0,0,0,0],"id":20,"left_children":[1,3,5,-1,-1,-1,-1],"loss_changes":[1.286103E10,2.0636063E9,2.4761866E9,0E0,0E0,0E0,0E0],"parents":[2147483647,0,0,1,1,2,2],"right_children":[2,4,6,-1,-1,-1,-1],"split_conditions":[5.028E4,2.2309666E4,1E0,-6.732295E2,-1.4565211E2,2.9693134E2,1.0589481E3],"split_indices":[8,10,12,0,0,0,0],"split_type":[0,0,0,0,0,0,0],"sum_hessian":[8.9E1,4.1E1,4.8E1,2.4E1,1.7E1,4.2E1,6E0],"tree_param":{"num_deleted":"0","num_feature":"16","num_nodes":"7","size_leaf_vector":"1"}},{"base_weights":[6.240424E2,-1.4432878E4,9.392973E3,-6.9036664E2,-2.4837198E2,1.3133755E2,6.862815E2],"categories":[],"categories_nodes":[],"categories_segments":[],"categories_sizes":[],"default_left":[0,0,0,0,0,0,0],"id":21,"left_children":[1,3,5,-1,-1,-1,-1],"loss_changes":[1.1028738E10,9.716444E8,2.8457743E9,0E0,0E0,0E0,0E0],"parents":[2147483647,0,0,1,1,2,2],"right_children":[2,4,6,-1,-1,-1,-1],"split_conditions":[3.7466E4,1.545E4,7.2463E4,-6.9036664E2,-2.4837198E2,1.3133755E2,6.862815E2],"split_indices":[8,8,10,0,0,0,0],"split_type":[0,0,0,0,0,0,0],"sum_hessian":[8.2E1,3E1,5.2E1,1.8E1,1.2E1,3.3E1,1.9E1],"tree_param":{"num_deleted":"0","num_feature":"16","num_nodes":"7","size_leaf_vector":"1"}},{"base_weights":[-5.751536E2,-1.1033268E4,1.2052964E4,-6.3607477E2,-8.2431404E1,3.1195206E2,1.1171626E3],"categories":[],"categories_nodes":[],"categories_segments":[],"categories_sizes":[],"default_left":[0,0,0,0,0,0,0],"id":22,"left_children":[1,3,5,-1,-1,-1,-1],"loss_changes":[1.1293669E10,2.6274493E9,2.310787E9,0E0,0E0,0E0,0E0],"parents":[2147483647,0,0,1,1,2,2],"right_children":[2,4,6,-1,-1,-1,-1],"split_conditions":[5.5328332E4,2.5664E4,7.9832E4,-6.3607477E2,-8.2431404E1,3.1195206E2,1.1171626E3],"split_indices":[10,10,10,0,0,0,0],"split_type":[0,0,0,0,0,0,0],"sum_hessian":[8.4E1,4.6E1,3.8E1,2.6E1,2E1,3.3E1,5E0],"tree_param":{"num_deleted":"0","num_feature":"16","num_nodes":"7","size_leaf_vector":"1"}},{"base_weights":[7.646749E2,-1.0155269E4,1.1944796E4,-6.7324927E2,-1.293575E2,2.3909717E2,8.314018E2],"categories":[],"categories_nodes":[],"categories_segments":[],"categories_sizes":[],"default_left":[0,0,0,0,0,0,0],"id":23,"left_children":[1,3,5,-1,-1,-1,-1],"loss_changes":[9.828566E9,2.2037793E9,2.2201216E9,0E0,0E0,0E0,0E0],"parents":[2147483647,0,0,1,1,2,2],"right_children":[2,4,6,-1,-1,-1,-1],"split_conditions":[5.5328332E4,1.5348667E4,4.4652915E0,-6.7324927E2,-1.293575E2,2.3909717E2,8.314018E2],"split_indices":[10,10,11,0,0,0,0],"split_type":[0,0,0,0,0,0,0],"sum_hessian":[7.9E1,4E1,3.9E1,1.7E1,2.3E1,2.7E1,1.2E1],"tree_param":{"num_deleted":"0","num_feature":"16","num_nodes":"7","size_leaf_vector":"1"}},{"base_weights":[-6.20483E2,-1.157309E4,8.806034E3,-6.076694E2,-1.4114705E2,-5.229025E2,3.7075333E2],"categories":[],"categories_nodes":[],"categories_segments":[],"categories_sizes":[],"default_left":[0,0,0,0,0,0,0],"id":24,"left_children":[1,3,5,-1,-1,-1,-1],"loss_changes":[8.207993E9,1.4096174E9,1.5059218E9,0E0,0E0,0E0,0E0],"parents":[2147483647,0,0,1,1,2,2],"right_children":[2,4,6,-1,-1,-1,-1],"split_conditions":[5.0258E4,2.5664E4,-4.2713936E1,-6.076694E2,-1.4114705E2,-5.229025E2,3.7075333E2],"split_indices":[8,10,11,0,0,0,0],"split_type":[0,0,0,0,0,0,0],"sum_hessian":[7.8E1,3.6E1,4.2E1,2.1E1,1.5E1,2E0,4E1],"tree_param":{"num_deleted":"0","num_feature":"16","num_nodes":"7","size_leaf_vector":"1"}},{"base_weights":[1.0395642E3,-9.022701E3,1.0601083E4,-5.273654E2,-8.265424E1,2.726091E2,1.0514763E3],"categories":[],"categories_nodes":[],"categories_segments":[],"categories_sizes":[],"default_left":[0,0,0,0,0,0,0],"id":25,"left_children":[1,3,5,-1,-1,-1,-1],"loss_changes":[7.8416906E9,1.4508019E9,2.2066053E9,0E0,0E0,0E0,0E0],"parents":[2147483647,0,0,1,1,2,2],"right_children":[2,4,6,-1,-1,-1,-1],"split_conditions":[5.5328332E4,2.5664E4,7.9832E4,-5.273654E2,-8.265424E1,2.726091E2,1.0514763E3],"split_indices":[10,10,10,0,0,0,0],"split_type":[0,0,0,0,0,0,0],"sum_hessian":[8E1,3.9E1,4.1E1,2.1E1,1.8E1,3.6E1,5E0],"tree_param":{"num_deleted":"0","num_feature":"16","num_nodes":"7","size_leaf_vector":"1"}},{"base_weights":[9.8242523E2,-1.1424425E4,8.436474E3,-6.174158E2,-2.0554765E2,2.4144374E2,1.1040619E3],"categories":[],"categories_nodes":[],"categories_segments":[],"categories_sizes":[],"default_left":[0,0,0,0,0,0,0],"id":26,"left_children":[1,3,5,-1,-1,-1,-1],"loss_changes":[7.818527E9,9.486825E8,1.9179702E9,0E0,0E0,0E0,0E0],"parents":[2147483647,0,0,1,1,2,2],"right_children":[2,4,6,-1,-1,-1,-1],"split_conditions":[4.2119E4,1.1583E4,5.2537216E1,-6.174158E2,-2.0554765E2,2.4144374E2,1.1040619E3],"split_indices":[8,10,11,0,0,0,0],"split_type":[0,0,0,0,0,0,0],"sum_hessian":[8.3E1,3.1E1,5.2E1,1.5E1,1.6E1,4.9E1,3E0],"tree_param":{"num_deleted":"0","num_feature":"16","num_nodes":"7","size_leaf_vector":"1"}},{"base_weights":[-2.8309067E2,-1.0476606E4,1.1806008E4,-5.655174E2,-1.6499687E2,3.2774963E2,1.0767416E3],"categories":[],"categories_nodes":[],"categories_segments":[],"categories_sizes":[],"default_left":[0,0,0,0,0,0,0],"id":27,"left_children":[1,3,5,-1,-1,-1,-1],"loss_changes":[1.0168075E10,1.300435E9,1.6705951E9,0E0,0E0,0E0,0E0],"parents":[2147483647,0,0,1,1,2,2],"right_children":[2,4,6,-1,-1,-1,-1],"split_conditions":[5.5328332E4,1.545E4,8.4914664E4,-5.655174E2,-1.6499687E2,3.2774963E2,1.0767416E3],"split_indices":[10,8,10,0,0,0,0],"split_type":[0,0,0,0,0,0,0],"sum_hessian":[8.1E1,4.4E1,3.7E1,2.3E1,2.1E1,3.3E1,4E0],"tree_param":{"num_deleted":"0","num_feature":"16","num_nodes":"7","size_leaf_vector":"1"}},{"base_weights":[5.8185266E2,-7.840703E3,9.645077E3,-5.248245E2,-1.3521558E2,2.1517941E2,8.6887775E2],"categories":[],"categories_nodes":[],"categories_segments":[],"categories_sizes":[],"default_left":[0,0,0,0,0,0,0],"id":28,"left_children":[1,3,5,-1,-1,-1,-1],"loss_changes":[6.14523E9,1.0962844E9,1.9516593E9,0E0,0E0,0E0,0E0],"parents":[2147483647,0,0,1,1,2,2],"right_children":[2,4,6,-1,-1,-1,-1],"split_conditions":[5.5328332E4,1.1583E4,1.3058462E1,-5.248245E2,-1.3521558E2,2.1517941E2,8.6887775E2],"split_indices":[10,10,11,0,0,0,0],"split_type":[0,0,0,0,0,0,0],"sum_hessian":[7.9E1,4.1E1,3.8E1,1.5E1,2.6E1,3.1E1,7E0],"tree_param":{"num_deleted":"0","num_feature":"16","num_nodes":"7","size_leaf_vector":"1"}},{"base_weights":[-6.976549E2,-8.851105E3,9.910266E3,-5.1496515E2,-1.09374695E2,-5.182427E2,4.215927E2],"categories":[],"categories_nodes":[],"categories_segments":[],"categories_sizes":[],"default_left":[0,0,0,0,0,0,0],"id":29,"left_children":[1,3,5,-1,-1,-1,-1],"loss_changes":[7.310285E9,1.4546063E9,1.6378555E9,0E0,0E0,0E0,0E0],"parents":[2147483647,0,0,1,1,2,2],"right_children":[2,4,6,-1,-1,-1,-1],"split_conditions":[5.5328332E4,2.0204666E4,-3.4079456E1,-5.1496515E2,-1.09374695E2,-5.182427E2,4.215927E2],"split_indices":[10,10,11,0,0,0,0],"split_type":[0,0,0,0,0,0,0],"sum_hessian":[8.3E1,4.7E1,3.6E1,2.4E1,2.3E1,2E0,3.4E1],"tree_param":{"num_deleted":"0","num_feature":"16","num_nodes":"7","size_leaf_vector":"1"}},{"base_weights":[-2.8865524E2,-1.1537254E4,5.8466963E3,-5.210324E2,-2.3767383E2,4.2816864E1,4.52254E2],"categories":[],"categories_nodes":[],"categories_segments":[],"categories_sizes":[],"default_left":[0,0,0,0,0,0,0],"id":30,"left_children":[1,3,5,-1,-1,-1,-1],"loss_changes":[5.6241613E9,3.3286605E8,1.6164329E9,0E0,0E0,0E0,0E0],"parents":[2147483647,0,0,1,1,2,2],"right_children":[2,4,6,-1,-1,-1,-1],"split_conditions":[3.9165668E4,3.1E0,6.6966664E4,-5.210324E2,-2.3767383E2,4.2816864E1,4.52254E2],"split_indices":[10,13,10,0,0,0,0],"split_type":[0,0,0,0,0,0,0],"sum_hessian":[8E1,2.8E1,5.2E1,1.7E1,1.1E1,3.1E1,2.1E1],"tree_param":{"num_deleted":"0","num_feature":"16","num_nodes":"7","size_leaf_vector":"1"}},{"base_weights":[-2.2368602E2,-8.927944E3,7.3671636E3,-4.725168E2,-1.1184182E2,1.637047E2,7.7340265E2],"categories":[],"categories_nodes":[],"categories_segments":[],"categories_sizes":[],"default_left":[0,0,0,0,0,0,0],"id":31,"left_children":[1,3,5,-1,-1,-1,-1],"loss_changes":[5.781793E9,9.436421E8,1.7896553E9,0E0,0E0,0E0,0E0],"parents":[2147483647,0,0,1,1,2,2],"right_children":[2,4,6,-1,-1,-1,-1],"split_conditions":[5.028E4,2.5664E4,7.7321336E4,-4.725168E2,-1.1184182E2,1.637047E2,7.7340265E2],"split_indices":[8,10,10,0,0,0,0],"split_type":[0,0,0,0,0,0,0],"sum_hessian":[8.6E1,4E1,4.6E1,2.3E1,1.7E1,3.9E1,7E0],"tree_param":{"num_deleted":"0","num_feature":"16","num_nodes":"7","size_leaf_vector":"1"}},{"base_weights":[5.0082165E1,-5.69488E3,1.315466E4,-4.575855E2,-2.3613548E1,3.413147E2,9.0644293E2],"categories":[],"categories_nodes":[],"categories_segments":[],"categories_sizes":[],"default_left":[0,0,0,0,0,0,0],"id":32,"left_children":[1,3,5,-1,-1,-1,-1],"loss_changes":[6.36208E9,2.041415E9,9.6470784E8,0E0,0E0,0E0,0E0],"parents":[2147483647,0,0,1,1,2,2],"right_children":[2,4,6,-1,-1,-1,-1],"split_conditions":[6.5030668E4,2.1765E4,1E0,-4.575855E2,-2.3613548E1,3.413147E2,9.0644293E2],"split_indices":[10,8,12,0,0,0,0],"split_type":[0,0,0,0,0,0,0],"sum_hessian":[8.3E1,5.8E1,2.5E1,2.4E1,3.4E1,2E1,5E0],"tree_param":{"num_deleted":"0","num_feature":"16","num_nodes":"7","size_leaf_vector":"1"}},{"base_weights":[2.2602498E2,-8.313203E3,7.3606006E3,-4.5639334E2,-1.2006768E2,1.7695721E2,8.0878577E2],"categories":[],"categories_nodes":[],"categories_segments":[],"categories_sizes":[],"default_left":[0,0,0,0,0,0,0],"id":33,"left_children":[1,3,5,-1,-1,-1,-1],"loss_changes":[5.453482E9,8.37217E8,1.7263516E9,0E0,0E0,0E0,0E0],"parents":[2147483647,0,0,1,1,2,2],"right_children":[2,4,6,-1,-1,-1,-1],"split_conditions":[5.028E4,1.545E4,1.9512337E1,-4.5639334E2,-1.2006768E2,1.7695721E2,8.0878577E2],"split_indices":[8,8,11,0,0,0,0],"split_type":[0,0,0,0,0,0,0],"sum_hessian":[8.8E1,4E1,4.8E1,2.1E1,1.9E1,4.2E1,6E0],"tree_param":{"num_deleted":"0","num_feature":"16","num_nodes":"7","size_leaf_vector":"1"}},{"base_weights":[5.1182416E2,-8.0893887E3,8.897808E3,-4.363814E2,-1.2534176E2,2.3063695E2,7.760822E2],"categories":[],"categories_nodes":[],"categories_segments":[],"categories_sizes":[],"default_left":[0,0,0,0,0,0,0],"id":34,"left_children":[1,3,5,-1,-1,-1,-1],"loss_changes":[5.9512955E9,7.113669E8,1.2236198E9,0E0,0E0,0E0,0E0],"parents":[2147483647,0,0,1,1,2,2],"right_children":[2,4,6,-1,-1,-1,-1],"split_conditions":[5.2341E4,1.545E4,7.9832E4,-4.363814E2,-1.2534176E2,2.3063695E2,7.760822E2],"split_indices":[8,8,10,0,0,0,0],"split_type":[0,0,0,0,0,0,0],"sum_hessian":[8.1E1,4E1,4.1E1,2.1E1,1.9E1,3.5E1,6E0],"tree_param":{"num_deleted":"0","num_feature":"16","num_nodes":"7","size_leaf_vector":"1"}},{"base_weights":[6.184395E2,-6.0145005E3,8.501942E3,-3.901078E2,-6.1370773E1,-9.469258E0,5.542786E2],"categories":[],"categories_nodes":[],"categories_segments":[],"categories_sizes":[],"default_left":[0,0,0,0,0,0,0],"id":35,"left_children":[1,3,5,-1,-1,-1,-1],"loss_changes":[4.209057E9,8.812773E8,2.1817664E9,0E0,0E0,0E0,0E0],"parents":[2147483647,0,0,1,1,2,2],"right_children":[2,4,6,-1,-1,-1,-1],"split_conditions":[5.6852332E4,2.2309666E4,-1.4564846E0,-3.901078E2,-6.1370773E1,-9.469258E0,5.542786E2],"split_indices":[10,10,11,0,0,0,0],"split_type":[0,0,0,0,0,0,0],"sum_hessian":[7.9E1,4.3E1,3.6E1,2E1,2.3E1,1.6E1,2E1],"tree_param":{"num_deleted":"0","num_feature":"16","num_nodes":"7","size_leaf_vector":"1"}},{"base_weights":[-1.191174E3,-8.119338E3,5.419047E3,-4.180726E2,-1.464811E2,-4.589783E2,2.580286E2],"categories":[],"categories_nodes":[],"categories_segments":[],"categories_sizes":[],"default_left":[0,0,0,0,0,0,0],"id":36,"left_children":[1,3,5,-1,-1,-1,-1],"loss_changes":[3.6399363E9,5.024814E8,1.3102482E9,0E0,0E0,0E0,0E0],"parents":[2147483647,0,0,1,1,2,2],"right_children":[2,4,6,-1,-1,-1,-1],"split_conditions":[5.0258E4,1.545E4,-3.4079456E1,-4.180726E2,-1.464811E2,-4.589783E2,2.580286E2],"split_indices":[8,8,11,0,0,0,0],"split_type":[0,0,0,0,0,0,0],"sum_hessian":[7.8E1,3.8E1,4E1,2E1,1.8E1,3E0,3.7E1],"tree_param":{"num_deleted":"0","num_feature":"16","num_nodes":"7","size_leaf_vector":"1"}},{"base_weights":[-1.9760208E1,-3.628466E3,1.2175314E4,-3.1209235E2,5.156461E1,9.12688E1,5.900408E2],"categories":[],"categories_nodes":[],"categories_segments":[],"categories_sizes":[],"default_left":[0,0,0,0,0,0,0],"id":37,"left_children":[1,3,5,-1,-1,-1,-1],"loss_changes":[3.8072883E9,1.6834378E9,7.471667E8,0E0,0E0,0E0,0E0],"parents":[2147483647,0,0,1,1,2,2],"right_children":[2,4,6,-1,-1,-1,-1],"split_conditions":[7.2463E4,3.3E0,-2.7089357E0,-3.1209235E2,5.156461E1,9.12688E1,5.900408E2],"split_indices":[10,13,11,0,0,0,0],"split_type":[0,0,0,0,0,0,0],"sum_hessian":[8.5E1,6.6E1,1.9E1,3.3E1,3.3E1,6E0,1.3E1],"tree_param":{"num_deleted":"0","num_feature":"16","num_nodes":"7","size_leaf_vector":"1"}},{"base_weights":[-5.781777E1,-7.134998E3,5.8093413E3,-4.1351242E2,-1.100411E2,1.216353E2,6.4807056E2],"categories":[],"categories_nodes":[],"categories_segments":[],"categories_sizes":[],"default_left":[0,0,0,0,0,0,0],"id":38,"left_children":[1,3,5,-1,-1,-1,-1],"loss_changes":[3.5505692E9,6.5062605E8,1.3392155E9,0E0,0E0,0E0,0E0],"parents":[2147483647,0,0,1,1,2,2],"right_children":[2,4,6,-1,-1,-1,-1],"split_conditions":[5.028E4,1.545E4,1.3058462E1,-4.1351242E2,-1.100411E2,1.216353E2,6.4807056E2],"split_indices":[8,8,11,0,0,0,0],"split_type":[0,0,0,0,0,0,0],"sum_hessian":[8.4E1,3.8E1,4.6E1,1.8E1,2E1,3.9E1,7E0],"tree_param":{"num_deleted":"0","num_feature":"16","num_nodes":"7","size_leaf_vector":"1"}},{"base_weights":[1.7617624E2,-6.9248726E3,6.163614E3,-3.702171E2,-8.58357E1,-3.3542627E2,3.004809E2],"categories":[],"categories_nodes":[],"categories_segments":[],"categories_sizes":[],"default_left":[0,0,0,0,0,0,0],"id":39,"left_children":[1,3,5,-1,-1,-1,-1],"loss_changes":[3.5082056E9,5.452133E8,1.5140282E9,0E0,0E0,0E0,0E0],"parents":[2147483647,0,0,1,1,2,2],"right_children":[2,4,6,-1,-1,-1,-1],"split_conditions":[5.028E4,2.5664E4,-1.8811373E1,-3.702171E2,-8.58357E1,-3.3542627E2,3.004809E2],"split_indices":[8,10,11,0,0,0,0],"split_type":[0,0,0,0,0,0,0],"sum_hessian":[8.1E1,3.7E1,4.4E1,2.1E1,1.6E1,5E0,3.9E1],"tree_param":{"num_deleted":"0","num_feature":"16","num_nodes":"7","size_leaf_vector":"1"}},{"base_weights":[4.5314255E2,-5.3013315E3,8.754671E3,-3.5393573E2,-6.0677658E1,6.796656E2,2.0400858E2],"categories":[],"categories_nodes":[],"categories_segments":[],"categories_sizes":[],"default_left":[0,0,0,0,0,0,0],"id":40,"left_children":[1,3,5,-1,-1,-1,-1],"loss_changes":[3.9405517E9,7.7478016E8,9.753444E8,0E0,0E0,0E0,0E0],"parents":[2147483647,0,0,1,1,2,2],"right_children":[2,4,6,-1,-1,-1,-1],"split_conditions":[5.7803332E4,2.2309666E4,3E0,-3.5393573E2,-6.0677658E1,6.796656E2,2.0400858E2],"split_indices":[10,10,1,0,0,0,0],"split_type":[0,0,0,0,0,0,0],"sum_hessian":[8.1E1,4.8E1,3.3E1,2.1E1,2.7E1,7E0,2.6E1],"tree_param":{"num_deleted":"0","num_feature":"16","num_nodes":"7","size_leaf_vector":"1"}},{"base_weights":[5.388707E2,-4.8882295E3,7.515818E3,-3.632606E2,-8.398419E1,3.708705E2,-2.6959943E2],"categories":[],"categories_nodes":[],"categories_segments":[],"categories_sizes":[],"default_left":[0,0,0,0,0,0,0],"id":41,"left_children":[1,3,5,-1,-1,-1,-1],"loss_changes":[3.0097628E9,5.722478E8,1.4589304E9,0E0,0E0,0E0,0E0],"parents":[2147483647,0,0,1,1,2,2],"right_children":[2,4,6,-1,-1,-1,-1],"split_conditions":[5.7914332E4,1.1824E4,8.8082E4,-3.632606E2,-8.398419E1,3.708705E2,-2.6959943E2],"split_indices":[10,9,9,0,0,0,0],"split_type":[0,0,0,0,0,0,0],"sum_hessian":[7.8E1,4.4E1,3.4E1,1.4E1,3E1,2.9E1,5E0],"tree_param":{"num_deleted":"0","num_feature":"16","num_nodes":"7","size_leaf_vector":"1"}},{"base_weights":[-4.1607474E2,5.3715073E3,-5.918934E3,-5.0266814E0,3.977421E2,-3.745809E2,-3.969811E1],"categories":[],"categories_nodes":[],"categories_segments":[],"categories_sizes":[],"default_left":[0,0,0,0,0,0,0],"id":42,"left_children":[1,3,5,-1,-1,-1,-1],"loss_changes":[2.5959076E9,1.2242369E9,8.7767885E8,0E0,0E0,0E0,0E0],"parents":[2147483647,0,0,1,1,2,2],"right_children":[2,4,6,-1,-1,-1,-1],"split_conditions":[2.02E3,-2.3179831E-2,3.4E0,-5.0266814E0,3.977421E2,-3.745809E2,-3.969811E1],"split_indices":[0,11,13,0,0,0,0],"split_type":[0,0,0,0,0,0,0],"sum_hessian":[8E1,3.9E1,4.1E1,2E1,1.9E1,2.1E1,2E1],"tree_param":{"num_deleted":"0","num_feature":"16","num_nodes":"7","size_leaf_vector":"1"}},{"base_weights":[-6.416081E2,-3.877563E3,1.0153846E4,-2.9661063E2,1.3580987E1,8.7587354E2,2.3836345E2],"categories":[],"categories_nodes":[],"categories_segments":[],"categories_sizes":[],"default_left":[0,0,0,0,0,0,0],"id":43,"left_children":[1,3,5,-1,-1,-1,-1],"loss_changes":[2.9905162E9,1.20223E9,8.707977E8,0E0,0E0,0E0,0E0],"parents":[2147483647,0,0,1,1,2,2],"right_children":[2,4,6,-1,-1,-1,-1],"split_conditions":[7.2463E4,3.3E0,3E0,-2.9661063E2,1.3580987E1,8.7587354E2,2.3836345E2],"split_indices":[10,13,1,0,0,0,0],"split_type":[0,0,0,0,0,0,0],"sum_hessian":[8.4E1,6.5E1,1.9E1,3.2E1,3.3E1,3E0,1.6E1],"tree_param":{"num_deleted":"0","num_feature":"16","num_nodes":"7","size_leaf_vector":"1"}},{"base_weights":[3.7864124E2,-4.3765806E3,8.64016E3,-3.111677E2,-2.8932833E1,4.3595346E2,-2.5335498E2],"categories":[],"categories_nodes":[],"categories_segments":[],"categories_sizes":[],"default_left":[0,0,0,0,0,0,0],"id":44,"left_children":[1,3,5,-1,-1,-1,-1],"loss_changes":[3.2010386E9,7.7184403E8,1.6281989E9,0E0,0E0,0E0,0E0],"parents":[2147483647,0,0,1,1,2,2],"right_children":[2,4,6,-1,-1,-1,-1],"split_conditions":[6.2334332E4,2.5664E4,8.8082E4,-3.111677E2,-2.8932833E1,4.3595346E2,-2.5335498E2],"split_indices":[10,10,9,0,0,0,0],"split_type":[0,0,0,0,0,0,0],"sum_hessian":[8E1,5.1E1,2.9E1,2.3E1,2.8E1,2.4E1,5E0],"tree_param":{"num_deleted":"0","num_feature":"16","num_nodes":"7","size_leaf_vector":"1"}},{"base_weights":[7.6768713E2,6.1383926E3,-4.7490024E3,6.5933655E2,1.356966E2,-3.427999E2,-1.1717855E1],"categories":[],"categories_nodes":[],"categories_segments":[],"categories_sizes":[],"default_left":[0,0,0,0,0,0,0],"id":45,"left_children":[1,3,5,-1,-1,-1,-1],"loss_changes":[2.444287E9,1.1539124E9,8.44243E8,0E0,0E0,0E0,0E0],"parents":[2147483647,0,0,1,1,2,2],"right_children":[2,4,6,-1,-1,-1,-1],"split_conditions":[2.02E3,3E0,2.022E3,6.5933655E2,1.356966E2,-3.427999E2,-1.1717855E1],"split_indices":[0,1,0,0,0,0,0],"split_type":[0,0,0,0,0,0,0],"sum_hessian":[8.1E1,4.1E1,4E1,6E0,3.5E1,1.9E1,2.1E1],"tree_param":{"num_deleted":"0","num_feature":"16","num_nodes":"7","size_leaf_vector":"1"}},{"base_weights":[-2.916529E2,-3.1516406E3,1.0945488E4,-2.6882404E2,5.456138E0,2.7211978E2,9.5941125E2],"categories":[],"categories_nodes":[],"categories_segments":[],"categories_sizes":[],"default_left":[0,0,0,0,0,0,0],"id":46,"left_children":[1,3,5,-1,-1,-1,-1],"loss_changes":[2.6534856E9,9.2417395E8,7.453623E8,0E0,0E0,0E0,0E0],"parents":[2147483647,0,0,1,1,2,2],"right_children":[2,4,6,-1,-1,-1,-1],"split_conditions":[7.2792336E4,3.5973332E4,1E0,-2.6882404E2,5.456138E0,2.7211978E2,9.5941125E2],"split_indices":[10,10,12,0,0,0,0],"split_type":[0,0,0,0,0,0,0],"sum_hessian":[8.1E1,6.5E1,1.6E1,2.8E1,3.7E1,1.4E1,2E0],"tree_param":{"num_deleted":"0","num_feature":"16","num_nodes":"7","size_leaf_vector":"1"}},{"base_weights":[8.5136604E1,-2.561648E3,1.3310619E4,-3.6923343E2,-3.9426026E0,3.465549E2,9.341239E2],"categories":[],"categories_nodes":[],"categories_segments":[],"categories_sizes":[],"default_left":[0,0,0,0,0,0,0],"id":47,"left_children":[1,3,5,-1,-1,-1,-1],"loss_changes":[2.8875825E9,1.2823671E9,4.5773363E8,0E0,0E0,0E0,0E0],"parents":[2147483647,0,0,1,1,2,2],"right_children":[2,4,6,-1,-1,-1,-1],"split_conditions":[7.2792336E4,-1.7619486E1,1.5081594E1,-3.6923343E2,-3.9426026E0,3.465549E2,9.341239E2],"split_indices":[10,11,11,0,0,0,0],"split_type":[0,0,0,0,0,0,0],"sum_hessian":[8.1E1,6.8E1,1.3E1,1.6E1,5.2E1,1.1E1,2E0],"tree_param":{"num_deleted":"0","num_feature":"16","num_nodes":"7","size_leaf_vector":"1"}},{"base_weights":[-1.4983255E2,-2.7684404E3,1.1172573E4,-2.5173248E2,3.1135456E1,2.4456842E2,8.2829926E2],"categories":[],"categories_nodes":[],"categories_segments":[],"categories_sizes":[],"default_left":[0,0,0,0,0,0,0],"id":48,"left_children":[1,3,5,-1,-1,-1,-1],"loss_changes":[2.3286976E9,9.6736794E8,6.4598925E8,0E0,0E0,0E0,0E0],"parents":[2147483647,0,0,1,1,2,2],"right_children":[2,4,6,-1,-1,-1,-1],"split_conditions":[7.2463E4,3.1E0,8.4914664E4,-2.5173248E2,3.1135456E1,2.4456842E2,8.2829926E2],"split_indices":[10,13,10,0,0,0,0],"split_type":[0,0,0,0,0,0,0],"sum_hessian":[7.7E1,6.3E1,1.4E1,2.9E1,3.4E1,1.1E1,3E0],"tree_param":{"num_deleted":"0","num_feature":"16","num_nodes":"7","size_leaf_vector":"1"}},{"base_weights":[1.5042572E2,-4.136348E3,6.846796E3,-2.7285382E2,-1.3568661E1,3.4641235E2,-2.7283313E2],"categories":[],"categories_nodes":[],"categories_segments":[],"categories_sizes":[],"default_left":[0,0,0,0,0,0,0],"id":49,"left_children":[1,3,5,-1,-1,-1,-1],"loss_changes":[2.4830497E9,6.685858E8,1.360377E9,0E0,0E0,0E0,0E0],"parents":[2147483647,0,0,1,1,2,2],"right_children":[2,4,6,-1,-1,-1,-1],"split_conditions":[6.1379668E4,3.5973332E4,8.8082E4,-2.7285382E2,-1.3568661E1,3.4641235E2,-2.7283313E2],"split_indices":[10,10,9,0,0,0,0],"split_type":[0,0,0,0,0,0,0],"sum_hessian":[8.5E1,5.2E1,3.3E1,2.7E1,2.5E1,2.8E1,5E0],"tree_param":{"num_deleted":"0","num_feature":"16","num_nodes":"7","size_leaf_vector":"1"}},{"base_weights":[-7.825712E2,-6.9564595E3,2.1945952E3,-3.1331845E2,-1.162087E2,-8.889606E1,2.0152419E2],"categories":[],"categories_nodes":[],"categories_segments":[],"categories_sizes":[],"default_left":[0,0,0,0,0,0,0],"id":50,"left_children":[1,3,5,-1,-1,-1,-1],"loss_changes":[1.569384E9,1.5356838E8,9.102254E8,0E0,0E0,0E0,0E0],"parents":[2147483647,0,0,1,1,2,2],"right_children":[2,4,6,-1,-1,-1,-1],"split_conditions":[3.5973332E4,3.4E0,-2.3179831E-2,-3.1331845E2,-1.162087E2,-8.889606E1,2.0152419E2],"split_indices":[10,13,11,0,0,0,0],"split_type":[0,0,0,0,0,0,0],"sum_hessian":[8.4E1,2.7E1,5.7E1,1.8E1,9E0,2.4E1,3.3E1],"tree_param":{"num_deleted":"0","num_feature":"16","num_nodes":"7","size_leaf_vector":"1"}},{"base_weights":[-1.7161334E2,-2.6211497E3,9.206984E3,-3.51336E2,-2.847477E1,2.3059056E2,8.7322943E2],"categories":[],"categories_nodes":[],"categories_segments":[],"categories_sizes":[],"default_left":[0,0,0,0,0,0,0],"id":51,"left_children":[1,3,5,-1,-1,-1,-1],"loss_changes":[2.0801748E9,9.242454E8,6.7972595E8,0E0,0E0,0E0,0E0],"parents":[2147483647,0,0,1,1,2,2],"right_children":[2,4,6,-1,-1,-1,-1],"split_conditions":[7.2792336E4,-1.7619486E1,1.5081594E1,-3.51336E2,-2.847477E1,2.3059056E2,8.7322943E2],"split_indices":[10,11,11,0,0,0,0],"split_type":[0,0,0,0,0,0,0],"sum_hessian":[8.9E1,7.1E1,1.8E1,1.4E1,5.7E1,1.6E1,2E0],"tree_param":{"num_deleted":"0","num_feature":"16","num_nodes":"7","size_leaf_vector":"1"}},{"base_weights":[-9.748143E1,4.4276133E3,-4.6208306E3,-2.8128405E1,3.1939624E2,-4.5572202E2,-7.814034E1],"categories":[],"categories_nodes":[],"categories_segments":[],"categories_sizes":[],"default_left":[0,0,0,0,0,0,0],"id":52,"left_children":[1,3,5,-1,-1,-1,-1],"loss_changes":[1.709323E9,9.543394E8,7.9711526E8,0E0,0E0,0E0,0E0],"parents":[2147483647,0,0,1,1,2,2],"right_children":[2,4,6,-1,-1,-1,-1],"split_conditions":[2.02E3,-2.3179831E-2,2.021E3,-2.8128405E1,3.1939624E2,-4.5572202E2,-7.814034E1],"split_indices":[0,11,0,0,0,0,0],"split_type":[0,0,0,0,0,0,0],"sum_hessian":[8.2E1,4.1E1,4.1E1,1.9E1,2.2E1,9E0,3.2E1],"tree_param":{"num_deleted":"0","num_feature":"16","num_nodes":"7","size_leaf_vector":"1"}},{"base_weights":[2.0586153E1,-1.7070757E3,1.4770676E4,-2.3153828E2,3.754916E1,3.5172528E2,8.417953E2],"categories":[],"categories_nodes":[],"categories_segments":[],"categories_sizes":[],"default_left":[0,0,0,0,0,0,0],"id":53,"left_children":[1,3,5,-1,-1,-1,-1],"loss_changes":[2.1279039E9,9.620407E8,2.0488614E8,0E0,0E0,0E0,0E0],"parents":[2147483647,0,0,1,1,2,2],"right_children":[2,4,6,-1,-1,-1,-1],"split_conditions":[7.7321336E4,2.3567E4,7.567648E0,-2.3153828E2,3.754916E1,3.5172528E2,8.417953E2],"split_indices":[10,8,11,0,0,0,0],"split_type":[0,0,0,0,0,0,0],"sum_hessian":[8.2E1,7.4E1,8E0,2.7E1,4.7E1,6E0,2E0],"tree_param":{"num_deleted":"0","num_feature":"16","num_nodes":"7","size_leaf_vector":"1"}},{"base_weights":[-5.56791E2,-3.982098E3,5.530314E3,-9.53053E1,-3.543824E2,3.202982E2,-2.4193546E2],"categories":[],"categories_nodes":[],"categories_segments":[],"categories_sizes":[],"default_left":[0,0,0,0,0,0,0],"id":54,"left_children":[1,3,5,-1,-1,-1,-1],"loss_changes":[1.7212323E9,3.9436314E8,1.2387421E9,0E0,0E0,0E0,0E0],"parents":[2147483647,0,0,1,1,2,2],"right_children":[2,4,6,-1,-1,-1,-1],"split_conditions":[6.0233E4,1E0,8.8082E4,-9.53053E1,-3.543824E2,3.202982E2,-2.4193546E2],"split_indices":[10,15,9,0,0,0,0],"split_type":[0,0,0,0,0,0,0],"sum_hessian":[8.1E1,5.2E1,2.9E1,4.3E1,9E0,2.3E1,6E0],"tree_param":{"num_deleted":"0","num_feature":"16","num_nodes":"7","size_leaf_vector":"1"}},{"base_weights":[-2.1282693E2,3.5980696E3,-3.4974893E3,-1.9202337E1,2.414993E2,-2.8711316E2,-1.7131697E1],"categories":[],"categories_nodes":[],"categories_segments":[],"categories_sizes":[],"default_left":[0,0,0,0,0,0,0],"id":55,"left_children":[1,3,5,-1,-1,-1,-1],"loss_changes":[1.0203514E9,4.7845584E8,5.810739E8,0E0,0E0,0E0,0E0],"parents":[2147483647,0,0,1,1,2,2],"right_children":[2,4,6,-1,-1,-1,-1],"split_conditions":[2.02E3,6.6966664E4,3.1E0,-1.9202337E1,2.414993E2,-2.8711316E2,-1.7131697E1],"split_indices":[0,10,13,0,0,0,0],"split_type":[0,0,0,0,0,0,0],"sum_hessian":[8E1,3.7E1,4.3E1,1.6E1,2.1E1,1.7E1,2.6E1],"tree_param":{"num_deleted":"0","num_feature":"16","num_nodes":"7","size_leaf_vector":"1"}},{"base_weights":[5.774923E1,-3.5824724E3,5.030281E3,-2.7568567E2,-8.217881E1,-1.1125711E2,3.5659897E2],"categories":[],"categories_nodes":[],"categories_segments":[],"categories_sizes":[],"default_left":[0,0,0,0,0,0,0],"id":56,"left_children":[1,3,5,-1,-1,-1,-1],"loss_changes":[1.4029565E9,2.2378272E8,1.2931857E9,0E0,0E0,0E0,0E0],"parents":[2147483647,0,0,1,1,2,2],"right_children":[2,4,6,-1,-1,-1,-1],"split_conditions":[5.6852332E4,-1.7619486E1,-1.4564846E0,-2.7568567E2,-8.217881E1,-1.1125711E2,3.5659897E2],"split_indices":[10,11,11,0,0,0,0],"split_type":[0,0,0,0,0,0,0],"sum_hessian":[7.6E1,4.4E1,3.2E1,1E1,3.4E1,1.2E1,2E1],"tree_param":{"num_deleted":"0","num_feature":"16","num_nodes":"7","size_leaf_vector":"1"}},{"base_weights":[5.9613575E1,-3.6907659E3,4.8291616E3,-2.5729306E2,-7.536948E1,-4.980455E2,2.2489903E2],"categories":[],"categories_nodes":[],"categories_segments":[],"categories_sizes":[],"default_left":[0,0,0,0,0,0,0],"id":57,"left_children":[1,3,5,-1,-1,-1,-1],"loss_changes":[1.4937454E9,2.4528646E8,9.9486694E8,0E0,0E0,0E0,0E0],"parents":[2147483647,0,0,1,1,2,2],"right_children":[2,4,6,-1,-1,-1,-1],"split_conditions":[5.7914332E4,8.0663335E3,-3.4079456E1,-2.5729306E2,-7.536948E1,-4.980455E2,2.2489903E2],"split_indices":[10,10,11,0,0,0,0],"split_type":[0,0,0,0,0,0,0],"sum_hessian":[8.2E1,4.6E1,3.6E1,1.4E1,3.2E1,2E0,3.4E1],"tree_param":{"num_deleted":"0","num_feature":"16","num_nodes":"7","size_leaf_vector":"1"}},{"base_weights":[2.5337834E2,-3.0048E3,5.585658E3,-2.1680098E2,-2.1701778E1,6.0933203E2,1.2179373E2],"categories":[],"categories_nodes":[],"categories_segments":[],"categories_sizes":[],"default_left":[0,0,0,0,0,0,0],"id":58,"left_children":[1,3,5,-1,-1,-1,-1],"loss_changes":[1.3635502E9,3.4545162E8,7.008179E8,0E0,0E0,0E0,0E0],"parents":[2147483647,0,0,1,1,2,2],"right_children":[2,4,6,-1,-1,-1,-1],"split_conditions":[6.1379668E4,2.1765E4,3E0,-2.1680098E2,-2.1701778E1,6.0933203E2,1.2179373E2],"split_indices":[10,8,1,0,0,0,0],"split_type":[0,0,0,0,0,0,0],"sum_hessian":[7.7E1,4.8E1,2.9E1,2.1E1,2.7E1,4E0,2.5E1],"tree_param":{"num_deleted":"0","num_feature":"16","num_nodes":"7","size_leaf_vector":"1"}},{"base_weights":[-1.3465605E2,-1.2824348E3,1.3601883E4,-1.6467885E2,4.650986E1,2.4971655E2,7.798386E2],"categories":[],"categories_nodes":[],"categories_segments":[],"categories_sizes":[],"default_left":[0,0,0,0,0,0,0],"id":59,"left_children":[1,3,5,-1,-1,-1,-1],"loss_changes":[1.3809833E9,6.778783E8,2.4623514E8,0E0,0E0,0E0,0E0],"parents":[2147483647,0,0,1,1,2,2],"right_children":[2,4,6,-1,-1,-1,-1],"split_conditions":[7.9832E4,4.2892332E4,1E0,-1.6467885E2,4.650986E1,2.4971655E2,7.798386E2],"split_indices":[10,10,12,0,0,0,0],"split_type":[0,0,0,0,0,0,0],"sum_hessian":[8.6E1,8E1,6E0,3.5E1,4.5E1,4E0,2E0],"tree_param":{"num_deleted":"0","num_feature":"16","num_nodes":"7","size_leaf_vector":"1"}},{"base_weights":[-3.4330066E2,-1.2629861E3,1.2447047E4,-2.8407797E2,2.2096123E1,7.03782E2,1.7624564E2],"categories":[],"categories_nodes":[],"categories_segments":[],"categories_sizes":[],"default_left":[0,0,0,0,0,0,0],"id":60,"left_children":[1,3,5,-1,-1,-1,-1],"loss_changes":[1.0088413E9,9.8301914E8,2.320759E8,0E0,0E0,0E0,0E0],"parents":[2147483647,0,0,1,1,2,2],"right_children":[2,4,6,-1,-1,-1,-1],"split_conditions":[7.9832E4,-1.7619486E1,3E0,-2.8407797E2,2.2096123E1,7.03782E2,1.7624564E2],"split_indices":[10,11,1,0,0,0,0],"split_type":[0,0,0,0,0,0,0],"sum_hessian":[8.4E1,7.9E1,5E0,1.7E1,6.2E1,2E0,3E0],"tree_param":{"num_deleted":"0","num_feature":"16","num_nodes":"7","size_leaf_vector":"1"}},{"base_weights":[-1.4440332E2,-7.478957E3,1.5378595E3,-1.9712071E2,-5.686466E2,-1.2711625E2,1.4989732E2],"categories":[],"categories_nodes":[],"categories_segments":[],"categories_sizes":[],"default_left":[0,0,0,0,0,0,0],"id":61,"left_children":[1,3,5,-1,-1,-1,-1],"loss_changes":[1.0421104E9,2.0004032E8,9.085272E8,0E0,0E0,0E0,0E0],"parents":[2147483647,0,0,1,1,2,2],"right_children":[2,4,6,-1,-1,-1,-1],"split_conditions":[-1.7619486E1,3.3E1,3.7466E4,-1.9712071E2,-5.686466E2,-1.2711625E2,1.4989732E2],"split_indices":[11,4,8,0,0,0,0],"split_type":[0,0,0,0,0,0,0],"sum_hessian":[8.3E1,1.5E1,6.8E1,1.3E1,2E0,2.3E1,4.5E1],"tree_param":{"num_deleted":"0","num_feature":"16","num_nodes":"7","size_leaf_vector":"1"}},{"base_weights":[-4.2590363E2,3.3473071E3,-3.8209106E3,5.1649506E2,3.1795105E1,-3.585491E2,-4.8359055E1],"categories":[],"categories_nodes":[],"categories_segments":[],"categories_sizes":[],"default_left":[0,0,0,0,0,0,0],"id":62,"left_children":[1,3,5,-1,-1,-1,-1],"loss_changes":[9.92893E8,9.788278E8,6.042326E8,0E0,0E0,0E0,0E0],"parents":[2147483647,0,0,1,1,2,2],"right_children":[2,4,6,-1,-1,-1,-1],"split_conditions":[2.02E3,3E0,2.021E3,5.1649506E2,3.1795105E1,-3.585491E2,-4.8359055E1],"split_indices":[0,1,0,0,0,0,0],"split_type":[0,0,0,0,0,0,0],"sum_hessian":[7.6E1,3.6E1,4E1,6E0,3E1,1.1E1,2.9E1],"tree_param":{"num_deleted":"0","num_feature":"16","num_nodes":"7","size_leaf_vector":"1"}},{"base_weights":[5.45515E2,-2.5648674E3,6.129476E3,-2.5457074E2,-3.400465E1,1.5180928E2,6.6292206E2],"categories":[],"categories_nodes":[],"categories_segments":[],"categories_sizes":[],"default_left":[0,0,0,0,0,0,0],"id":63,"left_children":[1,3,5,-1,-1,-1,-1],"loss_changes":[1.397076E9,3.697768E8,6.218309E8,0E0,0E0,0E0,0E0],"parents":[2147483647,0,0,1,1,2,2],"right_children":[2,4,6,-1,-1,-1,-1],"split_conditions":[6.1379668E4,8.0663335E3,3.26962E1,-2.5457074E2,-3.400465E1,1.5180928E2,6.6292206E2],"split_indices":[10,10,11,0,0,0,0],"split_type":[0,0,0,0,0,0,0],"sum_hessian":[7.9E1,5.1E1,2.8E1,1.3E1,3.8E1,2.5E1,3E0],"tree_param":{"num_deleted":"0","num_feature":"16","num_nodes":"7","size_leaf_vector":"1"}},{"base_weights":[-3.0455933E2,-1.2990925E3,1.600664E4,6.739825E1,-1.3735118E2,2.772508E2,7.2577325E2],"categories":[],"categories_nodes":[],"categories_segments":[],"categories_sizes":[],"default_left":[0,0,0,0,0,0,0],"id":64,"left_children":[1,3,5,-1,-1,-1,-1],"loss_changes":[1.3419199E9,6.147638E8,4.3279616E7,0E0,0E0,0E0,0E0],"parents":[2147483647,0,0,1,1,2,2],"right_children":[2,4,6,-1,-1,-1,-1],"split_conditions":[7.9832E4,2.02E3,4.992154E0,6.739825E1,-1.3735118E2,2.772508E2,7.2577325E2],"split_indices":[10,0,11,0,0,0,0],"split_type":[0,0,0,0,0,0,0],"sum_hessian":[8.1E1,7.7E1,4E0,3.4E1,4.3E1,2E0,2E0],"tree_param":{"num_deleted":"0","num_feature":"16","num_nodes":"7","size_leaf_vector":"1"}},{"base_weights":[2.3896121E2,-8.043533E2,1.2067284E4,-2.378212E2,2.8691786E1,2.1297388E2,7.06644E2],"categories":[],"categories_nodes":[],"categories_segments":[],"categories_sizes":[],"default_left":[0,0,0,0,0,0,0],"id":65,"left_children":[1,3,5,-1,-1,-1,-1],"loss_changes":[1.0285868E9,7.071978E8,2.2360224E8,0E0,0E0,0E0,0E0],"parents":[2147483647,0,0,1,1,2,2],"right_children":[2,4,6,-1,-1,-1,-1],"split_conditions":[7.9832E4,-1.7619486E1,4.992154E0,-2.378212E2,2.8691786E1,2.1297388E2,7.06644E2],"split_indices":[10,11,11,0,0,0,0],"split_type":[0,0,0,0,0,0,0],"sum_hessian":[8.2E1,7.6E1,6E0,1.6E1,6E1,4E0,2E0],"tree_param":{"num_deleted":"0","num_feature":"16","num_nodes":"7","size_leaf_vector":"1"}},{"base_weights":[2.0291238E2,3.597106E3,-2.718525E3,-1.2323371E0,2.3227231E2,-4.7324823E2,-6.1447914E1],"categories":[],"categories_nodes":[],"categories_segments":[],"categories_sizes":[],"default_left":[0,0,0,0,0,0,0],"id":66,"left_children":[1,3,5,-1,-1,-1,-1],"loss_changes":[7.883114E8,3.7391312E8,4.358954E8,0E0,0E0,0E0,0E0],"parents":[2147483647,0,0,1,1,2,2],"right_children":[2,4,6,-1,-1,-1,-1],"split_conditions":[2.02E3,-2.3179831E-2,-6.4995865E1,-1.2323371E0,2.3227231E2,-4.7324823E2,-6.1447914E1],"split_indices":[0,11,11,0,0,0,0],"split_type":[0,0,0,0,0,0,0],"sum_hessian":[7.8E1,3.6E1,4.2E1,1.6E1,2E1,3E0,3.9E1],"tree_param":{"num_deleted":"0","num_feature":"16","num_nodes":"7","size_leaf_vector":"1"}},{"base_weights":[-1.4260982E2,-1.3791377E3,9.724485E3,-2.4715588E2,4.0117865E0,4.6515073E2,-5.9201954E1],"categories":[],"categories_nodes":[],"categories_segments":[],"categories_sizes":[],"default_left":[0,0,0,0,0,0,0],"id":67,"left_children":[1,3,5,-1,-1,-1,-1],"loss_changes":[1.068611E9,6.293204E8,3.5775686E8,0E0,0E0,0E0,0E0],"parents":[2147483647,0,0,1,1,2,2],"right_children":[2,4,6,-1,-1,-1,-1],"split_conditions":[7.7321336E4,-1.7619486E1,8.8082E4,-2.4715588E2,4.0117865E0,4.6515073E2,-5.9201954E1],"split_indices":[10,11,9,0,0,0,0],"split_type":[0,0,0,0,0,0,0],"sum_hessian":[8.6E1,7.7E1,9E0,1.6E1,6.1E1,7E0,2E0],"tree_param":{"num_deleted":"0","num_feature":"16","num_nodes":"7","size_leaf_vector":"1"}},{"base_weights":[-3.9471777E2,-4.8217656E3,1.1225328E3,-1.1780165E2,-5.168845E2,-4.146806E1,1.8959656E2],"categories":[],"categories_nodes":[],"categories_segments":[],"categories_sizes":[],"default_left":[0,0,0,0,0,0,0],"id":68,"left_children":[1,3,5,-1,-1,-1,-1],"loss_changes":[5.465152E8,2.732933E8,5.685753E8,0E0,0E0,0E0,0E0],"parents":[2147483647,0,0,1,1,2,2],"right_children":[2,4,6,-1,-1,-1,-1],"split_conditions":[-1.3433348E1,3.3E1,6.1379668E4,-1.1780165E2,-5.168845E2,-4.146806E1,1.8959656E2],"split_indices":[11,4,10,0,0,0,0],"split_type":[0,0,0,0,0,0,0],"sum_hessian":[8E1,2E1,6E1,1.8E1,2E0,3.9E1,2.1E1],"tree_param":{"num_deleted":"0","num_feature":"16","num_nodes":"7","size_leaf_vector":"1"}},{"base_weights":[7.823752E1,-1.0430938E3,1.0590741E4,-2.2677946E2,1.4155857E1,1.9996564E2,6.646398E2],"categories":[],"categories_nodes":[],"categories_segments":[],"categories_sizes":[],"default_left":[0,0,0,0,0,0,0],"id":69,"left_children":[1,3,5,-1,-1,-1,-1],"loss_changes":[9.4849837E8,5.4431104E8,2.2800346E8,0E0,0E0,0E0,0E0],"parents":[2147483647,0,0,1,1,2,2],"right_children":[2,4,6,-1,-1,-1,-1],"split_conditions":[7.7321336E4,-1.7619486E1,7.567648E0,-2.2677946E2,1.4155857E1,1.9996564E2,6.646398E2],"split_indices":[10,11,11,0,0,0,0],"split_type":[0,0,0,0,0,0,0],"sum_hessian":[7.9E1,7.2E1,7E0,1.5E1,5.7E1,5E0,2E0],"tree_param":{"num_deleted":"0","num_feature":"16","num_nodes":"7","size_leaf_vector":"1"}},{"base_weights":[3.548394E2,-8.136977E2,9.042694E3,-1.5189166E1,-6.036816E2,1.8308432E2,6.4712177E2],"categories":[],"categories_nodes":[],"categories_segments":[],"categories_sizes":[],"default_left":[0,0,0,0,0,0,0],"id":70,"left_children":[1,3,5,-1,-1,-1,-1],"loss_changes":[8.355438E8,4.4958208E8,2.747628E8,0E0,0E0,0E0,0E0],"parents":[2147483647,0,0,1,1,2,2],"right_children":[2,4,6,-1,-1,-1,-1],"split_conditions":[7.7068E4,3.7E1,1E0,-1.5189166E1,-6.036816E2,1.8308432E2,6.4712177E2],"split_indices":[10,4,12,0,0,0,0],"split_type":[0,0,0,0,0,0,0],"sum_hessian":[8.1E1,7.2E1,9E0,7.1E1,1E0,7E0,2E0],"tree_param":{"num_deleted":"0","num_feature":"16","num_nodes":"7","size_leaf_vector":"1"}},{"base_weights":[2.3104185E2,-5.7254316E3,1.7236774E3,-1.5163977E2,-5.911927E2,-3.5081207E1,2.3542126E2],"categories":[],"categories_nodes":[],"categories_segments":[],"categories_sizes":[],"default_left":[0,0,0,0,0,0,0],"id":71,"left_children":[1,3,5,-1,-1,-1,-1],"loss_changes":[6.9875494E8,2.0626346E8,8.0835526E8,0E0,0E0,0E0,0E0],"parents":[2147483647,0,0,1,1,2,2],"right_children":[2,4,6,-1,-1,-1,-1],"split_conditions":[-1.7619486E1,9.0596E4,6.5030668E4,-1.5163977E2,-5.911927E2,-3.5081207E1,2.3542126E2],"split_indices":[11,8,10,0,0,0,0],"split_type":[0,0,0,0,0,0,0],"sum_hessian":[7.7E1,1.5E1,6.2E1,1.4E1,1E0,4E1,2.2E1],"tree_param":{"num_deleted":"0","num_feature":"16","num_nodes":"7","size_leaf_vector":"1"}},{"base_weights":[1.8949983E2,-1.1251353E3,8.580542E3,-1.27039734E2,5.1360096E1,4.0338385E2,-6.573687E1],"categories":[],"categories_nodes":[],"categories_segments":[],"categories_sizes":[],"default_left":[0,0,0,0,0,0,0],"id":72,"left_children":[1,3,5,-1,-1,-1,-1],"loss_changes":[8.7605235E8,4.1828256E8,2.9793664E8,0E0,0E0,0E0,0E0],"parents":[2147483647,0,0,1,1,2,2],"right_children":[2,4,6,-1,-1,-1,-1],"split_conditions":[7.5670664E4,3.7E0,8.8082E4,-1.27039734E2,5.1360096E1,4.0338385E2,-6.573687E1],"split_indices":[10,13,9,0,0,0,0],"split_type":[0,0,0,0,0,0,0],"sum_hessian":[7.8E1,6.8E1,1E1,3.5E1,3.3E1,8E0,2E0],"tree_param":{"num_deleted":"0","num_feature":"16","num_nodes":"7","size_leaf_vector":"1"}},{"base_weights":[-5.0220477E2,2.4961836E3,-3.0606748E3,4.477988E1,6.275282E2,-2.7593506E2,-3.765212E1],"categories":[],"categories_nodes":[],"categories_segments":[],"categories_sizes":[],"default_left":[0,0,0,0,0,0,0],"id":73,"left_children":[1,3,5,-1,-1,-1,-1],"loss_changes":[5.945776E8,6.515906E8,3.7761136E8,0E0,0E0,0E0,0E0],"parents":[2147483647,0,0,1,1,2,2],"right_children":[2,4,6,-1,-1,-1,-1],"split_conditions":[2.02E3,5.2537216E1,2.021E3,4.477988E1,6.275282E2,-2.7593506E2,-3.765212E1],"split_indices":[0,11,0,0,0,0,0],"split_type":[0,0,0,0,0,0,0],"sum_hessian":[7.6E1,3.5E1,4.1E1,3.3E1,2E0,1.2E1,2.9E1],"tree_param":{"num_deleted":"0","num_feature":"16","num_nodes":"7","size_leaf_vector":"1"}},{"base_weights":[1.7935268E1,2.9524565E3,-2.4740176E3,4.8715192E2,4.3753654E1,-2.6580447E2,-1.5522688E1],"categories":[],"categories_nodes":[],"categories_segments":[],"categories_sizes":[],"default_left":[0,0,0,0,0,0,0],"id":74,"left_children":[1,3,5,-1,-1,-1,-1],"loss_changes":[5.3754925E8,6.0503994E8,3.9198048E8,0E0,0E0,0E0,0E0],"parents":[2147483647,0,0,1,1,2,2],"right_children":[2,4,6,-1,-1,-1,-1],"split_conditions":[2.02E3,3E0,2.021E3,4.8715192E2,4.3753654E1,-2.6580447E2,-1.5522688E1],"split_indices":[0,1,0,0,0,0,0],"split_type":[0,0,0,0,0,0,0],"sum_hessian":[7.2E1,3.3E1,3.9E1,4E0,2.9E1,1.1E1,2.8E1],"tree_param":{"num_deleted":"0","num_feature":"16","num_nodes":"7","size_leaf_vector":"1"}},{"base_weights":[-4.0798938E2,-3.4710027E3,1.262127E3,-2.108802E2,-8.7494514E1,8.461435E1,-2.3927426E2],"categories":[],"categories_nodes":[],"categories_segments":[],"categories_sizes":[],"default_left":[0,0,0,0,0,0,0],"id":75,"left_children":[1,3,5,-1,-1,-1,-1],"loss_changes":[4.3176483E8,6.322432E7,4.709818E8,0E0,0E0,0E0,0E0],"parents":[2147483647,0,0,1,1,2,2],"right_children":[2,4,6,-1,-1,-1,-1],"split_conditions":[3.9933332E4,5.418E3,8.4317E4,-2.108802E2,-8.7494514E1,8.461435E1,-2.3927426E2],"split_indices":[10,8,9,0,0,0,0],"split_type":[0,0,0,0,0,0,0],"sum_hessian":[8.3E1,2.9E1,5.4E1,8E0,2.1E1,4.8E1,6E0],"tree_param":{"num_deleted":"0","num_feature":"16","num_nodes":"7","size_leaf_vector":"1"}},{"base_weights":[7.914957E1,-2.4480889E3,4.0835886E3,-2.0655328E2,-4.6219746E1,8.879179E1,5.5801117E2],"categories":[],"categories_nodes":[],"categories_segments":[],"categories_sizes":[],"default_left":[0,0,0,0,0,0,0],"id":76,"left_children":[1,3,5,-1,-1,-1,-1],"loss_changes":[8.045623E8,1.8020586E8,5.401441E8,0E0,0E0,0E0,0E0],"parents":[2147483647,0,0,1,1,2,2],"right_children":[2,4,6,-1,-1,-1,-1],"split_conditions":[6.1379668E4,8.0663335E3,3.26962E1,-2.0655328E2,-4.6219746E1,8.879179E1,5.5801117E2],"split_indices":[10,10,11,0,0,0,0],"split_type":[0,0,0,0,0,0,0],"sum_hessian":[7.8E1,4.8E1,3E1,1.2E1,3.6E1,2.7E1,3E0],"tree_param":{"num_deleted":"0","num_feature":"16","num_nodes":"7","size_leaf_vector":"1"}},{"base_weights":[-7.886519E1,-5.4788813E3,1.3164656E3,-1.4544344E2,-4.5021057E2,-3.562737E1,2.1762317E2],"categories":[],"categories_nodes":[],"categories_segments":[],"categories_sizes":[],"default_left":[0,0,0,0,0,0,0],"id":77,"left_children":[1,3,5,-1,-1,-1,-1],"loss_changes":[6.515955E8,1.4348749E8,7.434229E8,0E0,0E0,0E0,0E0],"parents":[2147483647,0,0,1,1,2,2],"right_children":[2,4,6,-1,-1,-1,-1],"split_conditions":[-1.7619486E1,3.3E1,6.5030668E4,-1.4544344E2,-4.5021057E2,-3.562737E1,2.1762317E2],"split_indices":[11,4,10,0,0,0,0],"split_type":[0,0,0,0,0,0,0],"sum_hessian":[8.5E1,1.7E1,6.8E1,1.5E1,2E0,4.6E1,2.2E1],"tree_param":{"num_deleted":"0","num_feature":"16","num_nodes":"7","size_leaf_vector":"1"}},{"base_weights":[1.7707655E2,-6.063447E2,1.0602602E4,-2.177426E2,1.6795195E1,7.780417E1,5.3288367E2],"categories":[],"categories_nodes":[],"categories_segments":[],"categories_sizes":[],"default_left":[0,0,0,0,0,0,0],"id":78,"left_children":[1,3,5,-1,-1,-1,-1],"loss_changes":[6.7260064E8,4.4441168E8,1.7462189E8,0E0,0E0,0E0,0E0],"parents":[2147483647,0,0,1,1,2,2],"right_children":[2,4,6,-1,-1,-1,-1],"split_conditions":[8.4914664E4,-1.8393656E1,9E0,-2.177426E2,1.6795195E1,7.780417E1,5.3288367E2],"split_indices":[10,11,4,0,0,0,0],"split_type":[0,0,0,0,0,0,0],"sum_hessian":[8.1E1,7.6E1,5E0,1.2E1,6.4E1,2E0,3E0],"tree_param":{"num_deleted":"0","num_feature":"16","num_nodes":"7","size_leaf_vector":"1"}},{"base_weights":[2.5387547E2,-8.144202E2,7.1222725E3,-5.4819495E2,-1.7094378E1,5.127995E2,1.2725146E2],"categories":[],"categories_nodes":[],"categories_segments":[],"categories_sizes":[],"default_left":[0,0,0,0,0,0,0],"id":79,"left_children":[1,3,5,-1,-1,-1,-1],"loss_changes":[6.409463E8,3.664268E8,2.6034797E8,0E0,0E0,0E0,0E0],"parents":[2147483647,0,0,1,1,2,2],"right_children":[2,4,6,-1,-1,-1,-1],"split_conditions":[7.5670664E4,-7.601881E1,3E0,-5.4819495E2,-1.7094378E1,5.127995E2,1.2725146E2],"split_indices":[10,11,1,0,0,0,0],"split_type":[0,0,0,0,0,0,0],"sum_hessian":[8.6E1,7.5E1,1.1E1,1E0,7.4E1,3E0,8E0],"tree_param":{"num_deleted":"0","num_feature":"16","num_nodes":"7","size_leaf_vector":"1"}},{"base_weights":[-1.8320677E2,-7.3000336E2,5.6266986E2,-1.811616E2,2.4960386E1],"categories":[],"categories_nodes":[],"categories_segments":[],"categories_sizes":[],"default_left":[0,0,0,0,0],"id":80,"left_children":[1,3,-1,-1,-1],"loss_changes":[7.0094957E8,4.7813344E8,0E0,0E0,0E0],"parents":[2147483647,0,0,1,1],"right_children":[2,4,-1,-1,-1],"split_conditions":[8.5782664E4,-1.3433348E1,5.6266986E2,-1.811616E2,2.4960386E1],"split_indices":[10,11,0,0,0],"split_type":[0,0,0,0,0],"sum_hessian":[8E1,7.8E1,2E0,1.9E1,5.9E1],"tree_param":{"num_deleted":"0","num_feature":"16","num_nodes":"5","size_leaf_vector":"1"}},{"base_weights":[1.1965321E2,-5.0854596E2,1.0505475E4,-1.6542189E2,3.0353725E1,-1.4888591E1,4.899584E2],"categories":[],"categories_nodes":[],"categories_segments":[],"categories_sizes":[],"default_left":[0,0,0,0,0,0,0],"id":81,"left_children":[1,3,5,-1,-1,-1,-1],"loss_changes":[5.43964E8,4.3150394E8,1.5935693E8,0E0,0E0,0E0,0E0],"parents":[2147483647,0,0,1,1,2,2],"right_children":[2,4,6,-1,-1,-1,-1],"split_conditions":[8.4914664E4,-1.3433348E1,1E0,-1.6542189E2,3.0353725E1,-1.4888591E1,4.899584E2],"split_indices":[10,11,3,0,0,0,0],"split_type":[0,0,0,0,0,0,0],"sum_hessian":[8.2E1,7.8E1,4E0,1.9E1,5.9E1,1E0,3E0],"tree_param":{"num_deleted":"0","num_feature":"16","num_nodes":"7","size_leaf_vector":"1"}},{"base_weights":[-3.8117206E2,-9.660509E3,8.877147E1,-5.296839E2,-1.4062265E2,-5.467405E1,1.2183167E2],"categories":[],"categories_nodes":[],"categories_segments":[],"categories_sizes":[],"default_left":[0,0,0,0,0,0,0],"id":82,"left_children":[1,3,5,-1,-1,-1,-1],"loss_changes":[3.3972525E8,6.443296E7,3.9326067E8,0E0,0E0,0E0,0E0],"parents":[2147483647,0,0,1,1,2,2],"right_children":[2,4,6,-1,-1,-1,-1],"split_conditions":[-6.4995865E1,2E0,6.1379668E4,-5.296839E2,-1.4062265E2,-5.467405E1,1.2183167E2],"split_indices":[11,1,10,0,0,0,0],"split_type":[0,0,0,0,0,0,0],"sum_hessian":[7.7E1,3E0,7.4E1,1E0,2E0,5E1,2.4E1],"tree_param":{"num_deleted":"0","num_feature":"16","num_nodes":"7","size_leaf_vector":"1"}},{"base_weights":[-2.8591965E2,-4.968868E3,6.4126794E2,-2.1662498E2,-1.2661308E2,-7.4212555E1,9.7563225E1],"categories":[],"categories_nodes":[],"categories_segments":[],"categories_sizes":[],"default_left":[0,0,0,0,0,0,0],"id":83,"left_children":[1,3,5,-1,-1,-1,-1],"loss_changes":[3.8778022E8,6.09408E6,4.1485398E8,0E0,0E0,0E0,0E0],"parents":[2147483647,0,0,1,1,2,2],"right_children":[2,4,6,-1,-1,-1,-1],"split_conditions":[8.0663335E3,2.021E3,-2.3179831E-2,-2.1662498E2,-1.2661308E2,-7.4212555E1,9.7563225E1],"split_indices":[10,0,11,0,0,0,0],"split_type":[0,0,0,0,0,0,0],"sum_hessian":[8.8E1,1.4E1,7.4E1,7E0,7E0,3.2E1,4.2E1],"tree_param":{"num_deleted":"0","num_feature":"16","num_nodes":"7","size_leaf_vector":"1"}},{"base_weights":[-9.965692E1,-4.1597554E3,1.2246163E3,-1.1456962E2,-5.171906E2,-3.0159977E1,1.9986327E2],"categories":[],"categories_nodes":[],"categories_segments":[],"categories_sizes":[],"default_left":[0,0,0,0,0,0,0],"id":84,"left_children":[1,3,5,-1,-1,-1,-1],"loss_changes":[4.756782E8,1.8636333E8,5.9072294E8,0E0,0E0,0E0,0E0],"parents":[2147483647,0,0,1,1,2,2],"right_children":[2,4,6,-1,-1,-1,-1],"split_conditions":[-1.3433348E1,9.0596E4,6.5030668E4,-1.1456962E2,-5.171906E2,-3.0159977E1,1.9986327E2],"split_indices":[11,8,10,0,0,0,0],"split_type":[0,0,0,0,0,0,0],"sum_hessian":[8.7E1,2.1E1,6.6E1,2E1,1E0,4.5E1,2.1E1],"tree_param":{"num_deleted":"0","num_feature":"16","num_nodes":"7","size_leaf_vector":"1"}},{"base_weights":[6.080609E1,-5.1713745E2,8.89433E3,-6.6491227E0,-5.06491E2,5.0358942E2,5.3751842E1],"categories":[],"categories_nodes":[],"categories_segments":[],"categories_sizes":[],"default_left":[0,0,0,0,0,0,0],"id":85,"left_children":[1,3,5,-1,-1,-1,-1],"loss_changes":[3.9533386E8,3.244912E8,1.5990886E8,0E0,0E0,0E0,0E0],"parents":[2147483647,0,0,1,1,2,2],"right_children":[2,4,6,-1,-1,-1,-1],"split_conditions":[8.4914664E4,1.07752E5,3E0,-6.6491227E0,-5.06491E2,5.0358942E2,5.3751842E1],"split_indices":[10,8,1,0,0,0,0],"split_type":[0,0,0,0,0,0,0],"sum_hessian":[7.6E1,7.2E1,4E0,7.1E1,1E0,2E0,2E0],"tree_param":{"num_deleted":"0","num_feature":"16","num_nodes":"7","size_leaf_vector":"1"}},{"base_weights":[-5.4906334E1,2.0428134E3,-2.1037524E3,3.279609E1,4.972586E2,-2.171803E2,-1.800796E1],"categories":[],"categories_nodes":[],"categories_segments":[],"categories_sizes":[],"default_left":[0,0,0,0,0,0,0],"id":86,"left_children":[1,3,5,-1,-1,-1,-1],"loss_changes":[3.7181117E8,5.5839174E8,2.7056986E8,0E0,0E0,0E0,0E0],"parents":[2147483647,0,0,1,1,2,2],"right_children":[2,4,6,-1,-1,-1,-1],"split_conditions":[2.02E3,5.2537216E1,2.021E3,3.279609E1,4.972586E2,-2.171803E2,-1.800796E1],"split_indices":[0,11,0,0,0,0,0],"split_type":[0,0,0,0,0,0,0],"sum_hessian":[8.5E1,4.2E1,4.3E1,3.9E1,3E0,1.2E1,3.1E1],"tree_param":{"num_deleted":"0","num_feature":"16","num_nodes":"7","size_leaf_vector":"1"}},{"base_weights":[1.7841472E2,-4.3591476E2,8.882295E3,-1.3902934E2,3.1289211E1,5.1470715E1,4.564789E2],"categories":[],"categories_nodes":[],"categories_segments":[],"categories_sizes":[],"default_left":[0,0,0,0,0,0,0],"id":87,"left_children":[1,3,5,-1,-1,-1,-1],"loss_changes":[4.6681226E8,3.6251907E8,1.4507856E8,0E0,0E0,0E0,0E0],"parents":[2147483647,0,0,1,1,2,2],"right_children":[2,4,6,-1,-1,-1,-1],"split_conditions":[7.9832E4,-1.0742431E1,9E0,-1.3902934E2,3.1289211E1,5.1470715E1,4.564789E2],"split_indices":[10,11,4,0,0,0,0],"split_type":[0,0,0,0,0,0,0],"sum_hessian":[8.6E1,8.1E1,5E0,2.2E1,5.9E1,2E0,3E0],"tree_param":{"num_deleted":"0","num_feature":"16","num_nodes":"7","size_leaf_vector":"1"}},{"base_weights":[-2.8794622E0,-8.083031E2,6.3224873E3,-1.712272E1,-4.8864346E2,5.0566876E2,9.127395E1],"categories":[],"categories_nodes":[],"categories_segments":[],"categories_sizes":[],"default_left":[0,0,0,0,0,0,0],"id":88,"left_children":[1,3,5,-1,-1,-1,-1],"loss_changes":[3.9489014E8,2.880443E8,2.2713978E8,0E0,0E0,0E0,0E0],"parents":[2147483647,0,0,1,1,2,2],"right_children":[2,4,6,-1,-1,-1,-1],"split_conditions":[7.7321336E4,8.1452E4,3E0,-1.712272E1,-4.8864346E2,5.0566876E2,9.127395E1],"split_indices":[10,8,1,0,0,0,0],"split_type":[0,0,0,0,0,0,0],"sum_hessian":[7.6E1,6.8E1,8E0,6.7E1,1E0,2E0,6E0],"tree_param":{"num_deleted":"0","num_feature":"16","num_nodes":"7","size_leaf_vector":"1"}},{"base_weights":[3.3640778E2,-1.294628E3,3.7800508E3,-1.4168716E2,-1.20987015E1,4.732579E2,8.208479E1],"categories":[],"categories_nodes":[],"categories_segments":[],"categories_sizes":[],"default_left":[0,0,0,0,0,0,0],"id":89,"left_children":[1,3,5,-1,-1,-1,-1],"loss_changes":[4.8535674E8,1.463265E8,3.6797238E8,0E0,0E0,0E0,0E0],"parents":[2147483647,0,0,1,1,2,2],"right_children":[2,4,6,-1,-1,-1,-1],"split_conditions":[6.5030668E4,8.0663335E3,5.653E4,-1.4168716E2,-1.20987015E1,4.732579E2,8.208479E1],"split_indices":[10,10,8,0,0,0,0],"split_type":[0,0,0,0,0,0,0],"sum_hessian":[8.5E1,5.8E1,2.7E1,1.5E1,4.3E1,3E0,2.4E1],"tree_param":{"num_deleted":"0","num_feature":"16","num_nodes":"7","size_leaf_vector":"1"}},{"base_weights":[-2.7199338E2,-2.225003E3,1.6860375E3,-1.0901619E2,3.1814003E1,8.395406E1,-4.8023264E2],"categories":[],"categories_nodes":[],"categories_segments":[],"categories_sizes":[],"default_left":[0,0,0,0,0,0,0],"id":90,"left_children":[1,3,5,-1,-1,-1,-1],"loss_changes":[3.1164384E8,1.002785E8,4.0376355E8,0E0,0E0,0E0,0E0],"parents":[2147483647,0,0,1,1,2,2],"right_children":[2,4,6,-1,-1,-1,-1],"split_conditions":[5.175E4,1.1E1,3.7E1,-1.0901619E2,3.1814003E1,8.395406E1,-4.8023264E2],"split_indices":[8,1,4,0,0,0,0],"split_type":[0,0,0,0,0,0,0],"sum_hessian":[8E1,4E1,4E1,3.2E1,8E0,3.9E1,1E0],"tree_param":{"num_deleted":"0","num_feature":"16","num_nodes":"7","size_leaf_vector":"1"}},{"base_weights":[1.5168306E2,-1.574506E3,2.9283992E3,-2.0051819E2,-3.8984898E1,1.7030527E2,-2.1621188E2],"categories":[],"categories_nodes":[],"categories_segments":[],"categories_sizes":[],"default_left":[0,0,0,0,0,0,0],"id":91,"left_children":[1,3,5,-1,-1,-1,-1],"loss_changes":[4.0972403E8,9.982038E7,5.3390698E8,0E0,0E0,0E0,0E0],"parents":[2147483647,0,0,1,1,2,2],"right_children":[2,4,6,-1,-1,-1,-1],"split_conditions":[6.1379668E4,1.574E3,8.8082E4,-2.0051819E2,-3.8984898E1,1.7030527E2,-2.1621188E2],"split_indices":[10,8,9,0,0,0,0],"split_type":[0,0,0,0,0,0,0],"sum_hessian":[8.4E1,5.2E1,3.2E1,5E0,4.7E1,2.7E1,5E0],"tree_param":{"num_deleted":"0","num_feature":"16","num_nodes":"7","size_leaf_vector":"1"}},{"base_weights":[2.160186E1,-6.506299E2,5.60616E3,-1.2557907E1,-4.6582465E2,4.2101495E2,3.4937187E1],"categories":[],"categories_nodes":[],"categories_segments":[],"categories_sizes":[],"default_left":[0,0,0,0,0,0,0],"id":92,"left_children":[1,3,5,-1,-1,-1,-1],"loss_changes":[3.0592083E8,2.666843E8,2.3510131E8,0E0,0E0,0E0,0E0],"parents":[2147483647,0,0,1,1,2,2],"right_children":[2,4,6,-1,-1,-1,-1],"split_conditions":[7.7321336E4,9.0596E4,3E0,-1.2557907E1,-4.6582465E2,4.2101495E2,3.4937187E1],"split_indices":[10,8,1,0,0,0,0],"split_type":[0,0,0,0,0,0,0],"sum_hessian":[8E1,7.2E1,8E0,7.1E1,1E0,3E0,5E0],"tree_param":{"num_deleted":"0","num_feature":"16","num_nodes":"7","size_leaf_vector":"1"}},{"base_weights":[4.290617E1,-1.0928547E3,4.5648433E3,-2.7355747E1,-4.5618774E2,9.577026E1,4.6961774E2],"categories":[],"categories_nodes":[],"categories_segments":[],"categories_sizes":[],"default_left":[0,0,0,0,0,0,0],"id":93,"left_children":[1,3,5,-1,-1,-1,-1],"loss_changes":[4.031057E8,2.3717754E8,2.2834266E8,0E0,0E0,0E0,0E0],"parents":[2147483647,0,0,1,1,2,2],"right_children":[2,4,6,-1,-1,-1,-1],"split_conditions":[7.2792336E4,9.0596E4,1E0,-2.7355747E1,-4.5618774E2,9.577026E1,4.6961774E2],"split_indices":[10,8,12,0,0,0,0],"split_type":[0,0,0,0,0,0,0],"sum_hessian":[7.7E1,6.2E1,1.5E1,6.1E1,1E0,1.3E1,2E0],"tree_param":{"num_deleted":"0","num_feature":"16","num_nodes":"7","size_leaf_vector":"1"}},{"base_weights":[1.851895E2,-3.0687762E2,8.512861E3,-1.27407135E2,2.6186642E1,-1.9605106E1,4.0055167E2],"categories":[],"categories_nodes":[],"categories_segments":[],"categories_sizes":[],"default_left":[0,0,0,0,0,0,0],"id":94,"left_children":[1,3,5,-1,-1,-1,-1],"loss_changes":[3.492847E8,2.6779586E8,1.1296624E8,0E0,0E0,0E0,0E0],"parents":[2147483647,0,0,1,1,2,2],"right_children":[2,4,6,-1,-1,-1,-1],"split_conditions":[8.4914664E4,-1.3433348E1,1E0,-1.27407135E2,2.6186642E1,-1.9605106E1,4.0055167E2],"split_indices":[10,11,3,0,0,0,0],"split_type":[0,0,0,0,0,0,0],"sum_hessian":[8.4E1,8E1,4E0,1.9E1,6.1E1,1E0,3E0],"tree_param":{"num_deleted":"0","num_feature":"16","num_nodes":"7","size_leaf_vector":"1"}},{"base_weights":[-1.5913596E2,-9.388099E3,1.5718974E2,-4.441144E2,-9.093944E1,-8.781754E1,5.3916267E1],"categories":[],"categories_nodes":[],"categories_segments":[],"categories_sizes":[],"default_left":[0,0,0,0,0,0,0],"id":95,"left_children":[1,3,5,-1,-1,-1,-1],"loss_changes":[2.42712E8,3.0795088E7,2.7893293E8,0E0,0E0,0E0,0E0],"parents":[2147483647,0,0,1,1,2,2],"right_children":[2,4,6,-1,-1,-1,-1],"split_conditions":[-7.601881E1,2E0,3.4808E4,-4.441144E2,-9.093944E1,-8.781754E1,5.3916267E1],"split_indices":[11,1,8,0,0,0,0],"split_type":[0,0,0,0,0,0,0],"sum_hessian":[8.2E1,2E0,8E1,1E0,1E0,2.7E1,5.3E1],"tree_param":{"num_deleted":"0","num_feature":"16","num_nodes":"7","size_leaf_vector":"1"}},{"base_weights":[2.474931E2,-2.2764578E2,1.0669428E4,9.697662E-1,-4.3492664E2,5.191525E2,1.972577E2],"categories":[],"categories_nodes":[],"categories_segments":[],"categories_sizes":[],"default_left":[0,0,0,0,0,0,0],"id":96,"left_children":[1,3,5,-1,-1,-1,-1],"loss_changes":[4.264882E8,2.4761403E8,1.2702176E7,0E0,0E0,0E0,0E0],"parents":[2147483647,0,0,1,1,2,2],"right_children":[2,4,6,-1,-1,-1,-1],"split_conditions":[8.5782664E4,1.07752E5,2E0,9.697662E-1,-4.3492664E2,5.191525E2,1.972577E2],"split_indices":[10,8,1,0,0,0,0],"split_type":[0,0,0,0,0,0,0],"sum_hessian":[8.5E1,8.2E1,3E0,8.1E1,1E0,1E0,2E0],"tree_param":{"num_deleted":"0","num_feature":"16","num_nodes":"7","size_leaf_vector":"1"}},{"base_weights":[3.3675987E1,2.0442585E3,-1.8396185E3,3.7018875E1,4.3333377E2,-1.8441399E2,-1.7955475E1],"categories":[],"categories_nodes":[],"categories_segments":[],"categories_sizes":[],"default_left":[0,0,0,0,0,0,0],"id":97,"left_children":[1,3,5,-1,-1,-1,-1],"loss_changes":[3.182951E8,4.0384947E8,1.8876978E8,0E0,0E0,0E0,0E0],"parents":[2147483647,0,0,1,1,2,2],"right_children":[2,4,6,-1,-1,-1,-1],"split_conditions":[2.02E3,5.2537216E1,2.021E3,3.7018875E1,4.3333377E2,-1.8441399E2,-1.7955475E1],"split_indices":[0,11,0,0,0,0,0],"split_type":[0,0,0,0,0,0,0],"sum_hessian":[8.3E1,4E1,4.3E1,3.7E1,3E0,1.2E1,3.1E1],"tree_param":{"num_deleted":"0","num_feature":"16","num_nodes":"7","size_leaf_vector":"1"}},{"base_weights":[8.269826E1,-2.474824E3,1.5808228E3,-1.7513156E2,-5.7806316E1,-3.351061E1,2.0132596E2],"categories":[],"categories_nodes":[],"categories_segments":[],"categories_sizes":[],"default_left":[0,0,0,0,0,0,0],"id":98,"left_children":[1,3,5,-1,-1,-1,-1],"loss_changes":[3.0853306E8,5.5886096E7,5.076628E8,0E0,0E0,0E0,0E0],"parents":[2147483647,0,0,1,1,2,2],"right_children":[2,4,6,-1,-1,-1,-1],"split_conditions":[3.9933332E4,2.826E3,4.1606784E0,-1.7513156E2,-5.7806316E1,-3.351061E1,2.0132596E2],"split_indices":[10,8,11,0,0,0,0],"split_type":[0,0,0,0,0,0,0],"sum_hessian":[7.9E1,2.9E1,5E1,7E0,2.2E1,3.1E1,1.9E1],"tree_param":{"num_deleted":"0","num_feature":"16","num_nodes":"7","size_leaf_vector":"1"}},{"base_weights":[-3.9767056E2,-8.869342E3,-1.1541792E2,-4.2142053E2,-8.406713E1,-1.6939217E2,1.2541678E1],"categories":[],"categories_nodes":[],"categories_segments":[],"categories_sizes":[],"default_left":[0,0,0,0,0,0,0],"id":99,"left_children":[1,3,5,-1,-1,-1,-1],"loss_changes":[2.0427394E8,2.9135216E7,1.7685357E8,0E0,0E0,0E0,0E0],"parents":[2147483647,0,0,1,1,2,2],"right_children":[2,4,6,-1,-1,-1,-1],"split_conditions":[-7.601881E1,2E0,2.826E3,-4.2142053E2,-8.406713E1,-1.6939217E2,1.2541678E1],"split_indices":[11,1,8,0,0,0,0],"split_type":[0,0,0,0,0,0,0],"sum_hessian":[8.5E1,2E0,8.3E1,1E0,1E0,7E0,7.6E1],"tree_param":{"num_deleted":"0","num_feature":"16","num_nodes":"7","size_leaf_vector":"1"}},{"base_weights":[4.5265497E2,-2.3058662E3,1.7929E3,-1.5953828E2,-5.459126E1,2.9866302E1,3.4886984E2],"categories":[],"categories_nodes":[],"categories_segments":[],"categories_sizes":[],"default_left":[0,0,0,0,0,0,0],"id":100,"left_children":[1,3,5,-1,-1,-1,-1],"loss_changes":[2.9058822E8,3.815645E7,3.941113E8,0E0,0E0,0E0,0E0],"parents":[2147483647,0,0,1,1,2,2],"right_children":[2,4,6,-1,-1,-1,-1],"split_conditions":[3.5641E4,2.826E3,3.26962E1,-1.5953828E2,-5.459126E1,2.9866302E1,3.4886984E2],"split_indices":[8,8,11,0,0,0,0],"split_type":[0,0,0,0,0,0,0],"sum_hessian":[7.7E1,2.5E1,5.2E1,6E0,1.9E1,4.7E1,5E0],"tree_param":{"num_deleted":"0","num_feature":"16","num_nodes":"7","size_leaf_vector":"1"}},{"base_weights":[3.9392285E2,-1.1174697E3,2.8478818E3,-1.5698082E2,-1.6578283E1,2.411548E2,-1.7967708E0],"categories":[],"categories_nodes":[],"categories_segments":[],"categories_sizes":[],"default_left":[0,0,0,0,0,0,0],"id":101,"left_children":[1,3,5,-1,-1,-1,-1],"loss_changes":[3.0933338E8,1.0816872E8,3.4935283E8,0E0,0E0,0E0,0E0],"parents":[2147483647,0,0,1,1,2,2],"right_children":[2,4,6,-1,-1,-1,-1],"split_conditions":[6.1379668E4,5.418E3,7.2422E4,-1.5698082E2,-1.6578283E1,2.411548E2,-1.7967708E0],"split_indices":[10,8,9,0,0,0,0],"split_type":[0,0,0,0,0,0,0],"sum_hessian":[8.2E1,5.1E1,3.1E1,8E0,4.3E1,1.3E1,1.8E1],"tree_param":{"num_deleted":"0","num_feature":"16","num_nodes":"7","size_leaf_vector":"1"}},{"base_weights":[-2.3961327E2,-3.0753704E3,7.163621E2,-7.7321724E1,-3.1478467E2,-3.0658228E1,1.1164161E2],"categories":[],"categories_nodes":[],"categories_segments":[],"categories_sizes":[],"default_left":[0,0,0,0,0,0,0],"id":102,"left_children":[1,3,5,-1,-1,-1,-1],"loss_changes":[2.2329558E8,9.58644E7,2.2930115E8,0E0,0E0,0E0,0E0],"parents":[2147483647,0,0,1,1,2,2],"right_children":[2,4,6,-1,-1,-1,-1],"split_conditions":[-1.0742431E1,3.3E1,6.1379668E4,-7.7321724E1,-3.1478467E2,-3.0658228E1,1.1164161E2],"split_indices":[11,4,10,0,0,0,0],"split_type":[0,0,0,0,0,0,0],"sum_hessian":[8.1E1,2E1,6.1E1,1.8E1,2E0,3.7E1,2.4E1],"tree_param":{"num_deleted":"0","num_feature":"16","num_nodes":"7","size_leaf_vector":"1"}},{"base_weights":[2.843568E2,-1.2440099E2,8.038479E3,-6.9667816E1,2.9327068E1,-2.3708906E1,4.1289658E2],"categories":[],"categories_nodes":[],"categories_segments":[],"categories_sizes":[],"default_left":[0,0,0,0,0,0,0],"id":103,"left_children":[1,3,5,-1,-1,-1,-1],"loss_changes":[2.3770074E8,1.2119944E8,1.1442563E8,0E0,0E0,0E0,0E0],"parents":[2147483647,0,0,1,1,2,2],"right_children":[2,4,6,-1,-1,-1,-1],"split_conditions":[8.5782664E4,3.9165668E4,1E0,-6.9667816E1,2.9327068E1,-2.3708906E1,4.1289658E2],"split_indices":[10,10,3,0,0,0,0],"split_type":[0,0,0,0,0,0,0],"sum_hessian":[7.4E1,7.1E1,3E0,2.4E1,4.7E1,1E0,2E0],"tree_param":{"num_deleted":"0","num_feature":"16","num_nodes":"7","size_leaf_vector":"1"}},{"base_weights":[5.267739E0,-7.914802E2,4.529622E3,-1.8299795E1,-4.0737738E2,3.5871725E2,6.695187E1],"categories":[],"categories_nodes":[],"categories_segments":[],"categories_sizes":[],"default_left":[0,0,0,0,0,0,0],"id":104,"left_children":[1,3,5,-1,-1,-1,-1],"loss_changes":[2.82998E8,1.9583718E8,1.5514798E8,0E0,0E0,0E0,0E0],"parents":[2147483647,0,0,1,1,2,2],"right_children":[2,4,6,-1,-1,-1,-1],"split_conditions":[7.5670664E4,9.0596E4,3E0,-1.8299795E1,-4.0737738E2,3.5871725E2,6.695187E1],"split_indices":[10,8,1,0,0,0,0],"split_type":[0,0,0,0,0,0,0],"sum_hessian":[7.7E1,6.6E1,1.1E1,6.5E1,1E0,3E0,8E0],"tree_param":{"num_deleted":"0","num_feature":"16","num_nodes":"7","size_leaf_vector":"1"}},{"base_weights":[3.6339825E2,-1.3317308E3,2.1349995E3,-1.4914339E2,-2.5467606E1,4.0354492E2,5.282713E1],"categories":[],"categories_nodes":[],"categories_segments":[],"categories_sizes":[],"default_left":[0,0,0,0,0,0,0],"id":105,"left_children":[1,3,5,-1,-1,-1,-1],"loss_changes":[2.506679E8,7.263098E7,2.3663374E8,0E0,0E0,0E0,0E0],"parents":[2147483647,0,0,1,1,2,2],"right_children":[2,4,6,-1,-1,-1,-1],"split_conditions":[5.2341E4,2.826E3,2E0,-1.4914339E2,-2.5467606E1,4.0354492E2,5.282713E1],"split_indices":[8,8,1,0,0,0,0],"split_type":[0,0,0,0,0,0,0],"sum_hessian":[8.2E1,4.2E1,4E1,7E0,3.5E1,2E0,3.8E1],"tree_param":{"num_deleted":"0","num_feature":"16","num_nodes":"7","size_leaf_vector":"1"}},{"base_weights":[-3.016863E2,-6.447049E2,9.835482E3,-1.4737749E1,-4.0729813E2,4.561954E2,1.04356766E2],"categories":[],"categories_nodes":[],"categories_segments":[],"categories_sizes":[],"default_left":[0,0,0,0,0,0,0],"id":106,"left_children":[1,3,5,-1,-1,-1,-1],"loss_changes":[2.9253936E8,2.0044035E8,2.5071088E7,0E0,0E0,0E0,0E0],"parents":[2147483647,0,0,1,1,2,2],"right_children":[2,4,6,-1,-1,-1,-1],"split_conditions":[8.5782664E4,9.0596E4,2E0,-1.4737749E1,-4.0729813E2,4.561954E2,1.04356766E2],"split_indices":[10,8,1,0,0,0,0],"split_type":[0,0,0,0,0,0,0],"sum_hessian":[8.2E1,8E1,2E0,7.9E1,1E0,1E0,1E0],"tree_param":{"num_deleted":"0","num_feature":"16","num_nodes":"7","size_leaf_vector":"1"}},{"base_weights":[1.3189548E2,-2.102423E3,1.5278542E3,-5.3706398E1,-2.997671E2,-1.4780559E1,1.8667284E2],"categories":[],"categories_nodes":[],"categories_segments":[],"categories_sizes":[],"default_left":[0,0,0,0,0,0,0],"id":107,"left_children":[1,3,5,-1,-1,-1,-1],"loss_changes":[2.5741974E8,1.1255554E8,3.5648426E8,0E0,0E0,0E0,0E0],"parents":[2147483647,0,0,1,1,2,2],"right_children":[2,4,6,-1,-1,-1,-1],"split_conditions":[-2.3179831E-2,3.3E1,5.9910332E4,-5.3706398E1,-2.997671E2,-1.4780559E1,1.8667284E2],"split_indices":[11,4,10,0,0,0,0],"split_type":[0,0,0,0,0,0,0],"sum_hessian":[8.1E1,3.1E1,5E1,2.9E1,2E0,3.3E1,1.7E1],"tree_param":{"num_deleted":"0","num_feature":"16","num_nodes":"7","size_leaf_vector":"1"}},{"base_weights":[-1.4177332E2,-7.4515125E2,7.2949946E3,-1.7562092E1,-3.926705E2,6.132828E1,3.6092236E2],"categories":[],"categories_nodes":[],"categories_segments":[],"categories_sizes":[],"default_left":[0,0,0,0,0,0,0],"id":108,"left_children":[1,3,5,-1,-1,-1,-1],"loss_changes":[3.4402554E8,1.8231949E8,7.26777E7,0E0,0E0,0E0,0E0],"parents":[2147483647,0,0,1,1,2,2],"right_children":[2,4,6,-1,-1,-1,-1],"split_conditions":[7.7321336E4,9.0596E4,-1E0,-1.7562092E1,-3.926705E2,6.132828E1,3.6092236E2],"split_indices":[10,8,13,0,0,0,0],"split_type":[0,0,0,0,0,0,0],"sum_hessian":[7.5E1,7E1,5E0,6.9E1,1E0,2E0,3E0],"tree_param":{"num_deleted":"0","num_feature":"16","num_nodes":"7","size_leaf_vector":"1"}},{"base_weights":[3.7441177E1,-2.7681318E3,9.9434827E2,-2.8645984E2,-7.072575E1,2.0827702E1,3.685693E2],"categories":[],"categories_nodes":[],"categories_segments":[],"categories_sizes":[],"default_left":[0,0,0,0,0,0,0],"id":109,"left_children":[1,3,5,-1,-1,-1,-1],"loss_changes":[2.2961608E8,7.977189E7,2.4120037E8,0E0,0E0,0E0,0E0],"parents":[2147483647,0,0,1,1,2,2],"right_children":[2,4,6,-1,-1,-1,-1],"split_conditions":[-1.3433348E1,-7.601881E1,8.5782664E4,-2.8645984E2,-7.072575E1,2.0827702E1,3.685693E2],"split_indices":[11,11,10,0,0,0,0],"split_type":[0,0,0,0,0,0,0],"sum_hessian":[8.4E1,2.1E1,6.3E1,2E0,1.9E1,6.1E1,2E0],"tree_param":{"num_deleted":"0","num_feature":"16","num_nodes":"7","size_leaf_vector":"1"}},{"base_weights":[5.9011036E-1,-7.0652496E2,4.718345E3,-1.6622519E1,-3.7862067E2,3.252657E2,8.007873E1],"categories":[],"categories_nodes":[],"categories_segments":[],"categories_sizes":[],"default_left":[0,0,0,0,0,0,0],"id":110,"left_children":[1,3,5,-1,-1,-1,-1],"loss_changes":[2.752538E8,1.6987024E8,9.967118E7,0E0,0E0,0E0,0E0],"parents":[2147483647,0,0,1,1,2,2],"right_children":[2,4,6,-1,-1,-1,-1],"split_conditions":[7.4848E4,9.0596E4,3E0,-1.6622519E1,-3.7862067E2,3.252657E2,8.007873E1],"split_indices":[10,8,1,0,0,0,0],"split_type":[0,0,0,0,0,0,0],"sum_hessian":[8.1E1,7.1E1,1E1,7E1,1E0,3E0,7E0],"tree_param":{"num_deleted":"0","num_feature":"16","num_nodes":"7","size_leaf_vector":"1"}},{"base_weights":[-5.5031586E1,-4.2515234E2,8.310012E3,2.8505957E-1,-1.9700093E2,4.2107513E2,1.4297908E2],"categories":[],"categories_nodes":[],"categories_segments":[],"categories_sizes":[],"default_left":[0,0,0,0,0,0,0],"id":111,"left_children":[1,3,5,-1,-1,-1,-1],"loss_changes":[2.743578E8,1.8356539E8,1.9480688E7,0E0,0E0,0E0,0E0],"parents":[2147483647,0,0,1,1,2,2],"right_children":[2,4,6,-1,-1,-1,-1],"split_conditions":[8.5782664E4,8.4317E4,2E0,2.8505957E-1,-1.9700093E2,4.2107513E2,1.4297908E2],"split_indices":[10,9,3,0,0,0,0],"split_type":[0,0,0,0,0,0,0],"sum_hessian":[8.7E1,8.4E1,3E0,7.8E1,6E0,1E0,2E0],"tree_param":{"num_deleted":"0","num_feature":"16","num_nodes":"7","size_leaf_vector":"1"}},{"base_weights":[-8.276218E1,-4.8297168E2,5.404722E3,-9.483325E0,-3.6671228E2,4.682152E1,3.460796E2],"categories":[],"categories_nodes":[],"categories_segments":[],"categories_sizes":[],"default_left":[0,0,0,0,0,0,0],"id":112,"left_children":[1,3,5,-1,-1,-1,-1],"loss_changes":[1.8590514E8,1.6597482E8,8.845918E7,0E0,0E0,0E0,0E0],"parents":[2147483647,0,0,1,1,2,2],"right_children":[2,4,6,-1,-1,-1,-1],"split_conditions":[8.4914664E4,9.0596E4,4.992154E0,-9.483325E0,-3.6671228E2,4.682152E1,3.460796E2],"split_indices":[10,8,11,0,0,0,0],"split_type":[0,0,0,0,0,0,0],"sum_hessian":[8.3E1,7.8E1,5E0,7.7E1,1E0,3E0,2E0],"tree_param":{"num_deleted":"0","num_feature":"16","num_nodes":"7","size_leaf_vector":"1"}},{"base_weights":[1.3766815E2,-1.8874442E3,1.5094783E3,-5.137628E1,-3.591258E2,-4.5866962E1,1.2363495E2],"categories":[],"categories_nodes":[],"categories_segments":[],"categories_sizes":[],"default_left":[0,0,0,0,0,0,0],"id":113,"left_children":[1,3,5,-1,-1,-1,-1],"loss_changes":[2.320497E8,1.1704848E8,2.64801E8,0E0,0E0,0E0,0E0],"parents":[2147483647,0,0,1,1,2,2],"right_children":[2,4,6,-1,-1,-1,-1],"split_conditions":[-2.3179831E-2,9.0596E4,3.7466E4,-5.137628E1,-3.591258E2,-4.5866962E1,1.2363495E2],"split_indices":[11,8,8,0,0,0,0],"split_type":[0,0,0,0,0,0,0],"sum_hessian":[8.2E1,3.3E1,4.9E1,3.2E1,1E0,2E1,2.9E1],"tree_param":{"num_deleted":"0","num_feature":"16","num_nodes":"7","size_leaf_vector":"1"}},{"base_weights":[-3.0775656E2,1.5203168E2,-4.7100757E3,-2.8625086E1,8.4498856E1,-3.5169626E2,-1.0494609E2],"categories":[],"categories_nodes":[],"categories_segments":[],"categories_sizes":[],"default_left":[0,0,0,0,0,0,0],"id":114,"left_children":[1,3,5,-1,-1,-1,-1],"loss_changes":[1.6602688E8,1.543224E8,4.9075744E7,0E0,0E0,0E0,0E0],"parents":[2147483647,0,0,1,1,2,2],"right_children":[2,4,6,-1,-1,-1,-1],"split_conditions":[8.8082E4,6.1379668E4,2E0,-2.8625086E1,8.4498856E1,-3.5169626E2,-1.0494609E2],"split_indices":[9,10,1,0,0,0,0],"split_type":[0,0,0,0,0,0,0],"sum_hessian":[8.1E1,7.4E1,7E0,5.2E1,2.2E1,1E0,6E0],"tree_param":{"num_deleted":"0","num_feature":"16","num_nodes":"7","size_leaf_vector":"1"}},{"base_weights":[-4.0557426E1,-1.6746428E3,1.5159741E3,-4.536003E1,-2.557288E2,-4.8616196E1,1.4320456E2],"categories":[],"categories_nodes":[],"categories_segments":[],"categories_sizes":[],"default_left":[0,0,0,0,0,0,0],"id":115,"left_children":[1,3,5,-1,-1,-1,-1],"loss_changes":[2.0731744E8,8.412306E7,2.9347706E8,0E0,0E0,0E0,0E0],"parents":[2147483647,0,0,1,1,2,2],"right_children":[2,4,6,-1,-1,-1,-1],"split_conditions":[2.3948023E0,3.3E1,4.1163332E4,-4.536003E1,-2.557288E2,-4.8616196E1,1.4320456E2],"split_indices":[11,4,10,0,0,0,0],"split_type":[0,0,0,0,0,0,0],"sum_hessian":[8E1,3.9E1,4.1E1,3.7E1,2E0,1.9E1,2.2E1],"tree_param":{"num_deleted":"0","num_feature":"16","num_nodes":"7","size_leaf_vector":"1"}},{"base_weights":[7.858998E1,-4.60067E2,4.7327866E3,-8.96502E0,-3.391299E2,3.0824408E2,6.0278526E1],"categories":[],"categories_nodes":[],"categories_segments":[],"categories_sizes":[],"default_left":[0,0,0,0,0,0,0],"id":116,"left_children":[1,3,5,-1,-1,-1,-1],"loss_changes":[2.1162186E8,1.4164371E8,9.042096E7,0E0,0E0,0E0,0E0],"parents":[2147483647,0,0,1,1,2,2],"right_children":[2,4,6,-1,-1,-1,-1],"split_conditions":[7.7321336E4,9.0596E4,3E0,-8.96502E0,-3.391299E2,3.0824408E2,6.0278526E1],"split_indices":[10,8,1,0,0,0,0],"split_type":[0,0,0,0,0,0,0],"sum_hessian":[8.3E1,7.5E1,8E0,7.4E1,1E0,3E0,5E0],"tree_param":{"num_deleted":"0","num_feature":"16","num_nodes":"7","size_leaf_vector":"1"}},{"base_weights":[5.4946457E1,-4.1368716E2,5.4432544E3,-7.6212473E0,-3.3211404E2,2.9930295E2,5.6206722E1],"categories":[],"categories_nodes":[],"categories_segments":[],"categories_sizes":[],"default_left":[0,0,0,0,0,0,0],"id":117,"left_children":[1,3,5,-1,-1,-1,-1],"loss_changes":[2.1319677E8,1.369256E8,6.404443E7,0E0,0E0,0E0,0E0],"parents":[2147483647,0,0,1,1,2,2],"right_children":[2,4,6,-1,-1,-1,-1],"split_conditions":[7.7972336E4,9.0596E4,3E0,-7.6212473E0,-3.3211404E2,2.9930295E2,5.6206722E1],"split_indices":[10,8,1,0,0,0,0],"split_type":[0,0,0,0,0,0,0],"sum_hessian":[8.3E1,7.7E1,6E0,7.6E1,1E0,3E0,3E0],"tree_param":{"num_deleted":"0","num_feature":"16","num_nodes":"7","size_leaf_vector":"1"}},{"base_weights":[3.7736603E2,-6.8402E2,2.1887546E3,-1.4374278E2,-7.253388E0,1.8324791E2,-2.8122396E1],"categories":[],"categories_nodes":[],"categories_segments":[],"categories_sizes":[],"default_left":[0,0,0,0,0,0,0],"id":118,"left_children":[1,3,5,-1,-1,-1,-1],"loss_changes":[1.6023461E8,8.3066264E7,2.6347083E8,0E0,0E0,0E0,0E0],"parents":[2147483647,0,0,1,1,2,2],"right_children":[2,4,6,-1,-1,-1,-1],"split_conditions":[6.1379668E4,5.0213335E3,7.2422E4,-1.4374278E2,-7.253388E0,1.8324791E2,-2.8122396E1],"split_indices":[10,10,9,0,0,0,0],"split_type":[0,0,0,0,0,0,0],"sum_hessian":[8.2E1,5.2E1,3E1,6E0,4.6E1,1.5E1,1.5E1],"tree_param":{"num_deleted":"0","num_feature":"16","num_nodes":"7","size_leaf_vector":"1"}},{"base_weights":[-6.431453E1,3.0934964E2,-4.690304E3,-5.86104E0,2.0672728E2,-3.2466156E2,-1.008689E2],"categories":[],"categories_nodes":[],"categories_segments":[],"categories_sizes":[],"default_left":[0,0,0,0,0,0,0],"id":119,"left_children":[1,3,5,-1,-1,-1,-1],"loss_changes":[1.5624592E8,2.130147E8,3.615269E7,0E0,0E0,0E0,0E0],"parents":[2147483647,0,0,1,1,2,2],"right_children":[2,4,6,-1,-1,-1,-1],"split_conditions":[8.8082E4,7.7972336E4,2E0,-5.86104E0,2.0672728E2,-3.2466156E2,-1.008689E2],"split_indices":[9,10,1,0,0,0,0],"split_type":[0,0,0,0,0,0,0],"sum_hessian":[8.9E1,8.3E1,6E0,7.7E1,6E0,1E0,5E0],"tree_param":{"num_deleted":"0","num_feature":"16","num_nodes":"7","size_leaf_vector":"1"}},{"base_weights":[1.8627943E1,-2.2525742E3,9.4382263E2,-2.3510191E2,-6.0506004E1,-2.1905445E1,1.1124593E2],"categories":[],"categories_nodes":[],"categories_segments":[],"categories_sizes":[],"default_left":[0,0,0,0,0,0,0],"id":120,"left_children":[1,3,5,-1,-1,-1,-1],"loss_changes":[1.7970011E8,5.311027E7,2.0069832E8,0E0,0E0,0E0,0E0],"parents":[2147483647,0,0,1,1,2,2],"right_children":[2,4,6,-1,-1,-1,-1],"split_conditions":[-1.0742431E1,-7.601881E1,5.8821668E4,-2.3510191E2,-6.0506004E1,-2.1905445E1,1.1124593E2],"split_indices":[11,11,10,0,0,0,0],"split_type":[0,0,0,0,0,0,0],"sum_hessian":[8.4E1,2.4E1,6E1,2E0,2.2E1,3.5E1,2.5E1],"tree_param":{"num_deleted":"0","num_feature":"16","num_nodes":"7","size_leaf_vector":"1"}},{"base_weights":[1.7931216E2,3.0588247E3,-6.0411945E2,7.766935E0,1.8456918E2,-3.1308124E2,-1.3250391E1],"categories":[],"categories_nodes":[],"categories_segments":[],"categories_sizes":[],"default_left":[0,0,0,0,0,0,0],"id":121,"left_children":[1,3,5,-1,-1,-1,-1],"loss_changes":[1.7680434E8,9.569074E7,1.160553E8,0E0,0E0,0E0,0E0],"parents":[2147483647,0,0,1,1,2,2],"right_children":[2,4,6,-1,-1,-1,-1],"split_conditions":[3.1E1,3.4E0,2E0,7.766935E0,1.8456918E2,-3.1308124E2,-1.3250391E1],"split_indices":[5,13,1,0,0,0,0],"split_type":[0,0,0,0,0,0,0],"sum_hessian":[7.7E1,1.6E1,6.1E1,7E0,9E0,1E0,6E1],"tree_param":{"num_deleted":"0","num_feature":"16","num_nodes":"7","size_leaf_vector":"1"}},{"base_weights":[1.12234E2,2.708496E3,-5.870255E2,6.7184265E1,3.711795E2,-3.0660428E2,-1.3796385E1],"categories":[],"categories_nodes":[],"categories_segments":[],"categories_sizes":[],"default_left":[0,0,0,0,0,0,0],"id":122,"left_children":[1,3,5,-1,-1,-1,-1],"loss_changes":[1.6051755E8,1.0664126E8,1.11048E8,0E0,0E0,0E0,0E0],"parents":[2147483647,0,0,1,1,2,2],"right_children":[2,4,6,-1,-1,-1,-1],"split_conditions":[3.1E1,1.430117E2,2E0,6.7184265E1,3.711795E2,-3.0660428E2,-1.3796385E1],"split_indices":[5,11,1,0,0,0,0],"split_type":[0,0,0,0,0,0,0],"sum_hessian":[8.7E1,1.8E1,6.9E1,1.7E1,1E0,1E0,6.8E1],"tree_param":{"num_deleted":"0","num_feature":"16","num_nodes":"7","size_leaf_vector":"1"}},{"base_weights":[-1.997408E1,-1.5901246E3,1.1645815E3,-4.2247364E1,-2.2038228E2,1.2925137E2,-3.1923319E1],"categories":[],"categories_nodes":[],"categories_segments":[],"categories_sizes":[],"default_left":[0,0,0,0,0,0,0],"id":123,"left_children":[1,3,5,-1,-1,-1,-1],"loss_changes":[1.4601718E8,5.915649E7,2.2148152E8,0E0,0E0,0E0,0E0],"parents":[2147483647,0,0,1,1,2,2],"right_children":[2,4,6,-1,-1,-1,-1],"split_conditions":[-2.3179831E-2,3.3E1,2.02E3,-4.2247364E1,-2.2038228E2,1.2925137E2,-3.1923319E1],"split_indices":[11,4,0,0,0,0,0],"split_type":[0,0,0,0,0,0,0],"sum_hessian":[7.7E1,3.3E1,4.4E1,3.1E1,2E0,2E1,2.4E1],"tree_param":{"num_deleted":"0","num_feature":"16","num_nodes":"7","size_leaf_vector":"1"}},{"base_weights":[-1.5414442E2,2.1708624E2,-4.0804402E3,-3.0689896E1,9.196E1,-8.3710594E1,-2.95702E2],"categories":[],"categories_nodes":[],"categories_segments":[],"categories_sizes":[],"default_left":[0,0,0,0,0,0,0],"id":124,"left_children":[1,3,5,-1,-1,-1,-1],"loss_changes":[1.1400412E8,1.7815454E8,3.45388E7,0E0,0E0,0E0,0E0],"parents":[2147483647,0,0,1,1,2,2],"right_children":[2,4,6,-1,-1,-1,-1],"split_conditions":[8.4317E4,6.1379668E4,1.6E1,-3.0689896E1,9.196E1,-8.3710594E1,-2.95702E2],"split_indices":[9,10,4,0,0,0,0],"split_type":[0,0,0,0,0,0,0],"sum_hessian":[7.7E1,7.1E1,6E0,4.9E1,2.2E1,5E0,1E0],"tree_param":{"num_deleted":"0","num_feature":"16","num_nodes":"7","size_leaf_vector":"1"}},{"base_weights":[-2.7277313E2,-7.013239E2,3.8295007E3,-1.882698E1,-2.895845E2,2.6274265E2,1.926437E1],"categories":[],"categories_nodes":[],"categories_segments":[],"categories_sizes":[],"default_left":[0,0,0,0,0,0,0],"id":125,"left_children":[1,3,5,-1,-1,-1,-1],"loss_changes":[1.4399528E8,9.493512E7,8.4263976E7,0E0,0E0,0E0,0E0],"parents":[2147483647,0,0,1,1,2,2],"right_children":[2,4,6,-1,-1,-1,-1],"split_conditions":[7.7321336E4,9.0596E4,3E0,-1.882698E1,-2.895845E2,2.6274265E2,1.926437E1],"split_indices":[10,8,1,0,0,0,0],"split_type":[0,0,0,0,0,0,0],"sum_hessian":[8E1,7.3E1,7E0,7.2E1,1E0,3E0,4E0],"tree_param":{"num_deleted":"0","num_feature":"16","num_nodes":"7","size_leaf_vector":"1"}},{"base_weights":[-1.5130936E2,-4.5683984E2,4.9329736E3,-4.269975E0,-1.7224973E2,1.5576924E1,2.935316E2],"categories":[],"categories_nodes":[],"categories_segments":[],"categories_sizes":[],"default_left":[0,0,0,0,0,0,0],"id":126,"left_children":[1,3,5,-1,-1,-1,-1],"loss_changes":[1.30250056E8,1.1412027E8,6.487557E7,0E0,0E0,0E0,0E0],"parents":[2147483647,0,0,1,1,2,2],"right_children":[2,4,6,-1,-1,-1,-1],"split_conditions":[8.5782664E4,8.4317E4,2.4E1,-4.269975E0,-1.7224973E2,1.5576924E1,2.935316E2],"split_indices":[10,9,6,0,0,0,0],"split_type":[0,0,0,0,0,0,0],"sum_hessian":[8.2E1,7.8E1,4E0,7.3E1,5E0,2E0,2E0],"tree_param":{"num_deleted":"0","num_feature":"16","num_nodes":"7","size_leaf_vector":"1"}},{"base_weights":[-1.8552168E2,-4.9274185E2,4.802958E3,-9.8843155E1,4.6574616E0,1.5166329E1,2.8579492E2],"categories":[],"categories_nodes":[],"categories_segments":[],"categories_sizes":[],"default_left":[0,0,0,0,0,0,0],"id":127,"left_children":[1,3,5,-1,-1,-1,-1],"loss_changes":[1.25545624E8,1.0654911E8,6.1500616E7,0E0,0E0,0E0,0E0],"parents":[2147483647,0,0,1,1,2,2],"right_children":[2,4,6,-1,-1,-1,-1],"split_conditions":[8.4914664E4,-1.7619486E1,2.4E1,-9.8843155E1,4.6574616E0,1.5166329E1,2.8579492E2],"split_indices":[10,11,6,0,0,0,0],"split_type":[0,0,0,0,0,0,0],"sum_hessian":[8E1,7.6E1,4E0,1.6E1,6E1,2E0,2E0],"tree_param":{"num_deleted":"0","num_feature":"16","num_nodes":"7","size_leaf_vector":"1"}},{"base_weights":[2.4742078E2,-4.8874302E1,6.254415E3,-8.598095E1,1.6413483E1,3.415035E2,9.194645E1],"categories":[],"categories_nodes":[],"categories_segments":[],"categories_sizes":[],"default_left":[0,0,0,0,0,0,0],"id":128,"left_children":[1,3,5,-1,-1,-1,-1],"loss_changes":[1.4218645E8,8.998973E7,2.60548E7,0E0,0E0,0E0,0E0],"parents":[2147483647,0,0,1,1,2,2],"right_children":[2,4,6,-1,-1,-1,-1],"split_conditions":[1.1980367E2,8.0663335E3,2.02E3,-8.598095E1,1.6413483E1,3.415035E2,9.194645E1],"split_indices":[11,10,0,0,0,0,0],"split_type":[0,0,0,0,0,0,0],"sum_hessian":[7.9E1,7.6E1,3E0,1.3E1,6.3E1,1E0,2E0],"tree_param":{"num_deleted":"0","num_feature":"16","num_nodes":"7","size_leaf_vector":"1"}},{"base_weights":[2.603465E2,-7.160803E2,1.3350349E3,-5.334328E1,4.7212883E1,-1.5403577E1,1.1380027E2],"categories":[],"categories_nodes":[],"categories_segments":[],"categories_sizes":[],"default_left":[0,0,0,0,0,0,0],"id":129,"left_children":[1,3,5,-1,-1,-1,-1],"loss_changes":[8.336405E7,6.4858052E7,1.2052636E8,0E0,0E0,0E0,0E0],"parents":[2147483647,0,0,1,1,2,2],"right_children":[2,4,6,-1,-1,-1,-1],"split_conditions":[4.1606784E0,7.0859664E4,3.7466E4,-5.334328E1,4.7212883E1,-1.5403577E1,1.1380027E2],"split_indices":[11,10,8,0,0,0,0],"split_type":[0,0,0,0,0,0,0],"sum_hessian":[7.8E1,4.1E1,3.7E1,3E1,1.1E1,1.9E1,1.8E1],"tree_param":{"num_deleted":"0","num_feature":"16","num_nodes":"7","size_leaf_vector":"1"}},{"base_weights":[-7.471386E1,2.9518256E2,-4.2147505E3,-2.8180109E1,7.156634E1,-2.7930148E2,-9.443555E1],"categories":[],"categories_nodes":[],"categories_segments":[],"categories_sizes":[],"default_left":[0,0,0,0,0,0,0],"id":130,"left_children":[1,3,5,-1,-1,-1,-1],"loss_changes":[1.2614034E8,1.3718035E8,2.2799136E7,0E0,0E0,0E0,0E0],"parents":[2147483647,0,0,1,1,2,2],"right_children":[2,4,6,-1,-1,-1,-1],"split_conditions":[8.8082E4,5.7914332E4,2E0,-2.8180109E1,7.156634E1,-2.7930148E2,-9.443555E1],"split_indices":[9,10,1,0,0,0,0],"split_type":[0,0,0,0,0,0,0],"sum_hessian":[8.1E1,7.5E1,6E0,4.6E1,2.9E1,1E0,5E0],"tree_param":{"num_deleted":"0","num_feature":"16","num_nodes":"7","size_leaf_vector":"1"}},{"base_weights":[2.4536107E2,-8.4354865E2,1.3831799E3,-4.0144558E1,1.1856425E2,-2.9580124E1,1.2819136E2],"categories":[],"categories_nodes":[],"categories_segments":[],"categories_sizes":[],"default_left":[0,0,0,0,0,0,0],"id":131,"left_children":[1,3,5,-1,-1,-1,-1],"loss_changes":[1.0341315E8,4.87841E7,1.9455018E8,0E0,0E0,0E0,0E0],"parents":[2147483647,0,0,1,1,2,2],"right_children":[2,4,6,-1,-1,-1,-1],"split_conditions":[4.1606784E0,9.0596E4,3.7466E4,-4.0144558E1,1.1856425E2,-2.9580124E1,1.2819136E2],"split_indices":[11,8,8,0,0,0,0],"split_type":[0,0,0,0,0,0,0],"sum_hessian":[8.2E1,4.2E1,4E1,4E1,2E0,2E1,2E1],"tree_param":{"num_deleted":"0","num_feature":"16","num_nodes":"7","size_leaf_vector":"1"}},{"base_weights":[-4.8108833E1,-3.321472E2,6.0699624E3,-7.4273445E1,1.0743199E1,3.2795197E2,9.145139E1],"categories":[],"categories_nodes":[],"categories_segments":[],"categories_sizes":[],"default_left":[0,0,0,0,0,0,0],"id":132,"left_children":[1,3,5,-1,-1,-1,-1],"loss_changes":[1.4706464E8,8.736844E7,2.2322624E7,0E0,0E0,0E0,0E0],"parents":[2147483647,0,0,1,1,2,2],"right_children":[2,4,6,-1,-1,-1,-1],"split_conditions":[1.1980367E2,-1.3433348E1,2.02E3,-7.4273445E1,1.0743199E1,3.2795197E2,9.145139E1],"split_indices":[11,11,0,0,0,0,0],"split_type":[0,0,0,0,0,0,0],"sum_hessian":[8.3E1,8E1,3E0,2.1E1,5.9E1,1E0,2E0],"tree_param":{"num_deleted":"0","num_feature":"16","num_nodes":"7","size_leaf_vector":"1"}},{"base_weights":[-2.3606744E2,-5.3195245E2,4.390785E3,-1.2958504E1,-2.744396E2,3.211673E2,5.1756752E1],"categories":[],"categories_nodes":[],"categories_segments":[],"categories_sizes":[],"default_left":[0,0,0,0,0,0,0],"id":133,"left_children":[1,3,5,-1,-1,-1,-1],"loss_changes":[1.0820844E8,8.867292E7,5.328912E7,0E0,0E0,0E0,0E0],"parents":[2147483647,0,0,1,1,2,2],"right_children":[2,4,6,-1,-1,-1,-1],"split_conditions":[8.5782664E4,1.07752E5,2E0,-1.2958504E1,-2.744396E2,3.211673E2,5.1756752E1],"split_indices":[10,8,1,0,0,0,0],"split_type":[0,0,0,0,0,0,0],"sum_hessian":[7.7E1,7.3E1,4E0,7.2E1,1E0,1E0,3E0],"tree_param":{"num_deleted":"0","num_feature":"16","num_nodes":"7","size_leaf_vector":"1"}},{"base_weights":[1.4923128E2,5.549716E2,-3.7240723E3,1.5091663E2,-2.148612E0,-2.68762E2,-8.539486E1],"categories":[],"categories_nodes":[],"categories_segments":[],"categories_sizes":[],"default_left":[0,0,0,0,0,0,0],"id":134,"left_children":[1,3,5,-1,-1,-1,-1],"loss_changes":[1.2846898E8,1.6333712E8,2.5987448E7,0E0,0E0,0E0,0E0],"parents":[2147483647,0,0,1,1,2,2],"right_children":[2,4,6,-1,-1,-1,-1],"split_conditions":[8.8082E4,3E0,2E0,1.5091663E2,-2.148612E0,-2.68762E2,-8.539486E1],"split_indices":[9,1,1,0,0,0,0],"split_type":[0,0,0,0,0,0,0],"sum_hessian":[8E1,7.3E1,7E0,1E1,6.3E1,1E0,6E0],"tree_param":{"num_deleted":"0","num_feature":"16","num_nodes":"7","size_leaf_vector":"1"}},{"base_weights":[5.2223778E1,3.807433E2,-3.8809302E3,-2.3389338E1,8.959157E1,-8.511926E1,-2.6320187E2],"categories":[],"categories_nodes":[],"categories_segments":[],"categories_sizes":[],"default_left":[0,0,0,0,0,0,0],"id":135,"left_children":[1,3,5,-1,-1,-1,-1],"loss_changes":[1.1321073E8,1.7393645E8,2.2122872E7,0E0,0E0,0E0,0E0],"parents":[2147483647,0,0,1,1,2,2],"right_children":[2,4,6,-1,-1,-1,-1],"split_conditions":[8.8082E4,6.2334332E4,2.02E3,-2.3389338E1,8.959157E1,-8.511926E1,-2.6320187E2],"split_indices":[9,10,0,0,0,0,0],"split_type":[0,0,0,0,0,0,0],"sum_hessian":[8.6E1,8E1,6E0,5.4E1,2.6E1,5E0,1E0],"tree_param":{"num_deleted":"0","num_feature":"16","num_nodes":"7","size_leaf_vector":"1"}},{"base_weights":[-2.7605606E1,-4.8593546E2,2.9895364E3,-3.9640732E0,-1.2837534E2,3.0954752E2,6.397442E1],"categories":[],"categories_nodes":[],"categories_segments":[],"categories_sizes":[],"default_left":[0,0,0,0,0,0,0],"id":136,"left_children":[1,3,5,-1,-1,-1,-1],"loss_changes":[1.1276667E8,8.100858E7,6.173921E7,0E0,0E0,0E0,0E0],"parents":[2147483647,0,0,1,1,2,2],"right_children":[2,4,6,-1,-1,-1,-1],"split_conditions":[7.5670664E4,7.6164E4,2E0,-3.9640732E0,-1.2837534E2,3.0954752E2,6.397442E1],"split_indices":[10,9,1,0,0,0,0],"split_type":[0,0,0,0,0,0,0],"sum_hessian":[8E1,7E1,1E1,6.3E1,7E0,1E0,9E0],"tree_param":{"num_deleted":"0","num_feature":"16",