{"learner":{"attributes":{"scikit_learn":"{\"_estimator_type\": \"regressor\"}"},"feature_names":["year","month","peak_season","philippine_holidays","top10market_holidays","avg_hightemp","avg_lowtemp","precipitation","lag_1","lag_2","rolling_mean_3m","growth_rate","sudden_increase","inflation_rate","is_december","is_lockdown"],"feature_types":["int","int","int","int","int","float","float","float","float","float","float","float","int","float","int","int"],"gradient_booster":{"model":{"cats":{"enc":[],"feature_segments":[],"sorted_idx":[]},"gbtree_model_param":{"num_parallel_tree":"1","num_trees":"400"},"iteration_indptr":[0,1,2,3,4,5,6,7,8,9,10,11,12,13,14,15,16,17,18,19,20,21,22,23,24,25,26,27,28,29,30,31,32,33,34,35,36,37,38,39,40,41,42,43,44,45,46,47,48,49,50,51,52,53,54,55,56,57,58,59,60,61,62,63,64,65,66,67,68,69,70,71,72,73,74,75,76,77,78,79,80,81,82,83,84,85,86,87,88,89,90,91,92,93,94,95,96,97,98,99,100,101,102,103,104,105,106,107,108,109,110,111,112,113,114,115,116,117,118,119,120,121,122,123,124,125,126,127,128,129,130,131,132,133,134,135,136,137,138,139,140,141,142,143,144,145,146,147,148,149,150,151,152,153,154,155,156,157,158,159,160,161,162,163,164,165,166,167,168,169,170,171,172,173,174,175,176,177,178,179,180,181,182,183,184,185,186,187,188,189,190,191,192,193,194,195,196,197,198,199,200,201,202,203,204,205,206,207,208,209,210,211,212,213,214,215,216,217,218,219,220,221,222,223,224,225,226,227,228,229,230,231,232,233,234,235,236,237,238,239,240,241,242,243,244,245,246,247,248,249,250,251,252,253,254,255,256,257,258,259,260,261,262,263,264,265,266,267,268,269,270,271,272,273,274,275,276,277,278,279,280,281,282,283,284,285,286,287,288,289,290,291,292,293,294,295,296,297,298,299,300,301,302,303,304,305,306,307,308,309,310,311,312,313,314,315,316,317,318,319,320,321,322,323,324,325,326,327,328,329,330,331,332,333,334,335,336,337,338,339,340,341,342,343,344,345,346,347,348,349,350,351,352,353,354,355,356,357,358,359,360,361,362,363,364,365,366,367,368,369,370,371,372,373,374,375,376,377,378,379,380,381,382,383,384,385,386,387,388,389,390,391,392,393,394,395,396,397,398,399,400],"tree_info":[0,0,0,0,0,0,0,0,0,0,0,0,0,0,0,0,0,0,0,0,0,0,0,0,0,0,0,0,0,0,0,0,0,0,0,0,0,0,0,0,0,0,0,0,0,0,0,0,0,0,0,0,0,0,0,0,0,0,0,0,0,0,0,0,0,0,0,0,0,0,0,0,0,0,0,0,0,0,0,0,0,0,0,0,0,0,0,0,0,0,0,0,0,0,0,0,0,0,0,0,0,0,0,0,0,0,0,0,0,0,0,0,0,0,0,0,0,0,0,0,0,0,0,0,0,0,0,0,0,0,0,0,0,0,0,0,0,0,0,0,0,0,0,0,0,0,0,0,0,0,0,0,0,0,0,0,0,0,0,0,0,0,0,0,0,0,0,0,0,0,0,0,0,0,0,0,0,0,0,0,0,0,0,0,0,0,0,0,0,0,0,0,0,0,0,0,0,0,0,0,0,0,0,0,0,0,0,0,0,0,0,0,0,0,0,0,0,0,0,0,0,0,0,0,0,0,0,0,0,0,0,0,0,0,0,0,0,0,0,0,0,0,0,0,0,0,0,0,0,0,0,0,0,0,0,0,0,0,0,0,0,0,0,0,0,0,0,0,0,0,0,0,0,0,0,0,0,0,0,0,0,0,0,0,0,0,0,0,0,0,0,0,0,0,0,0,0,0,0,0,0,0,0,0,0,0,0,0,0,0,0,0,0,0,0,0,0,0,0,0,0,0,0,0,0,0,0,0,0,0,0,0,0,0,0,0,0,0,0,0,0,0,0,0,0,0,0,0,0,0,0,0,0,0,0,0,0,0,0,0,0,0,0,0,0,0,0,0,0,0,0,0,0,0,0,0,0,0,0,0,0,0,0,0,0,0,0,0,0,0,0,0,0,0,0,0,0,0,0,0],"trees":[{"base_weights":[9.0809534E2,-3.2624611E4,1.6668287E4,-1.4234321E3,-4.9128406E2,1.9347816E2,9.46155E2],"categories":[],"categories_nodes":[],"categories_segments":[],"categories_sizes":[],"default_left":[0,0,0,0,0,0,0],"id":0,"left_children":[1,3,5,-1,-1,-1,-1],"loss_changes":[4.255959E10,2.835794E9,5.726419E9,0E0,0E0,0E0,0E0],"parents":[2147483647,0,0,1,1,2,2],"right_children":[2,4,6,-1,-1,-1,-1],"split_conditions":[3.9165668E4,1.227E4,6.5030668E4,-1.4234321E3,-4.9128406E2,1.9347816E2,9.46155E2],"split_indices":[10,8,10,0,0,0,0],"split_type":[0,0,0,0,0,0,0],"sum_hessian":[7.9E1,2.5E1,5.4E1,1.8E1,7E0,2.5E1,2.9E1],"tree_param":{"num_deleted":"0","num_feature":"16","num_nodes":"7","size_leaf_vector":"1"}},{"base_weights":[3.6660732E3,-2.4892357E4,2.0583223E4,-1.303048E3,-2.631327E2,3.2102466E2,1.0304927E3],"categories":[],"categories_nodes":[],"categories_segments":[],"categories_sizes":[],"default_left":[0,0,0,0,0,0,0],"id":1,"left_children":[1,3,5,-1,-1,-1,-1],"loss_changes":[3.9884857E10,5.771776E9,4.5502505E9,0E0,0E0,0E0,0E0],"parents":[2147483647,0,0,1,1,2,2],"right_children":[2,4,6,-1,-1,-1,-1],"split_conditions":[4.2119E4,2.5664E4,6.2334332E4,-1.303048E3,-2.631327E2,3.2102466E2,1.0304927E3],"split_indices":[8,10,10,0,0,0,0],"split_type":[0,0,0,0,0,0,0],"sum_hessian":[8.1E1,3E1,5.1E1,1.8E1,1.2E1,2.1E1,3E1],"tree_param":{"num_deleted":"0","num_feature":"16","num_nodes":"7","size_leaf_vector":"1"}},{"base_weights":[-1.4025437E3,-3.1615273E4,1.3949371E4,-1.243797E3,-3.355431E2,1.4019675E2,8.868514E2],"categories":[],"categories_nodes":[],"categories_segments":[],"categories_sizes":[],"default_left":[0,0,0,0,0,0,0],"id":2,"left_children":[1,3,5,-1,-1,-1,-1],"loss_changes":[3.546987E10,1.2839117E9,5.2933356E9,0E0,0E0,0E0,0E0],"parents":[2147483647,0,0,1,1,2,2],"right_children":[2,4,6,-1,-1,-1,-1],"split_conditions":[3.4409E4,2.5664E4,6.5030668E4,-1.243797E3,-3.355431E2,1.4019675E2,8.868514E2],"split_indices":[8,10,10,0,0,0,0],"split_type":[0,0,0,0,0,0,0],"sum_hessian":[7.5E1,2.5E1,5E1,2.2E1,3E0,2.6E1,2.4E1],"tree_param":{"num_deleted":"0","num_feature":"16","num_nodes":"7","size_leaf_vector":"1"}},{"base_weights":[-3.9836984E2,-2.954473E4,1.5914593E4,-1.2952262E3,-4.704845E2,2.8978357E2,1.1061704E3],"categories":[],"categories_nodes":[],"categories_segments":[],"categories_sizes":[],"default_left":[0,0,0,0,0,0,0],"id":3,"left_children":[1,3,5,-1,-1,-1,-1],"loss_changes":[4.2079265E10,2.8796006E9,6.368681E9,0E0,0E0,0E0,0E0],"parents":[2147483647,0,0,1,1,2,2],"right_children":[2,4,6,-1,-1,-1,-1],"split_conditions":[3.9165668E4,4E0,7.2463E4,-1.2952262E3,-4.704845E2,2.8978357E2,1.1061704E3],"split_indices":[10,13,10,0,0,0,0],"split_type":[0,0,0,0,0,0,0],"sum_hessian":[8.7E1,3.1E1,5.6E1,2.2E1,9E0,3.7E1,1.9E1],"tree_param":{"num_deleted":"0","num_feature":"16","num_nodes":"7","size_leaf_vector":"1"}},{"base_weights":[-9.8735297E2,-2.6600348E4,1.6721797E4,-1.1778127E3,-3.0943182E2,3.5699814E2,1.0328156E3],"categories":[],"categories_nodes":[],"categories_segments":[],"categories_sizes":[],"default_left":[0,0,0,0,0,0,0],"id":4,"left_children":[1,3,5,-1,-1,-1,-1],"loss_changes":[3.968651E10,3.566334E9,3.9692892E9,0E0,0E0,0E0,0E0],"parents":[2147483647,0,0,1,1,2,2],"right_children":[2,4,6,-1,-1,-1,-1],"split_conditions":[4.1123E4,2.5664E4,7.2463E4,-1.1778127E3,-3.0943182E2,3.5699814E2,1.0328156E3],"split_indices":[8,10,10,0,0,0,0],"split_type":[0,0,0,0,0,0,0],"sum_hessian":[8.6E1,3.5E1,5.1E1,2.6E1,9E0,3.3E1,1.8E1],"tree_param":{"num_deleted":"0","num_feature":"16","num_nodes":"7","size_leaf_vector":"1"}},{"base_weights":[-2.8294028E2,-2.2378121E4,1.864429E4,-1.137256E3,-2.219865E2,5.3874207E2,1.4757588E3],"categories":[],"categories_nodes":[],"categories_segments":[],"categories_sizes":[],"default_left":[0,0,0,0,0,0,0],"id":5,"left_children":[1,3,5,-1,-1,-1,-1],"loss_changes":[3.7850563E10,5.930375E9,3.6270203E9,0E0,0E0,0E0,0E0],"parents":[2147483647,0,0,1,1,2,2],"right_children":[2,4,6,-1,-1,-1,-1],"split_conditions":[5.0169E4,2.5664E4,1.9512337E1,-1.137256E3,-2.219865E2,5.3874207E2,1.4757588E3],"split_indices":[8,10,11,0,0,0,0],"split_type":[0,0,0,0,0,0,0],"sum_hessian":[8.9E1,4.1E1,4.8E1,2.6E1,1.5E1,4.2E1,6E0],"tree_param":{"num_deleted":"0","num_feature":"16","num_nodes":"7","size_leaf_vector":"1"}},{"base_weights":[5.7296533E2,-2.0978217E4,1.7694984E4,-1.0956246E3,-2.215782E2,5.0695847E2,1.4281675E3],"categories":[],"categories_nodes":[],"categories_segments":[],"categories_sizes":[],"default_left":[0,0,0,0,0,0,0],"id":6,"left_children":[1,3,5,-1,-1,-1,-1],"loss_changes":[3.22928E10,5.1640074E9,3.5226778E9,0E0,0E0,0E0,0E0],"parents":[2147483647,0,0,1,1,2,2],"right_children":[2,4,6,-1,-1,-1,-1],"split_conditions":[5.0169E4,2.5664E4,1.9512337E1,-1.0956246E3,-2.215782E2,5.0695847E2,1.4281675E3],"split_indices":[8,10,11,0,0,0,0],"split_type":[0,0,0,0,0,0,0],"sum_hessian":[8.6E1,3.8E1,4.8E1,2.3E1,1.5E1,4.2E1,6E0],"tree_param":{"num_deleted":"0","num_feature":"16","num_nodes":"7","size_leaf_vector":"1"}},{"base_weights":[1.308048E3,-2.101098E4,1.8239768E4,-1.0490671E3,-2.0703769E2,3.8189578E2,1.0504086E3],"categories":[],"categories_nodes":[],"categories_segments":[],"categories_sizes":[],"default_left":[0,0,0,0,0,0,0],"id":7,"left_children":[1,3,5,-1,-1,-1,-1],"loss_changes":[3.0428686E10,4.0701256E9,3.5474586E9,0E0,0E0,0E0,0E0],"parents":[2147483647,0,0,1,1,2,2],"right_children":[2,4,6,-1,-1,-1,-1],"split_conditions":[4.9526E4,2.1597E4,7.2463E4,-1.0490671E3,-2.0703769E2,3.8189578E2,1.0504086E3],"split_indices":[8,9,10,0,0,0,0],"split_type":[0,0,0,0,0,0,0],"sum_hessian":[7.9E1,3.4E1,4.5E1,2.2E1,1.2E1,2.7E1,1.8E1],"tree_param":{"num_deleted":"0","num_feature":"16","num_nodes":"7","size_leaf_vector":"1"}},{"base_weights":[-1.1675199E3,-2.5263639E4,1.1942886E4,-1.0916954E3,-4.0461752E2,2.4114232E2,8.984679E2],"categories":[],"categories_nodes":[],"categories_segments":[],"categories_sizes":[],"default_left":[0,0,0,0,0,0,0],"id":8,"left_children":[1,3,5,-1,-1,-1,-1],"loss_changes":[2.668682E10,1.7657446E9,3.5923164E9,0E0,0E0,0E0,0E0],"parents":[2147483647,0,0,1,1,2,2],"right_children":[2,4,6,-1,-1,-1,-1],"split_conditions":[3.5973332E4,4E0,7.2463E4,-1.0916954E3,-4.0461752E2,2.4114232E2,8.984679E2],"split_indices":[10,13,10,0,0,0,0],"split_type":[0,0,0,0,0,0,0],"sum_hessian":[8.3E1,2.9E1,5.4E1,2.1E1,8E0,3.9E1,1.5E1],"tree_param":{"num_deleted":"0","num_feature":"16","num_nodes":"7","size_leaf_vector":"1"}},{"base_weights":[-6.127418E2,-1.9910766E4,1.6218672E4,-9.869664E2,-2.07052E2,4.533264E2,1.3406406E3],"categories":[],"categories_nodes":[],"categories_segments":[],"categories_sizes":[],"default_left":[0,0,0,0,0,0,0],"id":9,"left_children":[1,3,5,-1,-1,-1,-1],"loss_changes":[2.8422939E10,4.09463E9,3.265582E9,0E0,0E0,0E0,0E0],"parents":[2147483647,0,0,1,1,2,2],"right_children":[2,4,6,-1,-1,-1,-1],"split_conditions":[5.0169E4,2.5664E4,1.9512337E1,-9.869664E2,-2.07052E2,4.533264E2,1.3406406E3],"split_indices":[8,10,11,0,0,0,0],"split_type":[0,0,0,0,0,0,0],"sum_hessian":[8.6E1,4E1,4.6E1,2.6E1,1.4E1,4E1,6E0],"tree_param":{"num_deleted":"0","num_feature":"16","num_nodes":"7","size_leaf_vector":"1"}},{"base_weights":[1.0108143E1,-1.8922193E4,1.5212136E4,-9.824943E2,-2.1945297E2,4.2945938E2,1.304438E3],"categories":[],"categories_nodes":[],"categories_segments":[],"categories_sizes":[],"default_left":[0,0,0,0,0,0,0],"id":10,"left_children":[1,3,5,-1,-1,-1,-1],"loss_changes":[2.6337438E10,4.1480684E9,3.2366275E9,0E0,0E0,0E0,0E0],"parents":[2147483647,0,0,1,1,2,2],"right_children":[2,4,6,-1,-1,-1,-1],"split_conditions":[5.0169E4,2.2309666E4,7.9832E4,-9.824943E2,-2.1945297E2,4.2945938E2,1.304438E3],"split_indices":[8,10,10,0,0,0,0],"split_type":[0,0,0,0,0,0,0],"sum_hessian":[9E1,4E1,5E1,2.4E1,1.6E1,4.4E1,6E0],"tree_param":{"num_deleted":"0","num_feature":"16","num_nodes":"7","size_leaf_vector":"1"}},{"base_weights":[-7.3505225E2,-2.2089973E4,9.341675E3,-9.492827E2,-3.4876175E2,-2.0169975E1,5.50637E2],"categories":[],"categories_nodes":[],"categories_segments":[],"categories_sizes":[],"default_left":[0,0,0,0,0,0,0],"id":11,"left_children":[1,3,5,-1,-1,-1,-1],"loss_changes":[1.7963651E10,1.165228E9,3.2782003E9,0E0,0E0,0E0,0E0],"parents":[2147483647,0,0,1,1,2,2],"right_children":[2,4,6,-1,-1,-1,-1],"split_conditions":[3.5973332E4,4E0,5.6852332E4,-9.492827E2,-3.4876175E2,-2.0169975E1,5.50637E2],"split_indices":[10,13,10,0,0,0,0],"split_type":[0,0,0,0,0,0,0],"sum_hessian":[8.2E1,2.6E1,5.6E1,1.9E1,7E0,2.1E1,3.5E1],"tree_param":{"num_deleted":"0","num_feature":"16","num_nodes":"7","size_leaf_vector":"1"}},{"base_weights":[1.2058077E3,-1.834152E4,1.6264892E4,-9.5670416E2,-2.8784402E2,4.6168365E2,1.2446143E3],"categories":[],"categories_nodes":[],"categories_segments":[],"categories_sizes":[],"default_left":[0,0,0,0,0,0,0],"id":12,"left_children":[1,3,5,-1,-1,-1,-1],"loss_changes":[2.281918E10,2.657535E9,2.4681646E9,0E0,0E0,0E0,0E0],"parents":[2147483647,0,0,1,1,2,2],"right_children":[2,4,6,-1,-1,-1,-1],"split_conditions":[5.0169E4,1.545E4,7.9832E4,-9.5670416E2,-2.8784402E2,4.6168365E2,1.2446143E3],"split_indices":[8,8,10,0,0,0,0],"split_type":[0,0,0,0,0,0,0],"sum_hessian":[7.6E1,3.3E1,4.3E1,1.8E1,1.5E1,3.7E1,6E0],"tree_param":{"num_deleted":"0","num_feature":"16","num_nodes":"7","size_leaf_vector":"1"}},{"base_weights":[1.1744064E3,-2.1864223E4,1.2019479E4,-9.1870874E2,-3.2133765E2,2.242045E2,8.572625E2],"categories":[],"categories_nodes":[],"categories_segments":[],"categories_sizes":[],"default_left":[0,0,0,0,0,0,0],"id":13,"left_children":[1,3,5,-1,-1,-1,-1],"loss_changes":[2.0875182E10,1.02864384E9,3.7349048E9,0E0,0E0,0E0,0E0],"parents":[2147483647,0,0,1,1,2,2],"right_children":[2,4,6,-1,-1,-1,-1],"split_conditions":[3.4641E4,3.4E0,7.2463E4,-9.1870874E2,-3.2133765E2,2.242045E2,8.572625E2],"split_indices":[10,13,10,0,0,0,0],"split_type":[0,0,0,0,0,0,0],"sum_hessian":[8.2E1,2.6E1,5.6E1,2E1,6E0,3.8E1,1.8E1],"tree_param":{"num_deleted":"0","num_feature":"16","num_nodes":"7","size_leaf_vector":"1"}},{"base_weights":[-6.972132E2,-1.6523504E4,1.3447849E4,-8.569195E2,-1.7781308E2,3.6702563E2,1.3036825E3],"categories":[],"categories_nodes":[],"categories_segments":[],"categories_sizes":[],"default_left":[0,0,0,0,0,0,0],"id":14,"left_children":[1,3,5,-1,-1,-1,-1],"loss_changes":[1.9812923E10,3.3490985E9,3.2319729E9,0E0,0E0,0E0,0E0],"parents":[2147483647,0,0,1,1,2,2],"right_children":[2,4,6,-1,-1,-1,-1],"split_conditions":[5.0258E4,2.5664E4,1.9512337E1,-8.569195E2,-1.7781308E2,3.6702563E2,1.3036825E3],"split_indices":[8,10,11,0,0,0,0],"split_type":[0,0,0,0,0,0,0],"sum_hessian":[8.7E1,4.1E1,4.6E1,2.5E1,1.6E1,4.1E1,5E0],"tree_param":{"num_deleted":"0","num_feature":"16","num_nodes":"7","size_leaf_vector":"1"}},{"base_weights":[2.0661566E1,-1.5774962E4,1.4732939E4,-8.118377E2,-1.5441664E2,3.8855627E2,1.0864371E3],"categories":[],"categories_nodes":[],"categories_segments":[],"categories_sizes":[],"default_left":[0,0,0,0,0,0,0],"id":15,"left_children":[1,3,5,-1,-1,-1,-1],"loss_changes":[1.963924E10,3.0206587E9,2.4374252E9,0E0,0E0,0E0,0E0],"parents":[2147483647,0,0,1,1,2,2],"right_children":[2,4,6,-1,-1,-1,-1],"split_conditions":[5.028E4,2.5664E4,1.3058462E1,-8.118377E2,-1.5441664E2,3.8855627E2,1.0864371E3],"split_indices":[8,10,11,0,0,0,0],"split_type":[0,0,0,0,0,0,0],"sum_hessian":[8.3E1,4E1,4.3E1,2.5E1,1.5E1,3.5E1,8E0],"tree_param":{"num_deleted":"0","num_feature":"16","num_nodes":"7","size_leaf_vector":"1"}},{"base_weights":[4.2699866E2,-1.8117043E4,8.654704E3,-7.9526953E2,-2.7891196E2,9.925565E1,4.86525E2],"categories":[],"categories_nodes":[],"categories_segments":[],"categories_sizes":[],"default_left":[0,0,0,0,0,0,0],"id":16,"left_children":[1,3,5,-1,-1,-1,-1],"loss_changes":[1.2286975E10,8.512609E8,1.5390085E9,0E0,0E0,0E0,0E0],"parents":[2147483647,0,0,1,1,2,2],"right_children":[2,4,6,-1,-1,-1,-1],"split_conditions":[3.4409E4,4E0,-2.3179831E-2,-7.9526953E2,-2.7891196E2,9.925565E1,4.86525E2],"split_indices":[9,13,11,0,0,0,0],"split_type":[0,0,0,0,0,0,0],"sum_hessian":[7.9E1,2.4E1,5.5E1,1.7E1,7E0,2.5E1,3E1],"tree_param":{"num_deleted":"0","num_feature":"16","num_nodes":"7","size_leaf_vector":"1"}},{"base_weights":[3.017823E2,-1.6471652E4,1.2504346E4,-8.097385E2,-2.696241E2,3.0414377E2,1.0952585E3],"categories":[],"categories_nodes":[],"categories_segments":[],"categories_sizes":[],"default_left":[0,0,0,0,0,0,0],"id":17,"left_children":[1,3,5,-1,-1,-1,-1],"loss_changes":[1.6889009E10,1.7080975E9,3.2904172E9,0E0,0E0,0E0,0E0],"parents":[2147483647,0,0,1,1,2,2],"right_children":[2,4,6,-1,-1,-1,-1],"split_conditions":[4.2119E4,1.545E4,7.7321336E4,-8.097385E2,-2.696241E2,3.0414377E2,1.0952585E3],"split_indices":[8,8,10,0,0,0,0],"split_type":[0,0,0,0,0,0,0],"sum_hessian":[8.1E1,3.4E1,4.7E1,2E1,1.4E1,3.9E1,8E0],"tree_param":{"num_deleted":"0","num_feature":"16","num_nodes":"7","size_leaf_vector":"1"}},{"base_weights":[3.3651102E2,-1.4179773E4,1.3188189E4,-7.2310236E2,-1.7609846E2,3.6023996E2,1.088047E3],"categories":[],"categories_nodes":[],"categories_segments":[],"categories_sizes":[],"default_left":[0,0,0,0,0,0,0],"id":18,"left_children":[1,3,5,-1,-1,-1,-1],"loss_changes":[1.5393273E10,2.0012841E9,2.1734282E9,0E0,0E0,0E0,0E0],"parents":[2147483647,0,0,1,1,2,2],"right_children":[2,4,6,-1,-1,-1,-1],"split_conditions":[5.4442E4,2.5664E4,7.9832E4,-7.2310236E2,-1.7609846E2,3.6023996E2,1.088047E3],"split_indices":[10,10,10,0,0,0,0],"split_type":[0,0,0,0,0,0,0],"sum_hessian":[8.1E1,3.8E1,4.3E1,2.3E1,1.5E1,3.7E1,6E0],"tree_param":{"num_deleted":"0","num_feature":"16","num_nodes":"7","size_leaf_vector":"1"}},{"base_weights":[5.26601E2,-1.3420741E4,1.1721828E4,-7.453272E2,-2.0957616E2,-3.95755E2,4.901974E2],"categories":[],"categories_nodes":[],"categories_segments":[],"categories_sizes":[],"default_left":[0,0,0,0,0,0,0],"id":19,"left_children":[1,3,5,-1,-1,-1,-1],"loss_changes":[1.2884285E10,1.9086863E9,1.9533834E9,0E0,0E0,0E0,0E0],"parents":[2147483647,0,0,1,1,2,2],"right_children":[2,4,6,-1,-1,-1,-1],"split_conditions":[5.028E4,1.227E4,-3.4079456E1,-7.453272E2,-2.0957616E2,-3.95755E2,4.901974E2],"split_indices":[8,8,11,0,0,0,0],"split_type":[0,0,0,0,0,0,0],"sum_hessian":[8.1E1,3.6E1,4.5E1,1.8E1,1.8E1,3E0,4.2E1],"tree_param":{"num_deleted":"0","num_feature":"16","num_nodes":"7","size_leaf_vector":"1"}},{"base_weights":[7.234768E1,-1.2813879E4,1.1107327E4,-6.768126E2,-1.5043764E2,2.855572E2,9.97792E2],"categories":[],"categories_nodes":[],"categories_segments":[],"categories_sizes":[],"default_left":[0,0,0,0,0,0,0],"id":20,"left_children":[1,3,5,-1,-1,-1,-1],"loss_changes":[1.2870537E10,2.051498E9,2.425213E9,0E0,0E0,0E0,0E0],"parents":[2147483647,0,0,1,1,2,2],"right_children":[2,4,6,-1,-1,-1,-1],"split_conditions":[5.028E4,2.2309666E4,1E0,-6.768126E2,-1.5043764E2,2.855572E2,9.97792E2],"split_indices":[8,10,12,0,0,0,0],"split_type":[0,0,0,0,0,0,0],"sum_hessian":[8.9E1,4.1E1,4.8E1,2.4E1,1.7E1,4.1E1,7E0],"tree_param":{"num_deleted":"0","num_feature":"16","num_nodes":"7","size_leaf_vector":"1"}},{"base_weights":[6.103568E2,-1.4536364E4,9.2677295E3,-6.937399E2,-2.5247124E2,1.3366063E2,6.804358E2],"categories":[],"categories_nodes":[],"categories_segments":[],"categories_sizes":[],"default_left":[0,0,0,0,0,0,0],"id":21,"left_children":[1,3,5,-1,-1,-1,-1],"loss_changes":[1.108456E10,9.657421E8,2.7927603E9,0E0,0E0,0E0,0E0],"parents":[2147483647,0,0,1,1,2,2],"right_children":[2,4,6,-1,-1,-1,-1],"split_conditions":[3.7466E4,1.545E4,7.2463E4,-6.937399E2,-2.5247124E2,1.3366063E2,6.804358E2],"split_indices":[8,8,10,0,0,0,0],"split_type":[0,0,0,0,0,0,0],"sum_hessian":[8.3E1,3E1,5.3E1,1.8E1,1.2E1,3.4E1,1.9E1],"tree_param":{"num_deleted":"0","num_feature":"16","num_nodes":"7","size_leaf_vector":"1"}},{"base_weights":[-5.438514E2,-1.1141486E4,1.193011E4,-6.3941565E2,-8.697577E1,3.128743E2,1.1026139E3],"categories":[],"categories_nodes":[],"categories_segments":[],"categories_sizes":[],"default_left":[0,0,0,0,0,0,0],"id":22,"left_children":[1,3,5,-1,-1,-1,-1],"loss_changes":[1.1436681E10,2.613863E9,2.2306708E9,0E0,0E0,0E0,0E0],"parents":[2147483647,0,0,1,1,2,2],"right_children":[2,4,6,-1,-1,-1,-1],"split_conditions":[5.5328332E4,2.5664E4,7.9832E4,-6.3941565E2,-8.697577E1,3.128743E2,1.1026139E3],"split_indices":[10,10,10,0,0,0,0],"split_type":[0,0,0,0,0,0,0],"sum_hessian":[8.5E1,4.6E1,3.9E1,2.6E1,2E1,3.4E1,5E0],"tree_param":{"num_deleted":"0","num_feature":"16","num_nodes":"7","size_leaf_vector":"1"}},{"base_weights":[7.520315E2,-1.0262915E4,1.1753064E4,-6.763313E2,-1.3375912E2,2.3444016E2,8.3491327E2],"categories":[],"categories_nodes":[],"categories_segments":[],"categories_sizes":[],"default_left":[0,0,0,0,0,0,0],"id":23,"left_children":[1,3,5,-1,-1,-1,-1],"loss_changes":[9.87661E9,2.1910984E9,2.3145006E9,0E0,0E0,0E0,0E0],"parents":[2147483647,0,0,1,1,2,2],"right_children":[2,4,6,-1,-1,-1,-1],"split_conditions":[5.5328332E4,1.5348667E4,4.4652915E0,-6.763313E2,-1.3375912E2,2.3444016E2,8.3491327E2],"split_indices":[10,10,11,0,0,0,0],"split_type":[0,0,0,0,0,0,0],"sum_hessian":[8E1,4E1,4E1,1.7E1,2.3E1,2.8E1,1.2E1],"tree_param":{"num_deleted":"0","num_feature":"16","num_nodes":"7","size_leaf_vector":"1"}},{"base_weights":[-6.087116E2,-1.1671012E4,8.694308E3,-6.107628E2,-1.4516953E2,-5.3433276E2,3.6603452E2],"categories":[],"categories_nodes":[],"categories_segments":[],"categories_sizes":[],"default_left":[0,0,0,0,0,0,0],"id":24,"left_children":[1,3,5,-1,-1,-1,-1],"loss_changes":[8.284414E9,1.4019302E9,1.5333315E9,0E0,0E0,0E0,0E0],"parents":[2147483647,0,0,1,1,2,2],"right_children":[2,4,6,-1,-1,-1,-1],"split_conditions":[5.0258E4,2.5664E4,-4.2713936E1,-6.107628E2,-1.4516953E2,-5.3433276E2,3.6603452E2],"split_indices":[8,10,11,0,0,0,0],"split_type":[0,0,0,0,0,0,0],"sum_hessian":[7.9E1,3.6E1,4.3E1,2.1E1,1.5E1,2E0,4.1E1],"tree_param":{"num_deleted":"0","num_feature":"16","num_nodes":"7","size_leaf_vector":"1"}},{"base_weights":[1.0289652E3,-9.122195E3,1.0449693E4,-5.303664E2,-8.683024E1,2.7148483E2,1.0375277E3],"categories":[],"categories_nodes":[],"categories_segments":[],"categories_sizes":[],"default_left":[0,0,0,0,0,0,0],"id":25,"left_children":[1,3,5,-1,-1,-1,-1],"loss_changes":[7.890302E9,1.4414899E9,2.1421174E9,0E0,0E0,0E0,0E0],"parents":[2147483647,0,0,1,1,2,2],"right_children":[2,4,6,-1,-1,-1,-1],"split_conditions":[5.5328332E4,2.5664E4,7.9832E4,-5.303664E2,-8.683024E1,2.7148483E2,1.0375277E3],"split_indices":[10,10,10,0,0,0,0],"split_type":[0,0,0,0,0,0,0],"sum_hessian":[8.1E1,3.9E1,4.2E1,2.1E1,1.8E1,3.7E1,5E0],"tree_param":{"num_deleted":"0","num_feature":"16","num_nodes":"7","size_leaf_vector":"1"}},{"base_weights":[8.7998334E2,-1.1518812E4,8.330649E3,-6.202266E2,-2.093994E2,2.3675397E2,1.1122242E3],"categories":[],"categories_nodes":[],"categories_segments":[],"categories_sizes":[],"default_left":[0,0,0,0,0,0,0],"id":26,"left_children":[1,3,5,-1,-1,-1,-1],"loss_changes":[7.8096666E9,9.418107E8,1.9784591E9,0E0,0E0,0E0,0E0],"parents":[2147483647,0,0,1,1,2,2],"right_children":[2,4,6,-1,-1,-1,-1],"split_conditions":[4.2119E4,1.1583E4,5.2537216E1,-6.202266E2,-2.093994E2,2.3675397E2,1.1122242E3],"split_indices":[8,10,11,0,0,0,0],"split_type":[0,0,0,0,0,0,0],"sum_hessian":[8.3E1,3.1E1,5.2E1,1.5E1,1.6E1,4.9E1,3E0],"tree_param":{"num_deleted":"0","num_feature":"16","num_nodes":"7","size_leaf_vector":"1"}},{"base_weights":[-2.6827307E2,-1.0567201E4,1.1630331E4,-5.6824506E2,-1.68785E2,3.2498856E2,1.0661545E3],"categories":[],"categories_nodes":[],"categories_segments":[],"categories_sizes":[],"default_left":[0,0,0,0,0,0,0],"id":27,"left_children":[1,3,5,-1,-1,-1,-1],"loss_changes":[1.0233815E10,1.291711E9,1.6429112E9,0E0,0E0,0E0,0E0],"parents":[2147483647,0,0,1,1,2,2],"right_children":[2,4,6,-1,-1,-1,-1],"split_conditions":[5.5328332E4,1.545E4,8.4914664E4,-5.6824506E2,-1.68785E2,3.2498856E2,1.0661545E3],"split_indices":[10,8,10,0,0,0,0],"split_type":[0,0,0,0,0,0,0],"sum_hessian":[8.2E1,4.4E1,3.8E1,2.3E1,2.1E1,3.4E1,4E0],"tree_param":{"num_deleted":"0","num_feature":"16","num_nodes":"7","size_leaf_vector":"1"}},{"base_weights":[5.954171E2,-7.930013E3,9.538457E3,-5.274434E2,-1.3873387E2,2.1199991E2,8.7987103E2],"categories":[],"categories_nodes":[],"categories_segments":[],"categories_sizes":[],"default_left":[0,0,0,0,0,0,0],"id":28,"left_children":[1,3,5,-1,-1,-1,-1],"loss_changes":[6.214128E9,1.0899743E9,2.0544215E9,0E0,0E0,0E0,0E0],"parents":[2147483647,0,0,1,1,2,2],"right_children":[2,4,6,-1,-1,-1,-1],"split_conditions":[5.5328332E4,1.1583E4,1.3058462E1,-5.274434E2,-1.3873387E2,2.1199991E2,8.7987103E2],"split_indices":[10,10,11,0,0,0,0],"split_type":[0,0,0,0,0,0,0],"sum_hessian":[8E1,4.1E1,3.9E1,1.5E1,2.6E1,3.2E1,7E0],"tree_param":{"num_deleted":"0","num_feature":"16","num_nodes":"7","size_leaf_vector":"1"}},{"base_weights":[-6.724486E2,-8.935241E3,9.792303E3,-5.1750824E2,-1.1286543E2,2.3525934E2,8.8114606E2],"categories":[],"categories_nodes":[],"categories_segments":[],"categories_sizes":[],"default_left":[0,0,0,0,0,0,0],"id":29,"left_children":[1,3,5,-1,-1,-1,-1],"loss_changes":[7.394653E9,1.4464328E9,1.6918295E9,0E0,0E0,0E0,0E0],"parents":[2147483647,0,0,1,1,2,2],"right_children":[2,4,6,-1,-1,-1,-1],"split_conditions":[5.5328332E4,2.0204666E4,1.9512337E1,-5.1750824E2,-1.1286543E2,2.3525934E2,8.8114606E2],"split_indices":[10,10,11,0,0,0,0],"split_type":[0,0,0,0,0,0,0],"sum_hessian":[8.4E1,4.7E1,3.7E1,2.4E1,2.3E1,3.1E1,6E0],"tree_param":{"num_deleted":"0","num_feature":"16","num_nodes":"7","size_leaf_vector":"1"}},{"base_weights":[-2.268798E2,-1.1610097E4,5.8654795E3,-5.2351544E2,-2.4039275E2,4.052236E1,4.4652066E2],"categories":[],"categories_nodes":[],"categories_segments":[],"categories_sizes":[],"default_left":[0,0,0,0,0,0,0],"id":30,"left_children":[1,3,5,-1,-1,-1,-1],"loss_changes":[5.721175E9,3.309084E8,1.6320288E9,0E0,0E0,0E0,0E0],"parents":[2147483647,0,0,1,1,2,2],"right_children":[2,4,6,-1,-1,-1,-1],"split_conditions":[3.9165668E4,3.1E0,6.6966664E4,-5.2351544E2,-2.4039275E2,4.052236E1,4.4652066E2],"split_indices":[10,13,10,0,0,0,0],"split_type":[0,0,0,0,0,0,0],"sum_hessian":[8.1E1,2.8E1,5.3E1,1.7E1,1.1E1,3.1E1,2.2E1],"tree_param":{"num_deleted":"0","num_feature":"16","num_nodes":"7","size_leaf_vector":"1"}},{"base_weights":[-2.7739368E2,-9.002613E3,7.332594E3,-4.7490454E2,-1.1486995E2,1.6431807E2,7.6269135E2],"categories":[],"categories_nodes":[],"categories_segments":[],"categories_sizes":[],"default_left":[0,0,0,0,0,0,0],"id":31,"left_children":[1,3,5,-1,-1,-1,-1],"loss_changes":[5.8102646E9,9.39092E8,1.7226824E9,0E0,0E0,0E0,0E0],"parents":[2147483647,0,0,1,1,2,2],"right_children":[2,4,6,-1,-1,-1,-1],"split_conditions":[5.028E4,2.5664E4,7.7321336E4,-4.7490454E2,-1.1486995E2,1.6431807E2,7.6269135E2],"split_indices":[8,10,10,0,0,0,0],"split_type":[0,0,0,0,0,0,0],"sum_hessian":[8.6E1,4E1,4.6E1,2.3E1,1.7E1,3.9E1,7E0],"tree_param":{"num_deleted":"0","num_feature":"16","num_nodes":"7","size_leaf_vector":"1"}},{"base_weights":[6.745789E1,-7.7879565E3,9.543132E3,-4.5986182E2,-8.069531E1,2.3857632E2,8.309634E2],"categories":[],"categories_nodes":[],"categories_segments":[],"categories_sizes":[],"default_left":[0,0,0,0,0,0,0],"id":32,"left_children":[1,3,5,-1,-1,-1,-1],"loss_changes":[6.364876E9,1.2480696E9,1.4234074E9,0E0,0E0,0E0,0E0],"parents":[2147483647,0,0,1,1,2,2],"right_children":[2,4,6,-1,-1,-1,-1],"split_conditions":[5.5328332E4,2.1765E4,1E0,-4.5986182E2,-8.069531E1,2.3857632E2,8.309634E2],"split_indices":[10,8,12,0,0,0,0],"split_type":[0,0,0,0,0,0,0],"sum_hessian":[8.4E1,4.6E1,3.8E1,2.4E1,2.2E1,3.2E1,6E0],"tree_param":{"num_deleted":"0","num_feature":"16","num_nodes":"7","size_leaf_vector":"1"}},{"base_weights":[1.5654857E2,-8.364879E3,7.2773203E3,-4.585825E2,-1.2152751E2,1.7423918E2,8.0416595E2],"categories":[],"categories_nodes":[],"categories_segments":[],"categories_sizes":[],"default_left":[0,0,0,0,0,0,0],"id":33,"left_children":[1,3,5,-1,-1,-1,-1],"loss_changes":[5.4315315E9,8.4043546E8,1.7166392E9,0E0,0E0,0E0,0E0],"parents":[2147483647,0,0,1,1,2,2],"right_children":[2,4,6,-1,-1,-1,-1],"split_conditions":[5.028E4,1.545E4,1.9512337E1,-4.585825E2,-1.2152751E2,1.7423918E2,8.0416595E2],"split_indices":[8,8,11,0,0,0,0],"split_type":[0,0,0,0,0,0,0],"sum_hessian":[8.8E1,4E1,4.8E1,2.1E1,1.9E1,4.2E1,6E0],"tree_param":{"num_deleted":"0","num_feature":"16","num_nodes":"7","size_leaf_vector":"1"}},{"base_weights":[5.374976E2,-6.276483E3,1.1083632E4,-4.115451E2,-3.752764E1,4.862069E2,-5.4525738E1],"categories":[],"categories_nodes":[],"categories_segments":[],"categories_sizes":[],"default_left":[0,0,0,0,0,0,0],"id":34,"left_children":[1,3,5,-1,-1,-1,-1],"loss_changes":[5.9993897E9,1.3373044E9,9.666829E8,0E0,0E0,0E0,0E0],"parents":[2147483647,0,0,1,1,2,2],"right_children":[2,4,6,-1,-1,-1,-1],"split_conditions":[6.1379668E4,2.5664E4,8.8082E4,-4.115451E2,-3.752764E1,4.862069E2,-5.4525738E1],"split_indices":[10,10,9,0,0,0,0],"split_type":[0,0,0,0,0,0,0],"sum_hessian":[8.2E1,5E1,3.2E1,2.5E1,2.5E1,2.7E1,5E0],"tree_param":{"num_deleted":"0","num_feature":"16","num_nodes":"7","size_leaf_vector":"1"}},{"base_weights":[5.999803E2,-7.337625E3,7.1086245E3,-4.1583493E2,-1.2191752E2,1.6687479E2,8.543292E2],"categories":[],"categories_nodes":[],"categories_segments":[],"categories_sizes":[],"default_left":[0,0,0,0,0,0,0],"id":35,"left_children":[1,3,5,-1,-1,-1,-1],"loss_changes":[4.2114268E9,5.7298035E8,1.7648602E9,0E0,0E0,0E0,0E0],"parents":[2147483647,0,0,1,1,2,2],"right_children":[2,4,6,-1,-1,-1,-1],"split_conditions":[5.028E4,1.545E4,1.9512337E1,-4.1583493E2,-1.2191752E2,1.6687479E2,8.543292E2],"split_indices":[8,8,11,0,0,0,0],"split_type":[0,0,0,0,0,0,0],"sum_hessian":[8E1,3.6E1,4.4E1,1.7E1,1.9E1,3.9E1,5E0],"tree_param":{"num_deleted":"0","num_feature":"16","num_nodes":"7","size_leaf_vector":"1"}},{"base_weights":[-1.1687914E3,-8.1697637E3,5.3502925E3,-4.2015244E2,-1.4796257E2,-4.879875E2,2.5656857E2],"categories":[],"categories_nodes":[],"categories_segments":[],"categories_sizes":[],"default_left":[0,0,0,0,0,0,0],"id":36,"left_children":[1,3,5,-1,-1,-1,-1],"loss_changes":[3.6730122E9,5.043049E8,1.4184724E9,0E0,0E0,0E0,0E0],"parents":[2147483647,0,0,1,1,2,2],"right_children":[2,4,6,-1,-1,-1,-1],"split_conditions":[5.0258E4,1.545E4,-3.4079456E1,-4.2015244E2,-1.4796257E2,-4.879875E2,2.5656857E2],"split_indices":[8,8,11,0,0,0,0],"split_type":[0,0,0,0,0,0,0],"sum_hessian":[7.9E1,3.8E1,4.1E1,2E1,1.8E1,3E0,3.8E1],"tree_param":{"num_deleted":"0","num_feature":"16","num_nodes":"7","size_leaf_vector":"1"}},{"base_weights":[1.1061449E1,-3.5701152E3,1.2293284E4,-3.160345E2,5.4249268E1,8.859E1,5.975076E2],"categories":[],"categories_nodes":[],"categories_segments":[],"categories_sizes":[],"default_left":[0,0,0,0,0,0,0],"id":37,"left_children":[1,3,5,-1,-1,-1,-1],"loss_changes":[3.849041E9,1.771648E9,7.80204E8,0E0,0E0,0E0,0E0],"parents":[2147483647,0,0,1,1,2,2],"right_children":[2,4,6,-1,-1,-1,-1],"split_conditions":[7.2463E4,3.3E0,-2.7089357E0,-3.160345E2,5.4249268E1,8.859E1,5.975076E2],"split_indices":[10,13,11,0,0,0,0],"split_type":[0,0,0,0,0,0,0],"sum_hessian":[8.6E1,6.7E1,1.9E1,3.3E1,3.4E1,6E0,1.3E1],"tree_param":{"num_deleted":"0","num_feature":"16","num_nodes":"7","size_leaf_vector":"1"}},{"base_weights":[-4.5102562E1,-7.1823604E3,5.747751E3,-4.1540347E2,-1.1154314E2,-4.685776E2,2.6198306E2],"categories":[],"categories_nodes":[],"categories_segments":[],"categories_sizes":[],"default_left":[0,0,0,0,0,0,0],"id":38,"left_children":[1,3,5,-1,-1,-1,-1],"loss_changes":[3.5767145E9,6.5188966E8,1.3781431E9,0E0,0E0,0E0,0E0],"parents":[2147483647,0,0,1,1,2,2],"right_children":[2,4,6,-1,-1,-1,-1],"split_conditions":[5.028E4,1.545E4,-3.4079456E1,-4.1540347E2,-1.1154314E2,-4.685776E2,2.6198306E2],"split_indices":[8,8,11,0,0,0,0],"split_type":[0,0,0,0,0,0,0],"sum_hessian":[8.5E1,3.8E1,4.7E1,1.8E1,2E1,3E0,4.4E1],"tree_param":{"num_deleted":"0","num_feature":"16","num_nodes":"7","size_leaf_vector":"1"}},{"base_weights":[1.9175699E2,-4.29815E3,9.710755E3,-3.4383707E2,-3.4854658E-2,4.7857233E2,-3.064295E2],"categories":[],"categories_nodes":[],"categories_segments":[],"categories_sizes":[],"default_left":[0,0,0,0,0,0,0],"id":39,"left_children":[1,3,5,-1,-1,-1,-1],"loss_changes":[3.5684132E9,1.2614336E9,1.7694615E9,0E0,0E0,0E0,0E0],"parents":[2147483647,0,0,1,1,2,2],"right_children":[2,4,6,-1,-1,-1,-1],"split_conditions":[6.6966664E4,3.5973332E4,8.8082E4,-3.4383707E2,-3.4854658E-2,4.7857233E2,-3.064295E2],"split_indices":[10,10,9,0,0,0,0],"split_type":[0,0,0,0,0,0,0],"sum_hessian":[8.2E1,5.6E1,2.6E1,2.5E1,3.1E1,2.2E1,4E0],"tree_param":{"num_deleted":"0","num_feature":"16","num_nodes":"7","size_leaf_vector":"1"}},{"base_weights":[4.5052567E2,-5.3375547E3,8.5603955E3,-3.5659308E2,-6.0904938E1,2.2074434E2,7.356245E2],"categories":[],"categories_nodes":[],"categories_segments":[],"categories_sizes":[],"default_left":[0,0,0,0,0,0,0],"id":40,"left_children":[1,3,5,-1,-1,-1,-1],"loss_changes":[3.9190628E9,7.8773466E8,9.156736E8,0E0,0E0,0E0,0E0],"parents":[2147483647,0,0,1,1,2,2],"right_children":[2,4,6,-1,-1,-1,-1],"split_conditions":[5.7803332E4,2.2309666E4,7.9832E4,-3.5659308E2,-6.0904938E1,2.2074434E2,7.356245E2],"split_indices":[10,10,10,0,0,0,0],"split_type":[0,0,0,0,0,0,0],"sum_hessian":[8.2E1,4.8E1,3.4E1,2.1E1,2.7E1,2.9E1,5E0],"tree_param":{"num_deleted":"0","num_feature":"16","num_nodes":"7","size_leaf_vector":"1"}},{"base_weights":[5.574794E2,-5.1779785E3,7.0413716E3,-3.6592148E2,-9.175782E1,-5.330953E2,3.1102344E2],"categories":[],"categories_nodes":[],"categories_segments":[],"categories_sizes":[],"default_left":[0,0,0,0,0,0,0],"id":41,"left_children":[1,3,5,-1,-1,-1,-1],"loss_changes":[2.9934623E9,5.3615386E8,1.3459826E9,0E0,0E0,0E0,0E0],"parents":[2147483647,0,0,1,1,2,2],"right_children":[2,4,6,-1,-1,-1,-1],"split_conditions":[5.6852332E4,1.1824E4,-3.4079456E1,-3.6592148E2,-9.175782E1,-5.330953E2,3.1102344E2],"split_indices":[10,9,11,0,0,0,0],"split_type":[0,0,0,0,0,0,0],"sum_hessian":[7.9E1,4.2E1,3.7E1,1.4E1,2.8E1,2E0,3.5E1],"tree_param":{"num_deleted":"0","num_feature":"16","num_nodes":"7","size_leaf_vector":"1"}},{"base_weights":[-3.8224588E2,-5.4353555E3,5.9160254E3,-2.8184738E2,-3.8366497E1,-4.3999942E2,2.8282654E2],"categories":[],"categories_nodes":[],"categories_segments":[],"categories_sizes":[],"default_left":[0,0,0,0,0,0,0],"id":42,"left_children":[1,3,5,-1,-1,-1,-1],"loss_changes":[2.6261975E9,4.6013094E8,1.3134758E9,0E0,0E0,0E0,0E0],"parents":[2147483647,0,0,1,1,2,2],"right_children":[2,4,6,-1,-1,-1,-1],"split_conditions":[5.6852332E4,4.213E4,-3.4079456E1,-2.8184738E2,-3.8366497E1,-4.3999942E2,2.8282654E2],"split_indices":[10,10,11,0,0,0,0],"split_type":[0,0,0,0,0,0,0],"sum_hessian":[8.1E1,4.5E1,3.6E1,2.9E1,1.6E1,3E0,3.3E1],"tree_param":{"num_deleted":"0","num_feature":"16","num_nodes":"7","size_leaf_vector":"1"}},{"base_weights":[-6.677628E2,-3.892982E3,1.0092957E4,-2.9944882E2,1.5244597E1,8.677567E2,2.3757603E2],"categories":[],"categories_nodes":[],"categories_segments":[],"categories_sizes":[],"default_left":[0,0,0,0,0,0,0],"id":43,"left_children":[1,3,5,-1,-1,-1,-1],"loss_changes":[2.971138E9,1.2376179E9,8.500718E8,0E0,0E0,0E0,0E0],"parents":[2147483647,0,0,1,1,2,2],"right_children":[2,4,6,-1,-1,-1,-1],"split_conditions":[7.2463E4,3.3E0,3E0,-2.9944882E2,1.5244597E1,8.677567E2,2.3757603E2],"split_indices":[10,13,1,0,0,0,0],"split_type":[0,0,0,0,0,0,0],"sum_hessian":[8.4E1,6.5E1,1.9E1,3.2E1,3.3E1,3E0,1.6E1],"tree_param":{"num_deleted":"0","num_feature":"16","num_nodes":"7","size_leaf_vector":"1"}},{"base_weights":[3.9098764E2,-4.125625E3,8.824171E3,-3.1474893E2,-1.8693167E1,-5.204133E2,3.97911E2],"categories":[],"categories_nodes":[],"categories_segments":[],"categories_sizes":[],"default_left":[0,0,0,0,0,0,0],"id":44,"left_children":[1,3,5,-1,-1,-1,-1],"loss_changes":[3.1414866E9,8.7851904E8,1.5407291E9,0E0,0E0,0E0,0E0],"parents":[2147483647,0,0,1,1,2,2],"right_children":[2,4,6,-1,-1,-1,-1],"split_conditions":[6.5030668E4,2.5664E4,-4.2713936E1,-3.1474893E2,-1.8693167E1,-5.204133E2,3.97911E2],"split_indices":[10,10,11,0,0,0,0],"split_type":[0,0,0,0,0,0,0],"sum_hessian":[8.1E1,5.3E1,2.8E1,2.3E1,3E1,2E0,2.6E1],"tree_param":{"num_deleted":"0","num_feature":"16","num_nodes":"7","size_leaf_vector":"1"}},{"base_weights":[7.694152E2,-1.9973502E3,1.098337E4,-2.4715756E2,4.6392536E1,2.8065396E2,9.649417E2],"categories":[],"categories_nodes":[],"categories_segments":[],"categories_sizes":[],"default_left":[0,0,0,0,0,0,0],"id":45,"left_children":[1,3,5,-1,-1,-1,-1],"loss_changes":[2.3551918E9,1.0424822E9,7.456127E8,0E0,0E0,0E0,0E0],"parents":[2147483647,0,0,1,1,2,2],"right_children":[2,4,6,-1,-1,-1,-1],"split_conditions":[7.2792336E4,3.4409E4,1E0,-2.4715756E2,4.6392536E1,2.8065396E2,9.649417E2],"split_indices":[10,8,12,0,0,0,0],"split_type":[0,0,0,0,0,0,0],"sum_hessian":[8.2E1,6.5E1,1.7E1,2.6E1,3.9E1,1.5E1,2E0],"tree_param":{"num_deleted":"0","num_feature":"16","num_nodes":"7","size_leaf_vector":"1"}},{"base_weights":[-3.100727E2,-3.055132E3,1.0640697E4,-2.9385327E2,-3.044648E0,2.6327008E2,9.395085E2],"categories":[],"categories_nodes":[],"categories_segments":[],"categories_sizes":[],"default_left":[0,0,0,0,0,0,0],"id":46,"left_children":[1,3,5,-1,-1,-1,-1],"loss_changes":[2.512194E9,9.988665E8,7.235725E8,0E0,0E0,0E0,0E0],"parents":[2147483647,0,0,1,1,2,2],"right_children":[2,4,6,-1,-1,-1,-1],"split_conditions":[7.2792336E4,2.2309666E4,1E0,-2.9385327E2,-3.044648E0,2.6327008E2,9.395085E2],"split_indices":[10,10,12,0,0,0,0],"split_type":[0,0,0,0,0,0,0],"sum_hessian":[8.2E1,6.6E1,1.6E1,2.4E1,4.2E1,1.4E1,2E0],"tree_param":{"num_deleted":"0","num_feature":"16","num_nodes":"7","size_leaf_vector":"1"}},{"base_weights":[1.3588554E2,-2.431689E3,1.31493125E4,-3.7379782E2,1.9450608E0,3.4424356E2,9.1474567E2],"categories":[],"categories_nodes":[],"categories_segments":[],"categories_sizes":[],"default_left":[0,0,0,0,0,0,0],"id":47,"left_children":[1,3,5,-1,-1,-1,-1],"loss_changes":[2.7892347E9,1.363712E9,4.273234E8,0E0,0E0,0E0,0E0],"parents":[2147483647,0,0,1,1,2,2],"right_children":[2,4,6,-1,-1,-1,-1],"split_conditions":[7.2792336E4,-1.7619486E1,1.5081594E1,-3.7379782E2,1.9450608E0,3.4424356E2,9.1474567E2],"split_indices":[10,11,11,0,0,0,0],"split_type":[0,0,0,0,0,0,0],"sum_hessian":[8.2E1,6.9E1,1.3E1,1.6E1,5.3E1,1.1E1,2E0],"tree_param":{"num_deleted":"0","num_feature":"16","num_nodes":"7","size_leaf_vector":"1"}},{"base_weights":[-9.310085E1,-2.6299275E3,1.1044963E4,-2.5299585E2,3.761262E1,2.4662701E2,8.036493E2],"categories":[],"categories_nodes":[],"categories_segments":[],"categories_sizes":[],"default_left":[0,0,0,0,0,0,0],"id":48,"left_children":[1,3,5,-1,-1,-1,-1],"loss_changes":[2.2471718E9,1.03533184E9,5.8224576E8,0E0,0E0,0E0,0E0],"parents":[2147483647,0,0,1,1,2,2],"right_children":[2,4,6,-1,-1,-1,-1],"split_conditions":[7.2463E4,3.1E0,8.4914664E4,-2.5299585E2,3.761262E1,2.4662701E2,8.036493E2],"split_indices":[10,13,10,0,0,0,0],"split_type":[0,0,0,0,0,0,0],"sum_hessian":[7.8E1,6.4E1,1.4E1,2.9E1,3.5E1,1.1E1,3E0],"tree_param":{"num_deleted":"0","num_feature":"16","num_nodes":"7","size_leaf_vector":"1"}},{"base_weights":[1.62546E2,-4.7752354E3,5.8242803E3,-2.7523193E2,-2.363534E1,2.873258E2,-2.876296E2],"categories":[],"categories_nodes":[],"categories_segments":[],"categories_sizes":[],"default_left":[0,0,0,0,0,0,0],"id":49,"left_children":[1,3,5,-1,-1,-1,-1],"loss_changes":[2.4463547E9,5.37262E8,1.2180255E9,0E0,0E0,0E0,0E0],"parents":[2147483647,0,0,1,1,2,2],"right_children":[2,4,6,-1,-1,-1,-1],"split_conditions":[5.6852332E4,3.5973332E4,8.8082E4,-2.7523193E2,-2.363534E1,2.873258E2,-2.876296E2],"split_indices":[10,10,9,0,0,0,0],"split_type":[0,0,0,0,0,0,0],"sum_hessian":[8.6E1,4.6E1,4E1,2.7E1,1.9E1,3.5E1,5E0],"tree_param":{"num_deleted":"0","num_feature":"16","num_nodes":"7","size_leaf_vector":"1"}},{"base_weights":[-7.5732135E2,-6.9972734E3,2.2000571E3,-3.2048218E2,-1.0665176E2,-9.11024E1,2.0854684E2],"categories":[],"categories_nodes":[],"categories_segments":[],"categories_sizes":[],"default_left":[0,0,0,0,0,0,0],"id":50,"left_children":[1,3,5,-1,-1,-1,-1],"loss_changes":[1.5941391E9,1.8660083E8,9.914982E8,0E0,0E0,0E0,0E0],"parents":[2147483647,0,0,1,1,2,2],"right_children":[2,4,6,-1,-1,-1,-1],"split_conditions":[3.5973332E4,3.4E0,-2.3179831E-2,-3.2048218E2,-1.0665176E2,-9.11024E1,2.0854684E2],"split_indices":[10,13,11,0,0,0,0],"split_type":[0,0,0,0,0,0,0],"sum_hessian":[8.5E1,2.7E1,5.8E1,1.8E1,9E0,2.5E1,3.3E1],"tree_param":{"num_deleted":"0","num_feature":"16","num_nodes":"7","size_leaf_vector":"1"}},{"base_weights":[-1.9140729E2,-2.5487788E3,8.961065E3,-3.5459955E2,-2.5536654E1,2.233662E2,8.5638403E2],"categories":[],"categories_nodes":[],"categories_segments":[],"categories_sizes":[],"default_left":[0,0,0,0,0,0,0],"id":51,"left_children":[1,3,5,-1,-1,-1,-1],"loss_changes":[1.9753478E9,9.639263E8,6.609399E8,0E0,0E0,0E0,0E0],"parents":[2147483647,0,0,1,1,2,2],"right_children":[2,4,6,-1,-1,-1,-1],"split_conditions":[7.2792336E4,-1.7619486E1,1.5081594E1,-3.5459955E2,-2.5536654E1,2.233662E2,8.5638403E2],"split_indices":[10,11,11,0,0,0,0],"split_type":[0,0,0,0,0,0,0],"sum_hessian":[9E1,7.2E1,1.8E1,1.4E1,5.8E1,1.6E1,2E0],"tree_param":{"num_deleted":"0","num_feature":"16","num_nodes":"7","size_leaf_vector":"1"}},{"base_weights":[-8.430805E1,-9.37612E3,2.0457938E3,-5.6438135E2,-2.5432825E2,-1.07459915E2,2.0112497E2],"categories":[],"categories_nodes":[],"categories_segments":[],"categories_sizes":[],"default_left":[0,0,0,0,0,0,0],"id":52,"left_children":[1,3,5,-1,-1,-1,-1],"loss_changes":[1.6722071E9,1.482176E8,1.2148243E9,0E0,0E0,0E0,0E0],"parents":[2147483647,0,0,1,1,2,2],"right_children":[2,4,6,-1,-1,-1,-1],"split_conditions":[-1.8393656E1,-6.4995865E1,5.028E4,-5.6438135E2,-2.5432825E2,-1.07459915E2,2.0112497E2],"split_indices":[11,11,9,0,0,0,0],"split_type":[0,0,0,0,0,0,0],"sum_hessian":[8.3E1,1.5E1,6.8E1,3E0,1.2E1,2.8E1,4E1],"tree_param":{"num_deleted":"0","num_feature":"16","num_nodes":"7","size_leaf_vector":"1"}},{"base_weights":[3.8842828E0,-1.669398E3,1.4482213E4,-2.3762558E2,4.1098633E1,5.9012964E2,1.5316572E1],"categories":[],"categories_nodes":[],"categories_segments":[],"categories_sizes":[],"default_left":[0,0,0,0,0,0,0],"id":53,"left_children":[1,3,5,-1,-1,-1,-1],"loss_changes":[2.0473367E9,1.0402933E9,2.129303E8,0E0,0E0,0E0,0E0],"parents":[2147483647,0,0,1,1,2,2],"right_children":[2,4,6,-1,-1,-1,-1],"split_conditions":[7.7321336E4,2.3567E4,8.8082E4,-2.3762558E2,4.1098633E1,5.9012964E2,1.5316572E1],"split_indices":[10,8,9,0,0,0,0],"split_type":[0,0,0,0,0,0,0],"sum_hessian":[8.3E1,7.5E1,8E0,2.7E1,4.8E1,7E0,1E0],"tree_param":{"num_deleted":"0","num_feature":"16","num_nodes":"7","size_leaf_vector":"1"}},{"base_weights":[-6.0380005E2,-3.9449785E3,5.6580776E3,-9.171811E1,-3.6846454E2,3.367535E2,-2.5992868E2],"categories":[],"categories_nodes":[],"categories_segments":[],"categories_sizes":[],"default_left":[0,0,0,0,0,0,0],"id":54,"left_children":[1,3,5,-1,-1,-1,-1],"loss_changes":[1.7273317E9,4.5376653E8,1.3833125E9,0E0,0E0,0E0,0E0],"parents":[2147483647,0,0,1,1,2,2],"right_children":[2,4,6,-1,-1,-1,-1],"split_conditions":[6.1379668E4,1E0,8.8082E4,-9.171811E1,-3.6846454E2,3.367535E2,-2.5992868E2],"split_indices":[10,15,9,0,0,0,0],"split_type":[0,0,0,0,0,0,0],"sum_hessian":[8.1E1,5.3E1,2.8E1,4.4E1,9E0,2.2E1,6E0],"tree_param":{"num_deleted":"0","num_feature":"16","num_nodes":"7","size_leaf_vector":"1"}},{"base_weights":[-2.6597433E2,3.5329292E3,-3.466231E3,-1.2828312E1,2.3248584E2,-2.960756E2,-1.3526237E1],"categories":[],"categories_nodes":[],"categories_segments":[],"categories_sizes":[],"default_left":[0,0,0,0,0,0,0],"id":55,"left_children":[1,3,5,-1,-1,-1,-1],"loss_changes":[1.00317824E9,4.22889E8,6.46881E8,0E0,0E0,0E0,0E0],"parents":[2147483647,0,0,1,1,2,2],"right_children":[2,4,6,-1,-1,-1,-1],"split_conditions":[2.02E3,6.6966664E4,3.1E0,-1.2828312E1,2.3248584E2,-2.960756E2,-1.3526237E1],"split_indices":[0,10,13,0,0,0,0],"split_type":[0,0,0,0,0,0,0],"sum_hessian":[8.1E1,3.7E1,4.4E1,1.6E1,2.1E1,1.7E1,2.7E1],"tree_param":{"num_deleted":"0","num_feature":"16","num_nodes":"7","size_leaf_vector":"1"}},{"base_weights":[4.2027714E1,-3.4913928E3,4.9768677E3,-3.3701987E2,-8.8625916E1,-1.1617669E2,3.8049194E2],"categories":[],"categories_nodes":[],"categories_segments":[],"categories_sizes":[],"default_left":[0,0,0,0,0,0,0],"id":56,"left_children":[1,3,5,-1,-1,-1,-1],"loss_changes":[1.3689222E9,2.6120256E8,1.4992264E9,0E0,0E0,0E0,0E0],"parents":[2147483647,0,0,1,1,2,2],"right_children":[2,4,6,-1,-1,-1,-1],"split_conditions":[5.7803332E4,2.826E3,-1.4564846E0,-3.3701987E2,-8.8625916E1,-1.1617669E2,3.8049194E2],"split_indices":[10,8,11,0,0,0,0],"split_type":[0,0,0,0,0,0,0],"sum_hessian":[7.7E1,4.5E1,3.2E1,6E0,3.9E1,1.3E1,1.9E1],"tree_param":{"num_deleted":"0","num_feature":"16","num_nodes":"7","size_leaf_vector":"1"}},{"base_weights":[1.9688618E1,-3.114679E3,5.4976226E3,-2.6507755E2,-5.4522335E1,-4.7977466E2,2.5944913E2],"categories":[],"categories_nodes":[],"categories_segments":[],"categories_sizes":[],"default_left":[0,0,0,0,0,0,0],"id":57,"left_children":[1,3,5,-1,-1,-1,-1],"loss_changes":[1.45099E9,3.5469795E8,1.01997075E9,0E0,0E0,0E0,0E0],"parents":[2147483647,0,0,1,1,2,2],"right_children":[2,4,6,-1,-1,-1,-1],"split_conditions":[6.2334332E4,8.0663335E3,-3.4079456E1,-2.6507755E2,-5.4522335E1,-4.7977466E2,2.5944913E2],"split_indices":[10,10,11,0,0,0,0],"split_type":[0,0,0,0,0,0,0],"sum_hessian":[8.3E1,5.3E1,3E1,1.4E1,3.9E1,2E0,2.8E1],"tree_param":{"num_deleted":"0","num_feature":"16","num_nodes":"7","size_leaf_vector":"1"}},{"base_weights":[2.3421735E2,-2.9896892E3,5.339258E3,-2.222799E2,-1.6443554E1,7.734411E2,1.3322943E2],"categories":[],"categories_nodes":[],"categories_segments":[],"categories_sizes":[],"default_left":[0,0,0,0,0,0,0],"id":58,"left_children":[1,3,5,-1,-1,-1,-1],"loss_changes":[1.3082157E9,3.853484E8,7.607232E8,0E0,0E0,0E0,0E0],"parents":[2147483647,0,0,1,1,2,2],"right_children":[2,4,6,-1,-1,-1,-1],"split_conditions":[6.1379668E4,2.1765E4,2E0,-2.222799E2,-1.6443554E1,7.734411E2,1.3322943E2],"split_indices":[10,8,1,0,0,0,0],"split_type":[0,0,0,0,0,0,0],"sum_hessian":[7.8E1,4.8E1,3E1,2.1E1,2.7E1,2E0,2.8E1],"tree_param":{"num_deleted":"0","num_feature":"16","num_nodes":"7","size_leaf_vector":"1"}},{"base_weights":[-1.9351482E2,-1.2817649E3,1.2999045E4,-1.6613493E2,4.567531E1,2.2482344E2,7.6913806E2],"categories":[],"categories_nodes":[],"categories_segments":[],"categories_sizes":[],"default_left":[0,0,0,0,0,0,0],"id":59,"left_children":[1,3,5,-1,-1,-1,-1],"loss_changes":[1.2724513E9,6.8835226E8,2.773047E8,0E0,0E0,0E0,0E0],"parents":[2147483647,0,0,1,1,2,2],"right_children":[2,4,6,-1,-1,-1,-1],"split_conditions":[7.9832E4,4.2892332E4,1E0,-1.6613493E2,4.567531E1,2.2482344E2,7.6913806E2],"split_indices":[10,10,12,0,0,0,0],"split_type":[0,0,0,0,0,0,0],"sum_hessian":[8.7E1,8.1E1,6E0,3.5E1,4.6E1,4E0,2E0],"tree_param":{"num_deleted":"0","num_feature":"16","num_nodes":"7","size_leaf_vector":"1"}},{"base_weights":[-3.2605316E2,3.4904429E3,-3.4181445E3,6.405061E1,6.980343E2,-3.622597E2,-4.538295E1],"categories":[],"categories_nodes":[],"categories_segments":[],"categories_sizes":[],"default_left":[0,0,0,0,0,0,0],"id":60,"left_children":[1,3,5,-1,-1,-1,-1],"loss_changes":[1.0209976E9,1.0271273E9,6.69765E8,0E0,0E0,0E0,0E0],"parents":[2147483647,0,0,1,1,2,2],"right_children":[2,4,6,-1,-1,-1,-1],"split_conditions":[2.02E3,5.2537216E1,2.021E3,6.405061E1,6.980343E2,-3.622597E2,-4.538295E1],"split_indices":[0,11,0,0,0,0,0],"split_type":[0,0,0,0,0,0,0],"sum_hessian":[8.5E1,3.8E1,4.7E1,3.5E1,3E0,1.1E1,3.6E1],"tree_param":{"num_deleted":"0","num_feature":"16","num_nodes":"7","size_leaf_vector":"1"}},{"base_weights":[-1.9317456E2,-7.75193E3,1.5161381E3,-2.099451E2,-5.61294E2,-1.2075781E2,1.4347836E2],"categories":[],"categories_nodes":[],"categories_segments":[],"categories_sizes":[],"default_left":[0,0,0,0,0,0,0],"id":61,"left_children":[1,3,5,-1,-1,-1,-1],"loss_changes":[1.103935E9,1.716478E8,8.3263654E8,0E0,0E0,0E0,0E0],"parents":[2147483647,0,0,1,1,2,2],"right_children":[2,4,6,-1,-1,-1,-1],"split_conditions":[-1.7619486E1,3.3E1,3.7466E4,-2.099451E2,-5.61294E2,-1.2075781E2,1.4347836E2],"split_indices":[11,4,8,0,0,0,0],"split_type":[0,0,0,0,0,0,0],"sum_hessian":[8.4E1,1.5E1,6.9E1,1.3E1,2E0,2.3E1,4.6E1],"tree_param":{"num_deleted":"0","num_feature":"16","num_nodes":"7","size_leaf_vector":"1"}},{"base_weights":[-4.3276614E2,3.3138125E3,-3.7228982E3,5.334385E2,2.6620367E1,-3.5975784E2,-4.6004036E1],"categories":[],"categories_nodes":[],"categories_segments":[],"categories_sizes":[],"default_left":[0,0,0,0,0,0,0],"id":62,"left_children":[1,3,5,-1,-1,-1,-1],"loss_changes":[9.6777926E8,1.0711383E9,6.248382E8,0E0,0E0,0E0,0E0],"parents":[2147483647,0,0,1,1,2,2],"right_children":[2,4,6,-1,-1,-1,-1],"split_conditions":[2.02E3,3E0,2.021E3,5.334385E2,2.6620367E1,-3.5975784E2,-4.6004036E1],"split_indices":[0,1,0,0,0,0,0],"split_type":[0,0,0,0,0,0,0],"sum_hessian":[7.7E1,3.6E1,4.1E1,6E0,3E1,1.1E1,3E1],"tree_param":{"num_deleted":"0","num_feature":"16","num_nodes":"7","size_leaf_vector":"1"}},{"base_weights":[5.146773E2,-2.5655557E3,5.859315E3,-2.5784866E2,-3.2874607E1,4.5828977E0,3.5321506E2],"categories":[],"categories_nodes":[],"categories_segments":[],"categories_sizes":[],"default_left":[0,0,0,0,0,0,0],"id":63,"left_children":[1,3,5,-1,-1,-1,-1],"loss_changes":[1.3407983E9,3.8489955E8,6.591382E8,0E0,0E0,0E0,0E0],"parents":[2147483647,0,0,1,1,2,2],"right_children":[2,4,6,-1,-1,-1,-1],"split_conditions":[6.1379668E4,8.0663335E3,-1.4564846E0,-2.5784866E2,-3.2874607E1,4.5828977E0,3.5321506E2],"split_indices":[10,10,11,0,0,0,0],"split_type":[0,0,0,0,0,0,0],"sum_hessian":[8E1,5.1E1,2.9E1,1.3E1,3.8E1,1.2E1,1.7E1],"tree_param":{"num_deleted":"0","num_feature":"16","num_nodes":"7","size_leaf_vector":"1"}},{"base_weights":[-3.024787E2,-1.2709615E3,1.5786082E4,-2.4867685E2,8.484887E0,1.6632364E2,6.4802924E2],"categories":[],"categories_nodes":[],"categories_segments":[],"categories_sizes":[],"default_left":[0,0,0,0,0,0,0],"id":64,"left_children":[1,3,5,-1,-1,-1,-1],"loss_changes":[1.3045829E9,6.622548E8,4.815693E7,0E0,0E0,0E0,0E0],"parents":[2147483647,0,0,1,1,2,2],"right_children":[2,4,6,-1,-1,-1,-1],"split_conditions":[7.9832E4,-1.7619486E1,9E0,-2.4867685E2,8.484887E0,1.6632364E2,6.4802924E2],"split_indices":[10,11,4,0,0,0,0],"split_type":[0,0,0,0,0,0,0],"sum_hessian":[8.2E1,7.8E1,4E0,1.6E1,6.2E1,1E0,3E0],"tree_param":{"num_deleted":"0","num_feature":"16","num_nodes":"7","size_leaf_vector":"1"}},{"base_weights":[2.2963377E2,-9.2860846E2,1.0231955E4,-2.4420998E2,2.1289696E1,5.073787E2,-6.35047E1],"categories":[],"categories_nodes":[],"categories_segments":[],"categories_sizes":[],"default_left":[0,0,0,0,0,0,0],"id":65,"left_children":[1,3,5,-1,-1,-1,-1],"loss_changes":[9.774904E8,6.68381E8,4.1107443E8,0E0,0E0,0E0,0E0],"parents":[2147483647,0,0,1,1,2,2],"right_children":[2,4,6,-1,-1,-1,-1],"split_conditions":[7.7321336E4,-1.7619486E1,8.8082E4,-2.4420998E2,2.1289696E1,5.073787E2,-6.35047E1],"split_indices":[10,11,9,0,0,0,0],"split_type":[0,0,0,0,0,0,0],"sum_hessian":[8.3E1,7.5E1,8E0,1.5E1,6E1,6E0,2E0],"tree_param":{"num_deleted":"0","num_feature":"16","num_nodes":"7","size_leaf_vector":"1"}},{"base_weights":[1.693103E2,3.6138528E3,-2.727073E3,-9.149378E0,2.3974026E2,-2.1660133E2,6.8757806E0],"categories":[],"categories_nodes":[],"categories_segments":[],"categories_sizes":[],"default_left":[0,0,0,0,0,0,0],"id":66,"left_children":[1,3,5,-1,-1,-1,-1],"loss_changes":[8.0313344E8,4.2602147E8,4.1416426E8,0E0,0E0,0E0,0E0],"parents":[2147483647,0,0,1,1,2,2],"right_children":[2,4,6,-1,-1,-1,-1],"split_conditions":[2.02E3,-2.3179831E-2,2.022E3,-9.149378E0,2.3974026E2,-2.1660133E2,6.8757806E0],"split_indices":[0,11,0,0,0,0,0],"split_type":[0,0,0,0,0,0,0],"sum_hessian":[7.9E1,3.6E1,4.3E1,1.6E1,2E1,2E1,2.3E1],"tree_param":{"num_deleted":"0","num_feature":"16","num_nodes":"7","size_leaf_vector":"1"}},{"base_weights":[-2.0880266E2,-1.417218E3,9.439337E3,-2.502653E2,3.1146429E0,4.529763E2,-6.1589745E1],"categories":[],"categories_nodes":[],"categories_segments":[],"categories_sizes":[],"default_left":[0,0,0,0,0,0,0],"id":67,"left_children":[1,3,5,-1,-1,-1,-1],"loss_changes":[1.0215665E9,6.4040083E8,3.4590573E8,0E0,0E0,0E0,0E0],"parents":[2147483647,0,0,1,1,2,2],"right_children":[2,4,6,-1,-1,-1,-1],"split_conditions":[7.7321336E4,-1.7619486E1,8.8082E4,-2.502653E2,3.1146429E0,4.529763E2,-6.1589745E1],"split_indices":[10,11,9,0,0,0,0],"split_type":[0,0,0,0,0,0,0],"sum_hessian":[8.6E1,7.7E1,9E0,1.6E1,6.1E1,7E0,2E0],"tree_param":{"num_deleted":"0","num_feature":"16","num_nodes":"7","size_leaf_vector":"1"}},{"base_weights":[-4.0023718E2,-4.9177734E3,1.1229237E3,-1.2247226E2,-5.1134848E2,-3.0935291E1,1.9440047E2],"categories":[],"categories_nodes":[],"categories_segments":[],"categories_sizes":[],"default_left":[0,0,0,0,0,0,0],"id":68,"left_children":[1,3,5,-1,-1,-1,-1],"loss_changes":[5.667223E8,2.579561E8,5.19544E8,0E0,0E0,0E0,0E0],"parents":[2147483647,0,0,1,1,2,2],"right_children":[2,4,6,-1,-1,-1,-1],"split_conditions":[-1.3433348E1,3.3E1,6.5030668E4,-1.2247226E2,-5.1134848E2,-3.0935291E1,1.9440047E2],"split_indices":[11,4,10,0,0,0,0],"split_type":[0,0,0,0,0,0,0],"sum_hessian":[8.1E1,2E1,6.1E1,1.8E1,2E0,4.2E1,1.9E1],"tree_param":{"num_deleted":"0","num_feature":"16","num_nodes":"7","size_leaf_vector":"1"}},{"base_weights":[2.4681181E1,-1.0320922E3,1.0073003E4,-2.294704E2,1.44933405E1,1.7469542E2,6.645154E2],"categories":[],"categories_nodes":[],"categories_segments":[],"categories_sizes":[],"default_left":[0,0,0,0,0,0,0],"id":69,"left_children":[1,3,5,-1,-1,-1,-1],"loss_changes":[8.6537574E8,5.601642E8,2.6928826E8,0E0,0E0,0E0,0E0],"parents":[2147483647,0,0,1,1,2,2],"right_children":[2,4,6,-1,-1,-1,-1],"split_conditions":[7.7321336E4,-1.7619486E1,7.567648E0,-2.294704E2,1.44933405E1,1.7469542E2,6.645154E2],"split_indices":[10,11,11,0,0,0,0],"split_type":[0,0,0,0,0,0,0],"sum_hessian":[8E1,7.3E1,7E0,1.5E1,5.8E1,5E0,2E0],"tree_param":{"num_deleted":"0","num_feature":"16","num_nodes":"7","size_leaf_vector":"1"}},{"base_weights":[3.456976E2,3.5030479E3,-2.8178862E3,4.7354684E2,5.906073E1,-2.876891E2,-3.708813E1],"categories":[],"categories_nodes":[],"categories_segments":[],"categories_sizes":[],"default_left":[0,0,0,0,0,0,0],"id":70,"left_children":[1,3,5,-1,-1,-1,-1],"loss_changes":[8.3405414E8,7.31389E8,3.7686922E8,0E0,0E0,0E0,0E0],"parents":[2147483647,0,0,1,1,2,2],"right_children":[2,4,6,-1,-1,-1,-1],"split_conditions":[2.02E3,3E0,2.021E3,4.7354684E2,5.906073E1,-2.876891E2,-3.708813E1],"split_indices":[0,1,0,0,0,0,0],"split_type":[0,0,0,0,0,0,0],"sum_hessian":[8.2E1,4.1E1,4.1E1,6E0,3.5E1,1E1,3.1E1],"tree_param":{"num_deleted":"0","num_feature":"16","num_nodes":"7","size_leaf_vector":"1"}},{"base_weights":[2.4352895E2,-4.9452188E3,1.9558613E3,-1.3462628E2,-5.8231177E2,-3.239815E1,2.5276242E2],"categories":[],"categories_nodes":[],"categories_segments":[],"categories_sizes":[],"default_left":[0,0,0,0,0,0,0],"id":71,"left_children":[1,3,5,-1,-1,-1,-1],"loss_changes":[7.070268E8,2.2621491E8,8.566995E8,0E0,0E0,0E0,0E0],"parents":[2147483647,0,0,1,1,2,2],"right_children":[2,4,6,-1,-1,-1,-1],"split_conditions":[-1.0742431E1,9.0596E4,6.5030668E4,-1.3462628E2,-5.8231177E2,-3.239815E1,2.5276242E2],"split_indices":[11,8,10,0,0,0,0],"split_type":[0,0,0,0,0,0,0],"sum_hessian":[7.8E1,1.9E1,5.9E1,1.8E1,1E0,3.8E1,2.1E1],"tree_param":{"num_deleted":"0","num_feature":"16","num_nodes":"7","size_leaf_vector":"1"}},{"base_weights":[1.7592526E2,-1.1071135E3,8.485227E3,-2.2076126E1,-4.7479178E2,5.7420074E2,1.4921243E2],"categories":[],"categories_nodes":[],"categories_segments":[],"categories_sizes":[],"default_left":[0,0,0,0,0,0,0],"id":72,"left_children":[1,3,5,-1,-1,-1,-1],"loss_changes":[8.573775E8,4.1069677E8,2.9585408E8,0E0,0E0,0E0,0E0],"parents":[2147483647,0,0,1,1,2,2],"right_children":[2,4,6,-1,-1,-1,-1],"split_conditions":[7.5670664E4,3.7E1,3E0,-2.2076126E1,-4.7479178E2,5.7420074E2,1.4921243E2],"split_indices":[10,4,1,0,0,0,0],"split_type":[0,0,0,0,0,0,0],"sum_hessian":[7.9E1,6.9E1,1E1,6.7E1,2E0,3E0,7E0],"tree_param":{"num_deleted":"0","num_feature":"16","num_nodes":"7","size_leaf_vector":"1"}},{"base_weights":[-5.338539E2,2.3886182E3,-2.968438E3,4.0136295E1,6.337387E2,-2.7172177E2,-3.7132942E1],"categories":[],"categories_nodes":[],"categories_segments":[],"categories_sizes":[],"default_left":[0,0,0,0,0,0,0],"id":73,"left_children":[1,3,5,-1,-1,-1,-1],"loss_changes":[5.585802E8,6.7665126E8,3.6986208E8,0E0,0E0,0E0,0E0],"parents":[2147483647,0,0,1,1,2,2],"right_children":[2,4,6,-1,-1,-1,-1],"split_conditions":[2.02E3,5.2537216E1,2.021E3,4.0136295E1,6.337387E2,-2.7172177E2,-3.7132942E1],"split_indices":[0,11,0,0,0,0,0],"split_type":[0,0,0,0,0,0,0],"sum_hessian":[7.7E1,3.5E1,4.2E1,3.3E1,2E0,1.2E1,3E1],"tree_param":{"num_deleted":"0","num_feature":"16","num_nodes":"7","size_leaf_vector":"1"}},{"base_weights":[-3.7273157E0,2.9072148E3,-2.4146394E3,4.9897E2,4.0001698E1,-2.6223407E2,-1.6477493E1],"categories":[],"categories_nodes":[],"categories_segments":[],"categories_sizes":[],"default_left":[0,0,0,0,0,0,0],"id":74,"left_children":[1,3,5,-1,-1,-1,-1],"loss_changes":[5.229136E8,6.489343E8,3.8174976E8,0E0,0E0,0E0,0E0],"parents":[2147483647,0,0,1,1,2,2],"right_children":[2,4,6,-1,-1,-1,-1],"split_conditions":[2.02E3,3E0,2.021E3,4.9897E2,4.0001698E1,-2.6223407E2,-1.6477493E1],"split_indices":[0,1,0,0,0,0,0],"split_type":[0,0,0,0,0,0,0],"sum_hessian":[7.3E1,3.3E1,4E1,4E0,2.9E1,1.1E1,2.9E1],"tree_param":{"num_deleted":"0","num_feature":"16","num_nodes":"7","size_leaf_vector":"1"}},{"base_weights":[-4.465466E2,-3.40116E3,1.136287E3,-1.8408412E2,-6.816888E1,8.001727E1,-2.4886679E2],"categories":[],"categories_nodes":[],"categories_segments":[],"categories_sizes":[],"default_left":[0,0,0,0,0,0,0],"id":75,"left_children":[1,3,5,-1,-1,-1,-1],"loss_changes":[3.9928954E8,6.847539E7,4.8707693E8,0E0,0E0,0E0,0E0],"parents":[2147483647,0,0,1,1,2,2],"right_children":[2,4,6,-1,-1,-1,-1],"split_conditions":[3.9933332E4,8.0663335E3,8.4317E4,-1.8408412E2,-6.816888E1,8.001727E1,-2.4886679E2],"split_indices":[10,10,9,0,0,0,0],"split_type":[0,0,0,0,0,0,0],"sum_hessian":[8.4E1,2.9E1,5.5E1,1.3E1,1.6E1,4.9E1,6E0],"tree_param":{"num_deleted":"0","num_feature":"16","num_nodes":"7","size_leaf_vector":"1"}},{"base_weights":[1.0033924E1,-2.4798547E3,3.8326667E3,-2.0467427E2,-4.840165E1,7.996567E1,5.6439557E2],"categories":[],"categories_nodes":[],"categories_segments":[],"categories_sizes":[],"default_left":[0,0,0,0,0,0,0],"id":76,"left_children":[1,3,5,-1,-1,-1,-1],"loss_changes":[7.662786E8,1.7085347E8,5.804471E8,0E0,0E0,0E0,0E0],"parents":[2147483647,0,0,1,1,2,2],"right_children":[2,4,6,-1,-1,-1,-1],"split_conditions":[6.1379668E4,8.0663335E3,3.26962E1,-2.0467427E2,-4.840165E1,7.996567E1,5.6439557E2],"split_indices":[10,10,11,0,0,0,0],"split_type":[0,0,0,0,0,0,0],"sum_hessian":[7.9E1,4.8E1,3.1E1,1.2E1,3.6E1,2.8E1,3E0],"tree_param":{"num_deleted":"0","num_feature":"16","num_nodes":"7","size_leaf_vector":"1"}},{"base_weights":[-8.164109E1,-4.7666196E3,1.5656062E3,-1.3074008E2,-4.444419E2,-3.2554638E1,2.346696E2],"categories":[],"categories_nodes":[],"categories_segments":[],"categories_sizes":[],"default_left":[0,0,0,0,0,0,0],"id":77,"left_children":[1,3,5,-1,-1,-1,-1],"loss_changes":[6.75152E8,1.6496477E8,7.853326E8,0E0,0E0,0E0,0E0],"parents":[2147483647,0,0,1,1,2,2],"right_children":[2,4,6,-1,-1,-1,-1],"split_conditions":[-1.0742431E1,3.3E1,6.5030668E4,-1.3074008E2,-4.444419E2,-3.2554638E1,2.346696E2],"split_indices":[11,4,10,0,0,0,0],"split_type":[0,0,0,0,0,0,0],"sum_hessian":[8.6E1,2.2E1,6.4E1,2E1,2E0,4.3E1,2.1E1],"tree_param":{"num_deleted":"0","num_feature":"16","num_nodes":"7","size_leaf_vector":"1"}},{"base_weights":[1.7537947E2,-5.9073755E2,1.050346E4,-2.1487677E2,1.6319122E1,7.173142E1,5.318225E2],"categories":[],"categories_nodes":[],"categories_segments":[],"categories_sizes":[],"default_left":[0,0,0,0,0,0,0],"id":78,"left_children":[1,3,5,-1,-1,-1,-1],"loss_changes":[6.594916E8,4.3292736E8,1.8154765E8,0E0,0E0,0E0,0E0],"parents":[2147483647,0,0,1,1,2,2],"right_children":[2,4,6,-1,-1,-1,-1],"split_conditions":[8.4914664E4,-1.8393656E1,9E0,-2.1487677E2,1.6319122E1,7.173142E1,5.318225E2],"split_indices":[10,11,4,0,0,0,0],"split_type":[0,0,0,0,0,0,0],"sum_hessian":[8.2E1,7.7E1,5E0,1.2E1,6.5E1,2E0,3E0],"tree_param":{"num_deleted":"0","num_feature":"16","num_nodes":"7","size_leaf_vector":"1"}},{"base_weights":[2.1564252E2,-8.335349E2,7.0525415E3,-5.3226196E2,-1.83313E1,1.4436896E2,5.813332E2],"categories":[],"categories_nodes":[],"categories_segments":[],"categories_sizes":[],"default_left":[0,0,0,0,0,0,0],"id":79,"left_children":[1,3,5,-1,-1,-1,-1],"loss_changes":[6.3391936E8,3.4316624E8,2.758857E8,0E0,0E0,0E0,0E0],"parents":[2147483647,0,0,1,1,2,2],"right_children":[2,4,6,-1,-1,-1,-1],"split_conditions":[7.5670664E4,-7.601881E1,1.5024823E1,-5.3226196E2,-1.83313E1,1.4436896E2,5.813332E2],"split_indices":[10,11,11,0,0,0,0],"split_type":[0,0,0,0,0,0,0],"sum_hessian":[8.7E1,7.6E1,1.1E1,1E0,7.5E1,9E0,2E0],"tree_param":{"num_deleted":"0","num_feature":"16","num_nodes":"7","size_leaf_vector":"1"}},{"base_weights":[-1.9162216E2,-7.349525E2,5.6601086E2,-1.8218608E2,2.421054E1],"categories":[],"categories_nodes":[],"categories_segments":[],"categories_sizes":[],"default_left":[0,0,0,0,0],"id":80,"left_children":[1,3,-1,-1,-1],"loss_changes":[7.096505E8,4.813742E8,0E0,0E0,0E0],"parents":[2147483647,0,0,1,1],"right_children":[2,4,-1,-1,-1],"split_conditions":[8.5782664E4,-1.3433348E1,5.6601086E2,-1.8218608E2,2.421054E1],"split_indices":[10,11,0,0,0],"split_type":[0,0,0,0,0],"sum_hessian":[8.1E1,7.9E1,2E0,1.9E1,6E1],"tree_param":{"num_deleted":"0","num_feature":"16","num_nodes":"5","size_leaf_vector":"1"}},{"base_weights":[1.10983154E2,-5.0654208E2,1.0451261E4,-1.6629445E2,2.9929438E1,-1.461997E1,4.8734042E2],"categories":[],"categories_nodes":[],"categories_segments":[],"categories_sizes":[],"default_left":[0,0,0,0,0,0,0],"id":81,"left_children":[1,3,5,-1,-1,-1,-1],"loss_changes":[5.388113E8,4.352654E8,1.5746016E8,0E0,0E0,0E0,0E0],"parents":[2147483647,0,0,1,1,2,2],"right_children":[2,4,6,-1,-1,-1,-1],"split_conditions":[8.4914664E4,-1.3433348E1,1E0,-1.6629445E2,2.9929438E1,-1.461997E1,4.8734042E2],"split_indices":[10,11,3,0,0,0,0],"split_type":[0,0,0,0,0,0,0],"sum_hessian":[8.3E1,7.9E1,4E0,1.9E1,6E1,1E0,3E0],"tree_param":{"num_deleted":"0","num_feature":"16","num_nodes":"7","size_leaf_vector":"1"}},{"base_weights":[-3.5097104E2,-9.535874E3,1.0778724E2,-5.1404126E2,-1.4441975E2,-5.393799E1,1.1780656E2],"categories":[],"categories_nodes":[],"categories_segments":[],"categories_sizes":[],"default_left":[0,0,0,0,0,0,0],"id":82,"left_children":[1,3,5,-1,-1,-1,-1],"loss_changes":[3.326285E8,5.3942144E7,3.8230538E8,0E0,0E0,0E0,0E0],"parents":[2147483647,0,0,1,1,2,2],"right_children":[2,4,6,-1,-1,-1,-1],"split_conditions":[-6.4995865E1,2E0,6.1379668E4,-5.1404126E2,-1.4441975E2,-5.393799E1,1.1780656E2],"split_indices":[11,1,10,0,0,0,0],"split_type":[0,0,0,0,0,0,0],"sum_hessian":[7.8E1,3E0,7.5E1,1E0,2E0,5E1,2.5E1],"tree_param":{"num_deleted":"0","num_feature":"16","num_nodes":"7","size_leaf_vector":"1"}},{"base_weights":[-3.0892575E2,-4.9548525E3,5.990411E2,-2.022295E2,-1.1842805E2,-7.75091E1,9.972974E1],"categories":[],"categories_nodes":[],"categories_segments":[],"categories_sizes":[],"default_left":[0,0,0,0,0,0,0],"id":83,"left_children":[1,3,5,-1,-1,-1,-1],"loss_changes":[3.8086157E8,1.644672E6,4.492605E8,0E0,0E0,0E0,0E0],"parents":[2147483647,0,0,1,1,2,2],"right_children":[2,4,6,-1,-1,-1,-1],"split_conditions":[8.0663335E3,4.447E3,-2.3179831E-2,-2.022295E2,-1.1842805E2,-7.75091E1,9.972974E1],"split_indices":[10,8,11,0,0,0,0],"split_type":[0,0,0,0,0,0,0],"sum_hessian":[8.9E1,1.4E1,7.5E1,9E0,5E0,3.3E1,4.2E1],"tree_param":{"num_deleted":"0","num_feature":"16","num_nodes":"7","size_leaf_vector":"1"}},{"base_weights":[-9.848815E1,-4.2239624E3,1.2272183E3,-1.1831418E2,-5.018033E2,-2.9186893E1,1.9135854E2],"categories":[],"categories_nodes":[],"categories_segments":[],"categories_sizes":[],"default_left":[0,0,0,0,0,0,0],"id":84,"left_children":[1,3,5,-1,-1,-1,-1],"loss_changes":[4.8933142E8,1.675081E8,5.596534E8,0E0,0E0,0E0,0E0],"parents":[2147483647,0,0,1,1,2,2],"right_children":[2,4,6,-1,-1,-1,-1],"split_conditions":[-1.3433348E1,9.0596E4,6.5030668E4,-1.1831418E2,-5.018033E2,-2.9186893E1,1.9135854E2],"split_indices":[11,8,10,0,0,0,0],"split_type":[0,0,0,0,0,0,0],"sum_hessian":[8.8E1,2.1E1,6.7E1,2E1,1E0,4.5E1,2.2E1],"tree_param":{"num_deleted":"0","num_feature":"16","num_nodes":"7","size_leaf_vector":"1"}},{"base_weights":[5.4947838E1,-4.4545135E2,1.0006194E4,-4.698551E0,-4.9142206E2,5.0325842E2,-1.2703593E1],"categories":[],"categories_nodes":[],"categories_segments":[],"categories_sizes":[],"default_left":[0,0,0,0,0,0,0],"id":85,"left_children":[1,3,5,-1,-1,-1,-1],"loss_changes":[3.9056013E8,3.079228E8,1.535878E8,0E0,0E0,0E0,0E0],"parents":[2147483647,0,0,1,1,2,2],"right_children":[2,4,6,-1,-1,-1,-1],"split_conditions":[8.5782664E4,1.07752E5,3E0,-4.698551E0,-4.9142206E2,5.0325842E2,-1.2703593E1],"split_indices":[10,8,1,0,0,0,0],"split_type":[0,0,0,0,0,0,0],"sum_hessian":[7.7E1,7.4E1,3E0,7.3E1,1E0,2E0,1E0],"tree_param":{"num_deleted":"0","num_feature":"16","num_nodes":"7","size_leaf_vector":"1"}},{"base_weights":[-9.8835434E1,2.0061204E3,-2.1539941E3,3.085646E1,5.026254E2,-2.1462561E2,-2.1547506E1],"categories":[],"categories_nodes":[],"categories_segments":[],"categories_sizes":[],"default_left":[0,0,0,0,0,0,0],"id":86,"left_children":[1,3,5,-1,-1,-1,-1],"loss_changes":[3.7423994E8,5.763064E8,2.5390862E8,0E0,0E0,0E0,0E0],"parents":[2147483647,0,0,1,1,2,2],"right_children":[2,4,6,-1,-1,-1,-1],"split_conditions":[2.02E3,5.2537216E1,2.021E3,3.085646E1,5.026254E2,-2.1462561E2,-2.1547506E1],"split_indices":[0,11,0,0,0,0,0],"split_type":[0,0,0,0,0,0,0],"sum_hessian":[8.5E1,4.2E1,4.3E1,3.9E1,3E0,1.2E1,3.1E1],"tree_param":{"num_deleted":"0","num_feature":"16","num_nodes":"7","size_leaf_vector":"1"}},{"base_weights":[1.6085225E2,-6.0391516E2,7.113854E3,-1.4566684E2,2.1330038E1,3.594764E2,-6.061906E1],"categories":[],"categories_nodes":[],"categories_segments":[],"categories_sizes":[],"default_left":[0,0,0,0,0,0,0],"id":87,"left_children":[1,3,5,-1,-1,-1,-1],"loss_changes":[4.6987882E8,3.256366E8,2.2682918E8,0E0,0E0,0E0,0E0],"parents":[2147483647,0,0,1,1,2,2],"right_children":[2,4,6,-1,-1,-1,-1],"split_conditions":[7.7068E4,-1.3433348E1,8.8082E4,-1.4566684E2,2.1330038E1,3.594764E2,-6.061906E1],"split_indices":[10,11,9,0,0,0,0],"split_type":[0,0,0,0,0,0,0],"sum_hessian":[8.7E1,7.9E1,8E0,2E1,5.9E1,6E0,2E0],"tree_param":{"num_deleted":"0","num_feature":"16","num_nodes":"7","size_leaf_vector":"1"}},{"base_weights":[-4.2805344E1,-5.4897485E2,1.0042597E4,-1.5260773E2,1.8159239E1,-1.1825167E1,5.0450018E2],"categories":[],"categories_nodes":[],"categories_segments":[],"categories_sizes":[],"default_left":[0,0,0,0,0,0,0],"id":88,"left_children":[1,3,5,-1,-1,-1,-1],"loss_changes":[4.0108858E8,2.8819472E8,1.5343411E8,0E0,0E0,0E0,0E0],"parents":[2147483647,0,0,1,1,2,2],"right_children":[2,4,6,-1,-1,-1,-1],"split_conditions":[8.5782664E4,-1.449231E1,1E0,-1.5260773E2,1.8159239E1,-1.1825167E1,5.0450018E2],"split_indices":[10,11,3,0,0,0,0],"split_type":[0,0,0,0,0,0,0],"sum_hessian":[7.7E1,7.4E1,3E0,1.6E1,5.8E1,1E0,2E0],"tree_param":{"num_deleted":"0","num_feature":"16","num_nodes":"7","size_leaf_vector":"1"}},{"base_weights":[2.7651422E2,-1.2962076E3,3.4828186E3,-1.403546E2,-1.2655526E1,4.789286E2,7.135112E1],"categories":[],"categories_nodes":[],"categories_segments":[],"categories_sizes":[],"default_left":[0,0,0,0,0,0,0],"id":89,"left_children":[1,3,5,-1,-1,-1,-1],"loss_changes":[4.408825E8,1.4205149E8,4.0407283E8,0E0,0E0,0E0,0E0],"parents":[2147483647,0,0,1,1,2,2],"right_children":[2,4,6,-1,-1,-1,-1],"split_conditions":[6.5030668E4,8.0663335E3,5.653E4,-1.403546E2,-1.2655526E1,4.789286E2,7.135112E1],"split_indices":[10,10,8,0,0,0,0],"split_type":[0,0,0,0,0,0,0],"sum_hessian":[8.6E1,5.8E1,2.8E1,1.5E1,4.3E1,3E0,2.5E1],"tree_param":{"num_deleted":"0","num_feature":"16","num_nodes":"7","size_leaf_vector":"1"}},{"base_weights":[-3.4900003E2,-2.1999338E3,1.4638987E3,-1.0833674E2,3.3508858E1,7.478382E1,-4.7212082E2],"categories":[],"categories_nodes":[],"categories_segments":[],"categories_sizes":[],"default_left":[0,0,0,0,0,0,0],"id":90,"left_children":[1,3,5,-1,-1,-1,-1],"loss_changes":[2.767652E8,1.0186501E8,3.8019315E8,0E0,0E0,0E0,0E0],"parents":[2147483647,0,0,1,1,2,2],"right_children":[2,4,6,-1,-1,-1,-1],"split_conditions":[5.175E4,1.1E1,3.7E1,-1.0833674E2,3.3508858E1,7.478382E1,-4.7212082E2],"split_indices":[8,1,4,0,0,0,0],"split_type":[0,0,0,0,0,0,0],"sum_hessian":[8.1E1,4E1,4.1E1,3.2E1,8E0,4E1,1E0],"tree_param":{"num_deleted":"0","num_feature":"16","num_nodes":"7","size_leaf_vector":"1"}},{"base_weights":[1.3015985E2,-3.8797894E2,9.01832E3,-1.321471E2,2.5764256E1,-1.4603647E1,4.214528E2],"categories":[],"categories_nodes":[],"categories_segments":[],"categories_sizes":[],"default_left":[0,0,0,0,0,0,0],"id":91,"left_children":[1,3,5,-1,-1,-1,-1],"loss_changes":[3.97575E8,2.937522E8,1.1954538E8,0E0,0E0,0E0,0E0],"parents":[2147483647,0,0,1,1,2,2],"right_children":[2,4,6,-1,-1,-1,-1],"split_conditions":[8.5782664E4,-1.3433348E1,1E0,-1.321471E2,2.5764256E1,-1.4603647E1,4.214528E2],"split_indices":[10,11,3,0,0,0,0],"split_type":[0,0,0,0,0,0,0],"sum_hessian":[8.5E1,8.1E1,4E0,2E1,6.1E1,1E0,3E0],"tree_param":{"num_deleted":"0","num_feature":"16","num_nodes":"7","size_leaf_vector":"1"}},{"base_weights":[1.4319591E1,-6.47738E2,5.590578E3,-1.2753215E1,-4.5961972E2,4.282961E2,2.9325775E1],"categories":[],"categories_nodes":[],"categories_segments":[],"categories_sizes":[],"default_left":[0,0,0,0,0,0,0],"id":92,"left_children":[1,3,5,-1,-1,-1,-1],"loss_changes":[3.045607E8,2.5928525E8,2.526703E8,0E0,0E0,0E0,0E0],"parents":[2147483647,0,0,1,1,2,2],"right_children":[2,4,6,-1,-1,-1,-1],"split_conditions":[7.7321336E4,9.0596E4,3E0,-1.2753215E1,-4.5961972E2,4.282961E2,2.9325775E1],"split_indices":[10,8,1,0,0,0,0],"split_type":[0,0,0,0,0,0,0],"sum_hessian":[8.1E1,7.3E1,8E0,7.2E1,1E0,3E0,5E0],"tree_param":{"num_deleted":"0","num_feature":"16","num_nodes":"7","size_leaf_vector":"1"}},{"base_weights":[2.1577114E1,-9.062484E2,5.3681875E3,-2.156192E1,-4.5011115E2,3.783784E2,6.3422558E1],"categories":[],"categories_nodes":[],"categories_segments":[],"categories_sizes":[],"default_left":[0,0,0,0,0,0,0],"id":93,"left_children":[1,3,5,-1,-1,-1,-1],"loss_changes":[3.943574E8,2.3763478E8,2.0137142E8,0E0,0E0,0E0,0E0],"parents":[2147483647,0,0,1,1,2,2],"right_children":[2,4,6,-1,-1,-1,-1],"split_conditions":[7.5670664E4,9.0596E4,7.2422E4,-2.156192E1,-4.5011115E2,3.783784E2,6.3422558E1],"split_indices":[10,8,9,0,0,0,0],"split_type":[0,0,0,0,0,0,0],"sum_hessian":[7.8E1,6.7E1,1.1E1,6.6E1,1E0,4E0,7E0],"tree_param":{"num_deleted":"0","num_feature":"16","num_nodes":"7","size_leaf_vector":"1"}},{"base_weights":[1.2445098E2,-3.566776E2,8.377179E3,6.3951907E0,-2.2845357E2,6.591607E1,4.5901865E2],"categories":[],"categories_nodes":[],"categories_segments":[],"categories_sizes":[],"default_left":[0,0,0,0,0,0,0],"id":94,"left_children":[1,3,5,-1,-1,-1,-1],"loss_changes":[3.427621E8,2.5940501E8,1.1575229E8,0E0,0E0,0E0,0E0],"parents":[2147483647,0,0,1,1,2,2],"right_children":[2,4,6,-1,-1,-1,-1],"split_conditions":[8.4914664E4,8.1452E4,2.4E1,6.3951907E0,-2.2845357E2,6.591607E1,4.5901865E2],"split_indices":[10,9,6,0,0,0,0],"split_type":[0,0,0,0,0,0,0],"sum_hessian":[8.5E1,8.1E1,4E0,7.5E1,6E0,2E0,2E0],"tree_param":{"num_deleted":"0","num_feature":"16","num_nodes":"7","size_leaf_vector":"1"}},{"base_weights":[-2.050146E2,-9.34198E3,1.04765465E2,-4.3607312E2,-9.6352234E1,-8.817915E1,5.037722E1],"categories":[],"categories_nodes":[],"categories_segments":[],"categories_sizes":[],"default_left":[0,0,0,0,0,0,0],"id":95,"left_children":[1,3,5,-1,-1,-1,-1],"loss_changes":[2.3780966E8,2.5101264E7,2.6824427E8,0E0,0E0,0E0,0E0],"parents":[2147483647,0,0,1,1,2,2],"right_children":[2,4,6,-1,-1,-1,-1],"split_conditions":[-7.601881E1,2E0,3.4808E4,-4.3607312E2,-9.6352234E1,-8.817915E1,5.037722E1],"split_indices":[11,1,8,0,0,0,0],"split_type":[0,0,0,0,0,0,0],"sum_hessian":[8.3E1,2E0,8.1E1,1E0,1E0,2.7E1,5.4E1],"tree_param":{"num_deleted":"0","num_feature":"16","num_nodes":"7","size_leaf_vector":"1"}},{"base_weights":[2.2907074E2,-2.3412486E2,1.0514849E4,-1.19731575E2,2.5532091E1,5.26858E2,1.8469987E2],"categories":[],"categories_nodes":[],"categories_segments":[],"categories_sizes":[],"default_left":[0,0,0,0,0,0,0],"id":96,"left_children":[1,3,5,-1,-1,-1,-1],"loss_changes":[4.1519485E8,2.4227866E8,2.5704288E7,0E0,0E0,0E0,0E0],"parents":[2147483647,0,0,1,1,2,2],"right_children":[2,4,6,-1,-1,-1,-1],"split_conditions":[8.5782664E4,-1.0742431E1,2E0,-1.19731575E2,2.5532091E1,5.26858E2,1.8469987E2],"split_indices":[10,11,1,0,0,0,0],"split_type":[0,0,0,0,0,0,0],"sum_hessian":[8.6E1,8.3E1,3E0,1.9E1,6.4E1,1E0,2E0],"tree_param":{"num_deleted":"0","num_feature":"16","num_nodes":"7","size_leaf_vector":"1"}},{"base_weights":[2.3093582E1,2.083546E3,-1.8535785E3,3.794068E1,4.395468E2,-1.8543596E2,-1.9740936E1],"categories":[],"categories_nodes":[],"categories_segments":[],"categories_sizes":[],"default_left":[0,0,0,0,0,0,0],"id":97,"left_children":[1,3,5,-1,-1,-1,-1],"loss_changes":[3.3064573E8,4.1466816E8,1.8865267E8,0E0,0E0,0E0,0E0],"parents":[2147483647,0,0,1,1,2,2],"right_children":[2,4,6,-1,-1,-1,-1],"split_conditions":[2.02E3,5.2537216E1,2.021E3,3.794068E1,4.395468E2,-1.8543596E2,-1.9740936E1],"split_indices":[0,11,0,0,0,0,0],"split_type":[0,0,0,0,0,0,0],"sum_hessian":[8.4E1,4E1,4.4E1,3.7E1,3E0,1.2E1,3.2E1],"tree_param":{"num_deleted":"0","num_feature":"16","num_nodes":"7","size_leaf_vector":"1"}},{"base_weights":[6.622954E1,-5.700485E2,6.029263E3,-1.0694219E1,-4.2073837E2,3.247833E2,-6.2258606E1],"categories":[],"categories_nodes":[],"categories_segments":[],"categories_sizes":[],"default_left":[0,0,0,0,0,0,0],"id":98,"left_children":[1,3,5,-1,-1,-1,-1],"loss_changes":[3.0520074E8,2.1826437E8,1.8672736E8,0E0,0E0,0E0,0E0],"parents":[2147483647,0,0,1,1,2,2],"right_children":[2,4,6,-1,-1,-1,-1],"split_conditions":[7.7321336E4,8.2345E4,8.8082E4,-1.0694219E1,-4.2073837E2,3.247833E2,-6.2258606E1],"split_indices":[10,8,9,0,0,0,0],"split_type":[0,0,0,0,0,0,0],"sum_hessian":[7.9E1,7.2E1,7E0,7.1E1,1E0,5E0,2E0],"tree_param":{"num_deleted":"0","num_feature":"16","num_nodes":"7","size_leaf_vector":"1"}},{"base_weights":[-3.9395874E2,-8.770577E3,-1.18159096E2,-4.1203418E2,-8.7824394E1,-1.3211086E2,1.816302E1],"categories":[],"categories_nodes":[],"categories_segments":[],"categories_sizes":[],"default_left":[0,0,0,0,0,0,0],"id":99,"left_children":[1,3,5,-1,-1,-1,-1],"loss_changes":[1.9963858E8,2.4379376E7,1.8590914E8,0E0,0E0,0E0,0E0],"parents":[2147483647,0,0,1,1,2,2],"right_children":[2,4,6,-1,-1,-1,-1],"split_conditions":[-7.601881E1,2E0,6.9983335E3,-4.1203418E2,-8.7824394E1,-1.3211086E2,1.816302E1],"split_indices":[11,1,10,0,0,0,0],"split_type":[0,0,0,0,0,0,0],"sum_hessian":[8.6E1,2E0,8.4E1,1E0,1E0,1.2E1,7.2E1],"tree_param":{"num_deleted":"0","num_feature":"16","num_nodes":"7","size_leaf_vector":"1"}},{"base_weights":[4.322065E2,-2.5908706E3,1.6385223E3,-5.5825783E1,-1.6259186E2,1.3254794E1,2.812193E2],"categories":[],"categories_nodes":[],"categories_segments":[],"categories_sizes":[],"default_left":[0,0,0,0,0,0,0],"id":100,"left_children":[1,3,5,-1,-1,-1,-1],"loss_changes":[2.9040672E8,4.003264E7,4.392512E8,0E0,0E0,0E0,0E0],"parents":[2147483647,0,0,1,1,2,2],"right_children":[2,4,6,-1,-1,-1,-1],"split_conditions":[2.9633E4,1E0,2.2331465E1,-5.5825783E1,-1.6259186E2,1.3254794E1,2.812193E2],"split_indices":[8,15,11,0,0,0,0],"split_type":[0,0,0,0,0,0,0],"sum_hessian":[7.8E1,2.2E1,5.6E1,1.5E1,7E0,4.7E1,9E0],"tree_param":{"num_deleted":"0","num_feature":"16","num_nodes":"7","size_leaf_vector":"1"}},{"base_weights":[3.679413E2,-1.1042767E3,2.9321438E3,-1.638663E2,-1.5746809E1,2.3799612E2,2.1880059E-2],"categories":[],"categories_nodes":[],"categories_segments":[],"categories_sizes":[],"default_left":[0,0,0,0,0,0,0],"id":101,"left_children":[1,3,5,-1,-1,-1,-1],"loss_changes":[3.1862624E8,1.2140392E8,3.2664538E8,0E0,0E0,0E0,0E0],"parents":[2147483647,0,0,1,1,2,2],"right_children":[2,4,6,-1,-1,-1,-1],"split_conditions":[6.5030668E4,5.418E3,7.2422E4,-1.638663E2,-1.5746809E1,2.3799612E2,2.1880059E-2],"split_indices":[10,8,9,0,0,0,0],"split_type":[0,0,0,0,0,0,0],"sum_hessian":[8.3E1,5.3E1,3E1,8E0,4.5E1,1.3E1,1.7E1],"tree_param":{"num_deleted":"0","num_feature":"16","num_nodes":"7","size_leaf_vector":"1"}},{"base_weights":[-2.1719574E2,2.9779883E2,-5.226908E3,-4.7018764E1,1.1805311E2,-4.0378476E2,-1.1295554E2],"categories":[],"categories_nodes":[],"categories_segments":[],"categories_sizes":[],"default_left":[0,0,0,0,0,0,0],"id":102,"left_children":[1,3,5,-1,-1,-1,-1],"loss_changes":[2.1468432E8,3.59602E8,7.058394E7,0E0,0E0,0E0,0E0],"parents":[2147483647,0,0,1,1,2,2],"right_children":[2,4,6,-1,-1,-1,-1],"split_conditions":[8.8082E4,6.1379668E4,2E0,-4.7018764E1,1.1805311E2,-4.0378476E2,-1.1295554E2],"split_indices":[9,10,1,0,0,0,0],"split_type":[0,0,0,0,0,0,0],"sum_hessian":[8.2E1,7.5E1,7E0,4.9E1,2.6E1,1E0,6E0],"tree_param":{"num_deleted":"0","num_feature":"16","num_nodes":"7","size_leaf_vector":"1"}},{"base_weights":[2.7051276E2,-1.295732E2,7.9682534E3,-7.190158E1,2.9486864E1,-2.0257906E1,4.0722308E2],"categories":[],"categories_nodes":[],"categories_segments":[],"categories_sizes":[],"default_left":[0,0,0,0,0,0,0],"id":103,"left_children":[1,3,5,-1,-1,-1,-1],"loss_changes":[2.3409195E8,1.2802733E8,1.0871984E8,0E0,0E0,0E0,0E0],"parents":[2147483647,0,0,1,1,2,2],"right_children":[2,4,6,-1,-1,-1,-1],"split_conditions":[8.5782664E4,3.9165668E4,1E0,-7.190158E1,2.9486864E1,-2.0257906E1,4.0722308E2],"split_indices":[10,10,3,0,0,0,0],"split_type":[0,0,0,0,0,0,0],"sum_hessian":[7.5E1,7.2E1,3E0,2.4E1,4.8E1,1E0,2E0],"tree_param":{"num_deleted":"0","num_feature":"16","num_nodes":"7","size_leaf_vector":"1"}},{"base_weights":[3.4688175E0,-7.507334E2,4.350487E3,-1.033737E1,-2.4977621E2,3.2322232E2,4.123416E1],"categories":[],"categories_nodes":[],"categories_segments":[],"categories_sizes":[],"default_left":[0,0,0,0,0,0,0],"id":104,"left_children":[1,3,5,-1,-1,-1,-1],"loss_changes":[2.6066885E8,1.9203317E8,1.6438174E8,0E0,0E0,0E0,0E0],"parents":[2147483647,0,0,1,1,2,2],"right_children":[2,4,6,-1,-1,-1,-1],"split_conditions":[7.5670664E4,8.2345E4,7.2422E4,-1.033737E1,-2.4977621E2,3.2322232E2,4.123416E1],"split_indices":[10,9,9,0,0,0,0],"split_type":[0,0,0,0,0,0,0],"sum_hessian":[7.8E1,6.7E1,1.1E1,6.3E1,4E0,4E0,7E0],"tree_param":{"num_deleted":"0","num_feature":"16","num_nodes":"7","size_leaf_vector":"1"}},{"base_weights":[3.2201413E2,-1.3544907E3,2.0328647E3,-1.5420625E2,-2.5357618E1,4.1527634E2,4.8740448E1],"categories":[],"categories_nodes":[],"categories_segments":[],"categories_sizes":[],"default_left":[0,0,0,0,0,0,0],"id":105,"left_children":[1,3,5,-1,-1,-1,-1],"loss_changes":[2.4230936E8,7.8900904E7,2.5952504E8,0E0,0E0,0E0,0E0],"parents":[2147483647,0,0,1,1,2,2],"right_children":[2,4,6,-1,-1,-1,-1],"split_conditions":[5.2341E4,2.826E3,2E0,-1.5420625E2,-2.5357618E1,4.1527634E2,4.8740448E1],"split_indices":[8,8,1,0,0,0,0],"split_type":[0,0,0,0,0,0,0],"sum_hessian":[8.3E1,4.2E1,4.1E1,7E0,3.5E1,2E0,3.9E1],"tree_param":{"num_deleted":"0","num_feature":"16","num_nodes":"7","size_leaf_vector":"1"}},{"base_weights":[-3.098376E2,-6.3950397E2,9.557841E3,-1.4824162E1,-3.9946518E2,4.628839E2,8.18443E1],"categories":[],"categories_nodes":[],"categories_segments":[],"categories_sizes":[],"default_left":[0,0,0,0,0,0,0],"id":106,"left_children":[1,3,5,-1,-1,-1,-1],"loss_changes":[2.7706666E8,1.9247864E8,4.250829E7,0E0,0E0,0E0,0E0],"parents":[2147483647,0,0,1,1,2,2],"right_children":[2,4,6,-1,-1,-1,-1],"split_conditions":[8.5782664E4,9.0596E4,2E0,-1.4824162E1,-3.9946518E2,4.628839E2,8.18443E1],"split_indices":[10,8,1,0,0,0,0],"split_type":[0,0,0,0,0,0,0],"sum_hessian":[8.3E1,8.1E1,2E0,8E1,1E0,1E0,1E0],"tree_param":{"num_deleted":"0","num_feature":"16","num_nodes":"7","size_leaf_vector":"1"}},{"base_weights":[1.3731438E2,-2.1258362E3,1.595821E3,-5.537876E1,-2.9941678E2,-1.38720455E1,1.9199968E2],"categories":[],"categories_nodes":[],"categories_segments":[],"categories_sizes":[],"default_left":[0,0,0,0,0,0,0],"id":107,"left_children":[1,3,5,-1,-1,-1,-1],"loss_changes":[2.7572006E8,1.1089862E8,3.7221178E8,0E0,0E0,0E0,0E0],"parents":[2147483647,0,0,1,1,2,2],"right_children":[2,4,6,-1,-1,-1,-1],"split_conditions":[-2.3179831E-2,3.3E1,5.9910332E4,-5.537876E1,-2.9941678E2,-1.38720455E1,1.9199968E2],"split_indices":[11,4,10,0,0,0,0],"split_type":[0,0,0,0,0,0,0],"sum_hessian":[8.2E1,3.2E1,5E1,3E1,2E0,3.3E1,1.7E1],"tree_param":{"num_deleted":"0","num_feature":"16","num_nodes":"7","size_leaf_vector":"1"}},{"base_weights":[-1.4860893E2,-7.230148E2,7.0326655E3,-1.707127E1,-3.8500677E2,4.028952E1,3.6176108E2],"categories":[],"categories_nodes":[],"categories_segments":[],"categories_sizes":[],"default_left":[0,0,0,0,0,0,0],"id":108,"left_children":[1,3,5,-1,-1,-1,-1],"loss_changes":[3.204459E8,1.7548293E8,9.156643E7,0E0,0E0,0E0,0E0],"parents":[2147483647,0,0,1,1,2,2],"right_children":[2,4,6,-1,-1,-1,-1],"split_conditions":[7.7321336E4,9.0596E4,-1E0,-1.707127E1,-3.8500677E2,4.028952E1,3.6176108E2],"split_indices":[10,8,13,0,0,0,0],"split_type":[0,0,0,0,0,0,0],"sum_hessian":[7.6E1,7.1E1,5E0,7E1,1E0,2E0,3E0],"tree_param":{"num_deleted":"0","num_feature":"16","num_nodes":"7","size_leaf_vector":"1"}},{"base_weights":[3.911371E1,-1.9256382E3,1.4226396E3,-2.8622617E2,-5.069393E1,-1.5327717E1,1.5734279E2],"categories":[],"categories_nodes":[],"categories_segments":[],"categories_sizes":[],"default_left":[0,0,0,0,0,0,0],"id":109,"left_children":[1,3,5,-1,-1,-1,-1],"loss_changes":[2.3517427E8,1.0445101E8,2.73961E8,0E0,0E0,0E0,0E0],"parents":[2147483647,0,0,1,1,2,2],"right_children":[2,4,6,-1,-1,-1,-1],"split_conditions":[-2.3179831E-2,-7.601881E1,5.9910332E4,-2.8622617E2,-5.069393E1,-1.5327717E1,1.5734279E2],"split_indices":[11,11,10,0,0,0,0],"split_type":[0,0,0,0,0,0,0],"sum_hessian":[8.5E1,3.5E1,5E1,2E0,3.3E1,3.1E1,1.9E1],"tree_param":{"num_deleted":"0","num_feature":"16","num_nodes":"7","size_leaf_vector":"1"}},{"base_weights":[-2.006241E1,-6.778161E2,4.43084E3,-9.977183E0,-2.3226837E2,4.3859665E2,9.845082E1],"categories":[],"categories_nodes":[],"categories_segments":[],"categories_sizes":[],"default_left":[0,0,0,0,0,0,0],"id":110,"left_children":[1,3,5,-1,-1,-1,-1],"loss_changes":[2.4453792E8,1.663736E8,1.1669667E8,0E0,0E0,0E0,0E0],"parents":[2147483647,0,0,1,1,2,2],"right_children":[2,4,6,-1,-1,-1,-1],"split_conditions":[7.4848E4,8.2345E4,2E0,-9.977183E0,-2.3226837E2,4.3859665E2,9.845082E1],"split_indices":[10,9,1,0,0,0,0],"split_type":[0,0,0,0,0,0,0],"sum_hessian":[8.2E1,7.2E1,1E1,6.8E1,4E0,1E0,9E0],"tree_param":{"num_deleted":"0","num_feature":"16","num_nodes":"7","size_leaf_vector":"1"}},{"base_weights":[-5.1778587E1,-4.0663168E2,8.0624995E3,4.7174308E-1,-1.9299594E2,4.2952307E2,1.25349464E2],"categories":[],"categories_nodes":[],"categories_segments":[],"categories_sizes":[],"default_left":[0,0,0,0,0,0,0],"id":111,"left_children":[1,3,5,-1,-1,-1,-1],"loss_changes":[2.5802869E8,1.7671014E8,3.437736E7,0E0,0E0,0E0,0E0],"parents":[2147483647,0,0,1,1,2,2],"right_children":[2,4,6,-1,-1,-1,-1],"split_conditions":[8.5782664E4,8.4317E4,2E0,4.7174308E-1,-1.9299594E2,4.2952307E2,1.25349464E2],"split_indices":[10,9,3,0,0,0,0],"split_type":[0,0,0,0,0,0,0],"sum_hessian":[8.8E1,8.5E1,3E0,7.9E1,6E0,1E0,2E0],"tree_param":{"num_deleted":"0","num_feature":"16","num_nodes":"7","size_leaf_vector":"1"}},{"base_weights":[-9.591927E1,-2.7497883E3,7.0248114E2,-6.8726616E1,-2.729524E2,2.4559872E2,4.3390164E0],"categories":[],"categories_nodes":[],"categories_segments":[],"categories_sizes":[],"default_left":[0,0,0,0,0,0,0],"id":112,"left_children":[1,3,5,-1,-1,-1,-1],"loss_changes":[1.8104283E8,6.995928E7,2.3176528E8,0E0,0E0,0E0,0E0],"parents":[2147483647,0,0,1,1,2,2],"right_children":[2,4,6,-1,-1,-1,-1],"split_conditions":[-1.3433348E1,3.3E1,2E0,-6.8726616E1,-2.729524E2,2.4559872E2,4.3390164E0],"split_indices":[11,4,1,0,0,0,0],"split_type":[0,0,0,0,0,0,0],"sum_hessian":[8.4E1,1.9E1,6.5E1,1.7E1,2E0,5E0,6E1],"tree_param":{"num_deleted":"0","num_feature":"16","num_nodes":"7","size_leaf_vector":"1"}},{"base_weights":[1.5084882E2,-1.8527776E3,1.5481522E3,-5.0715836E1,-3.5667566E2,-4.535727E1,1.2562733E2],"categories":[],"categories_nodes":[],"categories_segments":[],"categories_sizes":[],"default_left":[0,0,0,0,0,0,0],"id":113,"left_children":[1,3,5,-1,-1,-1,-1],"loss_changes":[2.3665189E8,1.1593319E8,2.6939565E8,0E0,0E0,0E0,0E0],"parents":[2147483647,0,0,1,1,2,2],"right_children":[2,4,6,-1,-1,-1,-1],"split_conditions":[-2.3179831E-2,9.0596E4,3.7466E4,-5.0715836E1,-3.5667566E2,-4.535727E1,1.2562733E2],"split_indices":[11,8,8,0,0,0,0],"split_type":[0,0,0,0,0,0,0],"sum_hessian":[8.3E1,3.4E1,4.9E1,3.3E1,1E0,2E1,2.9E1],"tree_param":{"num_deleted":"0","num_feature":"16","num_nodes":"7","size_leaf_vector":"1"}},{"base_weights":[-3.2522345E2,1.1390101E2,-4.583276E3,-2.900888E1,7.76116E1,-3.4929678E2,-1.002843E2],"categories":[],"categories_nodes":[],"categories_segments":[],"categories_sizes":[],"default_left":[0,0,0,0,0,0,0],"id":114,"left_children":[1,3,5,-1,-1,-1,-1],"loss_changes":[1.5513373E8,1.4124867E8,5.107192E7,0E0,0E0,0E0,0E0],"parents":[2147483647,0,0,1,1,2,2],"right_children":[2,4,6,-1,-1,-1,-1],"split_conditions":[8.8082E4,6.1379668E4,2E0,-2.900888E1,7.76116E1,-3.4929678E2,-1.002843E2],"split_indices":[9,10,1,0,0,0,0],"split_type":[0,0,0,0,0,0,0],"sum_hessian":[8.2E1,7.5E1,7E0,5.2E1,2.3E1,1E0,6E0],"tree_param":{"num_deleted":"0","num_feature":"16","num_nodes":"7","size_leaf_vector":"1"}},{"base_weights":[-6.067559E1,-1.6859379E3,1.5267429E3,-4.6212784E1,-2.5540378E2,-4.8112103E1,1.4348438E2],"categories":[],"categories_nodes":[],"categories_segments":[],"categories_sizes":[],"default_left":[0,0,0,0,0,0,0],"id":115,"left_children":[1,3,5,-1,-1,-1,-1],"loss_changes":[2.1286883E8,8.328129E7,2.927629E8,0E0,0E0,0E0,0E0],"parents":[2147483647,0,0,1,1,2,2],"right_children":[2,4,6,-1,-1,-1,-1],"split_conditions":[2.3948023E0,3.3E1,4.1163332E4,-4.6212784E1,-2.5540378E2,-4.8112103E1,1.4348438E2],"split_indices":[11,4,10,0,0,0,0],"split_type":[0,0,0,0,0,0,0],"sum_hessian":[8.1E1,4E1,4.1E1,3.8E1,2E0,1.9E1,2.2E1],"tree_param":{"num_deleted":"0","num_feature":"16","num_nodes":"7","size_leaf_vector":"1"}},{"base_weights":[6.922615E1,-4.0636575E2,4.8310903E3,-7.2451286E0,-3.3678683E2,3.0782376E2,4.2971127E1],"categories":[],"categories_nodes":[],"categories_segments":[],"categories_sizes":[],"default_left":[0,0,0,0,0,0,0],"id":116,"left_children":[1,3,5,-1,-1,-1,-1],"loss_changes":[1.9343018E8,1.4122821E8,9.558902E7,0E0,0E0,0E0,0E0],"parents":[2147483647,0,0,1,1,2,2],"right_children":[2,4,6,-1,-1,-1,-1],"split_conditions":[7.7972336E4,9.0596E4,3E0,-7.2451286E0,-3.3678683E2,3.0782376E2,4.2971127E1],"split_indices":[10,8,1,0,0,0,0],"split_type":[0,0,0,0,0,0,0],"sum_hessian":[8.4E1,7.7E1,7E0,7.6E1,1E0,3E0,4E0],"tree_param":{"num_deleted":"0","num_feature":"16","num_nodes":"7","size_leaf_vector":"1"}},{"base_weights":[5.357819E1,-4.0813303E2,5.362357E3,-7.4694333E0,-3.298195E2,4.0201514E2,1.0591976E2],"categories":[],"categories_nodes":[],"categories_segments":[],"categories_sizes":[],"default_left":[0,0,0,0,0,0,0],"id":117,"left_children":[1,3,5,-1,-1,-1,-1],"loss_changes":[2.0694946E8,1.3512493E8,6.991462E7,0E0,0E0,0E0,0E0],"parents":[2147483647,0,0,1,1,2,2],"right_children":[2,4,6,-1,-1,-1,-1],"split_conditions":[7.7972336E4,9.0596E4,2E0,-7.4694333E0,-3.298195E2,4.0201514E2,1.0591976E2],"split_indices":[10,8,1,0,0,0,0],"split_type":[0,0,0,0,0,0,0],"sum_hessian":[8.3E1,7.7E1,6E0,7.6E1,1E0,1E0,5E0],"tree_param":{"num_deleted":"0","num_feature":"16","num_nodes":"7","size_leaf_vector":"1"}},{"base_weights":[3.6343213E2,-2.741933E3,9.632559E2,-1.2802167E2,4.9205734E1,-1.5618647E1,1.2382573E2],"categories":[],"categories_nodes":[],"categories_segments":[],"categories_sizes":[],"default_left":[0,0,0,0,0,0,0],"id":118,"left_children":[1,3,5,-1,-1,-1,-1],"loss_changes":[1.5800077E8,4.78052E7,2.4239837E8,0E0,0E0,0E0,0E0],"parents":[2147483647,0,0,1,1,2,2],"right_children":[2,4,6,-1,-1,-1,-1],"split_conditions":[7.671E3,1.6E1,6.8757796E0,-1.2802167E2,4.9205734E1,-1.5618647E1,1.2382573E2],"split_indices":[10,4,11,0,0,0,0],"split_type":[0,0,0,0,0,0,0],"sum_hessian":[8.3E1,1.3E1,7E1,1.1E1,2E0,4.5E1,2.5E1],"tree_param":{"num_deleted":"0","num_feature":"16","num_nodes":"7","size_leaf_vector":"1"}},{"base_weights":[-6.71683E1,-1.2706527E3,1.3680941E3,-3.5463783E1,-3.226731E2,1.7190047E2,1.2122967E1],"categories":[],"categories_nodes":[],"categories_segments":[],"categories_sizes":[],"default_left":[0,0,0,0,0,0,0],"id":119,"left_children":[1,3,5,-1,-1,-1,-1],"loss_changes":[1.580748E8,1.0480565E8,1.4418157E8,0E0,0E0,0E0,0E0],"parents":[2147483647,0,0,1,1,2,2],"right_children":[2,4,6,-1,-1,-1,-1],"split_conditions":[3.7E0,9.0596E4,3E0,-3.5463783E1,-3.226731E2,1.7190047E2,1.2122967E1],"split_indices":[13,8,1,0,0,0,0],"split_type":[0,0,0,0,0,0,0],"sum_hessian":[9E1,4.9E1,4.1E1,4.8E1,1E0,9E0,3.2E1],"tree_param":{"num_deleted":"0","num_feature":"16","num_nodes":"7","size_leaf_vector":"1"}},{"base_weights":[2.2830473E1,-2.162435E3,8.9854364E2,-2.345619E2,-5.701111E1,-2.3805439E1,1.0711343E2],"categories":[],"categories_nodes":[],"categories_segments":[],"categories_sizes":[],"default_left":[0,0,0,0,0,0,0],"id":120,"left_children":[1,3,5,-1,-1,-1,-1],"loss_changes":[1.6557235E8,5.534185E7,1.9838792E8,0E0,0E0,0E0,0E0],"parents":[2147483647,0,0,1,1,2,2],"right_children":[2,4,6,-1,-1,-1,-1],"split_conditions":[-1.0742431E1,-7.601881E1,5.8821668E4,-2.345619E2,-5.701111E1,-2.3805439E1,1.0711343E2],"split_indices":[11,11,10,0,0,0,0],"split_type":[0,0,0,0,0,0,0],"sum_hessian":[8.5E1,2.4E1,6.1E1,2E0,2.2E1,3.5E1,2.6E1],"tree_param":{"num_deleted":"0","num_feature":"16","num_nodes":"7","size_leaf_vector":"1"}},{"base_weights":[1.7669463E2,2.9051692E3,-6.099086E2,2.1149136E2,3.777871E1,-6.2075443E0,-1.7639449E2],"categories":[],"categories_nodes":[],"categories_segments":[],"categories_sizes":[],"default_left":[0,0,0,0,0,0,0],"id":121,"left_children":[1,3,5,-1,-1,-1,-1],"loss_changes":[1.7036534E8,9.208938E7,1.1453239E8,0E0,0E0,0E0,0E0],"parents":[2147483647,0,0,1,1,2,2],"right_children":[2,4,6,-1,-1,-1,-1],"split_conditions":[3.1E1,2.02E3,8.8082E4,2.1149136E2,3.777871E1,-6.2075443E0,-1.7639449E2],"split_indices":[5,0,9,0,0,0,0],"split_type":[0,0,0,0,0,0,0],"sum_hessian":[7.8E1,1.7E1,6.1E1,6E0,1.1E1,5.6E1,5E0],"tree_param":{"num_deleted":"0","num_feature":"16","num_nodes":"7","size_leaf_vector":"1"}},{"base_weights":[1.1766268E2,-1.4944448E3,1.1883121E3,-3.1540415E1,-1.6854015E2,-5.5704967E1,1.0780218E2],"categories":[],"categories_nodes":[],"categories_segments":[],"categories_sizes":[],"default_left":[0,0,0,0,0,0,0],"id":122,"left_children":[1,3,5,-1,-1,-1,-1],"loss_changes":[1.5453171E8,6.737365E7,2.640846E8,0E0,0E0,0E0,0E0],"parents":[2147483647,0,0,1,1,2,2],"right_children":[2,4,6,-1,-1,-1,-1],"split_conditions":[-1.4564846E0,7.9877E4,3.7466E4,-3.1540415E1,-1.6854015E2,-5.5704967E1,1.0780218E2],"split_indices":[11,9,8,0,0,0,0],"split_type":[0,0,0,0,0,0,0],"sum_hessian":[8.8E1,3.5E1,5.3E1,3E1,5E0,2.1E1,3.2E1],"tree_param":{"num_deleted":"0","num_feature":"16","num_nodes":"7","size_leaf_vector":"1"}},{"base_weights":[-2.6778708E1,-3.5918085E2,5.2031733E3,-5.983301E0,-3.0400916E2,3.787587E2,6.2190056E1],"categories":[],"categories_nodes":[],"categories_segments":[],"categories_sizes":[],"default_left":[0,0,0,0,0,0,0],"id":123,"left_children":[1,3,5,-1,-1,-1,-1],"loss_changes":[1.3831885E8,1.1540657E8,7.328273E7,0E0,0E0,0E0,0E0],"parents":[2147483647,0,0,1,1,2,2],"right_children":[2,4,6,-1,-1,-1,-1],"split_conditions":[8.5782664E4,1.07752E5,2E0,-5.983301E0,-3.0400916E2,3.787587E2,6.2190056E1],"split_indices":[10,8,1,0,0,0,0],"split_type":[0,0,0,0,0,0,0],"sum_hessian":[7.8E1,7.4E1,4E0,7.3E1,1E0,1E0,3E0],"tree_param":{"num_deleted":"0","num_feature":"16","num_nodes":"7","size_leaf_vector":"1"}},{"base_weights":[-1.5131879E2,2.0204483E2,-3.9404482E3,-3.2640705E1,9.083403E1,-7.712947E1,-2.9771988E2],"categories":[],"categories_nodes":[],"categories_segments":[],"categories_sizes":[],"default_left":[0,0,0,0,0,0,0],"id":124,"left_children":[1,3,5,-1,-1,-1,-1],"loss_changes":[1.060519E8,1.8593576E8,3.9096584E7,0E0,0E0,0E0,0E0],"parents":[2147483647,0,0,1,1,2,2],"right_children":[2,4,6,-1,-1,-1,-1],"split_conditions":[8.4317E4,6.1379668E4,1.6E1,-3.2640705E1,9.083403E1,-7.712947E1,-2.9771988E2],"split_indices":[9,10,4,0,0,0,0],"split_type":[0,0,0,0,0,0,0],"sum_hessian":[7.8E1,7.2E1,6E0,4.9E1,2.3E1,5E0,1E0],"tree_param":{"num_deleted":"0","num_feature":"16","num_nodes":"7","size_leaf_vector":"1"}},{"base_weights":[-2.7516464E2,-6.56937E2,4.0369526E3,-1.732503E1,-2.915607E2,2.708029E2,-7.12967E0],"categories":[],"categories_nodes":[],"categories_segments":[],"categories_sizes":[],"default_left":[0,0,0,0,0,0,0],"id":125,"left_children":[1,3,5,-1,-1,-1,-1],"loss_changes":[1.3658867E8,9.7506056E7,9.8962264E7,0E0,0E0,0E0,0E0],"parents":[2147483647,0,0,1,1,2,2],"right_children":[2,4,6,-1,-1,-1,-1],"split_conditions":[7.7972336E4,9.0596E4,3E0,-1.732503E1,-2.915607E2,2.708029E2,-7.12967E0],"split_indices":[10,8,1,0,0,0,0],"split_type":[0,0,0,0,0,0,0],"sum_hessian":[8.1E1,7.5E1,6E0,7.4E1,1E0,3E0,3E0],"tree_param":{"num_deleted":"0","num_feature":"16","num_nodes":"7","size_leaf_vector":"1"}},{"base_weights":[-1.4551596E2,-4.4899036E2,4.967615E3,-4.548291E0,-1.6682512E2,1.2666211E1,2.9861307E2],"categories":[],"categories_nodes":[],"categories_segments":[],"categories_sizes":[],"default_left":[0,0,0,0,0,0,0],"id":126,"left_children":[1,3,5,-1,-1,-1,-1],"loss_changes":[1.3164362E8,1.0660123E8,6.936172E7,0E0,0E0,0E0,0E0],"parents":[2147483647,0,0,1,1,2,2],"right_children":[2,4,6,-1,-1,-1,-1],"split_conditions":[8.5782664E4,8.4317E4,2.4E1,-4.548291E0,-1.6682512E2,1.2666211E1,2.9861307E2],"split_indices":[10,9,6,0,0,0,0],"split_type":[0,0,0,0,0,0,0],"sum_hessian":[8.3E1,7.9E1,4E0,7.4E1,5E0,2E0,2E0],"tree_param":{"num_deleted":"0","num_feature":"16","num_nodes":"7","size_leaf_vector":"1"}},{"base_weights":[-1.9569725E2,-5.0155252E2,4.8366895E3,-9.799835E1,3.6603873E0,3.5726382E2,5.538691E1],"categories":[],"categories_nodes":[],"categories_segments":[],"categories_sizes":[],"default_left":[0,0,0,0,0,0,0],"id":127,"left_children":[1,3,5,-1,-1,-1,-1],"loss_changes":[1.27664136E8,1.0313936E8,6.743647E7,0E0,0E0,0E0,0E0],"parents":[2147483647,0,0,1,1,2,2],"right_children":[2,4,6,-1,-1,-1,-1],"split_conditions":[8.4914664E4,-1.7619486E1,2E0,-9.799835E1,3.6603873E0,3.5726382E2,5.538691E1],"split_indices":[10,11,1,0,0,0,0],"split_type":[0,0,0,0,0,0,0],"sum_hessian":[8.1E1,7.7E1,4E0,1.6E1,6.1E1,1E0,3E0],"tree_param":{"num_deleted":"0","num_feature":"16","num_nodes":"7","size_leaf_vector":"1"}},{"base_weights":[2.352825E2,-1.883886E1,7.4355273E3,-8.539524E1,1.7043829E1,3.498727E2,7.38956E1],"categories":[],"categories_nodes":[],"categories_segments":[],"categories_sizes":[],"default_left":[0,0,0,0,0,0,0],"id":128,"left_children":[1,3,5,-1,-1,-1,-1],"loss_changes":[1.4787126E8,9.05585E7,1.793104E7,0E0,0E0,0E0,0E0],"parents":[2147483647,0,0,1,1,2,2],"right_children":[2,4,6,-1,-1,-1,-1],"split_conditions":[1.430117E2,8.0663335E3,2.02E3,-8.539524E1,1.7043829E1,3.498727E2,7.38956E1],"split_indices":[11,10,0,0,0,0,0],"split_type":[0,0,0,0,0,0,0],"sum_hessian":[8E1,7.8E1,2E0,1.3E1,6.5E1,1E0,1E0],"tree_param":{"num_deleted":"0","num_feature":"16","num_nodes":"7","size_leaf_vector":"1"}},{"base_weights":[2.5670267E2,-7.51582E2,1.393403E3,-5.307443E1,3.6504253E1,-1.4281478E1,1.1688431E2],"categories":[],"categories_nodes":[],"categories_segments":[],"categories_sizes":[],"default_left":[0,0,0,0,0,0,0],"id":129,"left_children":[1,3,5,-1,-1,-1,-1],"loss_changes":[9.219964E7,5.4466256E7,1.2413702E8,0E0,0E0,0E0,0E0],"parents":[2147483647,0,0,1,1,2,2],"right_children":[2,4,6,-1,-1,-1,-1],"split_conditions":[4.1606784E0,6.9022664E4,3.7466E4,-5.307443E1,3.6504253E1,-1.4281478E1,1.1688431E2],"split_indices":[11,10,8,0,0,0,0],"split_type":[0,0,0,0,0,0,0],"sum_hessian":[7.9E1,4.2E1,3.7E1,3E1,1.2E1,1.9E1,1.8E1],"tree_param":{"num_deleted":"0","num_feature":"16","num_nodes":"7","size_leaf_vector":"1"}},{"base_weights":[-4.7934307E1,3.0608432E2,-4.0653079E3,-2.8217539E1,7.063253E1,-2.81158E2,-8.750088E1],"categories":[],"categories_nodes":[],"categories_segments":[],"categories_sizes":[],"default_left":[0,0,0,0,0,0,0],"id":130,"left_children":[1,3,5,-1,-1,-1,-1],"loss_changes":[1.1863826E8,1.3745235E8,2.7034648E7,0E0,0E0,0E0,0E0],"parents":[2147483647,0,0,1,1,2,2],"right_children":[2,4,6,-1,-1,-1,-1],"split_conditions":[8.8082E4,5.7914332E4,2E0,-2.8217539E1,7.063253E1,-2.81158E2,-8.750088E1],"split_indices":[9,10,1,0,0,0,0],"split_type":[0,0,0,0,0,0,0],"sum_hessian":[8.2E1,7.6E1,6E0,4.6E1,3E1,1E0,5E0],"tree_param":{"num_deleted":"0","num_feature":"16","num_nodes":"7","size_leaf_vector":"1"}},{"base_weights":[2.623281E2,-8.3455225E2,1.4351084E3,-3.9847614E1,1.2270623E2,-2.954001E1,1.3185335E2],"categories":[],"categories_nodes":[],"categories_segments":[],"categories_sizes":[],"default_left":[0,0,0,0,0,0,0],"id":131,"left_children":[1,3,5,-1,-1,-1,-1],"loss_changes":[1.0864697E8,5.1291896E7,2.035424E8,0E0,0E0,0E0,0E0],"parents":[2147483647,0,0,1,1,2,2],"right_children":[2,4,6,-1,-1,-1,-1],"split_conditions":[4.1606784E0,9.0596E4,3.7466E4,-3.9847614E1,1.2270623E2,-2.954001E1,1.3185335E2],"split_indices":[11,8,8,0,0,0,0],"split_type":[0,0,0,0,0,0,0],"sum_hessian":[8.3E1,4.3E1,4E1,4.1E1,2E0,2E1,2E1],"tree_param":{"num_deleted":"0","num_feature":"16","num_nodes":"7","size_leaf_vector":"1"}},{"base_weights":[-5.3176113E1,-2.938934E2,7.191931E3,-7.86098E1,9.131102E0,3.3602753E2,7.385719E1],"categories":[],"categories_nodes":[],"categories_segments":[],"categories_sizes":[],"default_left":[0,0,0,0,0,0,0],"id":132,"left_children":[1,3,5,-1,-1,-1,-1],"loss_changes":[1.4940542E8,8.487102E7,1.5096656E7,0E0,0E0,0E0,0E0],"parents":[2147483647,0,0,1,1,2,2],"right_children":[2,4,6,-1,-1,-1,-1],"split_conditions":[1.430117E2,-1.5103882E1,2.02E3,-7.86098E1,9.131102E0,3.3602753E2,7.385719E1],"split_indices":[11,11,0,0,0,0,0],"split_type":[0,0,0,0,0,0,0],"sum_hessian":[8.4E1,8.2E1,2E0,1.8E1,6.4E1,1E0,1E0],"tree_param":{"num_deleted":"0","num_feature":"16","num_nodes":"7","size_leaf_vector":"1"}},{"base_weights":[-2.1711554E2,-5.1110672E2,4.43918E3,-1.2234401E1,-2.7625375E2,3.2907578E2,5.0285564E1],"categories":[],"categories_nodes":[],"categories_segments":[],"categories_sizes":[],"default_left":[0,0,0,0,0,0,0],"id":133,"left_children":[1,3,5,-1,-1,-1,-1],"loss_changes":[1.095186E8,9.045216E7,5.7676E7,0E0,0E0,0E0,0E0],"parents":[2147483647,0,0,1,1,2,2],"right_children":[2,4,6,-1,-1,-1,-1],"split_conditions":[8.5782664E4,1.07752E5,2E0,-1.2234401E1,-2.7625375E2,3.2907578E2,5.0285564E1],"split_indices":[10,8,1,0,0,0,0],"split_type":[0,0,0,0,0,0,0],"sum_hessian":[7.8E1,7.4E1,4E0,7.3E1,1E0,1E0,3E0],"tree_param":{"num_deleted":"0","num_feature":"16","num_nodes":"7","size_leaf_vector":"1"}},{"base_weights":[1.6663298E2,5.553962E2,-3.5970317E3,1.3894687E2,-1.9746829E0,-2.7053864E2,-7.963807E1],"categories":[],"categories_nodes":[],"categories_segments":[],"categories_sizes":[],"default_left":[0,0,0,0,0,0,0],"id":134,"left_children":[1,3,5,-1,-1,-1,-1],"loss_changes":[1.2112785E8,1.4929685E8,2.9607184E7,0E0,0E0,0E0,0E0],"parents":[2147483647,0,0,1,1,2,2],"right_children":[2,4,6,-1,-1,-1,-1],"split_conditions":[8.8082E4,3E0,2E0,1.3894687E2,-1.9746829E0,-2.7053864E2,-7.963807E1],"split_indices":[9,1,1,0,0,0,0],"split_type":[0,0,0,0,0,0,0],"sum_hessian":[8.1E1,7.4E1,7E0,1.1E1,6.3E1,1E0,6E0],"tree_param":{"num_deleted":"0","num_feature":"16","num_nodes":"7","size_leaf_vector":"1"}},{"base_weights":[4.744363E1,3.6159747E2,-3.7599426E3,-2.574692E1,8.1721115E1,-7.943279E1,-2.6494177E2],"categories":[],"categories_nodes":[],"categories_segments":[],"categories_sizes":[],"default_left":[0,0,0,0,0,0,0],"id":135,"left_children":[1,3,5,-1,-1,-1,-1],"loss_changes":[1.05988184E8,1.6659198E8,2.5505632E7,0E0,0E0,0E0,0E0],"parents":[2147483647,0,0,1,1,2,2],"right_children":[2,4,6,-1,-1,-1,-1],"split_conditions":[8.8082E4,6.1379668E4,2.02E3,-2.574692E1,8.1721115E1,-7.943279E1,-2.6494177E2],"split_indices":[9,10,0,0,0,0,0],"split_type":[0,0,0,0,0,0,0],"sum_hessian":[8.7E1,8.1E1,6E0,5.2E1,2.9E1,5E0,1E0],"tree_param":{"num_deleted":"0","num_feature":"16","num_nodes":"7","size_leaf_vector":"1"}},{"base_weights":[-1.4013757E1,-3.7821967E2,3.4980698E3,-7.743912E0,-2.5946066E2,2.3218361E2,2.3771633E1],"categories":[],"categories_nodes":[],"categories_segments":[],"categories_sizes":[],"default_left":[0,0,0,0,0,0,0],"id":136,"left_children":[1,3,5,-1,-1,-1,-1],"loss_changes":[1.0557117E8,8.228958E7,6.071307E7,0E0,0E0,0E0,0E0],"parents":[2147483647,0,0,1,1,2,2],"right_children":[2,4,6,-1,-1,-1,-1],"split_conditions":[7.7972336E4,9.0596E4,3E0,-7.743912E0,-2.5946066E2,2.3218361E2,2.3771633E1],"split_indices":[10,8,1,0,0,0,0],"split_type":[0,0,0,0,0,0,0],"sum_hessian":[8.1E1,7.4E1,7E0,