{"learner":{"attributes":{"scikit_learn":"{\"_estimator_type\": \"regressor\"}"},"feature_names":["year","month","peak_season","philippine_holidays","top10market_holidays","avg_hightemp","avg_lowtemp","precipitation","lag_1","lag_2","rolling_mean_3m","growth_rate","sudden_increase","inflation_rate","is_december","is_lockdown"],"feature_types":["int","int","int","int","int","int","int","float","float","float","float","float","int","float","int","int"],"gradient_booster":{"model":{"cats":{"enc":[],"feature_segments":[],"sorted_idx":[]},"gbtree_model_param":{"num_parallel_tree":"1","num_trees":"400"},"iteration_indptr":[0,1,2,3,4,5,6,7,8,9,10,11,12,13,14,15,16,17,18,19,20,21,22,23,24,25,26,27,28,29,30,31,32,33,34,35,36,37,38,39,40,41,42,43,44,45,46,47,48,49,50,51,52,53,54,55,56,57,58,59,60,61,62,63,64,65,66,67,68,69,70,71,72,73,74,75,76,77,78,79,80,81,82,83,84,85,86,87,88,89,90,91,92,93,94,95,96,97,98,99,100,101,102,103,104,105,106,107,108,109,110,111,112,113,114,115,116,117,118,119,120,121,122,123,124,125,126,127,128,129,130,131,132,133,134,135,136,137,138,139,140,141,142,143,144,145,146,147,148,149,150,151,152,153,154,155,156,157,158,159,160,161,162,163,164,165,166,167,168,169,170,171,172,173,174,175,176,177,178,179,180,181,182,183,184,185,186,187,188,189,190,191,192,193,194,195,196,197,198,199,200,201,202,203,204,205,206,207,208,209,210,211,212,213,214,215,216,217,218,219,220,221,222,223,224,225,226,227,228,229,230,231,232,233,234,235,236,237,238,239,240,241,242,243,244,245,246,247,248,249,250,251,252,253,254,255,256,257,258,259,260,261,262,263,264,265,266,267,268,269,270,271,272,273,274,275,276,277,278,279,280,281,282,283,284,285,286,287,288,289,290,291,292,293,294,295,296,297,298,299,300,301,302,303,304,305,306,307,308,309,310,311,312,313,314,315,316,317,318,319,320,321,322,323,324,325,326,327,328,329,330,331,332,333,334,335,336,337,338,339,340,341,342,343,344,345,346,347,348,349,350,351,352,353,354,355,356,357,358,359,360,361,362,363,364,365,366,367,368,369,370,371,372,373,374,375,376,377,378,379,380,381,382,383,384,385,386,387,388,389,390,391,392,393,394,395,396,397,398,399,400],"tree_info":[0,0,0,0,0,0,0,0,0,0,0,0,0,0,0,0,0,0,0,0,0,0,0,0,0,0,0,0,0,0,0,0,0,0,0,0,0,0,0,0,0,0,0,0,0,0,0,0,0,0,0,0,0,0,0,0,0,0,0,0,0,0,0,0,0,0,0,0,0,0,0,0,0,0,0,0,0,0,0,0,0,0,0,0,0,0,0,0,0,0,0,0,0,0,0,0,0,0,0,0,0,0,0,0,0,0,0,0,0,0,0,0,0,0,0,0,0,0,0,0,0,0,0,0,0,0,0,0,0,0,0,0,0,0,0,0,0,0,0,0,0,0,0,0,0,0,0,0,0,0,0,0,0,0,0,0,0,0,0,0,0,0,0,0,0,0,0,0,0,0,0,0,0,0,0,0,0,0,0,0,0,0,0,0,0,0,0,0,0,0,0,0,0,0,0,0,0,0,0,0,0,0,0,0,0,0,0,0,0,0,0,0,0,0,0,0,0,0,0,0,0,0,0,0,0,0,0,0,0,0,0,0,0,0,0,0,0,0,0,0,0,0,0,0,0,0,0,0,0,0,0,0,0,0,0,0,0,0,0,0,0,0,0,0,0,0,0,0,0,0,0,0,0,0,0,0,0,0,0,0,0,0,0,0,0,0,0,0,0,0,0,0,0,0,0,0,0,0,0,0,0,0,0,0,0,0,0,0,0,0,0,0,0,0,0,0,0,0,0,0,0,0,0,0,0,0,0,0,0,0,0,0,0,0,0,0,0,0,0,0,0,0,0,0,0,0,0,0,0,0,0,0,0,0,0,0,0,0,0,0,0,0,0,0,0,0,0,0,0,0,0,0,0,0,0,0,0,0,0,0,0,0,0,0,0,0,0,0,0,0,0,0,0,0,0,0,0,0,0,0],"trees":[{"base_weights":[6.19295E2,-2.5185748E4,2.2417184E4,-1.3106738E3,-2.1546822E2,4.6226758E2,1.1702416E3],"categories":[],"categories_nodes":[],"categories_segments":[],"categories_sizes":[],"default_left":[0,0,0,0,0,0,0],"id":0,"left_children":[1,3,5,-1,-1,-1,-1],"loss_changes":[4.0225583E10,6.7205857E9,3.3740984E9,0E0,0E0,0E0,0E0],"parents":[2147483647,0,0,1,1,2,2],"right_children":[2,4,6,-1,-1,-1,-1],"split_conditions":[5.0169E4,2.5664E4,7.2463E4,-1.3106738E3,-2.1546822E2,4.6226758E2,1.1702416E3],"split_indices":[8,10,10,0,0,0,0],"split_type":[0,0,0,0,0,0,0],"sum_hessian":[7E1,3.2E1,3.8E1,2E1,1.2E1,2E1,1.8E1],"tree_param":{"num_deleted":"0","num_feature":"16","num_nodes":"7","size_leaf_vector":"1"}},{"base_weights":[3.8157295E3,-2.3200006E4,2.318162E4,-1.242928E3,-2.0338039E2,3.1831668E2,1.1158108E3],"categories":[],"categories_nodes":[],"categories_segments":[],"categories_sizes":[],"default_left":[0,0,0,0,0,0,0],"id":1,"left_children":[1,3,5,-1,-1,-1,-1],"loss_changes":[3.8470242E10,5.8273505E9,4.450357E9,0E0,0E0,0E0,0E0],"parents":[2147483647,0,0,1,1,2,2],"right_children":[2,4,6,-1,-1,-1,-1],"split_conditions":[4.2119E4,2.5664E4,6.3391668E4,-1.242928E3,-2.0338039E2,3.1831668E2,1.1158108E3],"split_indices":[8,10,10,0,0,0,0],"split_type":[0,0,0,0,0,0,0],"sum_hessian":[7.2E1,3E1,4.2E1,1.8E1,1.2E1,1.5E1,2.7E1],"tree_param":{"num_deleted":"0","num_feature":"16","num_nodes":"7","size_leaf_vector":"1"}},{"base_weights":[-1.5759397E3,-2.9997246E4,1.518053E4,-1.2630264E3,-5.6241675E2,1.0730781E2,9.572019E2],"categories":[],"categories_nodes":[],"categories_segments":[],"categories_sizes":[],"default_left":[0,0,0,0,0,0,0],"id":2,"left_children":[1,3,5,-1,-1,-1,-1],"loss_changes":[3.3087715E10,1.3829816E9,5.9234744E9,0E0,0E0,0E0,0E0],"parents":[2147483647,0,0,1,1,2,2],"right_children":[2,4,6,-1,-1,-1,-1],"split_conditions":[3.4409E4,1.227E4,6.5030668E4,-1.2630264E3,-5.6241675E2,1.0730781E2,9.572019E2],"split_indices":[8,8,10,0,0,0,0],"split_type":[0,0,0,0,0,0,0],"sum_hessian":[6.8E1,2.5E1,4.3E1,1.8E1,7E0,2.1E1,2.2E1],"tree_param":{"num_deleted":"0","num_feature":"16","num_nodes":"7","size_leaf_vector":"1"}},{"base_weights":[-7.872812E0,-2.8025352E4,1.7521432E4,-1.2408127E3,-4.1784152E2,3.0030237E2,1.1516697E3],"categories":[],"categories_nodes":[],"categories_segments":[],"categories_sizes":[],"default_left":[0,0,0,0,0,0,0],"id":3,"left_children":[1,3,5,-1,-1,-1,-1],"loss_changes":[4.052279E10,2.9289964E9,6.4683397E9,0E0,0E0,0E0,0E0],"parents":[2147483647,0,0,1,1,2,2],"right_children":[2,4,6,-1,-1,-1,-1],"split_conditions":[3.9165668E4,4E0,7.2463E4,-1.2408127E3,-4.1784152E2,3.0030237E2,1.1516697E3],"split_indices":[10,13,10,0,0,0,0],"split_type":[0,0,0,0,0,0,0],"sum_hessian":[8.1E1,3.1E1,5E1,2.2E1,9E0,3.1E1,1.9E1],"tree_param":{"num_deleted":"0","num_feature":"16","num_nodes":"7","size_leaf_vector":"1"}},{"base_weights":[-7.7878613E2,-2.5081906E4,1.8225586E4,-1.1242043E3,-2.5439793E2,3.633262E2,1.0766332E3],"categories":[],"categories_nodes":[],"categories_segments":[],"categories_sizes":[],"default_left":[0,0,0,0,0,0,0],"id":4,"left_children":[1,3,5,-1,-1,-1,-1],"loss_changes":[3.764305E10,3.6377948E9,4.0733962E9,0E0,0E0,0E0,0E0],"parents":[2147483647,0,0,1,1,2,2],"right_children":[2,4,6,-1,-1,-1,-1],"split_conditions":[4.213E4,2.5664E4,7.2463E4,-1.1242043E3,-2.5439793E2,3.633262E2,1.0766332E3],"split_indices":[10,10,10,0,0,0,0],"split_type":[0,0,0,0,0,0,0],"sum_hessian":[8E1,3.5E1,4.5E1,2.6E1,9E0,2.7E1,1.8E1],"tree_param":{"num_deleted":"0","num_feature":"16","num_nodes":"7","size_leaf_vector":"1"}},{"base_weights":[1.5347118E2,-2.080729E4,2.1111473E4,-1.0855391E3,-1.5866309E2,5.803771E2,1.4179178E3],"categories":[],"categories_nodes":[],"categories_segments":[],"categories_sizes":[],"default_left":[0,0,0,0,0,0,0],"id":5,"left_children":[1,3,5,-1,-1,-1,-1],"loss_changes":[3.6685525E10,6.14152E9,3.3689887E9,0E0,0E0,0E0,0E0],"parents":[2147483647,0,0,1,1,2,2],"right_children":[2,4,6,-1,-1,-1,-1],"split_conditions":[5.0169E4,2.5664E4,1.3058462E1,-1.0855391E3,-1.5866309E2,5.803771E2,1.4179178E3],"split_indices":[8,10,11,0,0,0,0],"split_type":[0,0,0,0,0,0,0],"sum_hessian":[8.2E1,4.1E1,4.1E1,2.6E1,1.5E1,3.3E1,8E0],"tree_param":{"num_deleted":"0","num_feature":"16","num_nodes":"7","size_leaf_vector":"1"}},{"base_weights":[4.964914E2,-1.9467613E4,1.9949008E4,-1.0457103E3,-1.619279E2,5.287873E2,1.3708774E3],"categories":[],"categories_nodes":[],"categories_segments":[],"categories_sizes":[],"default_left":[0,0,0,0,0,0,0],"id":6,"left_children":[1,3,5,-1,-1,-1,-1],"loss_changes":[3.0489496E10,5.3322383E9,3.3970627E9,0E0,0E0,0E0,0E0],"parents":[2147483647,0,0,1,1,2,2],"right_children":[2,4,6,-1,-1,-1,-1],"split_conditions":[5.0169E4,2.5664E4,1.3058462E1,-1.0457103E3,-1.619279E2,5.287873E2,1.3708774E3],"split_indices":[8,10,11,0,0,0,0],"split_type":[0,0,0,0,0,0,0],"sum_hessian":[7.7E1,3.8E1,3.9E1,2.3E1,1.5E1,3.1E1,8E0],"tree_param":{"num_deleted":"0","num_feature":"16","num_nodes":"7","size_leaf_vector":"1"}},{"base_weights":[1.6157701E3,-1.9555686E4,2.0570607E4,-1.0012685E3,-1.4834084E2,3.4646082E2,1.0476943E3],"categories":[],"categories_nodes":[],"categories_segments":[],"categories_sizes":[],"default_left":[0,0,0,0,0,0,0],"id":7,"left_children":[1,3,5,-1,-1,-1,-1],"loss_changes":[2.9500377E10,4.2282875E9,3.3335665E9,0E0,0E0,0E0,0E0],"parents":[2147483647,0,0,1,1,2,2],"right_children":[2,4,6,-1,-1,-1,-1],"split_conditions":[4.9526E4,2.1597E4,-2.3179831E-2,-1.0012685E3,-1.4834084E2,3.4646082E2,1.0476943E3],"split_indices":[8,9,11,0,0,0,0],"split_type":[0,0,0,0,0,0,0],"sum_hessian":[7.2E1,3.4E1,3.8E1,2.2E1,1.2E1,1.7E1,2.1E1],"tree_param":{"num_deleted":"0","num_feature":"16","num_nodes":"7","size_leaf_vector":"1"}},{"base_weights":[-1.5192656E3,-2.3386191E4,1.3532981E4,-1.0463737E3,-3.4333844E2,2.4157709E2,9.394825E2],"categories":[],"categories_nodes":[],"categories_segments":[],"categories_sizes":[],"default_left":[0,0,0,0,0,0,0],"id":8,"left_children":[1,3,5,-1,-1,-1,-1],"loss_changes":[2.4844265E10,2.1223209E9,3.6702525E9,0E0,0E0,0E0,0E0],"parents":[2147483647,0,0,1,1,2,2],"right_children":[2,4,6,-1,-1,-1,-1],"split_conditions":[3.9165668E4,4E0,7.2463E4,-1.0463737E3,-3.4333844E2,2.4157709E2,9.394825E2],"split_indices":[10,13,10,0,0,0,0],"split_type":[0,0,0,0,0,0,0],"sum_hessian":[7.4E1,3E1,4.4E1,2.1E1,9E0,2.9E1,1.5E1],"tree_param":{"num_deleted":"0","num_feature":"16","num_nodes":"7","size_leaf_vector":"1"}},{"base_weights":[-5.331064E2,-1.8526232E4,1.8398945E4,-9.422152E2,-1.4935397E2,5.054188E2,1.3816995E3],"categories":[],"categories_nodes":[],"categories_segments":[],"categories_sizes":[],"default_left":[0,0,0,0,0,0,0],"id":9,"left_children":[1,3,5,-1,-1,-1,-1],"loss_changes":[2.7084962E10,4.2809866E9,3.011504E9,0E0,0E0,0E0,0E0],"parents":[2147483647,0,0,1,1,2,2],"right_children":[2,4,6,-1,-1,-1,-1],"split_conditions":[5.0169E4,2.5664E4,1.9512337E1,-9.422152E2,-1.4935397E2,5.054188E2,1.3816995E3],"split_indices":[8,10,11,0,0,0,0],"split_type":[0,0,0,0,0,0,0],"sum_hessian":[7.8E1,4E1,3.8E1,2.6E1,1.4E1,3.2E1,6E0],"tree_param":{"num_deleted":"0","num_feature":"16","num_nodes":"7","size_leaf_vector":"1"}},{"base_weights":[6.5562874E1,-2.3141516E4,1.291046E4,-9.8029175E2,-3.4728485E2,2.0602838E2,9.506901E2],"categories":[],"categories_nodes":[],"categories_segments":[],"categories_sizes":[],"default_left":[0,0,0,0,0,0,0],"id":10,"left_children":[1,3,5,-1,-1,-1,-1],"loss_changes":[2.4894185E10,1.3638513E9,5.051094E9,0E0,0E0,0E0,0E0],"parents":[2147483647,0,0,1,1,2,2],"right_children":[2,4,6,-1,-1,-1,-1],"split_conditions":[3.5973332E4,4E0,7.2463E4,-9.8029175E2,-3.4728485E2,2.0602838E2,9.506901E2],"split_indices":[10,13,10,0,0,0,0],"split_type":[0,0,0,0,0,0,0],"sum_hessian":[8.2E1,2.9E1,5.3E1,2.2E1,7E0,3.5E1,1.8E1],"tree_param":{"num_deleted":"0","num_feature":"16","num_nodes":"7","size_leaf_vector":"1"}},{"base_weights":[-6.631128E2,-2.092309E4,1.0241425E4,-9.072689E2,-3.0962524E2,1.4604768E1,6.115695E2],"categories":[],"categories_nodes":[],"categories_segments":[],"categories_sizes":[],"default_left":[0,0,0,0,0,0,0],"id":11,"left_children":[1,3,5,-1,-1,-1,-1],"loss_changes":[1.6897999E10,1.1875185E9,3.2274642E9,0E0,0E0,0E0,0E0],"parents":[2147483647,0,0,1,1,2,2],"right_children":[2,4,6,-1,-1,-1,-1],"split_conditions":[3.5973332E4,4E0,5.7803332E4,-9.072689E2,-3.0962524E2,1.4604768E1,6.115695E2],"split_indices":[10,13,10,0,0,0,0],"split_type":[0,0,0,0,0,0,0],"sum_hessian":[7.5E1,2.6E1,4.9E1,1.9E1,7E0,2E1,2.9E1],"tree_param":{"num_deleted":"0","num_feature":"16","num_nodes":"7","size_leaf_vector":"1"}},{"base_weights":[1.2730365E3,-1.7163088E4,1.7730484E4,-8.5048096E2,-1.4300911E2,4.8928864E2,1.2978114E3],"categories":[],"categories_nodes":[],"categories_segments":[],"categories_sizes":[],"default_left":[0,0,0,0,0,0,0],"id":12,"left_children":[1,3,5,-1,-1,-1,-1],"loss_changes":[2.1697614E10,2.725546E9,2.5296435E9,0E0,0E0,0E0,0E0],"parents":[2147483647,0,0,1,1,2,2],"right_children":[2,4,6,-1,-1,-1,-1],"split_conditions":[5.0169E4,2.5664E4,7.9832E4,-8.5048096E2,-1.4300911E2,4.8928864E2,1.2978114E3],"split_indices":[8,10,10,0,0,0,0],"split_type":[0,0,0,0,0,0,0],"sum_hessian":[7E1,3.3E1,3.7E1,2.2E1,1.1E1,3.1E1,6E0],"tree_param":{"num_deleted":"0","num_feature":"16","num_nodes":"7","size_leaf_vector":"1"}},{"base_weights":[1.1987952E3,-2.0761902E4,1.3231484E4,-8.8067236E2,-2.7969052E2,2.2151743E2,8.855534E2],"categories":[],"categories_nodes":[],"categories_segments":[],"categories_sizes":[],"default_left":[0,0,0,0,0,0,0],"id":13,"left_children":[1,3,5,-1,-1,-1,-1],"loss_changes":[1.9961106E10,1.0798735E9,3.7670446E9,0E0,0E0,0E0,0E0],"parents":[2147483647,0,0,1,1,2,2],"right_children":[2,4,6,-1,-1,-1,-1],"split_conditions":[3.4641E4,3.4E0,7.2463E4,-8.8067236E2,-2.7969052E2,2.2151743E2,8.855534E2],"split_indices":[10,13,10,0,0,0,0],"split_type":[0,0,0,0,0,0,0],"sum_hessian":[7.4E1,2.6E1,4.8E1,2E1,6E0,3E1,1.8E1],"tree_param":{"num_deleted":"0","num_feature":"16","num_nodes":"7","size_leaf_vector":"1"}},{"base_weights":[-9.0954083E2,-1.5427966E4,1.5165228E4,-8.325618E2,-1.5648236E2,3.9785333E2,1.3477094E3],"categories":[],"categories_nodes":[],"categories_segments":[],"categories_sizes":[],"default_left":[0,0,0,0,0,0,0],"id":14,"left_children":[1,3,5,-1,-1,-1,-1],"loss_changes":[1.8556494E10,3.408724E9,3.1801426E9,0E0,0E0,0E0,0E0],"parents":[2147483647,0,0,1,1,2,2],"right_children":[2,4,6,-1,-1,-1,-1],"split_conditions":[5.0258E4,2.2309666E4,1.9512337E1,-8.325618E2,-1.5648236E2,3.9785333E2,1.3477094E3],"split_indices":[8,10,11,0,0,0,0],"split_type":[0,0,0,0,0,0,0],"sum_hessian":[7.8E1,4.1E1,3.7E1,2.4E1,1.7E1,3.2E1,5E0],"tree_param":{"num_deleted":"0","num_feature":"16","num_nodes":"7","size_leaf_vector":"1"}},{"base_weights":[5.824023E2,-1.4697675E4,1.6639701E4,-7.753077E2,-1.1295684E2,4.6464047E2,1.2129849E3],"categories":[],"categories_nodes":[],"categories_segments":[],"categories_sizes":[],"default_left":[0,0,0,0,0,0,0],"id":15,"left_children":[1,3,5,-1,-1,-1,-1],"loss_changes":[1.9507702E10,3.0932408E9,2.1741292E9,0E0,0E0,0E0,0E0],"parents":[2147483647,0,0,1,1,2,2],"right_children":[2,4,6,-1,-1,-1,-1],"split_conditions":[5.028E4,2.5664E4,1.9512337E1,-7.753077E2,-1.1295684E2,4.6464047E2,1.2129849E3],"split_indices":[8,10,11,0,0,0,0],"split_type":[0,0,0,0,0,0,0],"sum_hessian":[7.8E1,4E1,3.8E1,2.5E1,1.5E1,3.2E1,6E0],"tree_param":{"num_deleted":"0","num_feature":"16","num_nodes":"7","size_leaf_vector":"1"}},{"base_weights":[7.964175E2,-1.7132775E4,9.887512E3,-7.605856E2,-2.4424887E2,1.3813673E2,5.521506E2],"categories":[],"categories_nodes":[],"categories_segments":[],"categories_sizes":[],"default_left":[0,0,0,0,0,0,0],"id":16,"left_children":[1,3,5,-1,-1,-1,-1],"loss_changes":[1.1986651E10,8.7659264E8,1.5341911E9,0E0,0E0,0E0,0E0],"parents":[2147483647,0,0,1,1,2,2],"right_children":[2,4,6,-1,-1,-1,-1],"split_conditions":[3.4409E4,4E0,-2.3179831E-2,-7.605856E2,-2.4424887E2,1.3813673E2,5.521506E2],"split_indices":[9,13,11,0,0,0,0],"split_type":[0,0,0,0,0,0,0],"sum_hessian":[7.2E1,2.4E1,4.8E1,1.7E1,7E0,2.3E1,2.5E1],"tree_param":{"num_deleted":"0","num_feature":"16","num_nodes":"7","size_leaf_vector":"1"}},{"base_weights":[3.727254E2,-1.5518844E4,1.4258544E4,-7.779641E2,-2.3283604E2,3.3606833E2,1.1317434E3],"categories":[],"categories_nodes":[],"categories_segments":[],"categories_sizes":[],"default_left":[0,0,0,0,0,0,0],"id":17,"left_children":[1,3,5,-1,-1,-1,-1],"loss_changes":[1.6442373E10,1.7662203E9,3.1455145E9,0E0,0E0,0E0,0E0],"parents":[2147483647,0,0,1,1,2,2],"right_children":[2,4,6,-1,-1,-1,-1],"split_conditions":[4.2119E4,1.545E4,7.7321336E4,-7.779641E2,-2.3283604E2,3.3606833E2,1.1317434E3],"split_indices":[8,8,10,0,0,0,0],"split_type":[0,0,0,0,0,0,0],"sum_hessian":[7.3E1,3.4E1,3.9E1,2E1,1.4E1,3.1E1,8E0],"tree_param":{"num_deleted":"0","num_feature":"16","num_nodes":"7","size_leaf_vector":"1"}},{"base_weights":[4.2039636E2,-1.3210432E4,1.4784322E4,-7.015152E2,-1.5665967E2,3.9182715E2,1.1366707E3],"categories":[],"categories_nodes":[],"categories_segments":[],"categories_sizes":[],"default_left":[0,0,0,0,0,0,0],"id":18,"left_children":[1,3,5,-1,-1,-1,-1],"loss_changes":[1.4783888E10,2.0439916E9,2.1693507E9,0E0,0E0,0E0,0E0],"parents":[2147483647,0,0,1,1,2,2],"right_children":[2,4,6,-1,-1,-1,-1],"split_conditions":[5.4442E4,2.2309666E4,1E0,-7.015152E2,-1.5665967E2,3.9182715E2,1.1366707E3],"split_indices":[10,10,12,0,0,0,0],"split_type":[0,0,0,0,0,0,0],"sum_hessian":[7.4E1,3.8E1,3.6E1,2.2E1,1.6E1,3E1,6E0],"tree_param":{"num_deleted":"0","num_feature":"16","num_nodes":"7","size_leaf_vector":"1"}},{"base_weights":[4.147512E2,-1.25043955E4,1.3325398E4,-7.1593994E2,-1.7376402E2,-3.5134747E2,5.6588104E2],"categories":[],"categories_nodes":[],"categories_segments":[],"categories_sizes":[],"default_left":[0,0,0,0,0,0,0],"id":19,"left_children":[1,3,5,-1,-1,-1,-1],"loss_changes":[1.2260926E10,1.975531E9,2.0253348E9,0E0,0E0,0E0,0E0],"parents":[2147483647,0,0,1,1,2,2],"right_children":[2,4,6,-1,-1,-1,-1],"split_conditions":[5.028E4,1.227E4,-3.4079456E1,-7.1593994E2,-1.7376402E2,-3.5134747E2,5.6588104E2],"split_indices":[8,8,11,0,0,0,0],"split_type":[0,0,0,0,0,0,0],"sum_hessian":[7.2E1,3.6E1,3.6E1,1.8E1,1.8E1,3E0,3.3E1],"tree_param":{"num_deleted":"0","num_feature":"16","num_nodes":"7","size_leaf_vector":"1"}},{"base_weights":[1.6626523E2,-1.1910185E4,1.2535971E4,-6.8146906E2,-1.556338E2,3.2345776E2,1.0817655E3],"categories":[],"categories_nodes":[],"categories_segments":[],"categories_sizes":[],"default_left":[0,0,0,0,0,0,0],"id":20,"left_children":[1,3,5,-1,-1,-1,-1],"loss_changes":[1.232545E10,2.1228278E9,2.350738E9,0E0,0E0,0E0,0E0],"parents":[2147483647,0,0,1,1,2,2],"right_children":[2,4,6,-1,-1,-1,-1],"split_conditions":[5.028E4,1.545E4,1E0,-6.8146906E2,-1.556338E2,3.2345776E2,1.0817655E3],"split_indices":[8,8,12,0,0,0,0],"split_type":[0,0,0,0,0,0,0],"sum_hessian":[8.1E1,4.1E1,4E1,2.1E1,2E1,3.4E1,6E0],"tree_param":{"num_deleted":"0","num_feature":"16","num_nodes":"7","size_leaf_vector":"1"}},{"base_weights":[6.184383E2,1.1471987E4,-1.2434539E4,3.0573355E1,6.8060626E2,-6.575593E2,-5.7036533E1],"categories":[],"categories_nodes":[],"categories_segments":[],"categories_sizes":[],"default_left":[0,0,0,0,0,0,0],"id":21,"left_children":[1,3,5,-1,-1,-1,-1],"loss_changes":[1.0839983E10,3.2167153E9,2.1218647E9,0E0,0E0,0E0,0E0],"parents":[2147483647,0,0,1,1,2,2],"right_children":[2,4,6,-1,-1,-1,-1],"split_conditions":[2.02E3,6.8343664E4,4.9E0,3.0573355E1,6.8060626E2,-6.575593E2,-5.7036533E1],"split_indices":[0,10,13,0,0,0,0],"split_type":[0,0,0,0,0,0,0],"sum_hessian":[7.5E1,4.1E1,3.4E1,1.7E1,2.4E1,2.2E1,1.2E1],"tree_param":{"num_deleted":"0","num_feature":"16","num_nodes":"7","size_leaf_vector":"1"}},{"base_weights":[-7.348571E2,-1.0293696E4,1.38149E4,-6.1131775E2,-5.3857235E1,7.901138E1,7.3383905E2],"categories":[],"categories_nodes":[],"categories_segments":[],"categories_sizes":[],"default_left":[0,0,0,0,0,0,0],"id":22,"left_children":[1,3,5,-1,-1,-1,-1],"loss_changes":[1.0782344E10,2.676777E9,2.256726E9,0E0,0E0,0E0,0E0],"parents":[2147483647,0,0,1,1,2,2],"right_children":[2,4,6,-1,-1,-1,-1],"split_conditions":[5.5328332E4,2.5664E4,-1.4564846E0,-6.1131775E2,-5.3857235E1,7.901138E1,7.3383905E2],"split_indices":[10,10,11,0,0,0,0],"split_type":[0,0,0,0,0,0,0],"sum_hessian":[7.6E1,4.6E1,3E1,2.6E1,2E1,1.1E1,1.9E1],"tree_param":{"num_deleted":"0","num_feature":"16","num_nodes":"7","size_leaf_vector":"1"}},{"base_weights":[1.0863883E3,1.1564287E4,-1.1525443E4,2.9469614E2,1.0354296E3,-6.5240283E2,-6.794456E1],"categories":[],"categories_nodes":[],"categories_segments":[],"categories_sizes":[],"default_left":[0,0,0,0,0,0,0],"id":23,"left_children":[1,3,5,-1,-1,-1,-1],"loss_changes":[1.0111302E10,2.2657823E9,2.1366881E9,0E0,0E0,0E0,0E0],"parents":[2147483647,0,0,1,1,2,2],"right_children":[2,4,6,-1,-1,-1,-1],"split_conditions":[2.02E3,7.9832E4,2.022E3,2.9469614E2,1.0354296E3,-6.5240283E2,-6.794456E1],"split_indices":[0,10,0,0,0,0,0],"split_type":[0,0,0,0,0,0,0],"sum_hessian":[7.5E1,4.1E1,3.4E1,3.5E1,6E0,2E1,1.4E1],"tree_param":{"num_deleted":"0","num_feature":"16","num_nodes":"7","size_leaf_vector":"1"}},{"base_weights":[-7.545919E2,-1.0914911E4,9.705807E3,-5.941238E2,-1.3334998E2,-4.5911353E2,4.107342E2],"categories":[],"categories_nodes":[],"categories_segments":[],"categories_sizes":[],"default_left":[0,0,0,0,0,0,0],"id":24,"left_children":[1,3,5,-1,-1,-1,-1],"loss_changes":[7.706167E9,1.4050857E9,1.3924114E9,0E0,0E0,0E0,0E0],"parents":[2147483647,0,0,1,1,2,2],"right_children":[2,4,6,-1,-1,-1,-1],"split_conditions":[5.0258E4,2.2309666E4,-4.2713936E1,-5.941238E2,-1.3334998E2,-4.5911353E2,4.107342E2],"split_indices":[8,10,11,0,0,0,0],"split_type":[0,0,0,0,0,0,0],"sum_hessian":[7.1E1,3.6E1,3.5E1,2E1,1.6E1,2E0,3.3E1],"tree_param":{"num_deleted":"0","num_feature":"16","num_nodes":"7","size_leaf_vector":"1"}},{"base_weights":[1.1527266E3,-8.453102E3,1.2115472E4,-5.0676505E2,-6.2714115E1,3.037276E2,1.0860588E3],"categories":[],"categories_nodes":[],"categories_segments":[],"categories_sizes":[],"default_left":[0,0,0,0,0,0,0],"id":25,"left_children":[1,3,5,-1,-1,-1,-1],"loss_changes":[7.844179E9,1.453694E9,2.1305836E9,0E0,0E0,0E0,0E0],"parents":[2147483647,0,0,1,1,2,2],"right_children":[2,4,6,-1,-1,-1,-1],"split_conditions":[5.5328332E4,2.5664E4,7.9832E4,-5.0676505E2,-6.2714115E1,3.037276E2,1.0860588E3],"split_indices":[10,10,10,0,0,0,0],"split_type":[0,0,0,0,0,0,0],"sum_hessian":[7.3E1,3.9E1,3.4E1,2.1E1,1.8E1,2.9E1,5E0],"tree_param":{"num_deleted":"0","num_feature":"16","num_nodes":"7","size_leaf_vector":"1"}},{"base_weights":[1.0523055E3,-1.2255381E4,8.611753E3,-5.971777E2,-2.30578E2,1.2992058E2,5.7595776E2],"categories":[],"categories_nodes":[],"categories_segments":[],"categories_sizes":[],"default_left":[0,0,0,0,0,0,0],"id":26,"left_children":[1,3,5,-1,-1,-1,-1],"loss_changes":[7.70053E9,6.082445E8,1.73677E9,0E0,0E0,0E0,0E0],"parents":[2147483647,0,0,1,1,2,2],"right_children":[2,4,6,-1,-1,-1,-1],"split_conditions":[3.9933332E4,1.1583E4,7.2463E4,-5.971777E2,-2.30578E2,1.2992058E2,5.7595776E2],"split_indices":[10,10,10,0,0,0,0],"split_type":[0,0,0,0,0,0,0],"sum_hessian":[7.5E1,2.7E1,4.8E1,1.5E1,1.2E1,2.9E1,1.9E1],"tree_param":{"num_deleted":"0","num_feature":"16","num_nodes":"7","size_leaf_vector":"1"}},{"base_weights":[-4.1600836E2,-9.91808E3,1.34217E4,-5.4520325E2,-1.4546179E2,3.6272858E2,1.1108188E3],"categories":[],"categories_nodes":[],"categories_segments":[],"categories_sizes":[],"default_left":[0,0,0,0,0,0,0],"id":27,"left_children":[1,3,5,-1,-1,-1,-1],"loss_changes":[9.929794E9,1.3035218E9,1.5813724E9,0E0,0E0,0E0,0E0],"parents":[2147483647,0,0,1,1,2,2],"right_children":[2,4,6,-1,-1,-1,-1],"split_conditions":[5.5328332E4,1.545E4,8.4914664E4,-5.4520325E2,-1.4546179E2,3.6272858E2,1.1108188E3],"split_indices":[10,8,10,0,0,0,0],"split_type":[0,0,0,0,0,0,0],"sum_hessian":[7.4E1,4.4E1,3E1,2.3E1,2.1E1,2.6E1,4E0],"tree_param":{"num_deleted":"0","num_feature":"16","num_nodes":"7","size_leaf_vector":"1"}},{"base_weights":[7.666607E2,-7.3509385E3,1.142238E4,-5.05996E2,-1.18552216E2,2.2025331E2,8.3619934E2],"categories":[],"categories_nodes":[],"categories_segments":[],"categories_sizes":[],"default_left":[0,0,0,0,0,0,0],"id":28,"left_children":[1,3,5,-1,-1,-1,-1],"loss_changes":[6.356614E9,1.0891464E9,1.8689564E9,0E0,0E0,0E0,0E0],"parents":[2147483647,0,0,1,1,2,2],"right_children":[2,4,6,-1,-1,-1,-1],"split_conditions":[5.5328332E4,1.1583E4,4.4652915E0,-5.05996E2,-1.18552216E2,2.2025331E2,8.3619934E2],"split_indices":[10,10,11,0,0,0,0],"split_type":[0,0,0,0,0,0,0],"sum_hessian":[7.2E1,4.1E1,3.1E1,1.5E1,2.6E1,2.2E1,9E0],"tree_param":{"num_deleted":"0","num_feature":"16","num_nodes":"7","size_leaf_vector":"1"}},{"base_weights":[-6.2869495E2,8.957905E3,-1.0450431E4,-1.0030505E1,5.513619E2,-5.190523E2,-6.40597E1],"categories":[],"categories_nodes":[],"categories_segments":[],"categories_sizes":[],"default_left":[0,0,0,0,0,0,0],"id":29,"left_children":[1,3,5,-1,-1,-1,-1],"loss_changes":[7.391853E9,2.289663E9,1.275607E9,0E0,0E0,0E0,0E0],"parents":[2147483647,0,0,1,1,2,2],"right_children":[2,4,6,-1,-1,-1,-1],"split_conditions":[2.02E3,6.5030668E4,4.9E0,-1.0030505E1,5.513619E2,-5.190523E2,-6.40597E1],"split_indices":[0,10,13,0,0,0,0],"split_type":[0,0,0,0,0,0,0],"sum_hessian":[7.7E1,3.9E1,3.8E1,1.6E1,2.3E1,2.6E1,1.2E1],"tree_param":{"num_deleted":"0","num_feature":"16","num_nodes":"7","size_leaf_vector":"1"}},{"base_weights":[-3.1748975E2,-1.0719413E4,6.603482E3,-4.928803E2,-1.987392E2,5.7020435E1,4.489717E2],"categories":[],"categories_nodes":[],"categories_segments":[],"categories_sizes":[],"default_left":[0,0,0,0,0,0,0],"id":30,"left_children":[1,3,5,-1,-1,-1,-1],"loss_changes":[5.363167E9,3.8966835E8,1.2833705E9,0E0,0E0,0E0,0E0],"parents":[2147483647,0,0,1,1,2,2],"right_children":[2,4,6,-1,-1,-1,-1],"split_conditions":[3.9933332E4,1.1583E4,6.8343664E4,-4.928803E2,-1.987392E2,5.7020435E1,4.489717E2],"split_indices":[10,10,10,0,0,0,0],"split_type":[0,0,0,0,0,0,0],"sum_hessian":[7.3E1,2.9E1,4.4E1,1.8E1,1.1E1,2.4E1,2E1],"tree_param":{"num_deleted":"0","num_feature":"16","num_nodes":"7","size_leaf_vector":"1"}},{"base_weights":[-1.1406421E2,7.84803E3,-9.12834E3,7.5322065E0,5.0656873E2,-4.8243054E2,-4.1445534E1],"categories":[],"categories_nodes":[],"categories_segments":[],"categories_sizes":[],"default_left":[0,0,0,0,0,0,0],"id":31,"left_children":[1,3,5,-1,-1,-1,-1],"loss_changes":[5.778299E9,1.9919933E9,1.2427679E9,0E0,0E0,0E0,0E0],"parents":[2147483647,0,0,1,1,2,2],"right_children":[2,4,6,-1,-1,-1,-1],"split_conditions":[2.02E3,6.8343664E4,4.9E0,7.5322065E0,5.0656873E2,-4.8243054E2,-4.1445534E1],"split_indices":[0,10,13,0,0,0,0],"split_type":[0,0,0,0,0,0,0],"sum_hessian":[7.9E1,4.2E1,3.7E1,1.9E1,2.3E1,2.4E1,1.3E1],"tree_param":{"num_deleted":"0","num_feature":"16","num_nodes":"7","size_leaf_vector":"1"}},{"base_weights":[1.2629618E2,-7.236122E3,1.1315871E4,-4.3640857E2,-6.504343E1,2.743122E2,8.652492E2],"categories":[],"categories_nodes":[],"categories_segments":[],"categories_sizes":[],"default_left":[0,0,0,0,0,0,0],"id":32,"left_children":[1,3,5,-1,-1,-1,-1],"loss_changes":[6.3850737E9,1.2015647E9,1.3115231E9,0E0,0E0,0E0,0E0],"parents":[2147483647,0,0,1,1,2,2],"right_children":[2,4,6,-1,-1,-1,-1],"split_conditions":[5.5328332E4,2.1765E4,1E0,-4.3640857E2,-6.504343E1,2.743122E2,8.652492E2],"split_indices":[10,8,12,0,0,0,0],"split_type":[0,0,0,0,0,0,0],"sum_hessian":[7.6E1,4.6E1,3E1,2.4E1,2.2E1,2.4E1,6E0],"tree_param":{"num_deleted":"0","num_feature":"16","num_nodes":"7","size_leaf_vector":"1"}},{"base_weights":[2.6615723E2,8.229161E3,-8.5238955E3,8.297029E2,1.950575E2,-4.739102E2,-7.220276E1],"categories":[],"categories_nodes":[],"categories_segments":[],"categories_sizes":[],"default_left":[0,0,0,0,0,0,0],"id":33,"left_children":[1,3,5,-1,-1,-1,-1],"loss_changes":[5.705417E9,1.6933443E9,1.1274982E9,0E0,0E0,0E0,0E0],"parents":[2147483647,0,0,1,1,2,2],"right_children":[2,4,6,-1,-1,-1,-1],"split_conditions":[2.02E3,3E0,3.4E0,8.297029E2,1.950575E2,-4.739102E2,-7.220276E1],"split_indices":[0,1,13,0,0,0,0],"split_type":[0,0,0,0,0,0,0],"sum_hessian":[8E1,4.2E1,3.8E1,6E0,3.6E1,2.2E1,1.6E1],"tree_param":{"num_deleted":"0","num_feature":"16","num_nodes":"7","size_leaf_vector":"1"}},{"base_weights":[5.0060684E2,-6.210212E3,1.2464655E4,-3.920746E2,-2.9420153E1,8.7360803E2,3.254559E2],"categories":[],"categories_nodes":[],"categories_segments":[],"categories_sizes":[],"default_left":[0,0,0,0,0,0,0],"id":34,"left_children":[1,3,5,-1,-1,-1,-1],"loss_changes":[5.980124E9,1.1767108E9,9.2330496E8,0E0,0E0,0E0,0E0],"parents":[2147483647,0,0,1,1,2,2],"right_children":[2,4,6,-1,-1,-1,-1],"split_conditions":[6.5030668E4,2.5664E4,3E0,-3.920746E2,-2.9420153E1,8.7360803E2,3.254559E2],"split_indices":[10,10,1,0,0,0,0],"split_type":[0,0,0,0,0,0,0],"sum_hessian":[7.3E1,4.7E1,2.6E1,2.5E1,2.2E1,5E0,2.1E1],"tree_param":{"num_deleted":"0","num_feature":"16","num_nodes":"7","size_leaf_vector":"1"}},{"base_weights":[8.434867E2,-6.90253E3,8.367489E3,-3.9645624E2,-1.0994376E2,1.9143242E2,9.034529E2],"categories":[],"categories_nodes":[],"categories_segments":[],"categories_sizes":[],"default_left":[0,0,0,0,0,0,0],"id":35,"left_children":[1,3,5,-1,-1,-1,-1],"loss_changes":[4.3421215E9,5.470744E8,1.8307942E9,0E0,0E0,0E0,0E0],"parents":[2147483647,0,0,1,1,2,2],"right_children":[2,4,6,-1,-1,-1,-1],"split_conditions":[5.028E4,1.545E4,1.5024823E1,-3.9645624E2,-1.0994376E2,1.9143242E2,9.034529E2],"split_indices":[8,8,11,0,0,0,0],"split_type":[0,0,0,0,0,0,0],"sum_hessian":[7.3E1,3.6E1,3.7E1,1.7E1,1.9E1,3.2E1,5E0],"tree_param":{"num_deleted":"0","num_feature":"16","num_nodes":"7","size_leaf_vector":"1"}},{"base_weights":[-1.3700233E3,-7.7413584E3,5.975696E3,-4.0269623E2,-1.3514003E2,-4.242579E2,2.89919E2],"categories":[],"categories_nodes":[],"categories_segments":[],"categories_sizes":[],"default_left":[0,0,0,0,0,0,0],"id":36,"left_children":[1,3,5,-1,-1,-1,-1],"loss_changes":[3.3932042E9,4.906601E8,1.2684932E9,0E0,0E0,0E0,0E0],"parents":[2147483647,0,0,1,1,2,2],"right_children":[2,4,6,-1,-1,-1,-1],"split_conditions":[5.0258E4,1.545E4,-3.4079456E1,-4.0269623E2,-1.3514003E2,-4.242579E2,2.89919E2],"split_indices":[8,8,11,0,0,0,0],"split_type":[0,0,0,0,0,0,0],"sum_hessian":[7.1E1,3.8E1,3.3E1,2E1,1.8E1,3E0,3E1],"tree_param":{"num_deleted":"0","num_feature":"16","num_nodes":"7","size_leaf_vector":"1"}},{"base_weights":[-5.6232204E1,-4.0723457E3,1.1890556E4,-3.5936215E2,-4.206478E0,1.0074687E3,3.2400687E2],"categories":[],"categories_nodes":[],"categories_segments":[],"categories_sizes":[],"default_left":[0,0,0,0,0,0,0],"id":37,"left_children":[1,3,5,-1,-1,-1,-1],"loss_changes":[3.767208E9,1.353383E9,7.4231936E8,0E0,0E0,0E0,0E0],"parents":[2147483647,0,0,1,1,2,2],"right_children":[2,4,6,-1,-1,-1,-1],"split_conditions":[7.2463E4,2.2309666E4,3E0,-3.5936215E2,-4.206478E0,1.0074687E3,3.2400687E2],"split_indices":[10,10,1,0,0,0,0],"split_type":[0,0,0,0,0,0,0],"sum_hessian":[7.7E1,5.8E1,1.9E1,2.3E1,3.5E1,2E0,1.7E1],"tree_param":{"num_deleted":"0","num_feature":"16","num_nodes":"7","size_leaf_vector":"1"}},{"base_weights":[-7.912669E1,6.295456E3,-7.52177E3,1.5880274E1,4.2354147E2,-4.479023E2,-7.6815735E1],"categories":[],"categories_nodes":[],"categories_segments":[],"categories_sizes":[],"default_left":[0,0,0,0,0,0,0],"id":38,"left_children":[1,3,5,-1,-1,-1,-1],"loss_changes":[3.6772933E9,1.3097268E9,9.109732E8,0E0,0E0,0E0,0E0],"parents":[2147483647,0,0,1,1,2,2],"right_children":[2,4,6,-1,-1,-1,-1],"split_conditions":[2.02E3,-2.3179831E-2,3.1E0,1.5880274E1,4.2354147E2,-4.479023E2,-7.6815735E1],"split_indices":[0,11,13,0,0,0,0],"split_type":[0,0,0,0,0,0,0],"sum_hessian":[7.6E1,4.1E1,3.5E1,2E1,2.1E1,1.8E1,1.7E1],"tree_param":{"num_deleted":"0","num_feature":"16","num_nodes":"7","size_leaf_vector":"1"}},{"base_weights":[1.4390945E2,6.143548E3,-7.9374185E3,-1.8505629E1,4.1684406E2,-4.0753207E2,-8.62661E1],"categories":[],"categories_nodes":[],"categories_segments":[],"categories_sizes":[],"default_left":[0,0,0,0,0,0,0],"id":39,"left_children":[1,3,5,-1,-1,-1,-1],"loss_changes":[3.6128259E9,1.5227918E9,5.604073E8,0E0,0E0,0E0,0E0],"parents":[2147483647,0,0,1,1,2,2],"right_children":[2,4,6,-1,-1,-1,-1],"split_conditions":[2.02E3,6.8343664E4,2.022E3,-1.8505629E1,4.1684406E2,-4.0753207E2,-8.62661E1],"split_indices":[0,10,0,0,0,0,0],"split_type":[0,0,0,0,0,0,0],"sum_hessian":[7.3E1,4.2E1,3.1E1,1.9E1,2.3E1,1.9E1,1.2E1],"tree_param":{"num_deleted":"0","num_feature":"16","num_nodes":"7","size_leaf_vector":"1"}},{"base_weights":[4.2996252E2,-4.492976E3,1.0510353E4,-3.3450992E2,-3.36776E1,2.4348526E2,8.05612E2],"categories":[],"categories_nodes":[],"categories_segments":[],"categories_sizes":[],"default_left":[0,0,0,0,0,0,0],"id":40,"left_children":[1,3,5,-1,-1,-1,-1],"loss_changes":[3.7453809E9,8.477734E8,9.873974E8,0E0,0E0,0E0,0E0],"parents":[2147483647,0,0,1,1,2,2],"right_children":[2,4,6,-1,-1,-1,-1],"split_conditions":[6.5030668E4,2.2309666E4,1E0,-3.3450992E2,-3.36776E1,2.4348526E2,8.05612E2],"split_indices":[10,10,12,0,0,0,0],"split_type":[0,0,0,0,0,0,0],"sum_hessian":[7.4E1,5E1,2.4E1,2.1E1,2.9E1,1.9E1,5E0],"tree_param":{"num_deleted":"0","num_feature":"16","num_nodes":"7","size_leaf_vector":"1"}},{"base_weights":[6.0632526E2,-5.106609E3,7.526206E3,-3.8778394E2,-1.0754693E2,1.0649796E2,6.068737E2],"categories":[],"categories_nodes":[],"categories_segments":[],"categories_sizes":[],"default_left":[0,0,0,0,0,0,0],"id":41,"left_children":[1,3,5,-1,-1,-1,-1],"loss_changes":[2.8656934E9,4.5131405E8,1.3453814E9,0E0,0E0,0E0,0E0],"parents":[2147483647,0,0,1,1,2,2],"right_children":[2,4,6,-1,-1,-1,-1],"split_conditions":[5.5328332E4,7.671E3,4.4652915E0,-3.8778394E2,-1.0754693E2,1.0649796E2,6.068737E2],"split_indices":[10,10,11,0,0,0,0],"split_type":[0,0,0,0,0,0,0],"sum_hessian":[7.1E1,3.9E1,3.2E1,1E1,2.9E1,2.2E1,1E1],"tree_param":{"num_deleted":"0","num_feature":"16","num_nodes":"7","size_leaf_vector":"1"}},{"base_weights":[-3.5289462E2,5.2584023E3,-6.5845103E3,7.692916E-2,3.8411374E2,-3.4362982E2,-7.2647285E1],"categories":[],"categories_nodes":[],"categories_segments":[],"categories_sizes":[],"default_left":[0,0,0,0,0,0,0],"id":42,"left_children":[1,3,5,-1,-1,-1,-1],"loss_changes":[2.6401306E9,1.1119459E9,4.5771533E8,0E0,0E0,0E0,0E0],"parents":[2147483647,0,0,1,1,2,2],"right_children":[2,4,6,-1,-1,-1,-1],"split_conditions":[2.02E3,-2.3179831E-2,3.4E0,7.692916E-2,3.8411374E2,-3.4362982E2,-7.2647285E1],"split_indices":[0,11,13,0,0,0,0],"split_type":[0,0,0,0,0,0,0],"sum_hessian":[7.4E1,3.9E1,3.5E1,2E1,1.9E1,2.1E1,1.4E1],"tree_param":{"num_deleted":"0","num_feature":"16","num_nodes":"7","size_leaf_vector":"1"}},{"base_weights":[-5.8583887E2,5.0492666E3,-6.975508E3,7.636185E2,1.06570244E2,-3.5854654E2,-3.3914616E1],"categories":[],"categories_nodes":[],"categories_segments":[],"categories_sizes":[],"default_left":[0,0,0,0,0,0,0],"id":43,"left_children":[1,3,5,-1,-1,-1,-1],"loss_changes":[2.8262728E9,1.3642007E9,6.3698765E8,0E0,0E0,0E0,0E0],"parents":[2147483647,0,0,1,1,2,2],"right_children":[2,4,6,-1,-1,-1,-1],"split_conditions":[2.02E3,3E0,4.9E0,7.636185E2,1.06570244E2,-3.5854654E2,-3.3914616E1],"split_indices":[0,1,13,0,0,0,0],"split_type":[0,0,0,0,0,0,0],"sum_hessian":[7.7E1,4.1E1,3.6E1,4E0,3.7E1,2.4E1,1.2E1],"tree_param":{"num_deleted":"0","num_feature":"16","num_nodes":"7","size_leaf_vector":"1"}},{"base_weights":[4.572788E2,-4.360491E3,9.0436455E3,-2.888957E2,-2.8177977E1,-4.778218E2,4.080475E2],"categories":[],"categories_nodes":[],"categories_segments":[],"categories_sizes":[],"default_left":[0,0,0,0,0,0,0],"id":44,"left_children":[1,3,5,-1,-1,-1,-1],"loss_changes":[3.080807E9,6.109772E8,1.415872E9,0E0,0E0,0E0,0E0],"parents":[2147483647,0,0,1,1,2,2],"right_children":[2,4,6,-1,-1,-1,-1],"split_conditions":[6.5030668E4,2.5664E4,-4.2713936E1,-2.888957E2,-2.8177977E1,-4.778218E2,4.080475E2],"split_indices":[10,10,11,0,0,0,0],"split_type":[0,0,0,0,0,0,0],"sum_hessian":[7.3E1,4.7E1,2.6E1,2.3E1,2.4E1,2E0,2.4E1],"tree_param":{"num_deleted":"0","num_feature":"16","num_nodes":"7","size_leaf_vector":"1"}},{"base_weights":[8.431736E2,5.868295E3,-5.39175E3,1.218415E2,6.720571E2,-3.0832205E2,-3.5025223E1],"categories":[],"categories_nodes":[],"categories_segments":[],"categories_sizes":[],"default_left":[0,0,0,0,0,0,0],"id":45,"left_children":[1,3,5,-1,-1,-1,-1],"loss_changes":[2.3660536E9,1.2793249E9,4.5712454E8,0E0,0E0,0E0,0E0],"parents":[2147483647,0,0,1,1,2,2],"right_children":[2,4,6,-1,-1,-1,-1],"split_conditions":[2.02E3,7.9832E4,3.4E0,1.218415E2,6.720571E2,-3.0832205E2,-3.5025223E1],"split_indices":[0,10,13,0,0,0,0],"split_type":[0,0,0,0,0,0,0],"sum_hessian":[7.4E1,4.1E1,3.3E1,3.5E1,6E0,1.9E1,1.4E1],"tree_param":{"num_deleted":"0","num_feature":"16","num_nodes":"7","size_leaf_vector":"1"}},{"base_weights":[-3.3666428E2,-2.5576982E3,1.4660573E4,-2.5001906E2,2.8690166E1,6.863169E2,-4.7198437E1],"categories":[],"categories_nodes":[],"categories_segments":[],"categories_sizes":[],"default_left":[0,0,0,0,0,0,0],"id":46,"left_children":[1,3,5,-1,-1,-1,-1],"loss_changes":[2.5183416E9,9.570336E8,6.791583E8,0E0,0E0,0E0,0E0],"parents":[2147483647,0,0,1,1,2,2],"right_children":[2,4,6,-1,-1,-1,-1],"split_conditions":[7.7068E4,3.5973332E4,8.8082E4,-2.5001906E2,2.8690166E1,6.863169E2,-4.7198437E1],"split_indices":[10,10,9,0,0,0,0],"split_type":[0,0,0,0,0,0,0],"sum_hessian":[7.4E1,6.5E1,9E0,2.8E1,3.7E1,7E0,2E0],"tree_param":{"num_deleted":"0","num_feature":"16","num_nodes":"7","size_leaf_vector":"1"}},{"base_weights":[1.7281902E2,-2.6833713E3,1.298668E4,-3.578081E2,-8.10858E0,3.2611847E2,9.626019E2],"categories":[],"categories_nodes":[],"categories_segments":[],"categories_sizes":[],"default_left":[0,0,0,0,0,0,0],"id":47,"left_children":[1,3,5,-1,-1,-1,-1],"loss_changes":[2.7622597E9,1.087874E9,5.652086E8,0E0,0E0,0E0,0E0],"parents":[2147483647,0,0,1,1,2,2],"right_children":[2,4,6,-1,-1,-1,-1],"split_conditions":[7.2792336E4,-1.7619486E1,1.9512337E1,-3.578081E2,-8.10858E0,3.2611847E2,9.626019E2],"split_indices":[10,11,11,0,0,0,0],"split_type":[0,0,0,0,0,0,0],"sum_hessian":[7.4E1,6.1E1,1.3E1,1.5E1,4.6E1,1.1E1,2E0],"tree_param":{"num_deleted":"0","num_feature":"16","num_nodes":"7","size_leaf_vector":"1"}},{"base_weights":[-2.1157019E2,-1.6942083E3,2.0636648E4,1.0364605E2,-1.9844392E2,9.372305E2,3.5592642E2],"categories":[],"categories_nodes":[],"categories_segments":[],"categories_sizes":[],"default_left":[0,0,0,0,0,0,0],"id":48,"left_children":[1,3,5,-1,-1,-1,-1],"loss_changes":[2.2134436E9,1.1570871E9,7.56343E7,0E0,0E0,0E0,0E0],"parents":[2147483647,0,0,1,1,2,2],"right_children":[2,4,6,-1,-1,-1,-1],"split_conditions":[7.9832E4,2.02E3,1.5E1,1.0364605E2,-1.9844392E2,9.372305E2,3.5592642E2],"split_indices":[10,0,4,0,0,0,0],"split_type":[0,0,0,0,0,0,0],"sum_hessian":[7E1,6.6E1,4E0,3E1,3.6E1,2E0,2E0],"tree_param":{"num_deleted":"0","num_feature":"16","num_nodes":"7","size_leaf_vector":"1"}},{"base_weights":[2.0641331E2,-4.7238315E3,6.235438E3,-2.8584747E2,-6.615204E1,3.1282675E2,-2.6525034E2],"categories":[],"categories_nodes":[],"categories_segments":[],"categories_sizes":[],"default_left":[0,0,0,0,0,0,0],"id":49,"left_children":[1,3,5,-1,-1,-1,-1],"loss_changes":[2.3631956E9,3.89029E8,1.200259E9,0E0,0E0,0E0,0E0],"parents":[2147483647,0,0,1,1,2,2],"right_children":[2,4,6,-1,-1,-1,-1],"split_conditions":[5.5328332E4,1.545E4,8.8082E4,-2.8584747E2,-6.615204E1,3.1282675E2,-2.6525034E2],"split_indices":[10,8,9,0,0,0,0],"split_type":[0,0,0,0,0,0,0],"sum_hessian":[7.8E1,4.3E1,3.5E1,2E1,2.3E1,3E1,5E0],"tree_param":{"num_deleted":"0","num_feature":"16","num_nodes":"7","size_leaf_vector":"1"}},{"base_weights":[-9.3968146E2,-4.9326143E3,3.3893E3,-2.7708133E2,-8.388309E1,-4.04709E2,1.7740114E2],"categories":[],"categories_nodes":[],"categories_segments":[],"categories_sizes":[],"default_left":[0,0,0,0,0,0,0],"id":50,"left_children":[1,3,5,-1,-1,-1,-1],"loss_changes":[1.3566428E9,2.7513E8,8.6265126E8,0E0,0E0,0E0,0E0],"parents":[2147483647,0,0,1,1,2,2],"right_children":[2,4,6,-1,-1,-1,-1],"split_conditions":[5.028E4,1.545E4,-3.4079456E1,-2.7708133E2,-8.388309E1,-4.04709E2,1.7740114E2],"split_indices":[8,8,11,0,0,0,0],"split_type":[0,0,0,0,0,0,0],"sum_hessian":[7.7E1,4E1,3.7E1,1.9E1,2.1E1,3E0,3.4E1],"tree_param":{"num_deleted":"0","num_feature":"16","num_nodes":"7","size_leaf_vector":"1"}},{"base_weights":[-9.359256E1,-2.6732769E3,8.816973E3,-3.425785E2,-3.0388472E1,2.1040326E2,8.9960675E2],"categories":[],"categories_nodes":[],"categories_segments":[],"categories_sizes":[],"default_left":[0,0,0,0,0,0,0],"id":51,"left_children":[1,3,5,-1,-1,-1,-1],"loss_changes":[1.9200326E9,7.9814285E8,7.961407E8,0E0,0E0,0E0,0E0],"parents":[2147483647,0,0,1,1,2,2],"right_children":[2,4,6,-1,-1,-1,-1],"split_conditions":[7.2792336E4,-1.7619486E1,1.9512337E1,-3.425785E2,-3.0388472E1,2.1040326E2,8.9960675E2],"split_indices":[10,11,11,0,0,0,0],"split_type":[0,0,0,0,0,0,0],"sum_hessian":[8.2E1,6.4E1,1.8E1,1.3E1,5.1E1,1.6E1,2E0],"tree_param":{"num_deleted":"0","num_feature":"16","num_nodes":"7","size_leaf_vector":"1"}},{"base_weights":[-9.870715E1,4.0881868E3,-4.986135E3,9.903686E1,8.2046655E2,-4.1452576E2,-9.078579E1],"categories":[],"categories_nodes":[],"categories_segments":[],"categories_sizes":[],"default_left":[0,0,0,0,0,0,0],"id":52,"left_children":[1,3,5,-1,-1,-1,-1],"loss_changes":[1.5860375E9,1.00487264E9,5.499988E8,0E0,0E0,0E0,0E0],"parents":[2147483647,0,0,1,1,2,2],"right_children":[2,4,6,-1,-1,-1,-1],"split_conditions":[2.02E3,5.2537216E1,2.021E3,9.903686E1,8.2046655E2,-4.1452576E2,-9.078579E1],"split_indices":[0,11,0,0,0,0,0],"split_type":[0,0,0,0,0,0,0],"sum_hessian":[7.6E1,4.1E1,3.5E1,3.9E1,2E0,9E0,2.6E1],"tree_param":{"num_deleted":"0","num_feature":"16","num_nodes":"7","size_leaf_vector":"1"}},{"base_weights":[-4.3286568E1,-1.9826716E3,1.4747818E4,-3.1301056E2,-9.297737E0,3.4168423E2,8.6377783E2],"categories":[],"categories_nodes":[],"categories_segments":[],"categories_sizes":[],"default_left":[0,0,0,0,0,0,0],"id":53,"left_children":[1,3,5,-1,-1,-1,-1],"loss_changes":[2.1664607E9,7.634866E8,2.5347392E8,0E0,0E0,0E0,0E0],"parents":[2147483647,0,0,1,1,2,2],"right_children":[2,4,6,-1,-1,-1,-1],"split_conditions":[7.7321336E4,-1.7619486E1,7.567648E0,-3.1301056E2,-9.297737E0,3.4168423E2,8.6377783E2],"split_indices":[10,11,11,0,0,0,0],"split_type":[0,0,0,0,0,0,0],"sum_hessian":[7.4E1,6.6E1,8E0,1.3E1,5.3E1,6E0,2E0],"tree_param":{"num_deleted":"0","num_feature":"16","num_nodes":"7","size_leaf_vector":"1"}},{"base_weights":[-6.56769E2,-4.5778955E3,4.596294E3,-1.1582259E2,-3.3285117E2,6.73619E1,6.249103E2],"categories":[],"categories_nodes":[],"categories_segments":[],"categories_sizes":[],"default_left":[0,0,0,0,0,0,0],"id":54,"left_children":[1,3,5,-1,-1,-1,-1],"loss_changes":[1.57628E9,2.5661754E8,1.1085101E9,0E0,0E0,0E0,0E0],"parents":[2147483647,0,0,1,1,2,2],"right_children":[2,4,6,-1,-1,-1,-1],"split_conditions":[5.2341E4,1E0,1E0,-1.1582259E2,-3.3285117E2,6.73619E1,6.249103E2],"split_indices":[8,15,12,0,0,0,0],"split_type":[0,0,0,0,0,0,0],"sum_hessian":[7.5E1,4.3E1,3.2E1,3.4E1,9E0,2.7E1,5E0],"tree_param":{"num_deleted":"0","num_feature":"16","num_nodes":"7","size_leaf_vector":"1"}},{"base_weights":[-1.6328458E2,3.433199E3,-3.9575142E3,-2.3042715E1,2.340688E2,-2.5921075E2,-2.8530422E1],"categories":[],"categories_nodes":[],"categories_segments":[],"categories_sizes":[],"default_left":[0,0,0,0,0,0,0],"id":55,"left_children":[1,3,5,-1,-1,-1,-1],"loss_changes":[1.00306374E9,4.659647E8,3.566107E8,0E0,0E0,0E0,0E0],"parents":[2147483647,0,0,1,1,2,2],"right_children":[2,4,6,-1,-1,-1,-1],"split_conditions":[2.02E3,6.8343664E4,3.1E0,-2.3042715E1,2.340688E2,-2.5921075E2,-2.8530422E1],"split_indices":[0,10,13,0,0,0,0],"split_type":[0,0,0,0,0,0,0],"sum_hessian":[7.2E1,3.7E1,3.5E1,1.6E1,2.1E1,1.7E1,1.8E1],"tree_param":{"num_deleted":"0","num_feature":"16","num_nodes":"7","size_leaf_vector":"1"}},{"base_weights":[2.392706E1,-3.5966475E3,5.2807446E3,-3.1267395E2,-9.342196E1,-8.7863106E1,3.9592825E2],"categories":[],"categories_nodes":[],"categories_segments":[],"categories_sizes":[],"default_left":[0,0,0,0,0,0,0],"id":56,"left_children":[1,3,5,-1,-1,-1,-1],"loss_changes":[1.3419653E9,1.976018E8,1.2653814E9,0E0,0E0,0E0,0E0],"parents":[2147483647,0,0,1,1,2,2],"right_children":[2,4,6,-1,-1,-1,-1],"split_conditions":[5.5328332E4,2.826E3,-1.4564846E0,-3.1267395E2,-9.342196E1,-8.7863106E1,3.9592825E2],"split_indices":[10,8,11,0,0,0,0],"split_type":[0,0,0,0,0,0,0],"sum_hessian":[6.9E1,4.1E1,2.8E1,6E0,3.5E1,1.2E1,1.6E1],"tree_param":{"num_deleted":"0","num_feature":"16","num_nodes":"7","size_leaf_vector":"1"}},{"base_weights":[5.5715588E1,-1.3183939E3,1.4239306E4,-2.8579675E2,1.5747289E1,2.6631442E2,8.0793506E2],"categories":[],"categories_nodes":[],"categories_segments":[],"categories_sizes":[],"default_left":[0,0,0,0,0,0,0],"id":57,"left_children":[1,3,5,-1,-1,-1,-1],"loss_changes":[1.4906317E9,8.035359E8,2.5049088E8,0E0,0E0,0E0,0E0],"parents":[2147483647,0,0,1,1,2,2],"right_children":[2,4,6,-1,-1,-1,-1],"split_conditions":[7.9832E4,-1.7619486E1,5.1205072E0,-2.8579675E2,1.5747289E1,2.6631442E2,8.0793506E2],"split_indices":[10,11,11,0,0,0,0],"split_type":[0,0,0,0,0,0,0],"sum_hessian":[7.5E1,6.9E1,6E0,1.4E1,5.5E1,4E0,2E0],"tree_param":{"num_deleted":"0","num_feature":"16","num_nodes":"7","size_leaf_vector":"1"}},{"base_weights":[2.2646107E2,-3.8204255E3,4.8677544E3,-9.148129E1,-3.185751E2,5.4537415E2,9.8310356E1],"categories":[],"categories_nodes":[],"categories_segments":[],"categories_sizes":[],"default_left":[0,0,0,0,0,0,0],"id":58,"left_children":[1,3,5,-1,-1,-1,-1],"loss_changes":[1.3617988E9,2.3303923E8,7.095769E8,0E0,0E0,0E0,0E0],"parents":[2147483647,0,0,1,1,2,2],"right_children":[2,4,6,-1,-1,-1,-1],"split_conditions":[5.5328332E4,1E0,3E0,-9.148129E1,-3.185751E2,5.4537415E2,9.8310356E1],"split_indices":[10,15,1,0,0,0,0],"split_type":[0,0,0,0,0,0,0],"sum_hessian":[7.1E1,3.8E1,3.3E1,3.1E1,7E0,5E0,2.8E1],"tree_param":{"num_deleted":"0","num_feature":"16","num_nodes":"7","size_leaf_vector":"1"}},{"base_weights":[-1.0038217E1,-1.2756807E3,1.3622703E4,-1.4117912E2,7.27843E1,2.5176454E2,7.781573E2],"categories":[],"categories_nodes":[],"categories_segments":[],"categories_sizes":[],"default_left":[0,0,0,0,0,0,0],"id":59,"left_children":[1,3,5,-1,-1,-1,-1],"loss_changes":[1.3719633E9,6.2948634E8,2.4063629E8,0E0,0E0,0E0,0E0],"parents":[2147483647,0,0,1,1,2,2],"right_children":[2,4,6,-1,-1,-1,-1],"split_conditions":[7.9832E4,5.0258E4,1E0,-1.4117912E2,7.27843E1,2.5176454E2,7.781573E2],"split_indices":[10,8,12,0,0,0,0],"split_type":[0,0,0,0,0,0,0],"sum_hessian":[7.8E1,7.2E1,6E0,4E1,3.2E1,4E0,2E0],"tree_param":{"num_deleted":"0","num_feature":"16","num_nodes":"7","size_leaf_vector":"1"}},{"base_weights":[-3.3390134E2,-1.353315E3,1.24202E4,-2.7109512E2,1.8232462E1,6.964661E2,1.8011931E2],"categories":[],"categories_nodes":[],"categories_segments":[],"categories_sizes":[],"default_left":[0,0,0,0,0,0,0],"id":60,"left_children":[1,3,5,-1,-1,-1,-1],"loss_changes":[1.01062726E9,8.1680006E8,2.1844026E8,0E0,0E0,0E0,0E0],"parents":[2147483647,0,0,1,1,2,2],"right_children":[2,4,6,-1,-1,-1,-1],"split_conditions":[7.9832E4,-1.7619486E1,3E0,-2.7109512E2,1.8232462E1,6.964661E2,1.8011931E2],"split_indices":[10,11,1,0,0,0,0],"split_type":[0,0,0,0,0,0,0],"sum_hessian":[7.6E1,7.1E1,5E0,1.6E1,5.5E1,2E0,3E0],"tree_param":{"num_deleted":"0","num_feature":"16","num_nodes":"7","size_leaf_vector":"1"}},{"base_weights":[-1.10703094E2,-3.5989219E3,3.3796538E3,-8.580188E1,-2.7698822E2,6.233286E1,6.7287616E2],"categories":[],"categories_nodes":[],"categories_segments":[],"categories_sizes":[],"default_left":[0,0,0,0,0,0,0],"id":61,"left_children":[1,3,5,-1,-1,-1,-1],"loss_changes":[9.436843E8,1.7938067E8,9.5248755E8,0E0,0E0,0E0,0E0],"parents":[2147483647,0,0,1,1,2,2],"right_children":[2,4,6,-1,-1,-1,-1],"split_conditions":[5.028E4,1E0,5.2537216E1,-8.580188E1,-2.7698822E2,6.233286E1,6.7287616E2],"split_indices":[8,15,11,0,0,0,0],"split_type":[0,0,0,0,0,0,0],"sum_hessian":[7.6E1,3.8E1,3.8E1,3E1,8E0,3.5E1,3E0],"tree_param":{"num_deleted":"0","num_feature":"16","num_nodes":"7","size_leaf_vector":"1"}},{"base_weights":[-2.4508655E2,-3.796681E3,3.3116628E3,-1.723051E1,-2.3487183E2,5.6346485E1,6.533582E2],"categories":[],"categories_nodes":[],"categories_segments":[],"categories_sizes":[],"default_left":[0,0,0,0,0,0,0],"id":62,"left_children":[1,3,5,-1,-1,-1,-1],"loss_changes":[9.0327866E8,3.151169E8,9.0278515E8,0E0,0E0,0E0,0E0],"parents":[2147483647,0,0,1,1,2,2],"right_children":[2,4,6,-1,-1,-1,-1],"split_conditions":[3.2E0,2.02E3,6.04432E1,-1.723051E1,-2.3487183E2,5.6346485E1,6.533582E2],"split_indices":[13,0,11,0,0,0,0],"split_type":[0,0,0,0,0,0,0],"sum_hessian":[7E1,3.5E1,3.5E1,1.6E1,1.9E1,3.2E1,3E0],"tree_param":{"num_deleted":"0","num_feature":"16","num_nodes":"7","size_leaf_vector":"1"}},{"base_weights":[5.902736E2,-2.3617725E3,6.386363E3,-2.4196654E2,-2.3838734E1,5.4875E2,1.3069003E2],"categories":[],"categories_nodes":[],"categories_segments":[],"categories_sizes":[],"default_left":[0,0,0,0,0,0,0],"id":63,"left_children":[1,3,5,-1,-1,-1,-1],"loss_changes":[1.2562508E9,3.544067E8,5.6101805E8,0E0,0E0,0E0,0E0],"parents":[2147483647,0,0,1,1,2,2],"right_children":[2,4,6,-1,-1,-1,-1],"split_conditions":[6.5030668E4,8.0663335E3,3E0,-2.4196654E2,-2.3838734E1,5.4875E2,1.3069003E2],"split_indices":[10,10,1,0,0,0,0],"split_type":[0,0,0,0,0,0,0],"sum_hessian":[7.2E1,4.8E1,2.4E1,1.3E1,3.5E1,5E0,1.9E1],"tree_param":{"num_deleted":"0","num_feature":"16","num_nodes":"7","size_leaf_vector":"1"}},{"base_weights":[-1.5719106E2,-1.2193583E3,1.5896303E4,6.0925476E1,-1.4022319E2,2.7704105E2,7.190689E2],"categories":[],"categories_nodes":[],"categories_segments":[],"categories_sizes":[],"default_left":[0,0,0,0,0,0,0],"id":64,"left_children":[1,3,5,-1,-1,-1,-1],"loss_changes":[1.3063587E9,5.543603E8,3.952896E7,0E0,0E0,0E0,0E0],"parents":[2147483647,0,0,1,1,2,2],"right_children":[2,4,6,-1,-1,-1,-1],"split_conditions":[7.9832E4,2.02E3,5.1205072E0,6.0925476E1,-1.4022319E2,2.7704105E2,7.190689E2],"split_indices":[10,0,11,0,0,0,0],"split_type":[0,0,0,0,0,0,0],"sum_hessian":[7.5E1,7.1E1,4E0,3.4E1,3.7E1,2E0,2E0],"tree_param":{"num_deleted":"0","num_feature":"16","num_nodes":"7","size_leaf_vector":"1"}},{"base_weights":[3.6900607E2,-7.5229254E2,1.2072932E4,-2.0631683E2,4.141091E1,2.1704723E2,7.001163E2],"categories":[],"categories_nodes":[],"categories_segments":[],"categories_sizes":[],"default_left":[0,0,0,0,0,0,0],"id":65,"left_children":[1,3,5,-1,-1,-1,-1],"loss_changes":[1.0141659E9,6.652249E8,2.0980749E8,0E0,0E0,0E0,0E0],"parents":[2147483647,0,0,1,1,2,2],"right_children":[2,4,6,-1,-1,-1,-1],"split_conditions":[7.9832E4,-1.0742431E1,5.1205072E0,-2.0631683E2,4.141091E1,2.1704723E2,7.001163E2],"split_indices":[10,11,11,0,0,0,0],"split_type":[0,0,0,0,0,0,0],"sum_hessian":[7.6E1,7E1,6E0,1.9E1,5.1E1,4E0,2E0],"tree_param":{"num_deleted":"0","num_feature":"16","num_nodes":"7","size_leaf_vector":"1"}},{"base_weights":[2.636816E2,3.5474944E3,-3.025528E3,-6.998958E-1,2.286527E2,-4.2849783E2,-7.194122E1],"categories":[],"categories_nodes":[],"categories_segments":[],"categories_sizes":[],"default_left":[0,0,0,0,0,0,0],"id":66,"left_children":[1,3,5,-1,-1,-1,-1],"loss_changes":[7.939405E8,3.606588E8,3.1912576E8,0E0,0E0,0E0,0E0],"parents":[2147483647,0,0,1,1,2,2],"right_children":[2,4,6,-1,-1,-1,-1],"split_conditions":[2.02E3,-2.3179831E-2,-6.4995865E1,-6.998958E-1,2.286527E2,-4.2849783E2,-7.194122E1],"split_indices":[0,11,11,0,0,0,0],"split_type":[0,0,0,0,0,0,0],"sum_hessian":[7.2E1,3.6E1,3.6E1,1.6E1,2E1,3E0,3.3E1],"tree_param":{"num_deleted":"0","num_feature":"16","num_nodes":"7","size_leaf_vector":"1"}},{"base_weights":[-1.008372E2,-1.1716299E3,1.1601924E4,-2.1798979E2,2.1349424E1,2.0693712E2,6.756365E2],"categories":[],"categories_nodes":[],"categories_segments":[],"categories_sizes":[],"default_left":[0,0,0,0,0,0,0],"id":67,"left_children":[1,3,5,-1,-1,-1,-1],"loss_changes":[1.0096828E9,6.2985446E8,1.9928198E8,0E0,0E0,0E0,0E0],"parents":[2147483647,0,0,1,1,2,2],"right_children":[2,4,6,-1,-1,-1,-1],"split_conditions":[7.9832E4,-1.3433348E1,5.1205072E0,-2.1798979E2,2.1349424E1,2.0693712E2,6.756365E2],"split_indices":[10,11,11,0,0,0,0],"split_type":[0,0,0,0,0,0,0],"sum_hessian":[7.9E1,7.3E1,6E0,1.9E1,5.4E1,4E0,2E0],"tree_param":{"num_deleted":"0","num_feature":"16","num_nodes":"7","size_leaf_vector":"1"}},{"base_weights":[-3.6807306E2,-4.5886436E3,1.208019E3,-1.1559938E2,-4.6811316E2,-9.777437E1,1.455658E2],"categories":[],"categories_nodes":[],"categories_segments":[],"categories_sizes":[],"default_left":[0,0,0,0,0,0,0],"id":68,"left_children":[1,3,5,-1,-1,-1,-1],"loss_changes":[5.0810986E8,2.1110826E8,6.1745325E8,0E0,0E0,0E0,0E0],"parents":[2147483647,0,0,1,1,2,2],"right_children":[2,4,6,-1,-1,-1,-1],"split_conditions":[-1.0742431E1,3.3E1,3.7466E4,-1.1559938E2,-4.6811316E2,-9.777437E1,1.455658E2],"split_indices":[11,4,8,0,0,0,0],"split_type":[0,0,0,0,0,0,0],"sum_hessian":[7.5E1,2E1,5.5E1,1.8E1,2E0,2.3E1,3.2E1],"tree_param":{"num_deleted":"0","num_feature":"16","num_nodes":"7","size_leaf_vector":"1"}},{"base_weights":[1.4455716E2,-1.0797831E3,1.0669736E4,-2.072953E2,1.6869263E1,2.0892752E2,6.539921E2],"categories":[],"categories_nodes":[],"categories_segments":[],"categories_sizes":[],"default_left":[0,0,0,0,0,0,0],"id":69,"left_children":[1,3,5,-1,-1,-1,-1],"loss_changes":[9.591406E8,4.7932963E8,2.0163347E8,0E0,0E0,0E0,0E0],"parents":[2147483647,0,0,1,1,2,2],"right_children":[2,4,6,-1,-1,-1,-1],"split_conditions":[7.7321336E4,-1.449231E1,7.567648E0,-2.072953E2,1.6869263E1,2.0892752E2,6.539921E2],"split_indices":[10,11,11,0,0,0,0],"split_type":[0,0,0,0,0,0,0],"sum_hessian":[7.3E1,6.6E1,7E0,1.6E1,5E1,5E0,2E0],"tree_param":{"num_deleted":"0","num_feature":"16","num_nodes":"7","size_leaf_vector":"1"}},{"base_weights":[3.9752646E2,3.3903418E3,-3.4267583E3,4.5233313E2,5.828987E1,-9.8769806E1,-5.3488324E2],"categories":[],"categories_nodes":[],"categories_segments":[],"categories_sizes":[],"default_left":[0,0,0,0,0,0,0],"id":70,"left_children":[1,3,5,-1,-1,-1,-1],"loss_changes":[8.529244E8,6.607228E8,2.312888E8,0E0,0E0,0E0,0E0],"parents":[2147483647,0,0,1,1,2,2],"right_children":[2,4,6,-1,-1,-1,-1],"split_conditions":[2.02E3,3E0,3.3E1,4.5233313E2,5.828987E1,-9.8769806E1,-5.3488324E2],"split_indices":[0,1,4,0,0,0,0],"split_type":[0,0,0,0,0,0,0],"sum_hessian":[7.3E1,4.1E1,3.2E1,6E0,3.5E1,3.1E1,1E0],"tree_param":{"num_deleted":"0","num_feature":"16","num_nodes":"7","size_leaf_vector":"1"}},{"base_weights":[2.9269614E2,-4.855007E3,2.051892E3,-1.3441849E2,-5.238176E2,-3.1007465E1,2.62606E2],"categories":[],"categories_nodes":[],"categories_segments":[],"categories_sizes":[],"default_left":[0,0,0,0,0,0,0],"id":71,"left_children":[1,3,5,-1,-1,-1,-1],"loss_changes":[6.663746E8,1.6660582E8,8.2906496E8,0E0,0E0,0E0,0E0],"parents":[2147483647,0,0,1,1,2,2],"right_children":[2,4,6,-1,-1,-1,-1],"split_conditions":[-1.0742431E1,9.0596E4,6.5030668E4,-1.3441849E2,-5.238176E2,-3.1007465E1,2.62606E2],"split_indices":[11,8,10,0,0,0,0],"split_type":[0,0,0,0,0,0,0],"sum_hessian":[7.2E1,1.8E1,5.4E1,1.7E1,1E0,3.5E1,1.9E1],"tree_param":{"num_deleted":"0","num_feature":"16","num_nodes":"7","size_leaf_vector":"1"}},{"base_weights":[2.3209203E2,-1.2374355E3,8.517253E3,-1.19780754E2,6.0306805E1,4.1038983E2,-9.697131E1],"categories":[],"categories_nodes":[],"categories_segments":[],"categories_sizes":[],"default_left":[0,0,0,0,0,0,0],"id":72,"left_children":[1,3,5,-1,-1,-1,-1],"loss_changes":[8.6942304E8,3.672025E8,3.5806298E8,0E0,0E0,0E0,0E0],"parents":[2147483647,0,0,1,1,2,2],"right_children":[2,4,6,-1,-1,-1,-1],"split_conditions":[7.5670664E4,3.7E0,8.8082E4,-1.19780754E2,6.0306805E1,4.1038983E2,-9.697131E1],"split_indices":[10,13,9,0,0,0,0],"split_type":[0,0,0,0,0,0,0],"sum_hessian":[7E1,6E1,1E1,3.5E1,2.5E1,8E0,2E0],"tree_param":{"num_deleted":"0","num_feature":"16","num_nodes":"7","size_leaf_vector":"1"}},{"base_weights":[-4.8143442E2,2.296705E3,-3.2494282E3,3.8930588E1,6.0520215E2,-2.4463564E2,-4.6215797E1],"categories":[],"categories_nodes":[],"categories_segments":[],"categories_sizes":[],"default_left":[0,0,0,0,0,0,0],"id":73,"left_children":[1,3,5,-1,-1,-1,-1],"loss_changes":[5.497315E8,6.157152E8,2.4005971E8,0E0,0E0,0E0,0E0],"parents":[2147483647,0,0,1,1,2,2],"right_children":[2,4,6,-1,-1,-1,-1],"split_conditions":[2.02E3,5.2537216E1,2.021E3,3.8930588E1,6.0520215E2,-2.4463564E2,-4.6215797E1],"split_indices":[0,11,0,0,0,0,0],"split_type":[0,0,0,0,0,0,0],"sum_hessian":[7E1,3.5E1,3.5E1,3.3E1,2E0,1.2E1,2.3E1],"tree_param":{"num_deleted":"0","num_feature":"16","num_nodes":"7","size_leaf_vector":"1"}},{"base_weights":[1.3789981E2,6.3163066E3,-1.1903878E3,2.7635216E1,3.755186E2,4.4588852E1,-1.3637161E2],"categories":[],"categories_nodes":[],"categories_segments":[],"categories_sizes":[],"default_left":[0,0,0,0,0,0,0],"id":74,"left_children":[1,3,5,-1,-1,-1,-1],"loss_changes":[5.4531136E8,2.5699536E8,3.432539E8,0E0,0E0,0E0,0E0],"parents":[2147483647,0,0,1,1,2,2],"right_children":[2,4,6,-1,-1,-1,-1],"split_conditions":[3.1E1,3.3E0,2.02E3,2.7635216E1,3.755186E2,4.4588852E1,-1.3637161E2],"split_indices":[5,13,0,0,0,0,0],"split_type":[0,0,0,0,0,0,0],"sum_hessian":[6.5E1,1.1E1,5.4E1,5E0,6E0,2.8E1,2.6E1],"tree_param":{"num_deleted":"0","num_feature":"16","num_nodes":"7","size_leaf_vector":"1"}},{"base_weights":[-4.2078378E2,-3.1607156E3,1.4278346E3,-2.021096E2,-7.7336006E1,9.880093E1,-2.303318E2],"categories":[],"categories_nodes":[],"categories_segments":[],"categories_sizes":[],"default_left":[0,0,0,0,0,0,0],"id":75,"left_children":[1,3,5,-1,-1,-1,-1],"loss_changes":[3.871139E8,6.730675E7,4.729956E8,0E0,0E0,0E0,0E0],"parents":[2147483647,0,0,1,1,2,2],"right_children":[2,4,6,-1,-1,-1,-1],"split_conditions":[4.1163332E4,5.418E3,8.4317E4,-2.021096E2,-7.7336006E1,9.880093E1,-2.303318E2],"split_indices":[10,8,9,0,0,0,0],"split_type":[0,0,0,0,0,0,0],"sum_hessian":[7.5E1,3E1,4.5E1,8E0,2.2E1,3.9E1,6E0],"tree_param":{"num_deleted":"0","num_feature":"16","num_nodes":"7","size_leaf_vector":"1"}},{"base_weights":[1.2868242E2,-2.2987063E3,4.437314E3,-1.9518782E2,-3.9371166E1,4.4985828E2,7.517535E1],"categories":[],"categories_nodes":[],"categories_segments":[],"categories_sizes":[],"default_left":[0,0,0,0,0,0,0],"id":76,"left_children":[1,3,5,-1,-1,-1,-1],"loss_changes":[7.4770874E8,1.6657509E8,4.6541405E8,0E0,0E0,0E0,0E0],"parents":[2147483647,0,0,1,1,2,2],"right_children":[2,4,6,-1,-1,-1,-1],"split_conditions":[6.5030668E4,8.0663335E3,3E0,-1.9518782E2,-3.9371166E1,4.4985828E2,7.517535E1],"split_indices":[10,10,1,0,0,0,0],"split_type":[0,0,0,0,0,0,0],"sum_hessian":[7E1,4.5E1,2.5E1,1.2E1,3.3E1,5E0,2E1],"tree_param":{"num_deleted":"0","num_feature":"16","num_nodes":"7","size_leaf_vector":"1"}},{"base_weights":[-3.3892338E1,-4.6810234E3,1.7170055E3,-1.291846E2,-4.156944E2,-3.320662E1,2.4739592E2],"categories":[],"categories_nodes":[],"categories_segments":[],"categories_sizes":[],"default_left":[0,0,0,0,0,0,0],"id":77,"left_children":[1,3,5,-1,-1,-1,-1],"loss_changes":[6.4687155E8,1.3457258E8,7.7941466E8,0E0,0E0,0E0,0E0],"parents":[2147483647,0,0,1,1,2,2],"right_children":[2,4,6,-1,-1,-1,-1],"split_conditions":[-1.0742431E1,3.3E1,6.5030668E4,-1.291846E2,-4.156944E2,-3.320662E1,2.4739592E2],"split_indices":[11,4,10,0,0,0,0],"split_type":[0,0,0,0,0,0,0],"sum_hessian":[7.8E1,2.1E1,5.7E1,1.9E1,2E0,3.8E1,1.9E1],"tree_param":{"num_deleted":"0","num_feature":"16","num_nodes":"7","size_leaf_vector":"1"}},{"base_weights":[2.3343155E2,-7.153293E2,9.864352E3,-2.1811597E2,1.3475547E1,1.6893001E2,5.865554E2],"categories":[],"categories_nodes":[],"categories_segments":[],"categories_sizes":[],"default_left":[0,0,0,0,0,0,0],"id":78,"left_children":[1,3,5,-1,-1,-1,-1],"loss_changes":[6.884026E8,3.970314E8,1.6470944E8,0E0,0E0,0E0,0E0],"parents":[2147483647,0,0,1,1,2,2],"right_children":[2,4,6,-1,-1,-1,-1],"split_conditions":[7.9832E4,-1.8393656E1,5.1205072E0,-2.1811597E2,1.3475547E1,1.6893001E2,5.865554E2],"split_indices":[10,11,11,0,0,0,0],"split_type":[0,0,0,0,0,0,0],"sum_hessian":[7.4E1,6.8E1,6E0,1.1E1,5.7E1,4E0,2E0],"tree_param":{"num_deleted":"0","num_feature":"16","num_nodes":"7","size_leaf_vector":"1"}},{"base_weights":[3.0804968E2,-5.452553E2,9.590652E3,-1.625188E2,2.5115253E1,1.6377055E2,5.710955E2],"categories":[],"categories_nodes":[],"categories_segments":[],"categories_sizes":[],"default_left":[0,0,0,0,0,0,0],"id":79,"left_children":[1,3,5,-1,-1,-1,-1],"loss_changes":[6.3568474E8,3.6099318E8,1.5708109E8,0E0,0E0,0E0,0E0],"parents":[2147483647,0,0,1,1,2,2],"right_children":[2,4,6,-1,-1,-1,-1],"split_conditions":[7.9832E4,-1.3433348E1,5.1205072E0,-1.625188E2,2.5115253E1,1.6377055E2,5.710955E2],"split_indices":[10,11,11,0,0,0,0],"split_type":[0,0,0,0,0,0,0],"sum_hessian":[7.9E1,7.3E1,6E0,1.7E1,5.6E1,4E0,2E0],"tree_param":{"num_deleted":"0","num_feature":"16","num_nodes":"7","size_leaf_vector":"1"}},{"base_weights":[-1.3117723E2,-7.2285815E2,5.560431E2,-1.7497194E2,2.6014341E1],"categories":[],"categories_nodes":[],"categories_segments":[],"categories_sizes":[],"default_left":[0,0,0,0,0],"id":80,"left_children":[1,3,-1,-1,-1],"loss_changes":[6.824216E8,4.2570198E8,0E0,0E0,0E0],"parents":[2147483647,0,0,1,1],"right_children":[2,4,-1,-1,-1],"split_conditions":[8.5782664E4,-1.3433348E1,5.560431E2,-1.7497194E2,2.6014341E1],"split_indices":[10,11,0,0,0],"split_type":[0,0,0,0,0],"sum_hessian":[7.3E1,7.1E1,2E0,1.8E1,5.3E1],"tree_param":{"num_deleted":"0","num_feature":"16","num_nodes":"5","size_leaf_vector":"1"}},{"base_weights":[1.5342468E2,-6.065607E2,9.477139E3,-1.5289078E2,2.8251509E1,5.7206684E1,4.8537018E2],"categories":[],"categories_nodes":[],"categories_segments":[],"categories_sizes":[],"default_left":[0,0,0,0,0,0,0],"id":81,"left_children":[1,3,5,-1,-1,-1,-1],"loss_changes":[5.411372E8,3.5563107E8,1.6104656E8,0E0,0E0,0E0,0E0],"parents":[2147483647,0,0,1,1,2,2],"right_children":[2,4,6,-1,-1,-1,-1],"split_conditions":[7.9832E4,-1.0742431E1,1E0,-1.5289078E2,2.8251509E1,5.7206684E1,4.8537018E2],"split_indices":[10,11,3,0,0,0,0],"split_type":[0,0,0,0,0,0,0],"sum_hessian":[7.5E1,7E1,5E0,1.9E1,5.1E1,2E0,3E0],"tree_param":{"num_deleted":"0","num_feature":"16","num_nodes":"7","size_leaf_vector":"1"}},{"base_weights":[-4.0882425E2,5.3490715E0,-1.063348E4,-6.277347E1,1.0716494E2,-4.8390506E2,-1.2212849E2],"categories":[],"categories_nodes":[],"categories_segments":[],"categories_sizes":[],"default_left":[0,0,0,0,0,0,0],"id":82,"left_children":[1,3,5,-1,-1,-1,-1],"loss_changes":[2.9968214E8,3.55187E8,2.0111936E7,0E0,0E0,0E0,0E0],"parents":[2147483647,0,0,1,1,2,2],"right_children":[2,4,6,-1,-1,-1,-1],"split_conditions":[3.7E1,5.5328332E4,2E0,-6.277347E1,1.0716494E2,-4.8390506E2,-1.2212849E2],"split_indices":[4,10,1,0,0,0,0],"split_type":[0,0,0,0,0,0,0],"sum_hessian":[7E1,6.8E1,2E0,4.3E1,2.5E1,1E0,1E0],"tree_param":{"num_deleted":"0","num_feature":"16","num_nodes":"7","size_leaf_vector":"1"}},{"base_weights":[-3.2482907E2,-4.6622295E3,6.2333325E2,-1.9791324E2,-9.8505554E1,-3.780772E2,3.91602E1],"categories":[],"categories_nodes":[],"categories_segments":[],"categories_sizes":[],"default_left":[0,0,0,0,0,0,0],"id":83,"left_children":[1,3,5,-1,-1,-1,-1],"loss_changes":[3.38419E8,1.151744E7,3.489231E8,0E0,0E0,0E0,0E0],"parents":[2147483647,0,0,1,1,2,2],"right_children":[2,4,6,-1,-1,-1,-1],"split_conditions":[8.0663335E3,4.447E3,-7.601881E1,-1.9791324E2,-9.8505554E1,-3.780772E2,3.91602E1],"split_indices":[10,8,11,0,0,0,0],"split_type":[0,0,0,0,0,0,0],"sum_hessian":[8.1E1,1.4E1,6.7E1,9E0,5E0,2E0,6.5E1],"tree_param":{"num_deleted":"0","num_feature":"16","num_nodes":"7","size_leaf_vector":"1"}},{"base_weights":[-6.526338E1,-7.2024054E2,8.564914E3,-1.513504E2,1.7777313E1,9.158933E1,5.247376E2],"categories":[],"categories_nodes":[],"categories_segments":[],"categories_sizes":[],"default_left":[0,0,0,0,0,0,0],"id":84,"left_children":[1,3,5,-1,-1,-1,-1],"loss_changes":[4.6112464E8,3.176112E8,1.7720806E8,0E0,0E0,0E0,0E0],"parents":[2147483647,0,0,1,1,2,2],"right_children":[2,4,6,-1,-1,-1,-1],"split_conditions":[7.9832E4,-1.3433348E1,5.1205072E0,-1.513504E2,1.7777313E1,9.158933E1,5.247376E2],"split_indices":[10,11,11,0,0,0,0],"split_type":[0,0,0,0,0,0,0],"sum_hessian":[8E1,7.5E1,5E0,1.9E1,5.6E1,3E0,2E0],"tree_param":{"num_deleted":"0","num_feature":"16","num_nodes":"7","size_leaf_vector":"1"}},{"base_weights":[1.1072489E2,-5.854907E2,7.930157E3,-8.846876E0,-4.6294128E2,5.8018054E2,1.34328E2],"categories":[],"categories_nodes":[],"categories_segments":[],"categories_sizes":[],"default_left":[0,0,0,0,0,0,0],"id":85,"left_children":[1,3,5,-1,-1,-1,-1],"loss_changes":[3.8325728E8,2.6692046E8,1.5132829E8,0E0,0E0,0E0,0E0],"parents":[2147483647,0,0,1,1,2,2],"right_children":[2,4,6,-1,-1,-1,-1],"split_conditions":[7.9832E4,1.07752E5,2E0,-8.846876E0,-4.6294128E2,5.8018054E2,1.34328E2],"split_indices":[10,8,1,0,0,0,0],"split_type":[0,0,0,0,0,0,0],"sum_hessian":[6.9E1,6.4E1,5E0,6.3E1,1E0,1E0,4E0],"tree_param":{"num_deleted":"0","num_feature":"16","num_nodes":"7","size_leaf_vector":"1"}},{"base_weights":[-6.907612E1,1.9506459E3,-2.3549133E3,3.0904495E1,4.79184E2,-6.617696E1,-4.5336398E2],"categories":[],"categories_nodes":[],"categories_segments":[],"categories_sizes":[],"default_left":[0,0,0,0,0,0,0],"id":86,"left_children":[1,3,5,-1,-1,-1,-1],"loss_changes":[3.7167744E8,5.2021907E8,1.8638771E8,0E0,0E0,0E0,0E0],"parents":[2147483647,0,0,1,1,2,2],"right_children":[2,4,6,-1,-1,-1,-1],"split_conditions":[2.02E3,5.2537216E1,5.8003E4,3.0904495E1,4.79184E2,-6.617696E1,-4.5336398E2],"split_indices":[0,11,8,0,0,0,0],"split_type":[0,0,0,0,0,0,0],"sum_hessian":[7.9E1,4.2E1,3.7E1,3.9E1,3E0,3.6E1,1E0],"tree_param":{"num_deleted":"0","num_feature":"16","num_nodes":"7","size_leaf_vector":"1"}},{"base_weights":[1.9403099E2,-4.629707E2,8.702926E3,-1.3276817E2,3.0356234E1,5.681668E1,4.4257578E2],"categories":[],"categories_nodes":[],"categories_segments":[],"categories_sizes":[],"default_left":[0,0,0,0,0,0,0],"id":87,"left_children":[1,3,5,-1,-1,-1,-1],"loss_changes":[4.4890646E8,3.1247955E8,1.2883395E8,0E0,0E0,0E0,0E0],"parents":[2147483647,0,0,1,1,2,2],"right_children":[2,4,6,-1,-1,-1,-1],"split_conditions":[7.9832E4,-1.0742431E1,9E0,-1.3276817E2,3.0356234E1,5.681668E1,4.4257578E2],"split_indices":[10,11,4,0,0,0,0],"split_type":[0,0,0,0,0,0,0],"sum_hessian":[7.9E1,7.4E1,5E0,2.1E1,5.3E1,2E0,3E0],"tree_param":{"num_deleted":"0","num_feature":"16","num_nodes":"7","size_leaf_vector":"1"}},{"base_weights":[7.9327156E1,-1.2321365E3,4.283365E3,-3.0903624E1,-4.4123813E2,4.934338E2,8.446043E1],"categories":[],"categories_nodes":[],"categories_segments":[],"categories_sizes":[],"default_left":[0,0,0,0,0,0,0],"id":88,"left_children":[1,3,5,-1,-1,-1,-1],"loss_changes":[3.8857658E8,2.1582013E8,2.813123E8,0E0,0E0,0E0,0E0],"parents":[2147483647,0,0,1,1,2,2],"right_children":[2,4,6,-1,-1,-1,-1],"split_conditions":[7.2463E4,7.9494E4,3E0,-3.0903624E1,-4.4123813E2,4.934338E2,8.446043E1],"split_indices":[10,8,1,0,0,0,0],"split_type":[0,0,0,0,0,0,0],"sum_hessian":[6.9E1,5.3E1,1.6E1,5.2E1,1E0,2E0,1.4E1],"tree_param":{"num_deleted":"0","num_feature":"16","num_nodes":"7","size_leaf_vector":"1"}},{"base_weights":[3.8786777E2,-1.3339418E3,3.7719832E3,-2.054095E2,-2.4968472E1,4.5624463E2,8.212235E1],"categories":[],"categories_nodes":[],"categories_segments":[],"categories_sizes":[],"default_left":[0,0,0,0,0,0,0],"id":89,"left_children":[1,3,5,-1,-1,-1,-1],"loss_changes":[4.6269E8,1.4446091E8,3.338426E8,0E0,0E0,0E0,0E0],"parents":[2147483647,0,0,1,1,2,2],"right_children":[2,4,6,-1,-1,-1,-1],"split_conditions":[6.5030668E4,2.826E3,5.653E4,-2.054095E2,-2.4968472E1,4.5624463E2,8.212235E1],"split_indices":[10,8,8,0,0,0,0],"split_type":[0,0,0,0,0,0,0],"sum_hessian":[7.8E1,5.2E1,2.6E1,6E0,4.6E1,3E0,2.3E1],"tree_param":{"num_deleted":"0","num_feature":"16","num_nodes":"7","size_leaf_vector":"1"}},{"base_weights":[-2.205742E2,-2.068724E3,2.0840264E3,-1.9051532E2,-4.69134E1,1.0202188E2,-4.3380875E2],"categories":[],"categories_nodes":[],"categories_segments":[],"categories_sizes":[],"default_left":[0,0,0,0,0,0,0],"id":90,"left_children":[1,3,5,-1,-1,-1,-1],"loss_changes":[3.131362E8,9.547979E7,3.5903526E8,0E0,0E0,0E0,0E0],"parents":[2147483647,0,0,1,1,2,2],"right_children":[2,4,6,-1,-1,-1,-1],"split_conditions":[5.175E4,2.826E3,3.7E1,-1.9051532E2,-4.69134E1,1.0202188E2,-4.3380875E2],"split_indices":[8,8,4,0,0,0,0],"split_type":[0,0,0,0,0,0,0],"sum_hessian":[7.2E1,4E1,3.2E1,7E0,3.3E1,3.1E1,1E0],"tree_param":{"num_deleted":"0","num_feature":"16","num_nodes":"7","size_leaf_vector":"1"}},{"base_weights":[1.7694077E2,-1.5123435E3,3.2004504E3,-1.9570534E2,-3.5876114E1,1.8348906E2,-2.3842621E2],"categories":[],"categories_nodes":[],"categories_segments":[],"categories_sizes":[],"default_left":[0,0,0,0,0,0,0],"id":91,"left_children":[1,3,5,-1,-1,-1,-1],"loss_changes":[3.956865E8,9.711857E7,5.2751875E8,0E0,0E0,0E0,0E0],"parents":[2147483647,0,0,1,1,2,2],"right_children":[2,4,6,-1,-1,-1,-1],"split_conditions":[6.5030668E4,1.574E3,8.8082E4,-1.9570534E2,-3.5876114E1,1.8348906E2,-2.3842621E2],"split_indices":[10,8,9,0,0,0,0],"split_type":[0,0,0,0,0,0,0],"sum_hessian":[7.6E1,4.9E1,2.7E1,5E0,4.4E1,2.3E1,4E0],"tree_param":{"num_deleted":"0","num_feature":"16","num_nodes":"7","size_leaf_vector":"1"}},{"base_weights":[-4.553824E0,-5.8707776E2,6.8541577E3,-2.3742795E0,-2.718801E2,5.235549E2,1.079459E2],"categories":[],"categories_nodes":[],"categories_segments":[],"categories_sizes":[],"default_left":[0,0,0,0,0,0,0],"id":92,"left_children":[1,3,5,-1,-1,-1,-1],"loss_changes":[2.9371603E8,2.4356581E8,1.3661056E8,0E0,0E0,0E0,0E0],"parents":[2147483647,0,0,1,1,2,2],"right_children":[2,4,6,-1,-1,-1,-1],"split_conditions":[7.9832E4,8.2345E4,2E0,-2.3742795E0,-2.718801E2,5.235549E2,1.079459E2],"split_indices":[10,9,1,0,0,0,0],"split_type":[0,0,0,0,0,0,0],"sum_hessian":[7.2E1,6.7E1,5E0,6.3E1,4E0,1E0,4E0],"tree_param":{"num_deleted":"0","num_feature":"16","num_nodes":"7","size_leaf_vector":"1"}},{"base_weights":[1.1017398E2,-1.1653066E3,4.618716E3,-2.9802286E1,-4.1427707E2,3.43603E2,6.1784374E1],"categories":[],"categories_nodes":[],"categories_segments":[],"categories_sizes":[],"default_left":[0,0,0,0,0,0,0],"id":93,"left_children":[1,3,5,-1,-1,-1,-1],"loss_changes":[4.1094627E8,1.8967978E8,2.1050522E8,0E0,0E0,0E0,0E0],"parents":[2147483647,0,0,1,1,2,2],"right_children":[2,4,6,-1,-1,-1,-1],"split_conditions":[7.2792336E4,9.0596E4,7.2422E4,-2.9802286E1,-4.1427707E2,3.43603E2,6.1784374E1],"split_indices":[10,8,9,0,0,0,0],"split_type":[0,0,0,0,0,0,0],"sum_hessian":[7E1,5.5E1,1.5E1,5.4E1,1E0,5E0,1E1],"tree_param":{"num_deleted":"0","num_feature":"16","num_nodes":"7","size_leaf_vector":"1"}},{"base_weights":[2.619066E2,-2.3561272E3,1.8890144E3,-1.5666954E2,-3.7517906E1,-5.8125014E0,2.3527162E2],"categories":[],"categories_nodes":[],"categories_segments":[],"categories_sizes":[],"default_left":[0,0,0,0,0,0,0],"id":94,"left_children":[1,3,5,-1,-1,-1,-1],"loss_changes":[3.3032237E8,7.373616E7,4.5005523E8,0E0,0E0,0E0,0E0],"parents":[2147483647,0,0,1,1,2,2],"right_children":[2,4,6,-1,-1,-1,-1],"split_conditions":[3.5973332E4,5.9176665E3,6.8757796E0,-1.5666954E2,-3.7517906E1,-5.8125014E0,2.3527162E2],"split_indices":[10,10,11,0,0,0,0],"split_type":[0,0,0,0,0,0,0],"sum_hessian":[7.6E1,2.9E1,4.7E1,1.1E1,1.8E1,3.3E1,1.4E1],"tree_param":{"num_deleted":"0","num_feature":"16","num_nodes":"7","size_leaf_vector":"1"}},{"base_weights":[-1.22114685E2,-8.871773E3,2.0595078E2,-4.0558627E2,-1.0003995E2,-7.846096E1,5.837236E1],"categories":[],"categories_nodes":[],"categories_segments":[],"categories_sizes":[],"default_left":[0,0,0,0,0,0,0],"id":95,"left_children":[1,3,5,-1,-1,-1,-1],"loss_changes":[2.1883718E8,1.5497216E7,2.4735195E8,0E0,0E0,0E0,0E0],"parents":[2147483647,0,0,1,1,2,2],"right_children":[2,4,6,-1,-1,-1,-1],"split_conditions":[-7.601881E1,2E0,3.4808E4,-4.0558627E2,-1.0003995E2,-7.846096E1,5.837236E1],"split_indices":[11,1,8,0,0,0,0],"split_type":[0,0,0,0,0,0,0],"sum_hessian":[7.5E1,2E0,7.3E1,1E0,1E0,2.7E1,4.6E1],"tree_param":{"num_deleted":"0","num_feature":"16","num_nodes":"7","size_leaf_vector":"1"}},{"base_weights":[2.5192555E2,-2.6305215E2,1.0590948E4,-3.532668E-1,-3.9719556E2,4.39463E2,1.3283899E2],"categories":[],"categories_nodes":[],"categories_segments":[],"categories_sizes":[],"default_left":[0,0,0,0,0,0,0],"id":96,"left_children":[1,3,5,-1,-1,-1,-1],"loss_changes":[4.2143085E8,2.048084E8,5.945152E6,0E0,0E0,0E0,0E0],"parents":[2147483647,0,0,1,1,2,2],"right_children":[2,4,6,-1,-1,-1,-1],"split_conditions":[8.5782664E4,1.07752E5,1.5E1,-3.532668E-1,-3.9719556E2,4.39463E2,1.3283899E2],"split_indices":[10,8,4,0,0,0,0],"split_type":[0,0,0,0,0,0,0],"sum_hessian":[7.8E1,7.5E1,3E0,7.4E1,1E0,2E0,1E0],"tree_param":{"num_deleted":"0","num_feature":"16","num_nodes":"7","size_leaf_vector":"1"}},{"base_weights":[1.7807233E2,-2.797679E3,1.3687942E3,-7.018528E1,-3.1019998E2,-6.9977554E1,1.3899619E2],"categories":[],"categories_nodes":[],"categories_segments":[],"categories_sizes":[],"default_left":[0,0,0,0,0,0,0],"id":97,"left_children":[1,3,5,-1,-1,-1,-1],"loss_changes":[2.8194192E8,1.0056736E8,4.657089E8,0E0,0E0,0E0,0E0],"parents":[2147483647,0,0,1,1,2,2],"right_children":[2,4,6,-1,-1,-1,-1],"split_conditions":[-1.0742431E1,3.3E1,3.7466E4,-7.018528E1,-3.1019998E2,-6.9977554E1,1.3899619E2],"split_indices":[11,4,8,0,0,0,0],"split_type":[0,0,0,0,0,0,0],"sum_hessian":[7.8E1,2.2E1,5.6E1,2E1,2E0,2.4E1,3.2E1],"tree_param":{"num_deleted":"0","num_feature":"16","num_nodes":"7","size_leaf_vector":"1"}},{"base_weights":[7.008006E0,-5.371858E2,7.760435E3,-8.572257E-2,-2.2867932E2,-3.408857E1,3.7272775E2],"categories":[],"categories_nodes":[],"categories_segments":[],"categories_sizes":[],"default_left":[0,0,0,0,0,0,0],"id":98,"left_children":[1,3,5,-1,-1,-1,-1],"loss_changes":[3.059129E8,2.087604E8,1.1093312E8,0E0,0E0,0E0,0E0],"parents":[2147483647,0,0,1,1,2,2],"right_children":[2,4,6,-1,-1,-1,-1],"split_conditions":[7.9832E4,8.2345E4,1E0,-8.572257E-2,-2.2867932E2,-3.408857E1,3.7272775E2],"split_indices":[10,9,3,0,0,0,0],"split_type":[0,0,0,0,0,0,0],"sum_hessian":[7.1E1,6.7E1,4E0,6.2E1,5E0,1E0,3E0],"tree_param":{"num_deleted":"0","num_feature":"16","num_nodes":"7","size_leaf_vector":"1"}},{"base_weights":[-3.614609E2,-2.6652556E3,6.075951E2,-2.9900925E2,-6.779544E1,-6.949531E1,8.152451E1],"categories":[],"categories_nodes":[],"categories_segments":[],"categories_sizes":[],"default_left":[0,0,0,0,0,0,0],"id":99,"left_children":[1,3,5,-1,-1,-1,-1],"loss_changes":[1.7927749E8,9.397125E7,2.3765656E8,0E0,0E0,0E0,0E0],"parents":[2147483647,0,0,1,1,2,2],"right_children":[2,4,6,-1,-1,-1,-1],"split_conditions":[-1.0742431E1,-7.601881E1,3.5641E4,-2.9900925E2,-6.779544E1,-6.949531E1,8.152451E1],"split_indices":[11,11,8,0,0,0,0],"split_type":[0,0,0,0,0,0,0],"sum_hessian":[7.9E1,2.3E1,5.6E1,2E0,2.1E1,2.2E1,3.4E1],"tree_param":{"num_deleted":"0","num_feature":"16","num_nodes":"7","size_leaf_vector":"1"}},{"base_weights":[3.954551E2,-1.6387421E3,2.479612E3,-9.7849525E1,6.721618E1,5.073342E1,4.042074E2],"categories":[],"categories_nodes":[],"categories_segments":[],"categories_sizes":[],"default_left":[0,0,0,0,0,0,0],"id":100,"left_children":[1,3,5,-1,-1,-1,-1],"loss_changes":[2.9880048E8,1.3558883E8,3.1373747E8,0E0,0E0,0E0,0E0],"parents":[2147483647,0,0,1,1,2,2],"right_children":[2,4,6,-1,-1,-1,-1],"split_conditions":[5.028E4,1.1E1,5.2537216E1,-9.7849525E1,6.721618E1,5.073342E1,4.042074E2],"split_indices":[8,1,11,0,0,0,0],"split_type":[0,0,0,0,0,0,0],"sum_hessian":[6.9E1,3.5E1,3.4E1,2.7E1,8E0,3.1E1,3E0],"tree_param":{"num_deleted":"0","num_feature":"16","num_nodes":"7","size_leaf_vector":"1"}},{"base_weights":[4.2202902E2,-1.0486865E3,2.904619E3,-1.582049E2,-1.1561711E1,2.4947655E2,5.619921E0],"categories":[],"categories_nodes":[],"categories_segments":[],"categories_sizes":[],"default_left":[0,0,0,0,0,0,0],"id":101,"left_children":[1,3,5,-1,-1,-1,-1],"loss_changes":[2.825474E8,1.1675155E8,3.1285104E8,0E0,0E0,0E0,0E0],"parents":[2147483647,0,0,1,1,2,2],"right_children":[2,4,6,-1,-1,-1,-1],"split_conditions":[6.5030668E4,5.418E3,7.2422E4,-1.582049E2,-1.1561711E1,2.4947655E2,5.619921E0],"split_indices":[10,8,9,0,0,0,0],"split_type":[0,0,0,0,0,0,0],"sum_hessian":[7.6E1,4.8E1,2.8E1,8E0,4E1,1.1E1,1.7E1],"tree_param":{"num_deleted":"0","num_feature":"16","num_nodes":"7","size_leaf_vector":"1"}},{"base_weights":[-2.7330057E2,-2.8707476E3,6.9729535E2,-7.2678024E1,-2.9042902E2,-2.769609E1,1.1572214E2],"categories":[],"categories_nodes":[],"categories_segments":[],"categories_sizes":[],"default_left":[0,0,0,0,0,0,0],"id":102,"left_children":[1,3,5,-1,-1,-1,-1],"loss_changes":[1.9249645E8,8.039904E7,2.0455432E8,0E0,0E0,0E0,0E0],"parents":[2147483647,0,0,1,1,2,2],"right_children":[2,4,6,-1,-1,-1,-1],"split_conditions":[-1.0742431E1,3.3E1,6.5030668E4,-7.2678024E1,-2.9042902E2,-2.769609E1,1.1572214E2],"split_indices":[11,4,10,0,0,0,0],"split_type":[0,0,0,0,0,0,0],"sum_hessian":[7.5E1,2E1,5.5E1,1.8E1,2E0,3.5E1,2E1],"tree_param":{"num_deleted":"0","num_feature":"16","num_nodes":"7","size_leaf_vector":"1"}},{"base_weights":[2.3802328E2,-2.5829205E2,6.855022E3,-1.4791672E2,6.9478583E0,2.9714542E1,3.998364E2],"categories":[],"categories_nodes":[],"categories_segments":[],"categories_sizes":[],"default_left":[0,0,0,0,0,0,0],"id":103,"left_children":[1,3,5,-1,-1,-1,-1],"loss_changes":[2.2385667E8,1.0998343E8,1.1253131E8,0E0,0E0,0E0,0E0],"parents":[2147483647,0,0,1,1,2,2],"right_children":[2,4,6,-1,-1,-1,-1],"split_conditions":[8.4914664E4,2.826E3,9E0,-1.4791672E2,6.9478583E0,2.9714542E1,3.998364E2],"split_indices":[10,8,4,0,0,0,0],"split_type":[0,0,0,0,0,0,0],"sum_hessian":[6.7E1,6.3E1,4E0,6E0,5.7E1,2E0,2E0],"tree_param":{"num_deleted":"0","num_feature":"16","num_nodes":"7","size_leaf_vector":"1"}},{"base_weights":[-6.2796474E1,-9.2943E2,4.420331E3,-2.3531647E1,-3.669456E2,2.2200557E2,-1.0131454E2],"categories":[],"categories_nodes":[],"categories_segments":[],"categories_sizes":[],"default_left":[0,0,0,0,0,0,0],"id":104,"left_children":[1,3,5,-1,-1,-1,-1],"loss_changes":[2.8188362E8,1.5188784E8,1.5651126E8,0E0,0E0,0E0,0E0],"parents":[2147483647,0,0,1,1,2,2],"right_children":[2,4,6,-1,-1,-1,-1],"split_conditions":[7.5670664E4,9.0596E4,8.8082E4,-2.3531647E1,-3.669456E2,2.2200557E2,-1.0131454E2],"split_indices":[10,8,9,0,0,0,0],"split_type":[0,0,0,0,0,0,0],"sum_hessian":[7.1E1,6E1,1.1E1,5.9E1,1E0,9E0,2E0],"tree_param":{"num_deleted":"0","num_feature":"16","num_nodes":"7","size_leaf_vector":"1"}},{"base_weights":[3.766835E2,-1.2579003E3,2.3793584E3,1.5047292E2,-5.8083405E1,3.8811014E2,5.90167E1],"categories":[],"categories_nodes":[],"categories_segments":[],"categories_sizes":[],"default_left":[0,0,0,0,0,0,0],"id":105,"left_children":[1,3,5,-1,-1,-1,-1],"loss_changes":[2.5352082E8,8.397834E7,2.0460549E8,0E0,0E0,0E0,0E0],"parents":[2147483647,0,0,1,1,2,2],"right_children":[2,4,6,-1,-1,-1,-1],"split_conditions":[5.2341E4,3E1,2E0,1.5047292E2,-5.8083405E1,3.8811014E2,5.90167E1],"split_indices":[8,5,1,0,0,0,0],"split_type":[0,0,0,0,0,0,0],"sum_hessian":[7.6E1,4.2E1,3.4E1,2E0,4E1,2E0,3.2E1],"tree_param":{"num_deleted":"0","num_feature":"16","num_nodes":"7","size_leaf_vector":"1"}},{"base_weights":[-1.9491263E2,-5.543644E2,9.611849E3,-7.4590826E0,-2.5814948E2,4.4136447E2,1.0644188E2],"categories":[],"categories_nodes":[],"categories_segments":[],"categories_sizes":[],"default_left":[0,0,0,0,0,0,0],"id":106,"left_children":[1,3,5,-1,-1,-1,-1],"loss_changes":[2.7458208E8,1.6989186E8,1.9914976E7,0E0,0E0,0E0,0E0],"parents":[2147483647,0,0,1,1,2,2],"right_children":[2,4,6,-1,-1,-1,-1],"split_conditions":[8.5782664E4,8.8082E4,2E0,-7.4590826E0,-2.5814948E2,4.4136447E2,1.0644188E2],"split_indices":[10,8,1,0,0,0,0],"split_type":[0,0,0,0,0,0,0],"sum_hessian":[7.6E1,7.4E1,2E0,7.1E1,3E0,1E0,1E0],"tree_param":{"num_deleted":"0","num_feature":"16","num_nodes":"7","size_leaf_vector":"1"}},{"base_weights":[9.769914E1,-1.9200375E3,1.5603926E3,-3.668004E1,-2.1411635E2,-6.1199345E1,1.489736E2],"categories":[],"categories_nodes":[],"categories_segments":[],"categories_sizes":[],"default_left":[0,0,0,0,0,0,0],"id":107,"left_children":[1,3,5,-1,-1,-1,-1],"loss_changes":[2.228882E8,1.1040112E8,3.6638157E8,0E0,0E0,0E0,0E0],"parents":[2147483647,0,0,1,1,2,2],"right_children":[2,4,6,-1,-1,-1,-1],"split_conditions":[-2.3179831E-2,7.9877E4,4.1163332E4,-3.668004E1,-2.1411635E2,-6.1199345E1,1.489736E2],"split_indices":[11,9,10,0,0,0,0],"split_type":[0,0,0,0,0,0,0],"sum_hessian":[7.4E1,3.1E1,4.3E1,2.6E1,5E0,1.9E1,2.4E1],"tree_param":{"num_deleted":"0","num_feature":"16","num_nodes":"7","size_leaf_vector":"1"}},{"base_weights":[-1.6645844E2,-8.454004E2,7.3767515E3,-2.1181414E1,-3.5761322E2,7.6685326E1,3.542044E2],"categories":[],"categories_nodes":[],"categories_segments":[],"categories_sizes":[],"default_left":[0,0,0,0,0,0,0],"id":108,"left_children":[1,3,5,-1,-1,-1,-1],"loss_changes":[3.5682534E8,1.4605942E8,5.651888E7,0E0,0E0,0E0,0E0],"parents":[2147483647,0,0,1,1,2,2],"right_children":[2,4,6,-1,-1,-1,-1],"split_conditions":[7.7321336E4,9.0596E4,-1E0,-2.1181414E1,-3.5761322E2,7.6685326E1,3.542044E2],"split_indices":[10,8,13,0,0,0,0],"split_type":[0,0,0,0,0,0,0],"sum_hessian":[6.8E1,6.3E1,5E0,6.2E1,1E0,2E0,3E0],"tree_param":{"num_deleted":"0","num_feature":"16","num_nodes":"7","size_leaf_vector":"1"}},{"base_weights":[3.647035E1,-4.2518842E2,5.787939E3,-1.2354916E2,1.4779314E1,6.0080265E1,3.5707214E2],"categories":[],"categories_nodes":[],"categories_segments":[],"categories_sizes":[],"default_left":[0,0,0,0,0,0,0],"id":109,"left_children":[1,3,5,-1,-1,-1,-1],"loss_changes":[2.0566272E8,1.788764E8,8.396717E7,0E0,0E0,0E0,0E0],"parents":[2147483647,0,0,1,1,2,2],"right_children":[2,4,6,-1,-1,-1,-1],"split_conditions":[8.4914664E4,-1.7619486E1,5.1205072E0,-1.2354916E2,1.4779314E1,6.0080265E1,3.5707214E2],"split_indices":[10,11,11,0,0,0,0],"split_type":[0,0,0,0,0,0,0],"sum_hessian":[7.6E1,7.1E1,5E0,1.5E1,5.6E1,3E0,2E0],"tree_param":{"num_deleted":"0","num_feature":"16","num_nodes":"7","size_leaf_vector":"1"}},{"base_weights":[5.004747E1,-7.396491E2,4.727888E3,-1.7559153E1,-3.47659E2,3.2057883E2,8.2828606E1],"categories":[],"categories_nodes":[],"categories_segments":[],"categories_sizes":[],"default_left":[0,0,0,0,0,0,0],"id":110,"left_children":[1,3,5,-1,-1,-1,-1],"loss_changes":[2.7509923E8,1.4071843E8,9.271443E7,0E0,0E0,0E0,0E0],"parents":[2147483647,0,0,1,1,2,2],"right_children":[2,4,6,-1,-1,-1,-1],"split_conditions":[7.4848E4,9.0596E4,3E0,-1.7559153E1,-3.47659E2,3.2057883E2,8.2828606E1],"split_indices":[10,8,1,0,0,0,0],"split_type":[0,0,0,0,0,0,0],"sum_hessian":[7.3E1,6.3E1,1E1,6.2E1,1E0,3E0,7E0],"tree_param":{"num_deleted":"0","num_feature":"16","num_nodes":"7","size_leaf_vector":"1"}},{"base_weights":[-5.219882E1,-4.49253E2,8.0742715E3,-7.5724727E-1,-1.7739978E2,4.0780466E2,1.3976701E2],"categories":[],"categories_nodes":[],"categories_segments":[],"categories_sizes":[],"default_left":[0,0,0,0,0,0,0],"id":111,"left_children":[1,3,5,-1,-1,-1,-1],"loss_changes":[2.6007443E8,1.4581242E8,1.7441184E7,0E0,0E0,0E0,0E0],"parents":[2147483647,0,0,1,1,2,2],"right_children":[2,4,6,-1,-1,-1,-1],"split_conditions":[8.5782664E4,8.4317E4,2E0,-7.5724727E-1,-1.7739978E2,4.0780466E2,1.3976701E2],"split_indices":[10,9,3,0,0,0,0],"split_type":[0,0,0,0,0,0,0],"sum_hessian":[7.9E1,7.6E1,3E0,7E1,6E0,1E0,2E0],"tree_param":{"num_deleted":"0","num_feature":"16","num_nodes":"7","size_leaf_vector":"1"}},{"base_weights":[-8.8426125E1,-5.5215533E2,4.847342E3,-8.022669E0,-2.3617638E2,5.583913E1,3.3512827E2],"categories":[],"categories_nodes":[],"categories_segments":[],"categories_sizes":[],"default_left":[0,0,0,0,0,0,0],"id":112,"left_children":[1,3,5,-1,-1,-1,-1],"loss_changes":[1.7998779E8,1.4037613E8,8.725894E7,0E0,0E0,0E0,0E0],"parents":[2147483647,0,0,1,1,2,2],"right_children":[2,4,6,-1,-1,-1,-1],"split_conditions":[7.9832E4,8.2345E4,5.1205072E0,-8.022669E0,-2.3617638E2,5.583913E1,3.3512827E2],"split_indices":[10,8,11,0,0,0,0],"split_type":[0,0,0,0,0,0,0],"sum_hessian":[7.7E1,7.1E1,6E0,6.8E1,3E0,4E0,2E0],"tree_param":{"num_deleted":"0","num_feature":"16","num_nodes":"7","size_leaf_vector":"1"}},{"base_weights":[1.13492065E2,-1.7428672E3,1.4405613E3,-4.1942482E1,-2.8409866E2,-4.283562E1,1.274371E2],"categories":[],"categories_nodes":[],"categories_segments":[],"categories_sizes":[],"default_left":[0,0,0,0,0,0,0],"id":113,"left_children":[1,3,5,-1,-1,-1,-1],"loss_changes":[1.9344595E8,1.10237464E8,2.5125075E8,0E0,0E0,0E0,0E0],"parents":[2147483647,0,0,1,1,2,2],"right_children":[2,4,6,-1,-1,-1,-1],"split_conditions":[-2.3179831E-2,9.0575E4,3.7466E4,-4.1942482E1,-2.8409866E2,-4.283562E1,1.274371E2],"split_indices":[11,8,8,0,0,0,0],"split_type":[0,0,0,0,0,0,0],"sum_hessian":[7.7E1,3.2E1,4.5E1,3E1,2E0,2E1,2.5E1],"tree_param":{"num_deleted":"0","num_feature":"16","num_nodes":"7","size_leaf_vector":"1"}},{"base_weights":[-2.4541673E2,2.0997482E2,-4.2590864E3,-3.1448057E1,8.263872E1,-3.2603326E2,-9.281564E1],"categories":[],"categories_nodes":[],"categories_segments":[],"categories_sizes":[],"default_left":[0,0,0,0,0,0,0],"id":114,"left_children":[1,3,5,-1,-1,-1,-1],"loss_changes":[1.3914229E8,1.5436794E8,4.4995024E7,0E0,0E0,0E0,0E0],"parents":[2147483647,0,0,1,1,2,2],"right_children":[2,4,6,-1,-1,-1,-1],"split_conditions":[8.8082E4,5.8821668E4,2E0,-3.1448057E1,8.263872E1,-3.2603326E2,-9.281564E1],"split_indices":[9,10,1,0,0,0,0],"split_type":[0,0,0,0,0,0,0],"sum_hessian":[7.5E1,6.8E1,7E0,4.5E1,2.3E1,1E0,6E0],"tree_param":{"num_deleted":"0","num_feature":"16","num_nodes":"7","size_leaf_vector":"1"}},{"base_weights":[-3.1341423E1,-2.293494E3,9.199875E2,-5.7151276E1,-2.4771979E2,-5.2296925E1,8.862043E1],"categories":[],"categories_nodes":[],"categories_segments":[],"categories_sizes":[],"default_left":[0,0,0,0,0,0,0],"id":115,"left_children":[1,3,5,-1,-1,-1,-1],"loss_changes":[1.581663E8,6.277088E7,1.88455E8,0E0,0E0,0E0,0E0],"parents":[2147483647,0,0,1,1,2,2],"right_children":[2,4,6,-1,-1,-1,-1],"split_conditions":[-1.0742431E1,3.3E1,4.1163332E4,-5.7151276E1,-2.4771979E2,-5.2296925E1,8.862043E1],"split_indices":[11,4,10,0,0,0,0],"split_type":[0,0,0,0,0,0,0],"sum_hessian":[7.2E1,2.1E1,5.1E1,1.9E1,2E0,2E1,3.1E1],"tree_param":{"num_deleted":"0","num_feature":"16","num_nodes":"7","size_leaf_vector":"1"}},{"base_weights":[2.1910233E2,3.737892E3,-5.85227E2,-2.2270844E1,1.960316E2,-3.1416348E2,-1.2932506E1],"categories":[],"categories_nodes":[],"categories_segments":[],"categories_sizes":[],"default_left":[0,0,0,0,0,0,0],"id":116,"left_children":[1,3,5,-1,-1,-1,-1],"loss_changes":[2.2455118E8,1.0917568E8,1.1731622E8,0E0,0E0,0E0,0E0],"parents":[2147483647,0,0,1,1,2,2],"right_children":[2,4,6,-1,-1,-1,-1],"split_conditions":[3.1E1,2.9E0,2E0,-2.2270844E1,1.960316E2,-3.1416348E2,-1.2932506E1],"split_indices":[5,13,1,0,0,0,0],"split_type":[0,0,0,0,0,0,0],"sum_hessian":[7.8E1,1.4E1,6.4E1,4E0,1E1,1E0,6.3E1],"tree_param":{"num_deleted":"0","num_feature":"16","num_nodes":"7","size_leaf_vector":"1"}},{"base_weights":[5.7576065E1,-5.1075226E2,5.0908223E3,-1.4116638E2,-6.4245737E-1,2.9553436E2,6.805549E1],"categories":[],"categories_nodes":[],"categories_segments":[],"categories_sizes":[],"default_left":[0,0,0,0,0,0,0],"id":117,"left_children":[1,3,5,-1,-1,-1,-1],"loss_changes":[2.186661E8,1.1444083E8,6.452808E7,0E0,0E0,0E0,0E0],"parents":[2147483647,0,0,1,1,2,2],"right_children":[2,4,6,-1,-1,-1,-1],"split_conditions":[7.7068E4,4.447E3,3E0,-1.4116638E2,-6.4245737E-1,2.9553436E2,6.805549E1],"split_indices":[10,8,1,0,0,0,0],"split_type":[0,0,0,0,0,0,0],"sum_hessian":[7.5E1,6.8E1,7E0,8E0,6E1,3E0,4E0],"tree_param":{"num_deleted":"0","num_feature":"16","num_nodes":"7","size_leaf_vector":"1"}},{"base_weights":[3.378016E2,-6.9872363E2,2.255874E3,-1.5616852E2,-8.120283E0,2.1402779E2,-6.596829E0],"categories":[],"categories_nodes":[],"categories_segments":[],"categories_sizes":[],"default_left":[0,0,0,0,0,0,0],"id":118,"left_children":[1,3,5,-1,-1,-1,-1],"loss_changes":[1.5180184E8,8.44262E7,2.3814848E8,0E0,0E0,0E0,0E0],"parents":[2147483647,0,0,1,1,2,2],"right_children":[2,4,6,-1,-1,-1,-1],"split_conditions":[6.5030668E4,1.574E3,7.0552E4,-1.5616852E2,-8.120283E0,2.1402779E2,-6.596829E0],"split_indices":[10,9,9,0,0,0,0],"split_type":[0,0,0,0,0,0,0],"sum_hessian":[7.5E1,4.9E1,2.6E1,5E0,4.4E1,1E1,1.6E1],"tree_param":{"num_deleted":"0","num_feature":"16","num_nodes":"7","size_leaf_vector":"1"}},{"base_weights":[-6.1863815E1,-1.2053483E3,1.6250001E3,-3.358983E1,-3.0751437E2,1.9970444E2,1.6548283E1],"categories":[],"categories_nodes":[],"categories_segments":[],"categories_sizes":[],"default_left":[0,0,0,0,0,0,0],"id":119,"left_children":[1,3,5,-1,-1,-1,-1],"loss_changes":[1.6110469E8,9.534606E7,1.5105629E8,0E0,0E0,0E0,0E0],"parents":[2147483647,0,0,1,1,2,2],"right_children":[2,4,6,-1,-1,-1,-1],"split_conditions":[3.7E0,9.0596E4,3E0,-3.358983E1,-3.0751437E2,1.9970444E2,1.6548283E1],"split_indices":[13,8,1,0,0,0,0],"split_type":[0,0,0,0,0,0,0],"sum_hessian":[8.2E1,4.9E1,3.3E1,4.8E1,1E0,7E0,2.6E1],"tree_param":{"num_deleted":"0","num_feature":"16","num_nodes":"7","size_leaf_vector":"1"}},{"base_weights":[-1.4350421E0,-3.667544E2,4.744003E3,-6.3299694E0,-3.0115253E2,3.9245537E1,3.0629514E2],"categories":[],"categories_nodes":[],"categories_segments":[],"categories_sizes":[],"default_left":[0,0,0,0,0,0,0],"id":120,"left_children":[1,3,5,-1,-1,-1,-1],"loss_changes":[1.3957368E8,1.1293284E8,7.094659E7,0E0,0E0,0E0,0E0],"parents":[2147483647,0,0,1,1,2,2],"right_children":[2,4,6,-1,-1,-1,-1],"split_conditions":[8.4914664E4,1.07752E5,5.1205072E0,-6.3299694E0,-3.0115253E2,3.9245537E1,3.0629514E2],"split_indices":[10,8,11,0,0,0,0],"split_type":[0,0,0,0,0,0,0],"sum_hessian":[7.9E1,7.4E1,5E0,7.3E1,1E0,3E0,2E0],"tree_param":{"num_deleted":"0","num_feature":"16","num_nodes":"7","size_leaf_vector":"1"}},{"base_weights":[1.402469E2,-4.447875E2,4.3885435E3,-8.157984E0,-2.949223E2,3.611903E2,9.8136986E1],"categories":[],"categories_nodes":[],"categories_segments":[],"categories_sizes":[],"default_left":[0,0,0,0,0,0,0],"id":121,"left_children":[1,3,5,-1,-1,-1,-1],"loss_changes":[1.7981622E8,1.0635722E8,6.173453E7,0E0,0E0,0E0,0E0],"parents":[2147483647,0,0,1,1,2,2],"right_children":[2,4,6,-1,-1,-1,-1],"split_conditions":[7.7321336E4,9.0596E4,2E0,-8.157984E0,-2.949223E2,3.611903E2,9.8136986E1],"split_indices":[10,8,1,0,0,0,0],"split_type":[0,0,0,0,0,0,0],"sum_hessian":[7.1E1,6.3E1,8E0,6.2E1,1E0,1E0,7E0],"tree_param":{"num_deleted":"0","num_feature":"16","num_nodes":"7","size_leaf_vector":"1"}},{"base_weights":[1.2894856E2,-3.6377844E2,4.2688203E3,-6.4218783E0,-2.8882098E2,3.5371808E2,9.492072E1],"categories":[],"categories_nodes":[],"categories_segments":[],"categories_sizes":[],"default_left":[0,0,0,0,0,0,0],"id":122,"left_children":[1,3,5,-1,-1,-1,-1],"loss_changes":[1.679411E8,1.0357589E8,6.0043824E7,0E0,0E0,0E0,0E0],"parents":[2147483647,0,0,1,1,2,2],"right_children":[2,4,6,-1,-1,-1,-1],"split_conditions":[7.7321336E4,9.0596E4,2E0,-6.4218783E0,-2.8882098E2,3.5371808E2,9.492072E1],"split_indices":[10,8,1,0,0,0,0],"split_type":[0,0,0,0,0,0,0],"sum_hessian":[8.1E1,7.3E1,8E0,7.2E1,1E0,1E0,7E0],"tree_param":{"num_deleted":"0","num_feature":"16","num_nodes":"7","size_leaf_vector":"1"}},{"base_weights":[6.0057648E1,-1.460962E3,1.3121355E3,-3.676255E1,-2.2023659E2,-4.6447323E1,1.2709878E2],"categories":[],"categories_nodes":[],"categories_segments":[],"categories_sizes":[],"default_left":[0,0,0,0,0,0,0],"id":123,"left_children":[1,3,5,-1,-1,-1,-1],"loss_changes":[1.3809979E8,6.2994136E7,2.2885733E8,0E0,0E0,0E0,0E0],"parents":[2147483647,0,0,1,1,2,2],"right_children":[2,4,6,-1,-1,-1,-1],"split_conditions":[-2.3179831E-2,3.3E1,3.4808E4,-3.676255E1,-2.2023659E2,-4.6447323E1,1.2709878E2],"split_indices":[11,4,8,0,0,0,0],"split_type":[0,0,0,0,0,0,0],"sum_hessian":[7.1E1,3.2E1,3.9E1,3E1,2E0,1.8E1,2.1E1],"tree_param":{"num_deleted":"0","num_feature":"16","num_nodes":"7","size_leaf_vector":"1"}},{"base_weights":[-1.3342503E2,-1.9683682E3,6.188994E2,-4.758555E1,-2.1443176E2,-1.9108074E1,1.0056253E2],"categories":[],"categories_nodes":[],"categories_segments":[],"categories_sizes":[],"default_left":[0,0,0,0,0,0,0],"id":124,"left_children":[1,3,5,-1,-1,-1,-1],"loss_changes":[9.8595944E7,4.790412E7,1.2612377E8,0E0,0E0,0E0,0E0],"parents":[2147483647,0,0,1,1,2,2],"right_children":[2,4,6,-1,-1,-1,-1],"split_conditions":[-1.0742431E1,3.3E1,6.5030668E4,-4.758555E1,-2.1443176E2,-1.9108074E1,1.0056253E2],"split_indices":[11,4,10,0,0,0,0],"split_type":[0,0,0,0,0,0,0],"sum_hessian":[7E1,2E1,5E1,1.8E1,2E0,3.3E1,1.7E1],"tree_param":{"num_deleted":"0","num_feature":"16","num_nodes":"7","size_leaf_vector":"1"}},{"base_weights":[-1.9885602E2,-6.6820953E2,3.9211458E3,-1.7423855E1,-2.7385345E2,2.574483E2,2.887184E1],"categories":[],"categories_nodes":[],"categories_segments":[],"categories_sizes":[],"default_left":[0,0,0,0,0,0,0],"id":125,"left_children":[1,3,5,-1,-1,-1,-1],"loss_changes":[1.4653227E8,8.496911E7,7.257845E7,0E0,0E0,0E0,0E0],"parents":[2147483647,0,0,1,1,2,2],"right_children":[2,4,6,-1,-1,-1,-1],"split_conditions":[7.7321336E4,9.0596E4,3E0,-1.7423855E1,-2.7385345E2,2.574483E2,2.887184E1],"split_indices":[10,8,1,0,0,0,0],"split_type":[0,0,0,0,0,0,0],"sum_hessian":[7.4E1,6.7E1,7E0,6.6E1,1E0,3E0,4E0],"tree_param":{"num_deleted":"0","num_feature":"16","num_nodes":"7","size_leaf_vector":"1"}},{"base_weights":[-1.6843697E2,2.4898451E2,-4.3984155E3,-8.947148E0,2.071218E2,-4.403476E1,-2.0134036E2],"categories":[],"categories_nodes":[],"categories_segments":[],"categories_sizes":[],"default_left":[0,0,0,0,0,0,0],"id":126,"left_children":[1,3,5,-1,-1,-1,-1],"loss_changes":[1.3282335E8,1.8690464E8,1.96024E7,0E0,0E0,0E0,0E0],"parents":[2147483647,0,0,1,1,2,2],"right_children":[2,4,6,-1,-1,-1,-1],"split_conditions":[8.8082E4,7.7972336E4,1.4E-1,-8.947148E0,2.071218E2,-4.403476E1,-2.0134036E2],"split_indices":[9,10,7,0,0,0,0],"split_type":[0,0,0,0,0,0,0],"sum_hessian":[7.4E1,6.8E1,6E0,6.3E1,5E0,2E0,4E0],"tree_param":{"num_deleted":"0","num_feature":"16","num_nodes":"7","size_leaf_vector":"1"}},{"base_weights":[-1.11463844E2,2.96059E2,-3.7137734E3,-2.622722E1,1.1038274E2,-6.784071E1,-2.378202E2],"categories":[],"categories_nodes":[],"categories_segments":[],"categories_sizes":[],"default_left":[0,0,0,0,0,0,0],"id":127,"left_children":[1,3,5,-1,-1,-1,-1],"loss_changes":[1.1204254E8,1.9382037E8,3.1343848E7,0E0,0E0,0E0,0E0],"parents":[2147483647,0,0,1,1,2,2],"right_children":[2,4,6,-1,-1,-1,-1],"split_conditions":[8.8082E4,6.8343664E4,9.0575E4,-2.622722E1,1.1038274E2,-6.784071E1,-2.378202E2],"split_indices":[9,10,8,0,0,0,0],"split_type":[0,0,0,0,0,0,0],"sum_hessian":[7.5E1,6.8E1,7E0,5E1,1.8E1,5E0,2E0],"tree_param":{"num_deleted":"0","num_feature":"16","num_nodes":"7","size_leaf_vector":"1"}},{"base_weights":[3.1240048E2,4.8038677E3,-7.256562E1,2.9138058E2,5.3519257E1,-2.2762653E1,5.0867718E1],"categories":[],"categories_nodes":[],"categories_segments":[],"categories_sizes":[],"default_left":[0,0,0,0,0,0,0],"id":128,"left_children":[1,3,5,-1,-1,-1,-1],"loss_changes":[1.260644E8,5.2798584E7,5.6016496E7,0E0,0E0,0E0,0E0],"parents":[2147483647,0,0,1,1,2,2],"right_children":[2,4,6,-1,-1,-1,-1],"split_conditions":[2E0,6.8E-1,7.0405E4,2.9138058E2,5.3519257E1,-2.2762653E1,5.0867718E1],"split_indices":[1,7,8,0,0,0,0],"split_type":[0,0,0,0,0,0,0],"sum_hessian":[7.2E1,5E0,6.7E1,2E0,3E0,4.9E1,1.8E1],"tree_param":{"num_deleted":"0","num_feature":"16","num_nodes":"7","size_leaf_vector":"1"}},{"base_weights":[2.4545197E2,-6.407885E2,1.2837543E3,-5.114332E1,4.6423733E1,-9.85954E0,1.1982888E2],"categories":[],"categories_nodes":[],"categories_segments":[],"categories_sizes":[],"default_left":[0,0,0,0,0,0,0],"id":129,"left_children":[1,3,5,-1,-1,-1,-1],"loss_changes":[6.756955E7,5.995422E7,1.0655662E8,0E0,0E0,0E0,0E0],"parents":[2147483647,0,0,1,1,2,2],"right_children":[2,4,6,-1,-1,-1,-1],"split_conditions":[4.1606784E0,7.0859664E4,3.7466E4,-5.114332E1,4.6423733E1,-9.85954E0,1.1982888E2],"split_indices":[11,10,8,0,0,0,0],"split_type":[0,0,0,0,0,0,0],"sum_hessian":[7.2E1,3.9E1,3.3E1,2.8E1,1.1E1,1.9E1,1.4E1],"tree_param":{"num_deleted":"0","num_feature":"16","num_nodes":"7","size_leaf_vector":"1"}},{"base_weights":[-1.4852449E2,2.1268318E2,-3.8620325E3,-2.9522726E1,7.2216995E1,-6.1708046E1,-2.372858E2],"categories":[],"categories_nodes":[],"categories_segments":[],"categories_sizes":[],"default_left":[0,0,0,0,0,0,0],"id":130,"left_children":[1,3,5,-1,-1,-1,-1],"loss_changes":[1.02236424E8,1.2833708E8,3.066084E7,0E0,0E0,0E0,0E0],"parents":[2147483647,0,0,1,1,2,2],"right_children":[2,4,6,-1,-1,-1,-1],"split_conditions":[8.8082E4,5.8821668E4,7.4348E4,-2.9522726E1,7.2216995E1,-6.1708046E1,-2.372858E2],"split_indices":[9,10,8,0,0,0,0],"split_type":[0,0,0,0,0,0,0],"sum_hessian":[7.5E1,6.9E1,6E0,4.4E1,2.5E1,4E0,2E0],"tree_param":{"num_deleted":"0","num_feature":"16","num_nodes":"7","size_leaf_vector":"1"}},{"base_weights":[2.2821988E2,2.448515E3,-3.6005353E2,-3.230472E1,1.4751376E2,-1.2886629E2,-7.2114784E-1],"categories":[],"categories_nodes":[],"categories_segments":[],"categories_sizes":[],"default_left":[0,0,0,0,0,0,0],"id":131,"left_children":[1,3,5,-1,-1,-1,-1],"loss_changes":[9.830754E7,8.7645896E7,6.4777664E7,0E0,0E0,0E0,0E0],"parents":[2147483647,0,0,1,1,2,2],"right_children":[2,4,6,-1,-1,-1,-1],"split_conditions":[3.1E1,-4.7699594E0,1.574E3,-3.230472E1,1.4751376E2,-1.2886629E2,-7.2114784E-1],"split_indices":[5,11,9,0,0,0,0],"split_type":[0,0,0,0,0,0,0],"sum_hessian":[7.4E1,1.5E1,5.9E1,5E0,1E1,5E0,5.4E1],"tree_param":{"num_deleted":"0","num_feature":"16","num_nodes":"7","size_leaf_vector":"1"}},{"base_weights":[-2.3655014E1,-3.19365E2,5.710498E3,-8.3024605E1,1.1308028E1,3.16743E2,8.08036E1],"categories":[],"categories_nodes":[],"categories_segments":[],"categories_sizes":[],"default_left":[0,0,0,0,0,0,0],"id":132,"left_children":[1,3,5,-1,-1,-1,-1],"loss_changes":[1.2982666E8,9.083469E7,2.4769264E7,0E0,0E0,0E0,0E0],"parents":[2147483647,0,0,1,1,2,2],"right_children":[2,4,6,-1,-1,-1,-1],"split_conditions":[1.1980367E2,-1.5103882E1,2.02E3,-8.3024605E1,1.1308028E1,3.16743E2,8.08036E1],"split_indices":[11,11,0,0,0,0,0],"split_type":[0,0,0,0,0,0,0],"sum_hessian":[7.5E1,7.2E1,3E0,1.7E1,5.5E1,1E0,2E0],"tree_param":{"num_deleted":"0","num_feature":"16","num_nodes":"7","size_leaf_vector":"1"}},{"base_weights":[-2.8642883E2,-1.2938546E3,1.4068212E3,-3.7642044E1,-2.5944968E2,2.5106546E1,2.704275E2],"categories":[],"categories_nodes":[],"categories_segments":[],"categories_sizes":[],"default_left":[0,0,0,0,0,0,0],"id":133,"left_children":[1,3,5,-1,-1,-1,-1],"loss_changes":[1.2206961E8,6.17312E7,1.1173024E8,0E0,0E0,0E0,0E0],"parents":[2147483647,0,0,1,1,2,2],"right_children":[2,4,6,-1,-1,-1,-1],"split_conditions":[3.7E0,9.0596E4,5.824537E1,-3.7642044E1,-2.5944968E2,2.5106546E1,2.704275E2],"split_indices":[13,8,11,0,0,0,0],"split_type":[0,0,0,0,0,0,0],"sum_hessian":[7E1,4.4E1,2.6E1,4.3E1,1E0,2.4E1,2E0],"tree_param":{"num_deleted":"0","num_feature":"16","num_nodes":"7","size_leaf_vector":"1"}},{"base_weights":[1.6545264E2,2.965172E3,-4.2436777E2,-3.8277905E1,1.776329E2,-2.5408223E2,-8.202481E0],"categories":[],"categories_nodes":[],"categories_segments":[],"categories_sizes":[],"default_left":[0,0,0,0,0,0,0],"id":134,"left_children":[1,3,5,-1,-1,-1,-1],"loss_changes":[1.2109435E8,1.0271277E8,7.805929E7,0E0,0E0,0E0,0E0],"parents":[2147483647,0,0,1,1,2,2],"right_children":[2,4,6,-1,-1,-1,-1],"split_conditions":[3.1E1,-1.5103882E1,2E0,-3.8277905E1,1.776329E2,-2.5408223E2,-8.202481E0],"split_indices":[5,11,1,0,0,0,0],"split_type":[0,0,0,0,0,0,0],"sum_hessian":[7.2E1,1.2E1,6E1,4E0,8E0,1E0,5.9E1],"tree_param":{"num_deleted":"0","num_feature":"16","num_nodes":"7","size_leaf_vector":"1"}},{"base_weights":[3.4115555E1,4.0386237E2,-3.9519866E3,-2.686395E1,8.272311E1,-7.5512886E1,-2.2146693E2],"categories":[],"categories_nodes":[],"categories_segments":[],"categories_sizes":[],"default_left":[0,0,0,0,0,0,0],"id":135,"left_children":[1,3,5,-1,-1,-1,-1],"loss_changes":[1.1727535E8,1.5727115E8,1.7578984E7,0E0,0E0,0E0,0E0],"parents":[2147483647,0,0,1,1,2,2],"right_children":[2,4,6,-1,-1,-1,-1],"split_conditions":[8.8082E4,5.8821668E4,9.0575E4,-2.686395E1,8.272311E1,-7.5512886E1,-2.2146693E2],"split_indices":[9,10,8,0,0,0,0],"split_type":[0,0,0,0,0,0,0],"sum_hessian":[7.8E1,7.2E1,6E0,4.5E1,2.7E1,4E0,2E0],"tree_param":{"num_deleted":"0","num_feature":"16","num_nodes":"7","size_leaf_vector":"1"}},{"base_weights":[4.677588E1,-4.5327332E2,3.0078289E3,-9.888214E0,-2.442441E2,2.9920938E2,6.656651E1],"categories":[],"categories_nodes":[],"categories_segments":[],"categories_sizes":[],"default_left":[0,0,0,0,0,0,0],"id":136,"left_children":[1,3,5,-1,-1,-1,-1],"loss_changes":[1.1023802E8,7.097942E7,5.468455E7,0E0,0E0,0E0,0E0],"parents":[2147483647,0,0,1,1,2,2],"right_children":[2,4,6,-1,-1,-1,-1],"split_conditions":[7.5670664E4,9.0596E4,2E0,-9.888214E0,-2.442441E2,2.9920938E2,6.656651E1],"split_indices":[10,8,1,0,0,0,0],"split_type":[0,0,0,0,0,0,0],"sum_hessian":[7.3E1,6.3E1,1E1,6.2E1,1E0,1E0,9E0],"tree_param":{"num_deleted":"0","num_feature":"16","num_nodes":"7","size_leaf_vector":"1"}},{"base_weights":[-5.081294E1,-2.0007142E3,6.05436E2,-5.25096E1,-1.8245105E2,