{"learner":{"attributes":{"scikit_learn":"{\"_estimator_type\": \"regressor\"}"},"feature_names":["year","month","peak_season","philippine_holidays","top10market_holidays","avg_hightemp","avg_lowtemp","precipitation","lag_1","lag_2","rolling_mean_3m","growth_rate","sudden_increase","inflation_rate","is_december","is_lockdown"],"feature_types":["int","int","int","int","int","int","int","float","float","float","float","float","int","float","int","int"],"gradient_booster":{"model":{"cats":{"enc":[],"feature_segments":[],"sorted_idx":[]},"gbtree_model_param":{"num_parallel_tree":"1","num_trees":"400"},"iteration_indptr":[0,1,2,3,4,5,6,7,8,9,10,11,12,13,14,15,16,17,18,19,20,21,22,23,24,25,26,27,28,29,30,31,32,33,34,35,36,37,38,39,40,41,42,43,44,45,46,47,48,49,50,51,52,53,54,55,56,57,58,59,60,61,62,63,64,65,66,67,68,69,70,71,72,73,74,75,76,77,78,79,80,81,82,83,84,85,86,87,88,89,90,91,92,93,94,95,96,97,98,99,100,101,102,103,104,105,106,107,108,109,110,111,112,113,114,115,116,117,118,119,120,121,122,123,124,125,126,127,128,129,130,131,132,133,134,135,136,137,138,139,140,141,142,143,144,145,146,147,148,149,150,151,152,153,154,155,156,157,158,159,160,161,162,163,164,165,166,167,168,169,170,171,172,173,174,175,176,177,178,179,180,181,182,183,184,185,186,187,188,189,190,191,192,193,194,195,196,197,198,199,200,201,202,203,204,205,206,207,208,209,210,211,212,213,214,215,216,217,218,219,220,221,222,223,224,225,226,227,228,229,230,231,232,233,234,235,236,237,238,239,240,241,242,243,244,245,246,247,248,249,250,251,252,253,254,255,256,257,258,259,260,261,262,263,264,265,266,267,268,269,270,271,272,273,274,275,276,277,278,279,280,281,282,283,284,285,286,287,288,289,290,291,292,293,294,295,296,297,298,299,300,301,302,303,304,305,306,307,308,309,310,311,312,313,314,315,316,317,318,319,320,321,322,323,324,325,326,327,328,329,330,331,332,333,334,335,336,337,338,339,340,341,342,343,344,345,346,347,348,349,350,351,352,353,354,355,356,357,358,359,360,361,362,363,364,365,366,367,368,369,370,371,372,373,374,375,376,377,378,379,380,381,382,383,384,385,386,387,388,389,390,391,392,393,394,395,396,397,398,399,400],"tree_info":[0,0,0,0,0,0,0,0,0,0,0,0,0,0,0,0,0,0,0,0,0,0,0,0,0,0,0,0,0,0,0,0,0,0,0,0,0,0,0,0,0,0,0,0,0,0,0,0,0,0,0,0,0,0,0,0,0,0,0,0,0,0,0,0,0,0,0,0,0,0,0,0,0,0,0,0,0,0,0,0,0,0,0,0,0,0,0,0,0,0,0,0,0,0,0,0,0,0,0,0,0,0,0,0,0,0,0,0,0,0,0,0,0,0,0,0,0,0,0,0,0,0,0,0,0,0,0,0,0,0,0,0,0,0,0,0,0,0,0,0,0,0,0,0,0,0,0,0,0,0,0,0,0,0,0,0,0,0,0,0,0,0,0,0,0,0,0,0,0,0,0,0,0,0,0,0,0,0,0,0,0,0,0,0,0,0,0,0,0,0,0,0,0,0,0,0,0,0,0,0,0,0,0,0,0,0,0,0,0,0,0,0,0,0,0,0,0,0,0,0,0,0,0,0,0,0,0,0,0,0,0,0,0,0,0,0,0,0,0,0,0,0,0,0,0,0,0,0,0,0,0,0,0,0,0,0,0,0,0,0,0,0,0,0,0,0,0,0,0,0,0,0,0,0,0,0,0,0,0,0,0,0,0,0,0,0,0,0,0,0,0,0,0,0,0,0,0,0,0,0,0,0,0,0,0,0,0,0,0,0,0,0,0,0,0,0,0,0,0,0,0,0,0,0,0,0,0,0,0,0,0,0,0,0,0,0,0,0,0,0,0,0,0,0,0,0,0,0,0,0,0,0,0,0,0,0,0,0,0,0,0,0,0,0,0,0,0,0,0,0,0,0,0,0,0,0,0,0,0,0,0,0,0,0,0,0,0,0,0,0,0,0,0,0,0,0,0,0,0,0],"trees":[{"base_weights":[8.2608765E2,-3.3137793E4,1.6455371E4,-1.4066399E3,-5.0356686E2,3.0630872E2,1.1283984E3],"categories":[],"categories_nodes":[],"categories_segments":[],"categories_sizes":[],"default_left":[0,0,0,0,0,0,0],"id":0,"left_children":[1,3,5,-1,-1,-1,-1],"loss_changes":[4.1686417E10,2.268072E9,6.1057454E9,0E0,0E0,0E0,0E0],"parents":[2147483647,0,0,1,1,2,2],"right_children":[2,4,6,-1,-1,-1,-1],"split_conditions":[3.5973332E4,1.227E4,7.2463E4,-1.4066399E3,-5.0356686E2,3.0630872E2,1.1283984E3],"split_indices":[10,8,10,0,0,0,0],"split_type":[0,0,0,0,0,0,0],"sum_hessian":[7.7E1,2.4E1,5.3E1,1.8E1,6E0,3.5E1,1.8E1],"tree_param":{"num_deleted":"0","num_feature":"16","num_nodes":"7","size_leaf_vector":"1"}},{"base_weights":[3.670629E3,-2.447521E4,2.1012693E4,-1.2866719E3,-2.5069415E2,3.3395987E2,1.067383E3],"categories":[],"categories_nodes":[],"categories_segments":[],"categories_sizes":[],"default_left":[0,0,0,0,0,0,0],"id":1,"left_children":[1,3,5,-1,-1,-1,-1],"loss_changes":[3.9317213E10,5.7398764E9,4.725627E9,0E0,0E0,0E0,0E0],"parents":[2147483647,0,0,1,1,2,2],"right_children":[2,4,6,-1,-1,-1,-1],"split_conditions":[4.2119E4,2.5664E4,6.2334332E4,-1.2866719E3,-2.5069415E2,3.3395987E2,1.067383E3],"split_indices":[8,10,10,0,0,0,0],"split_type":[0,0,0,0,0,0,0],"sum_hessian":[7.9E1,3E1,4.9E1,1.8E1,1.2E1,2.1E1,2.8E1],"tree_param":{"num_deleted":"0","num_feature":"16","num_nodes":"7","size_leaf_vector":"1"}},{"base_weights":[-1.5517853E3,-3.1176174E4,1.4121406E4,-1.2278594E3,-3.2277844E2,1.5194267E2,9.198577E2],"categories":[],"categories_nodes":[],"categories_segments":[],"categories_sizes":[],"default_left":[0,0,0,0,0,0,0],"id":2,"left_children":[1,3,5,-1,-1,-1,-1],"loss_changes":[3.4577453E10,1.2900639E9,5.352797E9,0E0,0E0,0E0,0E0],"parents":[2147483647,0,0,1,1,2,2],"right_children":[2,4,6,-1,-1,-1,-1],"split_conditions":[3.4409E4,2.5664E4,6.5030668E4,-1.2278594E3,-3.2277844E2,1.5194267E2,9.198577E2],"split_indices":[8,10,10,0,0,0,0],"split_type":[0,0,0,0,0,0,0],"sum_hessian":[7.3E1,2.5E1,4.8E1,2.2E1,3E0,2.6E1,2.2E1],"tree_param":{"num_deleted":"0","num_feature":"16","num_nodes":"7","size_leaf_vector":"1"}},{"base_weights":[-1.7916853E2,-2.91362E4,1.6315578E4,-1.2799409E3,-4.57857E2,2.99719E2,1.114194E3],"categories":[],"categories_nodes":[],"categories_segments":[],"categories_sizes":[],"default_left":[0,0,0,0,0,0,0],"id":3,"left_children":[1,3,5,-1,-1,-1,-1],"loss_changes":[4.179644E10,2.8746097E9,6.267989E9,0E0,0E0,0E0,0E0],"parents":[2147483647,0,0,1,1,2,2],"right_children":[2,4,6,-1,-1,-1,-1],"split_conditions":[3.9165668E4,4E0,7.2463E4,-1.2799409E3,-4.57857E2,2.99719E2,1.114194E3],"split_indices":[10,13,10,0,0,0,0],"split_type":[0,0,0,0,0,0,0],"sum_hessian":[8.6E1,3.1E1,5.5E1,2.2E1,9E0,3.6E1,1.9E1],"tree_param":{"num_deleted":"0","num_feature":"16","num_nodes":"7","size_leaf_vector":"1"}},{"base_weights":[-1.0619192E3,-2.621035E4,1.7026371E4,-1.1628735E3,-2.985072E2,3.540081E2,1.0405426E3],"categories":[],"categories_nodes":[],"categories_segments":[],"categories_sizes":[],"default_left":[0,0,0,0,0,0,0],"id":4,"left_children":[1,3,5,-1,-1,-1,-1],"loss_changes":[3.8891282E10,3.5438367E9,4.0004618E9,0E0,0E0,0E0,0E0],"parents":[2147483647,0,0,1,1,2,2],"right_children":[2,4,6,-1,-1,-1,-1],"split_conditions":[4.1123E4,2.5664E4,7.2463E4,-1.1628735E3,-2.985072E2,3.540081E2,1.0405426E3],"split_indices":[8,10,10,0,0,0,0],"split_type":[0,0,0,0,0,0,0],"sum_hessian":[8.4E1,3.5E1,4.9E1,2.6E1,9E0,3.1E1,1.8E1],"tree_param":{"num_deleted":"0","num_feature":"16","num_nodes":"7","size_leaf_vector":"1"}},{"base_weights":[-7.091427E1,-2.2010213E4,1.9113006E4,-1.1228438E3,-2.1106042E2,5.5222705E2,1.4922561E3],"categories":[],"categories_nodes":[],"categories_segments":[],"categories_sizes":[],"default_left":[0,0,0,0,0,0,0],"id":5,"left_children":[1,3,5,-1,-1,-1,-1],"loss_changes":[3.7672944E10,5.894572E9,3.626236E9,0E0,0E0,0E0,0E0],"parents":[2147483647,0,0,1,1,2,2],"right_children":[2,4,6,-1,-1,-1,-1],"split_conditions":[5.0169E4,2.5664E4,1.9512337E1,-1.1228438E3,-2.1106042E2,5.5222705E2,1.4922561E3],"split_indices":[8,10,11,0,0,0,0],"split_type":[0,0,0,0,0,0,0],"sum_hessian":[8.8E1,4.1E1,4.7E1,2.6E1,1.5E1,4.1E1,6E0],"tree_param":{"num_deleted":"0","num_feature":"16","num_nodes":"7","size_leaf_vector":"1"}},{"base_weights":[5.440289E2,-2.0622992E4,1.80805E4,-1.0817449E3,-2.1078107E2,5.13721E2,1.4441328E3],"categories":[],"categories_nodes":[],"categories_segments":[],"categories_sizes":[],"default_left":[0,0,0,0,0,0,0],"id":6,"left_children":[1,3,5,-1,-1,-1,-1],"loss_changes":[3.1742108E10,5.136292E9,3.5625124E9,0E0,0E0,0E0,0E0],"parents":[2147483647,0,0,1,1,2,2],"right_children":[2,4,6,-1,-1,-1,-1],"split_conditions":[5.0169E4,2.5664E4,1.9512337E1,-1.0817449E3,-2.1078107E2,5.13721E2,1.4441328E3],"split_indices":[8,10,11,0,0,0,0],"split_type":[0,0,0,0,0,0,0],"sum_hessian":[8.4E1,3.8E1,4.6E1,2.3E1,1.5E1,4E1,6E0],"tree_param":{"num_deleted":"0","num_feature":"16","num_nodes":"7","size_leaf_vector":"1"}},{"base_weights":[1.2650223E3,-2.0650207E4,1.8650676E4,-1.0357346E3,-1.9513237E2,3.806071E2,1.0570898E3],"categories":[],"categories_nodes":[],"categories_segments":[],"categories_sizes":[],"default_left":[0,0,0,0,0,0,0],"id":7,"left_children":[1,3,5,-1,-1,-1,-1],"loss_changes":[2.9916228E10,4.0663398E9,3.5094292E9,0E0,0E0,0E0,0E0],"parents":[2147483647,0,0,1,1,2,2],"right_children":[2,4,6,-1,-1,-1,-1],"split_conditions":[4.9526E4,2.1597E4,7.2463E4,-1.0357346E3,-1.9513237E2,3.806071E2,1.0570898E3],"split_indices":[8,9,10,0,0,0,0],"split_type":[0,0,0,0,0,0,0],"sum_hessian":[7.7E1,3.4E1,4.3E1,2.2E1,1.2E1,2.5E1,1.8E1],"tree_param":{"num_deleted":"0","num_feature":"16","num_nodes":"7","size_leaf_vector":"1"}},{"base_weights":[-1.2516411E3,-2.4306492E4,1.246676E4,-1.0789454E3,-3.7604123E2,2.494674E2,9.048789E2],"categories":[],"categories_nodes":[],"categories_segments":[],"categories_sizes":[],"default_left":[0,0,0,0,0,0,0],"id":8,"left_children":[1,3,5,-1,-1,-1,-1],"loss_changes":[2.6085888E10,2.0890358E9,3.478123E9,0E0,0E0,0E0,0E0],"parents":[2147483647,0,0,1,1,2,2],"right_children":[2,4,6,-1,-1,-1,-1],"split_conditions":[3.9165668E4,4E0,7.2463E4,-1.0789454E3,-3.7604123E2,2.494674E2,9.048789E2],"split_indices":[10,13,10,0,0,0,0],"split_type":[0,0,0,0,0,0,0],"sum_hessian":[8.1E1,3E1,5.1E1,2.1E1,9E0,3.6E1,1.5E1],"tree_param":{"num_deleted":"0","num_feature":"16","num_nodes":"7","size_leaf_vector":"1"}},{"base_weights":[-4.2070044E2,-1.9578648E4,1.6650637E4,-9.7453314E2,-1.9629144E2,4.6539752E2,1.3557664E3],"categories":[],"categories_nodes":[],"categories_segments":[],"categories_sizes":[],"default_left":[0,0,0,0,0,0,0],"id":9,"left_children":[1,3,5,-1,-1,-1,-1],"loss_changes":[2.829243E10,4.085546E9,3.266557E9,0E0,0E0,0E0,0E0],"parents":[2147483647,0,0,1,1,2,2],"right_children":[2,4,6,-1,-1,-1,-1],"split_conditions":[5.0169E4,2.5664E4,1.9512337E1,-9.7453314E2,-1.9629144E2,4.6539752E2,1.3557664E3],"split_indices":[8,10,11,0,0,0,0],"split_type":[0,0,0,0,0,0,0],"sum_hessian":[8.5E1,4E1,4.5E1,2.6E1,1.4E1,3.9E1,6E0],"tree_param":{"num_deleted":"0","num_feature":"16","num_nodes":"7","size_leaf_vector":"1"}},{"base_weights":[-1.3431564E1,-1.8602932E4,1.5525988E4,-9.70541E2,-2.0891884E2,4.3550537E2,1.3120447E3],"categories":[],"categories_nodes":[],"categories_segments":[],"categories_sizes":[],"default_left":[0,0,0,0,0,0,0],"id":10,"left_children":[1,3,5,-1,-1,-1,-1],"loss_changes":[2.5856707E10,4.140549E9,3.2208722E9,0E0,0E0,0E0,0E0],"parents":[2147483647,0,0,1,1,2,2],"right_children":[2,4,6,-1,-1,-1,-1],"split_conditions":[5.0169E4,2.2309666E4,1.9512337E1,-9.70541E2,-2.0891884E2,4.3550537E2,1.3120447E3],"split_indices":[8,10,11,0,0,0,0],"split_type":[0,0,0,0,0,0,0],"sum_hessian":[8.8E1,4E1,4.8E1,2.4E1,1.6E1,4.2E1,6E0],"tree_param":{"num_deleted":"0","num_feature":"16","num_nodes":"7","size_leaf_vector":"1"}},{"base_weights":[-8.2184357E2,-2.176456E4,9.422732E3,-9.378655E2,-3.370853E2,-1.0455412E1,5.6167975E2],"categories":[],"categories_nodes":[],"categories_segments":[],"categories_sizes":[],"default_left":[0,0,0,0,0,0,0],"id":11,"left_children":[1,3,5,-1,-1,-1,-1],"loss_changes":[1.7480753E10,1.1770245E9,3.2190428E9,0E0,0E0,0E0,0E0],"parents":[2147483647,0,0,1,1,2,2],"right_children":[2,4,6,-1,-1,-1,-1],"split_conditions":[3.5973332E4,4E0,5.6852332E4,-9.378655E2,-3.370853E2,-1.0455412E1,5.6167975E2],"split_indices":[10,13,10,0,0,0,0],"split_type":[0,0,0,0,0,0,0],"sum_hessian":[8E1,2.6E1,5.4E1,1.9E1,7E0,2.1E1,3.3E1],"tree_param":{"num_deleted":"0","num_feature":"16","num_nodes":"7","size_leaf_vector":"1"}},{"base_weights":[1.1418156E3,-1.754144E4,1.7053363E4,-8.7922943E2,-1.6679333E2,4.7956055E2,1.2681312E3],"categories":[],"categories_nodes":[],"categories_segments":[],"categories_sizes":[],"default_left":[0,0,0,0,0,0,0],"id":12,"left_children":[1,3,5,-1,-1,-1,-1],"loss_changes":[2.2448955E10,2.919852E9,2.4525107E9,0E0,0E0,0E0,0E0],"parents":[2147483647,0,0,1,1,2,2],"right_children":[2,4,6,-1,-1,-1,-1],"split_conditions":[5.028E4,2.5664E4,7.9832E4,-8.7922943E2,-1.6679333E2,4.7956055E2,1.2681312E3],"split_indices":[8,10,10,0,0,0,0],"split_type":[0,0,0,0,0,0,0],"sum_hessian":[7.4E1,3.4E1,4E1,2.2E1,1.2E1,3.4E1,6E0],"tree_param":{"num_deleted":"0","num_feature":"16","num_nodes":"7","size_leaf_vector":"1"}},{"base_weights":[1.1657167E3,-2.1532436E4,1.2240673E4,-9.092152E2,-3.0279547E2,2.1973653E2,8.668378E2],"categories":[],"categories_nodes":[],"categories_segments":[],"categories_sizes":[],"default_left":[0,0,0,0,0,0,0],"id":13,"left_children":[1,3,5,-1,-1,-1,-1],"loss_changes":[2.0499245E10,1.0813297E9,3.833327E9,0E0,0E0,0E0,0E0],"parents":[2147483647,0,0,1,1,2,2],"right_children":[2,4,6,-1,-1,-1,-1],"split_conditions":[3.4641E4,3.4E0,7.2463E4,-9.092152E2,-3.0279547E2,2.1973653E2,8.668378E2],"split_indices":[10,13,10,0,0,0,0],"split_type":[0,0,0,0,0,0,0],"sum_hessian":[8E1,2.6E1,5.4E1,2E1,6E0,3.6E1,1.8E1],"tree_param":{"num_deleted":"0","num_feature":"16","num_nodes":"7","size_leaf_vector":"1"}},{"base_weights":[-7.796079E2,-1.6259302E4,1.3675592E4,-8.595544E2,-1.898298E2,3.7046826E2,1.302077E3],"categories":[],"categories_nodes":[],"categories_segments":[],"categories_sizes":[],"default_left":[0,0,0,0,0,0,0],"id":14,"left_children":[1,3,5,-1,-1,-1,-1],"loss_changes":[1.9356578E10,3.3221059E9,3.1711232E9,0E0,0E0,0E0,0E0],"parents":[2147483647,0,0,1,1,2,2],"right_children":[2,4,6,-1,-1,-1,-1],"split_conditions":[5.0258E4,2.2309666E4,1.9512337E1,-8.595544E2,-1.898298E2,3.7046826E2,1.302077E3],"split_indices":[8,10,11,0,0,0,0],"split_type":[0,0,0,0,0,0,0],"sum_hessian":[8.5E1,4.1E1,4.4E1,2.4E1,1.7E1,3.9E1,5E0],"tree_param":{"num_deleted":"0","num_feature":"16","num_nodes":"7","size_leaf_vector":"1"}},{"base_weights":[1.718491E2,-1.55192705E4,1.5125948E4,-8.018342E2,-1.4675568E2,2.3913956E2,7.895403E2],"categories":[],"categories_nodes":[],"categories_segments":[],"categories_sizes":[],"default_left":[0,0,0,0,0,0,0],"id":15,"left_children":[1,3,5,-1,-1,-1,-1],"loss_changes":[1.9595389E10,3.0037862E9,2.308996E9,0E0,0E0,0E0,0E0],"parents":[2147483647,0,0,1,1,2,2],"right_children":[2,4,6,-1,-1,-1,-1],"split_conditions":[5.028E4,2.5664E4,6.8343664E4,-8.018342E2,-1.4675568E2,2.3913956E2,7.895403E2],"split_indices":[8,10,10,0,0,0,0],"split_type":[0,0,0,0,0,0,0],"sum_hessian":[8.2E1,4E1,4.2E1,2.5E1,1.5E1,1.9E1,2.3E1],"tree_param":{"num_deleted":"0","num_feature":"16","num_nodes":"7","size_leaf_vector":"1"}},{"base_weights":[6.1583856E2,-1.782804E4,8.945919E3,-7.862363E2,-2.6609933E2,1.0157595E2,4.9649152E2],"categories":[],"categories_nodes":[],"categories_segments":[],"categories_sizes":[],"default_left":[0,0,0,0,0,0,0],"id":16,"left_children":[1,3,5,-1,-1,-1,-1],"loss_changes":[1.2220235E10,8.749133E8,1.5631258E9,0E0,0E0,0E0,0E0],"parents":[2147483647,0,0,1,1,2,2],"right_children":[2,4,6,-1,-1,-1,-1],"split_conditions":[3.4409E4,4E0,-2.3179831E-2,-7.862363E2,-2.6609933E2,1.0157595E2,4.9649152E2],"split_indices":[9,13,11,0,0,0,0],"split_type":[0,0,0,0,0,0,0],"sum_hessian":[7.8E1,2.4E1,5.4E1,1.7E1,7E0,2.4E1,3E1],"tree_param":{"num_deleted":"0","num_feature":"16","num_nodes":"7","size_leaf_vector":"1"}},{"base_weights":[2.3003006E2,-1.6222654E4,1.2723526E4,-8.024035E2,-2.5864777E2,3.03416E2,1.1057545E3],"categories":[],"categories_nodes":[],"categories_segments":[],"categories_sizes":[],"default_left":[0,0,0,0,0,0,0],"id":17,"left_children":[1,3,5,-1,-1,-1,-1],"loss_changes":[1.6549584E10,1.7399347E9,3.3505546E9,0E0,0E0,0E0,0E0],"parents":[2147483647,0,0,1,1,2,2],"right_children":[2,4,6,-1,-1,-1,-1],"split_conditions":[4.2119E4,1.545E4,7.7321336E4,-8.024035E2,-2.5864777E2,3.03416E2,1.1057545E3],"split_indices":[8,8,10,0,0,0,0],"split_type":[0,0,0,0,0,0,0],"sum_hessian":[7.9E1,3.4E1,4.5E1,2E1,1.4E1,3.7E1,8E0],"tree_param":{"num_deleted":"0","num_feature":"16","num_nodes":"7","size_leaf_vector":"1"}},{"base_weights":[2.9036383E2,-1.3922937E4,1.3477238E4,-7.128742E2,-1.6858258E2,3.6092148E2,1.1142012E3],"categories":[],"categories_nodes":[],"categories_segments":[],"categories_sizes":[],"default_left":[0,0,0,0,0,0,0],"id":18,"left_children":[1,3,5,-1,-1,-1,-1],"loss_changes":[1.5090054E10,1.9853599E9,2.3110497E9,0E0,0E0,0E0,0E0],"parents":[2147483647,0,0,1,1,2,2],"right_children":[2,4,6,-1,-1,-1,-1],"split_conditions":[5.4442E4,2.5664E4,1E0,-7.128742E2,-1.6858258E2,3.6092148E2,1.1142012E3],"split_indices":[10,10,12,0,0,0,0],"split_type":[0,0,0,0,0,0,0],"sum_hessian":[7.9E1,3.8E1,4.1E1,2.3E1,1.5E1,3.5E1,6E0],"tree_param":{"num_deleted":"0","num_feature":"16","num_nodes":"7","size_leaf_vector":"1"}},{"base_weights":[4.9162433E2,-1.3156013E4,1.194742E4,-7.386699E2,-1.9739752E2,-3.8228336E2,5.0092065E2],"categories":[],"categories_nodes":[],"categories_segments":[],"categories_sizes":[],"default_left":[0,0,0,0,0,0,0],"id":19,"left_children":[1,3,5,-1,-1,-1,-1],"loss_changes":[1.2587916E10,1.9561964E9,1.9287014E9,0E0,0E0,0E0,0E0],"parents":[2147483647,0,0,1,1,2,2],"right_children":[2,4,6,-1,-1,-1,-1],"split_conditions":[5.028E4,1.227E4,-3.4079456E1,-7.386699E2,-1.9739752E2,-3.8228336E2,5.0092065E2],"split_indices":[8,8,11,0,0,0,0],"split_type":[0,0,0,0,0,0,0],"sum_hessian":[7.9E1,3.6E1,4.3E1,1.8E1,1.8E1,3E0,4E1],"tree_param":{"num_deleted":"0","num_feature":"16","num_nodes":"7","size_leaf_vector":"1"}},{"base_weights":[1.6617717E2,-1.2570295E4,1.1299809E4,-7.038813E2,-1.8035721E2,2.973821E2,1.0621155E3],"categories":[],"categories_nodes":[],"categories_segments":[],"categories_sizes":[],"default_left":[0,0,0,0,0,0,0],"id":20,"left_children":[1,3,5,-1,-1,-1,-1],"loss_changes":[1.2692969E10,2.0912998E9,2.484691E9,0E0,0E0,0E0,0E0],"parents":[2147483647,0,0,1,1,2,2],"right_children":[2,4,6,-1,-1,-1,-1],"split_conditions":[5.028E4,1.545E4,1E0,-7.038813E2,-1.8035721E2,2.973821E2,1.0621155E3],"split_indices":[8,8,12,0,0,0,0],"split_type":[0,0,0,0,0,0,0],"sum_hessian":[8.8E1,4.1E1,4.7E1,2.1E1,2E1,4.1E1,6E0],"tree_param":{"num_deleted":"0","num_feature":"16","num_nodes":"7","size_leaf_vector":"1"}},{"base_weights":[5.9537646E2,-1.4329061E4,9.45543E3,-6.8632587E2,-2.4522499E2,2.3318655E2,1.0507314E3],"categories":[],"categories_nodes":[],"categories_segments":[],"categories_sizes":[],"default_left":[0,0,0,0,0,0,0],"id":21,"left_children":[1,3,5,-1,-1,-1,-1],"loss_changes":[1.0912849E10,9.6929946E8,2.9179863E9,0E0,0E0,0E0,0E0],"parents":[2147483647,0,0,1,1,2,2],"right_children":[2,4,6,-1,-1,-1,-1],"split_conditions":[3.7466E4,1.545E4,7.9832E4,-6.8632587E2,-2.4522499E2,2.3318655E2,1.0507314E3],"split_indices":[8,8,10,0,0,0,0],"split_type":[0,0,0,0,0,0,0],"sum_hessian":[8.1E1,3E1,5.1E1,1.8E1,1.2E1,4.5E1,6E0],"tree_param":{"num_deleted":"0","num_feature":"16","num_nodes":"7","size_leaf_vector":"1"}},{"base_weights":[-6.083854E2,-1.0938157E4,1.2195937E4,-6.315794E2,-8.044744E1,3.1384845E2,1.1185898E3],"categories":[],"categories_nodes":[],"categories_segments":[],"categories_sizes":[],"default_left":[0,0,0,0,0,0,0],"id":22,"left_children":[1,3,5,-1,-1,-1,-1],"loss_changes":[1.1178621E10,2.6044006E9,2.2947635E9,0E0,0E0,0E0,0E0],"parents":[2147483647,0,0,1,1,2,2],"right_children":[2,4,6,-1,-1,-1,-1],"split_conditions":[5.5328332E4,2.5664E4,7.9832E4,-6.315794E2,-8.044744E1,3.1384845E2,1.1185898E3],"split_indices":[10,10,10,0,0,0,0],"split_type":[0,0,0,0,0,0,0],"sum_hessian":[8.3E1,4.6E1,3.7E1,2.6E1,2E1,3.2E1,5E0],"tree_param":{"num_deleted":"0","num_feature":"16","num_nodes":"7","size_leaf_vector":"1"}},{"base_weights":[7.1440356E2,-1.0065677E4,1.2036905E4,-6.6951416E2,-1.2656864E2,2.454663E2,8.612238E2],"categories":[],"categories_nodes":[],"categories_segments":[],"categories_sizes":[],"default_left":[0,0,0,0,0,0,0],"id":23,"left_children":[1,3,5,-1,-1,-1,-1],"loss_changes":[9.704104E9,2.1971942E9,2.2679306E9,0E0,0E0,0E0,0E0],"parents":[2147483647,0,0,1,1,2,2],"right_children":[2,4,6,-1,-1,-1,-1],"split_conditions":[5.5328332E4,1.5348667E4,4.4652915E0,-6.6951416E2,-1.2656864E2,2.454663E2,8.612238E2],"split_indices":[10,10,11,0,0,0,0],"split_type":[0,0,0,0,0,0,0],"sum_hessian":[7.8E1,4E1,3.8E1,1.7E1,2.3E1,2.7E1,1.1E1],"tree_param":{"num_deleted":"0","num_feature":"16","num_nodes":"7","size_leaf_vector":"1"}},{"base_weights":[-6.711326E2,-1.1496087E4,8.869692E3,-6.035953E2,-1.402507E2,-5.157048E2,3.7396582E2],"categories":[],"categories_nodes":[],"categories_segments":[],"categories_sizes":[],"default_left":[0,0,0,0,0,0,0],"id":24,"left_children":[1,3,5,-1,-1,-1,-1],"loss_changes":[8.1074365E9,1.3904481E9,1.4887345E9,0E0,0E0,0E0,0E0],"parents":[2147483647,0,0,1,1,2,2],"right_children":[2,4,6,-1,-1,-1,-1],"split_conditions":[5.0258E4,2.5664E4,-4.2713936E1,-6.035953E2,-1.402507E2,-5.157048E2,3.7396582E2],"split_indices":[8,10,11,0,0,0,0],"split_type":[0,0,0,0,0,0,0],"sum_hessian":[7.7E1,3.6E1,4.1E1,2.1E1,1.5E1,2E0,3.9E1],"tree_param":{"num_deleted":"0","num_feature":"16","num_nodes":"7","size_leaf_vector":"1"}},{"base_weights":[1.0325912E3,-8.936069E3,1.0737541E4,-5.949691E2,-1.4236482E2,2.750136E2,1.0521124E3],"categories":[],"categories_nodes":[],"categories_segments":[],"categories_sizes":[],"default_left":[0,0,0,0,0,0,0],"id":25,"left_children":[1,3,5,-1,-1,-1,-1],"loss_changes":[7.7883617E9,1.4370194E9,2.185498E9,0E0,0E0,0E0,0E0],"parents":[2147483647,0,0,1,1,2,2],"right_children":[2,4,6,-1,-1,-1,-1],"split_conditions":[5.5328332E4,1.1583E4,7.9832E4,-5.949691E2,-1.4236482E2,2.750136E2,1.0521124E3],"split_indices":[10,10,10,0,0,0,0],"split_type":[0,0,0,0,0,0,0],"sum_hessian":[7.9E1,3.9E1,4E1,1.5E1,2.4E1,3.5E1,5E0],"tree_param":{"num_deleted":"0","num_feature":"16","num_nodes":"7","size_leaf_vector":"1"}},{"base_weights":[9.768967E2,-1.1378923E4,8.543742E3,-6.1164655E2,-2.0784166E2,2.4421161E2,1.1045302E3],"categories":[],"categories_nodes":[],"categories_segments":[],"categories_sizes":[],"default_left":[0,0,0,0,0,0,0],"id":26,"left_children":[1,3,5,-1,-1,-1,-1],"loss_changes":[7.810534E9,9.089339E8,1.9033172E9,0E0,0E0,0E0,0E0],"parents":[2147483647,0,0,1,1,2,2],"right_children":[2,4,6,-1,-1,-1,-1],"split_conditions":[4.2119E4,1.1583E4,5.2537216E1,-6.1164655E2,-2.0784166E2,2.4421161E2,1.1045302E3],"split_indices":[8,10,11,0,0,0,0],"split_type":[0,0,0,0,0,0,0],"sum_hessian":[8.2E1,3.1E1,5.1E1,1.5E1,1.6E1,4.8E1,3E0],"tree_param":{"num_deleted":"0","num_feature":"16","num_nodes":"7","size_leaf_vector":"1"}},{"base_weights":[-3.1106943E2,-1.0390491E4,1.1968587E4,-5.6188824E2,-1.6252771E2,3.3131042E2,1.0766226E3],"categories":[],"categories_nodes":[],"categories_segments":[],"categories_sizes":[],"default_left":[0,0,0,0,0,0,0],"id":27,"left_children":[1,3,5,-1,-1,-1,-1],"loss_changes":[1.0089076E10,1.2937754E9,1.6438083E9,0E0,0E0,0E0,0E0],"parents":[2147483647,0,0,1,1,2,2],"right_children":[2,4,6,-1,-1,-1,-1],"split_conditions":[5.5328332E4,1.545E4,8.4914664E4,-5.6188824E2,-1.6252771E2,3.3131042E2,1.0766226E3],"split_indices":[10,8,10,0,0,0,0],"split_type":[0,0,0,0,0,0,0],"sum_hessian":[8E1,4.4E1,3.6E1,2.3E1,2.1E1,3.2E1,4E0],"tree_param":{"num_deleted":"0","num_feature":"16","num_nodes":"7","size_leaf_vector":"1"}},{"base_weights":[5.4240826E2,-7.7572744E3,9.710584E3,-5.1940045E2,-1.3368242E2,2.1314384E2,8.711213E2],"categories":[],"categories_nodes":[],"categories_segments":[],"categories_sizes":[],"default_left":[0,0,0,0,0,0,0],"id":28,"left_children":[1,3,5,-1,-1,-1,-1],"loss_changes":[6.0495683E9,1.0745562E9,1.9643136E9,0E0,0E0,0E0,0E0],"parents":[2147483647,0,0,1,1,2,2],"right_children":[2,4,6,-1,-1,-1,-1],"split_conditions":[5.5328332E4,1.1583E4,1.3058462E1,-5.1940045E2,-1.3368242E2,2.1314384E2,8.711213E2],"split_indices":[10,10,11,0,0,0,0],"split_type":[0,0,0,0,0,0,0],"sum_hessian":[7.8E1,4.1E1,3.7E1,1.5E1,2.6E1,3E1,7E0],"tree_param":{"num_deleted":"0","num_feature":"16","num_nodes":"7","size_leaf_vector":"1"}},{"base_weights":[-7.395903E2,-8.775507E3,1.0008919E4,-5.1199716E2,-1.06949905E2,-5.13154E2,4.2680182E2],"categories":[],"categories_nodes":[],"categories_segments":[],"categories_sizes":[],"default_left":[0,0,0,0,0,0,0],"id":29,"left_children":[1,3,5,-1,-1,-1,-1],"loss_changes":[7.214197E9,1.4515479E9,1.6331676E9,0E0,0E0,0E0,0E0],"parents":[2147483647,0,0,1,1,2,2],"right_children":[2,4,6,-1,-1,-1,-1],"split_conditions":[5.5328332E4,2.0204666E4,-3.4079456E1,-5.1199716E2,-1.06949905E2,-5.13154E2,4.2680182E2],"split_indices":[10,10,11,0,0,0,0],"split_type":[0,0,0,0,0,0,0],"sum_hessian":[8.2E1,4.7E1,3.5E1,2.4E1,2.3E1,2E0,3.3E1],"tree_param":{"num_deleted":"0","num_feature":"16","num_nodes":"7","size_leaf_vector":"1"}},{"base_weights":[-3.1771268E2,-1.1471167E4,5.8837466E3,-5.173357E2,-2.3738809E2,4.9908913E1,4.563201E2],"categories":[],"categories_nodes":[],"categories_segments":[],"categories_sizes":[],"default_left":[0,0,0,0,0,0,0],"id":30,"left_children":[1,3,5,-1,-1,-1,-1],"loss_changes":[5.5674255E9,3.2367514E8,1.5469687E9,0E0,0E0,0E0,0E0],"parents":[2147483647,0,0,1,1,2,2],"right_children":[2,4,6,-1,-1,-1,-1],"split_conditions":[3.9165668E4,3.1E0,6.8343664E4,-5.173357E2,-2.3738809E2,4.9908913E1,4.563201E2],"split_indices":[10,13,10,0,0,0,0],"split_type":[0,0,0,0,0,0,0],"sum_hessian":[7.9E1,2.8E1,5.1E1,1.7E1,1.1E1,3.1E1,2E1],"tree_param":{"num_deleted":"0","num_feature":"16","num_nodes":"7","size_leaf_vector":"1"}},{"base_weights":[-2.5060606E2,-9.065308E3,7.2484185E3,-4.7099088E2,-1.1316756E2,1.5836646E2,7.7477606E2],"categories":[],"categories_nodes":[],"categories_segments":[],"categories_sizes":[],"default_left":[0,0,0,0,0,0,0],"id":31,"left_children":[1,3,5,-1,-1,-1,-1],"loss_changes":[5.7181537E9,8.9344794E8,1.831456E9,0E0,0E0,0E0,0E0],"parents":[2147483647,0,0,1,1,2,2],"right_children":[2,4,6,-1,-1,-1,-1],"split_conditions":[5.0258E4,2.5664E4,7.7321336E4,-4.7099088E2,-1.1316756E2,1.5836646E2,7.7477606E2],"split_indices":[8,10,10,0,0,0,0],"split_type":[0,0,0,0,0,0,0],"sum_hessian":[8.5E1,3.9E1,4.6E1,2.3E1,1.6E1,3.9E1,7E0],"tree_param":{"num_deleted":"0","num_feature":"16","num_nodes":"7","size_leaf_vector":"1"}},{"base_weights":[9.531751E0,-7.277948E3,1.0232369E4,-4.5519867E2,-6.5214615E1,2.5372157E2,8.3134766E2],"categories":[],"categories_nodes":[],"categories_segments":[],"categories_sizes":[],"default_left":[0,0,0,0,0,0,0],"id":32,"left_children":[1,3,5,-1,-1,-1,-1],"loss_changes":[6.2213637E9,1.3887104E9,1.3071823E9,0E0,0E0,0E0,0E0],"parents":[2147483647,0,0,1,1,2,2],"right_children":[2,4,6,-1,-1,-1,-1],"split_conditions":[5.6852332E4,2.1765E4,1E0,-4.5519867E2,-6.5214615E1,2.5372157E2,8.3134766E2],"split_indices":[10,8,12,0,0,0,0],"split_type":[0,0,0,0,0,0,0],"sum_hessian":[8.2E1,4.8E1,3.4E1,2.4E1,2.4E1,2.8E1,6E0],"tree_param":{"num_deleted":"0","num_feature":"16","num_nodes":"7","size_leaf_vector":"1"}},{"base_weights":[2.262986E2,-8.236928E3,7.445408E3,-4.5361127E2,-1.1741834E2,1.5599646E2,7.035684E2],"categories":[],"categories_nodes":[],"categories_segments":[],"categories_sizes":[],"default_left":[0,0,0,0,0,0,0],"id":33,"left_children":[1,3,5,-1,-1,-1,-1],"loss_changes":[5.40786E9,8.374518E8,1.7314985E9,0E0,0E0,0E0,0E0],"parents":[2147483647,0,0,1,1,2,2],"right_children":[2,4,6,-1,-1,-1,-1],"split_conditions":[5.028E4,1.545E4,1.3058462E1,-4.5361127E2,-1.1741834E2,1.5599646E2,7.035684E2],"split_indices":[8,8,11,0,0,0,0],"split_type":[0,0,0,0,0,0,0],"sum_hessian":[8.7E1,4E1,4.7E1,2.1E1,1.9E1,3.8E1,9E0],"tree_param":{"num_deleted":"0","num_feature":"16","num_nodes":"7","size_leaf_vector":"1"}},{"base_weights":[4.9987354E2,-6.14751E3,1.14578125E4,-4.082582E2,-3.158668E1,8.567647E2,3.0530652E2],"categories":[],"categories_nodes":[],"categories_segments":[],"categories_sizes":[],"default_left":[0,0,0,0,0,0,0],"id":34,"left_children":[1,3,5,-1,-1,-1,-1],"loss_changes":[5.935503E9,1.3579607E9,9.884562E8,0E0,0E0,0E0,0E0],"parents":[2147483647,0,0,1,1,2,2],"right_children":[2,4,6,-1,-1,-1,-1],"split_conditions":[6.1379668E4,2.5664E4,3E0,-4.082582E2,-3.158668E1,8.567647E2,3.0530652E2],"split_indices":[10,10,1,0,0,0,0],"split_type":[0,0,0,0,0,0,0],"sum_hessian":[8E1,5E1,3E1,2.5E1,2.5E1,5E0,2.5E1],"tree_param":{"num_deleted":"0","num_feature":"16","num_nodes":"7","size_leaf_vector":"1"}},{"base_weights":[7.3661536E2,-7.2286016E3,7.4148486E3,-4.1080743E2,-1.19071556E2,1.7647316E2,8.5837177E2],"categories":[],"categories_nodes":[],"categories_segments":[],"categories_sizes":[],"default_left":[0,0,0,0,0,0,0],"id":35,"left_children":[1,3,5,-1,-1,-1,-1],"loss_changes":[4.2829169E9,5.650921E8,1.7267904E9,0E0,0E0,0E0,0E0],"parents":[2147483647,0,0,1,1,2,2],"right_children":[2,4,6,-1,-1,-1,-1],"split_conditions":[5.028E4,1.545E4,1.9512337E1,-4.1080743E2,-1.19071556E2,1.7647316E2,8.5837177E2],"split_indices":[8,8,11,0,0,0,0],"split_type":[0,0,0,0,0,0,0],"sum_hessian":[7.9E1,3.6E1,4.3E1,1.7E1,1.9E1,3.8E1,5E0],"tree_param":{"num_deleted":"0","num_feature":"16","num_nodes":"7","size_leaf_vector":"1"}},{"base_weights":[-1.224615E3,-8.085144E3,5.486582E3,-4.1577444E2,-1.4645901E2,-4.634727E2,2.628072E2],"categories":[],"categories_nodes":[],"categories_segments":[],"categories_sizes":[],"default_left":[0,0,0,0,0,0,0],"id":36,"left_children":[1,3,5,-1,-1,-1,-1],"loss_changes":[3.6135135E9,4.936901E8,1.3410336E9,0E0,0E0,0E0,0E0],"parents":[2147483647,0,0,1,1,2,2],"right_children":[2,4,6,-1,-1,-1,-1],"split_conditions":[5.0258E4,1.545E4,-3.4079456E1,-4.1577444E2,-1.4645901E2,-4.634727E2,2.628072E2],"split_indices":[8,8,11,0,0,0,0],"split_type":[0,0,0,0,0,0,0],"sum_hessian":[7.7E1,3.8E1,3.9E1,2E1,1.8E1,3E0,3.6E1],"tree_param":{"num_deleted":"0","num_feature":"16","num_nodes":"7","size_leaf_vector":"1"}},{"base_weights":[-6.8779025E0,-3.7414873E3,1.24241045E4,-3.1038504E2,4.7163815E1,9.098969E1,6.031506E2],"categories":[],"categories_nodes":[],"categories_segments":[],"categories_sizes":[],"default_left":[0,0,0,0,0,0,0],"id":37,"left_children":[1,3,5,-1,-1,-1,-1],"loss_changes":[3.9698253E9,1.6018034E9,7.892339E8,0E0,0E0,0E0,0E0],"parents":[2147483647,0,0,1,1,2,2],"right_children":[2,4,6,-1,-1,-1,-1],"split_conditions":[7.2463E4,3.3E0,-2.7089357E0,-3.1038504E2,4.7163815E1,9.098969E1,6.031506E2],"split_indices":[10,13,11,0,0,0,0],"split_type":[0,0,0,0,0,0,0],"sum_hessian":[8.4E1,6.5E1,1.9E1,3.3E1,3.2E1,6E0,1.3E1],"tree_param":{"num_deleted":"0","num_feature":"16","num_nodes":"7","size_leaf_vector":"1"}},{"base_weights":[-7.578223E1,-7.275141E3,5.7389595E3,-4.1157962E2,-1.1405756E2,1.1872729E2,6.475721E2],"categories":[],"categories_nodes":[],"categories_segments":[],"categories_sizes":[],"default_left":[0,0,0,0,0,0,0],"id":38,"left_children":[1,3,5,-1,-1,-1,-1],"loss_changes":[3.5377065E9,6.069011E8,1.3523375E9,0E0,0E0,0E0,0E0],"parents":[2147483647,0,0,1,1,2,2],"right_children":[2,4,6,-1,-1,-1,-1],"split_conditions":[5.0169E4,1.545E4,1.3058462E1,-4.1157962E2,-1.1405756E2,1.1872729E2,6.475721E2],"split_indices":[8,8,11,0,0,0,0],"split_type":[0,0,0,0,0,0,0],"sum_hessian":[8.3E1,3.7E1,4.6E1,1.8E1,1.9E1,3.9E1,7E0],"tree_param":{"num_deleted":"0","num_feature":"16","num_nodes":"7","size_leaf_vector":"1"}},{"base_weights":[1.7750105E2,-3.3610222E3,1.2876212E4,-3.4014746E2,2.5303787E1,3.4594794E2,1.0344374E3],"categories":[],"categories_nodes":[],"categories_segments":[],"categories_sizes":[],"default_left":[0,0,0,0,0,0,0],"id":39,"left_children":[1,3,5,-1,-1,-1,-1],"loss_changes":[3.6613778E9,1.5592406E9,7.2316595E8,0E0,0E0,0E0,0E0],"parents":[2147483647,0,0,1,1,2,2],"right_children":[2,4,6,-1,-1,-1,-1],"split_conditions":[7.2792336E4,3.5973332E4,1.5081594E1,-3.4014746E2,2.5303787E1,3.4594794E2,1.0344374E3],"split_indices":[10,10,11,0,0,0,0],"split_type":[0,0,0,0,0,0,0],"sum_hessian":[8E1,6.3E1,1.7E1,2.5E1,3.8E1,1.5E1,2E0],"tree_param":{"num_deleted":"0","num_feature":"16","num_nodes":"7","size_leaf_vector":"1"}},{"base_weights":[4.3003568E2,-5.1917607E3,8.788052E3,-3.5357626E2,-5.397132E1,7.0622534E2,2.1230989E2],"categories":[],"categories_nodes":[],"categories_segments":[],"categories_sizes":[],"default_left":[0,0,0,0,0,0,0],"id":40,"left_children":[1,3,5,-1,-1,-1,-1],"loss_changes":[3.8288865E9,8.1044915E8,9.4113664E8,0E0,0E0,0E0,0E0],"parents":[2147483647,0,0,1,1,2,2],"right_children":[2,4,6,-1,-1,-1,-1],"split_conditions":[5.7803332E4,2.2309666E4,3E0,-3.5357626E2,-5.397132E1,7.0622534E2,2.1230989E2],"split_indices":[10,10,1,0,0,0,0],"split_type":[0,0,0,0,0,0,0],"sum_hessian":[8E1,4.8E1,3.2E1,2.1E1,2.7E1,6E0,2.6E1],"tree_param":{"num_deleted":"0","num_feature":"16","num_nodes":"7","size_leaf_vector":"1"}},{"base_weights":[5.425537E2,-5.0258535E3,7.189691E3,-3.599455E2,-8.661208E1,-5.5973804E2,3.22183E2],"categories":[],"categories_nodes":[],"categories_segments":[],"categories_sizes":[],"default_left":[0,0,0,0,0,0,0],"id":41,"left_children":[1,3,5,-1,-1,-1,-1],"loss_changes":[2.905301E9,5.339429E8,1.464706E9,0E0,0E0,0E0,0E0],"parents":[2147483647,0,0,1,1,2,2],"right_children":[2,4,6,-1,-1,-1,-1],"split_conditions":[5.6852332E4,1.1824E4,-3.4079456E1,-3.599455E2,-8.661208E1,-5.5973804E2,3.22183E2],"split_indices":[10,9,11,0,0,0,0],"split_type":[0,0,0,0,0,0,0],"sum_hessian":[7.7E1,4.2E1,3.5E1,1.4E1,2.8E1,2E0,3.3E1],"tree_param":{"num_deleted":"0","num_feature":"16","num_nodes":"7","size_leaf_vector":"1"}},{"base_weights":[-4.163489E2,5.45437E3,-6.135323E3,-8.992643E0,4.0796304E2,-3.75055E2,-4.651529E1],"categories":[],"categories_nodes":[],"categories_segments":[],"categories_sizes":[],"default_left":[0,0,0,0,0,0,0],"id":42,"left_children":[1,3,5,-1,-1,-1,-1],"loss_changes":[2.7029967E9,1.312867E9,8.198852E8,0E0,0E0,0E0,0E0],"parents":[2147483647,0,0,1,1,2,2],"right_children":[2,4,6,-1,-1,-1,-1],"split_conditions":[2.02E3,-2.3179831E-2,3.4E0,-8.992643E0,4.0796304E2,-3.75055E2,-4.651529E1],"split_indices":[0,11,13,0,0,0,0],"split_type":[0,0,0,0,0,0,0],"sum_hessian":[7.9E1,3.9E1,4E1,2E1,1.9E1,2.1E1,1.9E1],"tree_param":{"num_deleted":"0","num_feature":"16","num_nodes":"7","size_leaf_vector":"1"}},{"base_weights":[-4.8465613E2,-3.699207E3,1.0233556E4,-2.953653E2,2.4986826E1,8.572411E2,2.4595132E2],"categories":[],"categories_nodes":[],"categories_segments":[],"categories_sizes":[],"default_left":[0,0,0,0,0,0,0],"id":43,"left_children":[1,3,5,-1,-1,-1,-1],"loss_changes":[2.9487427E9,1.2840348E9,7.934171E8,0E0,0E0,0E0,0E0],"parents":[2147483647,0,0,1,1,2,2],"right_children":[2,4,6,-1,-1,-1,-1],"split_conditions":[7.2463E4,3.3E0,3E0,-2.953653E2,2.4986826E1,8.572411E2,2.4595132E2],"split_indices":[10,13,1,0,0,0,0],"split_type":[0,0,0,0,0,0,0],"sum_hessian":[8.4E1,6.5E1,1.9E1,3.2E1,3.3E1,3E0,1.6E1],"tree_param":{"num_deleted":"0","num_feature":"16","num_nodes":"7","size_leaf_vector":"1"}},{"base_weights":[3.7818304E2,-2.9800034E3,1.2231661E4,-2.8655484E2,3.254444E1,3.323677E2,9.612846E2],"categories":[],"categories_nodes":[],"categories_segments":[],"categories_sizes":[],"default_left":[0,0,0,0,0,0,0],"id":44,"left_children":[1,3,5,-1,-1,-1,-1],"loss_changes":[3.202266E9,1.2004138E9,5.9527296E8,0E0,0E0,0E0,0E0],"parents":[2147483647,0,0,1,1,2,2],"right_children":[2,4,6,-1,-1,-1,-1],"split_conditions":[7.2792336E4,3.4409E4,1.5081594E1,-2.8655484E2,3.254444E1,3.323677E2,9.612846E2],"split_indices":[10,8,11,0,0,0,0],"split_type":[0,0,0,0,0,0,0],"sum_hessian":[7.9E1,6.2E1,1.7E1,2.7E1,3.5E1,1.5E1,2E0],"tree_param":{"num_deleted":"0","num_feature":"16","num_nodes":"7","size_leaf_vector":"1"}},{"base_weights":[7.803998E2,6.1987075E3,-4.9252954E3,6.4261865E2,1.4141228E2,-3.4386734E2,-1.5218984E1],"categories":[],"categories_nodes":[],"categories_segments":[],"categories_sizes":[],"default_left":[0,0,0,0,0,0,0],"id":45,"left_children":[1,3,5,-1,-1,-1,-1],"loss_changes":[2.519607E9,1.0542642E9,8.113594E8,0E0,0E0,0E0,0E0],"parents":[2147483647,0,0,1,1,2,2],"right_children":[2,4,6,-1,-1,-1,-1],"split_conditions":[2.02E3,3E0,3.4E0,6.4261865E2,1.4141228E2,-3.4386734E2,-1.5218984E1],"split_indices":[0,1,13,0,0,0,0],"split_type":[0,0,0,0,0,0,0],"sum_hessian":[8E1,4.1E1,3.9E1,6E0,3.5E1,1.9E1,2E1],"tree_param":{"num_deleted":"0","num_feature":"16","num_nodes":"7","size_leaf_vector":"1"}},{"base_weights":[-2.958594E2,-3.1800752E3,1.0864414E4,-2.8810147E2,-8.452019E0,2.7508743E2,9.256156E2],"categories":[],"categories_nodes":[],"categories_segments":[],"categories_sizes":[],"default_left":[0,0,0,0,0,0,0],"id":46,"left_children":[1,3,5,-1,-1,-1,-1],"loss_changes":[2.6254702E9,9.061329E8,6.600205E8,0E0,0E0,0E0,0E0],"parents":[2147483647,0,0,1,1,2,2],"right_children":[2,4,6,-1,-1,-1,-1],"split_conditions":[7.2792336E4,2.2309666E4,1E0,-2.8810147E2,-8.452019E0,2.7508743E2,9.256156E2],"split_indices":[10,10,12,0,0,0,0],"split_type":[0,0,0,0,0,0,0],"sum_hessian":[8E1,6.4E1,1.6E1,2.4E1,4E1,1.4E1,2E0],"tree_param":{"num_deleted":"0","num_feature":"16","num_nodes":"7","size_leaf_vector":"1"}},{"base_weights":[1.3128789E2,-2.5710198E3,1.3435312E4,-3.6839316E2,-2.939231E0,3.5956406E2,9.0121893E2],"categories":[],"categories_nodes":[],"categories_segments":[],"categories_sizes":[],"default_left":[0,0,0,0,0,0,0],"id":47,"left_children":[1,3,5,-1,-1,-1,-1],"loss_changes":[2.9293532E9,1.277509E9,3.6755942E8,0E0,0E0,0E0,0E0],"parents":[2147483647,0,0,1,1,2,2],"right_children":[2,4,6,-1,-1,-1,-1],"split_conditions":[7.2792336E4,-1.7619486E1,1.5081594E1,-3.6839316E2,-2.939231E0,3.5956406E2,9.0121893E2],"split_indices":[10,11,11,0,0,0,0],"split_type":[0,0,0,0,0,0,0],"sum_hessian":[8E1,6.7E1,1.3E1,1.6E1,5.1E1,1.1E1,2E0],"tree_param":{"num_deleted":"0","num_feature":"16","num_nodes":"7","size_leaf_vector":"1"}},{"base_weights":[-1.7642456E2,-2.8234866E3,1.1090888E4,-2.4959975E2,2.9440014E1,4.9368304E2,-1.2903703E2],"categories":[],"categories_nodes":[],"categories_segments":[],"categories_sizes":[],"default_left":[0,0,0,0,0,0,0],"id":48,"left_children":[1,3,5,-1,-1,-1,-1],"loss_changes":[2.3128735E9,9.2821446E8,5.7817434E8,0E0,0E0,0E0,0E0],"parents":[2147483647,0,0,1,1,2,2],"right_children":[2,4,6,-1,-1,-1,-1],"split_conditions":[7.2463E4,3.1E0,8.8082E4,-2.4959975E2,2.9440014E1,4.9368304E2,-1.2903703E2],"split_indices":[10,13,9,0,0,0,0],"split_type":[0,0,0,0,0,0,0],"sum_hessian":[7.6E1,6.2E1,1.4E1,2.9E1,3.3E1,1.2E1,2E0],"tree_param":{"num_deleted":"0","num_feature":"16","num_nodes":"7","size_leaf_vector":"1"}},{"base_weights":[1.7644385E2,5.673996E3,-5.3242075E3,5.970028E2,1.2991112E2,-3.586235E2,-2.1273224E1],"categories":[],"categories_nodes":[],"categories_segments":[],"categories_sizes":[],"default_left":[0,0,0,0,0,0,0],"id":49,"left_children":[1,3,5,-1,-1,-1,-1],"loss_changes":[2.585807E9,9.20577E8,9.180873E8,0E0,0E0,0E0,0E0],"parents":[2147483647,0,0,1,1,2,2],"right_children":[2,4,6,-1,-1,-1,-1],"split_conditions":[2.02E3,3E0,2.022E3,5.970028E2,1.2991112E2,-3.586235E2,-2.1273224E1],"split_indices":[0,1,0,0,0,0,0],"split_type":[0,0,0,0,0,0,0],"sum_hessian":[8.4E1,4.2E1,4.2E1,6E0,3.6E1,2.1E1,2.1E1],"tree_param":{"num_deleted":"0","num_feature":"16","num_nodes":"7","size_leaf_vector":"1"}},{"base_weights":[-8.112031E2,-6.6239526E3,2.3587354E3,-3.086388E2,-1.1631695E2,-9.549369E1,2.2932997E2],"categories":[],"categories_nodes":[],"categories_segments":[],"categories_sizes":[],"default_left":[0,0,0,0,0,0,0],"id":50,"left_children":[1,3,5,-1,-1,-1,-1],"loss_changes":[1.5550724E9,1.7044698E8,1.0936891E9,0E0,0E0,0E0,0E0],"parents":[2147483647,0,0,1,1,2,2],"right_children":[2,4,6,-1,-1,-1,-1],"split_conditions":[3.9933332E4,3.4E0,-2.3179831E-2,-3.086388E2,-1.1631695E2,-9.549369E1,2.2932997E2],"split_indices":[10,13,11,0,0,0,0],"split_type":[0,0,0,0,0,0,0],"sum_hessian":[8.3E1,2.9E1,5.4E1,1.8E1,1.1E1,2.4E1,3E1],"tree_param":{"num_deleted":"0","num_feature":"16","num_nodes":"7","size_leaf_vector":"1"}},{"base_weights":[-1.8880966E2,-2.6733228E3,9.191826E3,-3.493616E2,-3.0174494E1,2.3398656E2,8.488293E2],"categories":[],"categories_nodes":[],"categories_segments":[],"categories_sizes":[],"default_left":[0,0,0,0,0,0,0],"id":51,"left_children":[1,3,5,-1,-1,-1,-1],"loss_changes":[2.0870977E9,8.997624E8,6.1719155E8,0E0,0E0,0E0,0E0],"parents":[2147483647,0,0,1,1,2,2],"right_children":[2,4,6,-1,-1,-1,-1],"split_conditions":[7.2792336E4,-1.7619486E1,1.5081594E1,-3.493616E2,-3.0174494E1,2.3398656E2,8.488293E2],"split_indices":[10,11,11,0,0,0,0],"split_type":[0,0,0,0,0,0,0],"sum_hessian":[8.8E1,7E1,1.8E1,1.4E1,5.6E1,1.6E1,2E0],"tree_param":{"num_deleted":"0","num_feature":"16","num_nodes":"7","size_leaf_vector":"1"}},{"base_weights":[-1.1355883E2,4.4925737E3,-4.8306255E3,-3.365626E1,3.2852307E2,-4.55588E2,-8.513477E1],"categories":[],"categories_nodes":[],"categories_segments":[],"categories_sizes":[],"default_left":[0,0,0,0,0,0,0],"id":52,"left_children":[1,3,5,-1,-1,-1,-1],"loss_changes":[1.7927098E9,1.03734496E9,7.596317E8,0E0,0E0,0E0,0E0],"parents":[2147483647,0,0,1,1,2,2],"right_children":[2,4,6,-1,-1,-1,-1],"split_conditions":[2.02E3,-2.3179831E-2,2.021E3,-3.365626E1,3.2852307E2,-4.55588E2,-8.513477E1],"split_indices":[0,11,0,0,0,0,0],"split_type":[0,0,0,0,0,0,0],"sum_hessian":[8.1E1,4.1E1,4E1,1.9E1,2.2E1,9E0,3.1E1],"tree_param":{"num_deleted":"0","num_feature":"16","num_nodes":"7","size_leaf_vector":"1"}},{"base_weights":[-4.026464E0,-1.7562766E3,1.4757829E4,-2.2931927E2,3.554273E1,5.9458514E2,4.5548367E1],"categories":[],"categories_nodes":[],"categories_segments":[],"categories_sizes":[],"default_left":[0,0,0,0,0,0,0],"id":53,"left_children":[1,3,5,-1,-1,-1,-1],"loss_changes":[2.1342703E9,9.245829E8,1.7587789E8,0E0,0E0,0E0,0E0],"parents":[2147483647,0,0,1,1,2,2],"right_children":[2,4,6,-1,-1,-1,-1],"split_conditions":[7.7321336E4,2.3567E4,8.8082E4,-2.2931927E2,3.554273E1,5.9458514E2,4.5548367E1],"split_indices":[10,8,9,0,0,0,0],"split_type":[0,0,0,0,0,0,0],"sum_hessian":[8.1E1,7.3E1,8E0,2.7E1,4.6E1,7E0,1E0],"tree_param":{"num_deleted":"0","num_feature":"16","num_nodes":"7","size_leaf_vector":"1"}},{"base_weights":[-5.7695605E2,-4.8723984E3,4.4126343E3,-1.241061E2,-3.5129828E2,7.71727E1,6.1178467E2],"categories":[],"categories_nodes":[],"categories_segments":[],"categories_sizes":[],"default_left":[0,0,0,0,0,0,0],"id":54,"left_children":[1,3,5,-1,-1,-1,-1],"loss_changes":[1.7470126E9,2.8064102E8,1.04692736E9,0E0,0E0,0E0,0E0],"parents":[2147483647,0,0,1,1,2,2],"right_children":[2,4,6,-1,-1,-1,-1],"split_conditions":[5.2341E4,1E0,1E0,-1.241061E2,-3.5129828E2,7.71727E1,6.1178467E2],"split_indices":[8,15,12,0,0,0,0],"split_type":[0,0,0,0,0,0,0],"sum_hessian":[8E1,4.3E1,3.7E1,3.4E1,9E0,3.2E1,5E0],"tree_param":{"num_deleted":"0","num_feature":"16","num_nodes":"7","size_leaf_vector":"1"}},{"base_weights":[-1.5048112E2,3.752102E3,-3.5940342E3,-2.0432735E1,2.521523E2,-2.7013654E2,-1.0203663E1],"categories":[],"categories_nodes":[],"categories_segments":[],"categories_sizes":[],"default_left":[0,0,0,0,0,0,0],"id":55,"left_children":[1,3,5,-1,-1,-1,-1],"loss_changes":[1.0819877E9,5.2312342E8,5.432493E8,0E0,0E0,0E0,0E0],"parents":[2147483647,0,0,1,1,2,2],"right_children":[2,4,6,-1,-1,-1,-1],"split_conditions":[2.02E3,6.8343664E4,2.022E3,-2.0432735E1,2.521523E2,-2.7013654E2,-1.0203663E1],"split_indices":[0,10,0,0,0,0,0],"split_type":[0,0,0,0,0,0,0],"sum_hessian":[7.9E1,3.7E1,4.2E1,1.6E1,2.1E1,1.9E1,2.3E1],"tree_param":{"num_deleted":"0","num_feature":"16","num_nodes":"7","size_leaf_vector":"1"}},{"base_weights":[4.9479973E1,-3.5689412E3,5.1480737E3,-2.78066E2,-8.08096E1,-1.18376854E2,3.7687656E2],"categories":[],"categories_nodes":[],"categories_segments":[],"categories_sizes":[],"default_left":[0,0,0,0,0,0,0],"id":56,"left_children":[1,3,5,-1,-1,-1,-1],"loss_changes":[1.4114648E9,2.32984E8,1.422668E9,0E0,0E0,0E0,0E0],"parents":[2147483647,0,0,1,1,2,2],"right_children":[2,4,6,-1,-1,-1,-1],"split_conditions":[5.6852332E4,-1.7619486E1,-1.4564846E0,-2.78066E2,-8.08096E1,-1.18376854E2,3.7687656E2],"split_indices":[10,11,11,0,0,0,0],"split_type":[0,0,0,0,0,0,0],"sum_hessian":[7.5E1,4.4E1,3.1E1,1E1,3.4E1,1.2E1,1.9E1],"tree_param":{"num_deleted":"0","num_feature":"16","num_nodes":"7","size_leaf_vector":"1"}},{"base_weights":[6.12722E1,-3.223177E3,5.586917E3,-2.5036029E2,-6.25717E1,-5.260676E2,2.6735184E2],"categories":[],"categories_nodes":[],"categories_segments":[],"categories_sizes":[],"default_left":[0,0,0,0,0,0,0],"id":57,"left_children":[1,3,5,-1,-1,-1,-1],"loss_changes":[1.497343E9,2.7608422E8,1.1776648E9,0E0,0E0,0E0,0E0],"parents":[2147483647,0,0,1,1,2,2],"right_children":[2,4,6,-1,-1,-1,-1],"split_conditions":[6.1379668E4,8.0663335E3,-3.4079456E1,-2.5036029E2,-6.25717E1,-5.260676E2,2.6735184E2],"split_indices":[10,10,11,0,0,0,0],"split_type":[0,0,0,0,0,0,0],"sum_hessian":[8.1E1,5.1E1,3E1,1.4E1,3.7E1,2E0,2.8E1],"tree_param":{"num_deleted":"0","num_feature":"16","num_nodes":"7","size_leaf_vector":"1"}},{"base_weights":[3.9647534E2,-2.9633691E3,5.891709E3,-2.0973029E2,-1.7682192E1,3.8991385E2,3.8819878E1],"categories":[],"categories_nodes":[],"categories_segments":[],"categories_sizes":[],"default_left":[0,0,0,0,0,0,0],"id":58,"left_children":[1,3,5,-1,-1,-1,-1],"loss_changes":[1.4487831E9,3.3753248E8,6.869483E8,0E0,0E0,0E0,0E0],"parents":[2147483647,0,0,1,1,2,2],"right_children":[2,4,6,-1,-1,-1,-1],"split_conditions":[6.1379668E4,2.9633E4,7.4341E4,-2.0973029E2,-1.7682192E1,3.8991385E2,3.8819878E1],"split_indices":[10,8,9,0,0,0,0],"split_type":[0,0,0,0,0,0,0],"sum_hessian":[7.7E1,4.8E1,2.9E1,2.2E1,2.6E1,1.4E1,1.5E1],"tree_param":{"num_deleted":"0","num_feature":"16","num_nodes":"7","size_leaf_vector":"1"}},{"base_weights":[-8.9012E1,-1.2476383E3,1.3600584E4,-1.641201E2,5.0394356E1,1.3140274E2,6.253446E2],"categories":[],"categories_nodes":[],"categories_segments":[],"categories_sizes":[],"default_left":[0,0,0,0,0,0,0],"id":59,"left_children":[1,3,5,-1,-1,-1,-1],"loss_changes":[1.3729723E9,6.927007E8,1.972297E8,0E0,0E0,0E0,0E0],"parents":[2147483647,0,0,1,1,2,2],"right_children":[2,4,6,-1,-1,-1,-1],"split_conditions":[7.9832E4,4.2892332E4,1E0,-1.641201E2,5.0394356E1,1.3140274E2,6.253446E2],"split_indices":[10,10,3,0,0,0,0],"split_type":[0,0,0,0,0,0,0],"sum_hessian":[8.5E1,7.9E1,6E0,3.5E1,4.4E1,2E0,4E0],"tree_param":{"num_deleted":"0","num_feature":"16","num_nodes":"7","size_leaf_vector":"1"}},{"base_weights":[-3.0194696E2,3.4586643E3,-3.4822598E3,6.564625E1,6.709326E2,-3.540337E2,-4.6699867E1],"categories":[],"categories_nodes":[],"categories_segments":[],"categories_sizes":[],"default_left":[0,0,0,0,0,0,0],"id":60,"left_children":[1,3,5,-1,-1,-1,-1],"loss_changes":[1.0107954E9,9.356106E8,6.204165E8,0E0,0E0,0E0,0E0],"parents":[2147483647,0,0,1,1,2,2],"right_children":[2,4,6,-1,-1,-1,-1],"split_conditions":[2.02E3,5.2537216E1,2.021E3,6.564625E1,6.709326E2,-3.540337E2,-4.6699867E1],"split_indices":[0,11,0,0,0,0,0],"split_type":[0,0,0,0,0,0,0],"sum_hessian":[8.3E1,3.8E1,4.5E1,3.5E1,3E0,1.1E1,3.4E1],"tree_param":{"num_deleted":"0","num_feature":"16","num_nodes":"7","size_leaf_vector":"1"}},{"base_weights":[-1.2957536E2,-7.6336133E3,1.6167609E3,-2.0212007E2,-5.757969E2,-1.2141276E2,1.5330855E2],"categories":[],"categories_nodes":[],"categories_segments":[],"categories_sizes":[],"default_left":[0,0,0,0,0,0,0],"id":61,"left_children":[1,3,5,-1,-1,-1,-1],"loss_changes":[1.0937902E9,2.0114733E8,8.8655443E8,0E0,0E0,0E0,0E0],"parents":[2147483647,0,0,1,1,2,2],"right_children":[2,4,6,-1,-1,-1,-1],"split_conditions":[-1.7619486E1,3.3E1,3.7466E4,-2.0212007E2,-5.757969E2,-1.2141276E2,1.5330855E2],"split_indices":[11,4,8,0,0,0,0],"split_type":[0,0,0,0,0,0,0],"sum_hessian":[8.2E1,1.5E1,6.7E1,1.3E1,2E0,2.3E1,4.4E1],"tree_param":{"num_deleted":"0","num_feature":"16","num_nodes":"7","size_leaf_vector":"1"}},{"base_weights":[-4.5698282E2,3.2517112E3,-3.87715E3,4.9597934E2,3.2153294E1,-3.4861594E2,-5.210007E1],"categories":[],"categories_nodes":[],"categories_segments":[],"categories_sizes":[],"default_left":[0,0,0,0,0,0,0],"id":62,"left_children":[1,3,5,-1,-1,-1,-1],"loss_changes":[9.704212E8,8.961033E8,5.454033E8,0E0,0E0,0E0,0E0],"parents":[2147483647,0,0,1,1,2,2],"right_children":[2,4,6,-1,-1,-1,-1],"split_conditions":[2.02E3,3E0,2.021E3,4.9597934E2,3.2153294E1,-3.4861594E2,-5.210007E1],"split_indices":[0,1,0,0,0,0,0],"split_type":[0,0,0,0,0,0,0],"sum_hessian":[7.5E1,3.6E1,3.9E1,6E0,3E1,1.1E1,2.8E1],"tree_param":{"num_deleted":"0","num_feature":"16","num_nodes":"7","size_leaf_vector":"1"}},{"base_weights":[5.525504E2,-2.4770728E3,6.186915E3,-2.4423898E2,-3.3414864E1,9.259885E0,3.65598E2],"categories":[],"categories_nodes":[],"categories_segments":[],"categories_sizes":[],"default_left":[0,0,0,0,0,0,0],"id":63,"left_children":[1,3,5,-1,-1,-1,-1],"loss_changes":[1.35592E9,3.377399E8,6.373241E8,0E0,0E0,0E0,0E0],"parents":[2147483647,0,0,1,1,2,2],"right_children":[2,4,6,-1,-1,-1,-1],"split_conditions":[6.1379668E4,8.0663335E3,-1.4564846E0,-2.4423898E2,-3.3414864E1,9.259885E0,3.65598E2],"split_indices":[10,10,11,0,0,0,0],"split_type":[0,0,0,0,0,0,0],"sum_hessian":[7.8E1,5.1E1,2.7E1,1.3E1,3.8E1,1.1E1,1.6E1],"tree_param":{"num_deleted":"0","num_feature":"16","num_nodes":"7","size_leaf_vector":"1"}},{"base_weights":[-2.3818852E2,-1.2293003E3,1.6006523E4,-2.227802E2,1.5839785E1,2.9311768E2,7.0989905E2],"categories":[],"categories_nodes":[],"categories_segments":[],"categories_sizes":[],"default_left":[0,0,0,0,0,0,0],"id":64,"left_children":[1,3,5,-1,-1,-1,-1],"loss_changes":[1.3311263E9,6.3749146E8,1.4580352E7,0E0,0E0,0E0,0E0],"parents":[2147483647,0,0,1,1,2,2],"right_children":[2,4,6,-1,-1,-1,-1],"split_conditions":[7.9832E4,-1.3433348E1,5.1205072E0,-2.227802E2,1.5839785E1,2.9311768E2,7.0989905E2],"split_indices":[10,11,11,0,0,0,0],"split_type":[0,0,0,0,0,0,0],"sum_hessian":[8.1E1,7.7E1,4E0,1.9E1,5.8E1,2E0,2E0],"tree_param":{"num_deleted":"0","num_feature":"16","num_nodes":"7","size_leaf_vector":"1"}},{"base_weights":[3.202605E2,-7.275886E2,1.2191023E4,-2.148092E2,3.836815E1,2.2831088E2,6.911882E2],"categories":[],"categories_nodes":[],"categories_segments":[],"categories_sizes":[],"default_left":[0,0,0,0,0,0,0],"id":65,"left_children":[1,3,5,-1,-1,-1,-1],"loss_changes":[1.03607443E9,7.1540314E8,1.8258605E8,0E0,0E0,0E0,0E0],"parents":[2147483647,0,0,1,1,2,2],"right_children":[2,4,6,-1,-1,-1,-1],"split_conditions":[7.9832E4,-1.3433348E1,5.1205072E0,-2.148092E2,3.836815E1,2.2831088E2,6.911882E2],"split_indices":[10,11,11,0,0,0,0],"split_type":[0,0,0,0,0,0,0],"sum_hessian":[8.2E1,7.6E1,6E0,1.9E1,5.7E1,4E0,2E0],"tree_param":{"num_deleted":"0","num_feature":"16","num_nodes":"7","size_leaf_vector":"1"}},{"base_weights":[2.2070245E2,3.6863572E3,-2.8339268E3,4.540358E0,2.333481E2,-4.7353162E2,-6.49734E1],"categories":[],"categories_nodes":[],"categories_segments":[],"categories_sizes":[],"default_left":[0,0,0,0,0,0,0],"id":66,"left_children":[1,3,5,-1,-1,-1,-1],"loss_changes":[8.310242E8,3.5815E8,4.275344E8,0E0,0E0,0E0,0E0],"parents":[2147483647,0,0,1,1,2,2],"right_children":[2,4,6,-1,-1,-1,-1],"split_conditions":[2.02E3,-2.3179831E-2,-6.4995865E1,4.540358E0,2.333481E2,-4.7353162E2,-6.49734E1],"split_indices":[0,11,11,0,0,0,0],"split_type":[0,0,0,0,0,0,0],"sum_hessian":[7.7E1,3.6E1,4.1E1,1.6E1,2E1,3E0,3.8E1],"tree_param":{"num_deleted":"0","num_feature":"16","num_nodes":"7","size_leaf_vector":"1"}},{"base_weights":[-1.2120588E2,-1.3629604E3,9.6586E3,-2.43821E2,4.7242937E0,4.661096E2,-7.037105E1],"categories":[],"categories_nodes":[],"categories_segments":[],"categories_sizes":[],"default_left":[0,0,0,0,0,0,0],"id":67,"left_children":[1,3,5,-1,-1,-1,-1],"loss_changes":[1.051351E9,6.1408966E8,3.7849267E8,0E0,0E0,0E0,0E0],"parents":[2147483647,0,0,1,1,2,2],"right_children":[2,4,6,-1,-1,-1,-1],"split_conditions":[7.7321336E4,-1.7619486E1,8.8082E4,-2.43821E2,4.7242937E0,4.661096E2,-7.037105E1],"split_indices":[10,11,9,0,0,0,0],"split_type":[0,0,0,0,0,0,0],"sum_hessian":[8.5E1,7.6E1,9E0,1.6E1,6E1,7E0,2E0],"tree_param":{"num_deleted":"0","num_feature":"16","num_nodes":"7","size_leaf_vector":"1"}},{"base_weights":[-3.2663815E2,-4.7024263E3,1.270568E3,-1.15400406E2,-5.206727E2,-4.119058E1,2.0008539E2],"categories":[],"categories_nodes":[],"categories_segments":[],"categories_sizes":[],"default_left":[0,0,0,0,0,0,0],"id":68,"left_children":[1,3,5,-1,-1,-1,-1],"loss_changes":[5.6891245E8,2.8512093E8,6.141447E8,0E0,0E0,0E0,0E0],"parents":[2147483647,0,0,1,1,2,2],"right_children":[2,4,6,-1,-1,-1,-1],"split_conditions":[-1.0742431E1,3.3E1,6.1379668E4,-1.15400406E2,-5.206727E2,-4.119058E1,2.0008539E2],"split_indices":[11,4,10,0,0,0,0],"split_type":[0,0,0,0,0,0,0],"sum_hessian":[8E1,2.1E1,5.9E1,1.9E1,2E0,3.8E1,2.1E1],"tree_param":{"num_deleted":"0","num_feature":"16","num_nodes":"7","size_leaf_vector":"1"}},{"base_weights":[8.956737E1,-1.059116E3,1.0709454E4,-2.2246199E2,1.3138585E1,2.1313554E2,6.49261E2],"categories":[],"categories_nodes":[],"categories_segments":[],"categories_sizes":[],"default_left":[0,0,0,0,0,0,0],"id":69,"left_children":[1,3,5,-1,-1,-1,-1],"loss_changes":[9.6929286E8,5.1845226E8,1.8991584E8,0E0,0E0,0E0,0E0],"parents":[2147483647,0,0,1,1,2,2],"right_children":[2,4,6,-1,-1,-1,-1],"split_conditions":[7.7321336E4,-1.7619486E1,7.567648E0,-2.2246199E2,1.3138585E1,2.1313554E2,6.49261E2],"split_indices":[10,11,11,0,0,0,0],"split_type":[0,0,0,0,0,0,0],"sum_hessian":[7.8E1,7.1E1,7E0,1.5E1,5.6E1,5E0,2E0],"tree_param":{"num_deleted":"0","num_feature":"16","num_nodes":"7","size_leaf_vector":"1"}},{"base_weights":[3.785985E2,3.5212327E3,-2.9293079E3,4.4056104E2,6.606354E1,-8.165981E1,-6.058828E2],"categories":[],"categories_nodes":[],"categories_segments":[],"categories_sizes":[],"default_left":[0,0,0,0,0,0,0],"id":70,"left_children":[1,3,5,-1,-1,-1,-1],"loss_changes":[8.47279E8,5.953047E8,3.436627E8,0E0,0E0,0E0,0E0],"parents":[2147483647,0,0,1,1,2,2],"right_children":[2,4,6,-1,-1,-1,-1],"split_conditions":[2.02E3,3E0,3.3E1,4.4056104E2,6.606354E1,-8.165981E1,-6.058828E2],"split_indices":[0,1,4,0,0,0,0],"split_type":[0,0,0,0,0,0,0],"sum_hessian":[8E1,4.1E1,3.9E1,6E0,3.5E1,3.8E1,1E0],"tree_param":{"num_deleted":"0","num_feature":"16","num_nodes":"7","size_leaf_vector":"1"}},{"base_weights":[1.7505994E2,-5.753661E3,1.68547E3,-1.5247775E2,-5.933483E2,-3.4244717E1,2.3786139E2],"categories":[],"categories_nodes":[],"categories_segments":[],"categories_sizes":[],"default_left":[0,0,0,0,0,0,0],"id":71,"left_children":[1,3,5,-1,-1,-1,-1],"loss_changes":[6.946437E8,2.0741034E8,7.945911E8,0E0,0E0,0E0,0E0],"parents":[2147483647,0,0,1,1,2,2],"right_children":[2,4,6,-1,-1,-1,-1],"split_conditions":[-1.7619486E1,9.0596E4,6.5030668E4,-1.5247775E2,-5.933483E2,-3.4244717E1,2.3786139E2],"split_indices":[11,8,10,0,0,0,0],"split_type":[0,0,0,0,0,0,0],"sum_hessian":[7.6E1,1.5E1,6.1E1,1.4E1,1E0,4E1,2.1E1],"tree_param":{"num_deleted":"0","num_feature":"16","num_nodes":"7","size_leaf_vector":"1"}},{"base_weights":[2.1515971E2,-1.1184976E3,8.602003E3,-1.26616005E2,5.42112E1,4.0692822E2,-7.3958755E1],"categories":[],"categories_nodes":[],"categories_segments":[],"categories_sizes":[],"default_left":[0,0,0,0,0,0,0],"id":72,"left_children":[1,3,5,-1,-1,-1,-1],"loss_changes":[8.7697184E8,4.2312032E8,3.1544698E8,0E0,0E0,0E0,0E0],"parents":[2147483647,0,0,1,1,2,2],"right_children":[2,4,6,-1,-1,-1,-1],"split_conditions":[7.5670664E4,3.7E0,8.8082E4,-1.26616005E2,5.42112E1,4.0692822E2,-7.3958755E1],"split_indices":[10,13,9,0,0,0,0],"split_type":[0,0,0,0,0,0,0],"sum_hessian":[7.7E1,6.7E1,1E1,3.5E1,3.2E1,8E0,2E0],"tree_param":{"num_deleted":"0","num_feature":"16","num_nodes":"7","size_leaf_vector":"1"}},{"base_weights":[-5.5310693E2,2.371582E3,-3.1087534E3,4.0823692E1,6.17289E2,-2.6592514E2,-4.201125E1],"categories":[],"categories_nodes":[],"categories_segments":[],"categories_sizes":[],"default_left":[0,0,0,0,0,0,0],"id":73,"left_children":[1,3,5,-1,-1,-1,-1],"loss_changes":[5.717949E8,6.379655E8,3.2890595E8,0E0,0E0,0E0,0E0],"parents":[2147483647,0,0,1,1,2,2],"right_children":[2,4,6,-1,-1,-1,-1],"split_conditions":[2.02E3,5.2537216E1,2.021E3,4.0823692E1,6.17289E2,-2.6592514E2,-4.201125E1],"split_indices":[0,11,0,0,0,0,0],"split_type":[0,0,0,0,0,0,0],"sum_hessian":[7.5E1,3.5E1,4E1,3.3E1,2E0,1.2E1,2.8E1],"tree_param":{"num_deleted":"0","num_feature":"16","num_nodes":"7","size_leaf_vector":"1"}},{"base_weights":[-2.20102E1,2.8875642E3,-2.555793E3,4.5311066E2,4.6520844E1,-2.5647156E2,-2.094408E1],"categories":[],"categories_nodes":[],"categories_segments":[],"categories_sizes":[],"default_left":[0,0,0,0,0,0,0],"id":74,"left_children":[1,3,5,-1,-1,-1,-1],"loss_changes":[5.3456544E8,5.0801027E8,3.4267248E8,0E0,0E0,0E0,0E0],"parents":[2147483647,0,0,1,1,2,2],"right_children":[2,4,6,-1,-1,-1,-1],"split_conditions":[2.02E3,3E0,2.021E3,4.5311066E2,4.6520844E1,-2.5647156E2,-2.094408E1],"split_indices":[0,1,0,0,0,0,0],"split_type":[0,0,0,0,0,0,0],"sum_hessian":[7.1E1,3.3E1,3.8E1,4E0,2.9E1,1.1E1,2.7E1],"tree_param":{"num_deleted":"0","num_feature":"16","num_nodes":"7","size_leaf_vector":"1"}},{"base_weights":[-3.6543542E2,-3.4045283E3,1.3219116E3,-1.9493457E2,-8.558419E1,8.98411E1,-2.5320973E2],"categories":[],"categories_nodes":[],"categories_segments":[],"categories_sizes":[],"default_left":[0,0,0,0,0,0,0],"id":75,"left_children":[1,3,5,-1,-1,-1,-1],"loss_changes":[4.2776694E8,5.165888E7,5.27043E8,0E0,0E0,0E0,0E0],"parents":[2147483647,0,0,1,1,2,2],"right_children":[2,4,6,-1,-1,-1,-1],"split_conditions":[3.9933332E4,5.9176665E3,8.4317E4,-1.9493457E2,-8.558419E1,8.98411E1,-2.5320973E2],"split_indices":[10,10,9,0,0,0,0],"split_type":[0,0,0,0,0,0,0],"sum_hessian":[8.2E1,2.9E1,5.3E1,9E0,2E1,4.7E1,6E0],"tree_param":{"num_deleted":"0","num_feature":"16","num_nodes":"7","size_leaf_vector":"1"}},{"base_weights":[1.0872546E2,-2.3772078E3,4.1793135E3,-1.9670578E2,-4.6223446E1,9.307377E1,5.392036E2],"categories":[],"categories_nodes":[],"categories_segments":[],"categories_sizes":[],"default_left":[0,0,0,0,0,0,0],"id":76,"left_children":[1,3,5,-1,-1,-1,-1],"loss_changes":[7.943207E8,1.58465E8,4.8432554E8,0E0,0E0,0E0,0E0],"parents":[2147483647,0,0,1,1,2,2],"right_children":[2,4,6,-1,-1,-1,-1],"split_conditions":[6.1379668E4,8.0663335E3,3.26962E1,-1.9670578E2,-4.6223446E1,9.307377E1,5.392036E2],"split_indices":[10,10,11,0,0,0,0],"split_type":[0,0,0,0,0,0,0],"sum_hessian":[7.7E1,4.8E1,2.9E1,1.2E1,3.6E1,2.6E1,3E0],"tree_param":{"num_deleted":"0","num_feature":"16","num_nodes":"7","size_leaf_vector":"1"}},{"base_weights":[-1.002401E2,-4.6615435E3,1.554884E3,-1.2524446E2,-4.54334E2,-3.1503738E1,2.4910873E2],"categories":[],"categories_nodes":[],"categories_segments":[],"categories_sizes":[],"default_left":[0,0,0,0,0,0,0],"id":77,"left_children":[1,3,5,-1,-1,-1,-1],"loss_changes":[6.4533376E8,1.8393885E8,8.11232E8,0E0,0E0,0E0,0E0],"parents":[2147483647,0,0,1,1,2,2],"right_children":[2,4,6,-1,-1,-1,-1],"split_conditions":[-1.0742431E1,3.3E1,6.5030668E4,-1.2524446E2,-4.54334E2,-3.1503738E1,2.4910873E2],"split_indices":[11,4,10,0,0,0,0],"split_type":[0,0,0,0,0,0,0],"sum_hessian":[8.4E1,2.2E1,6.2E1,2E1,2E0,4.3E1,1.9E1],"tree_param":{"num_deleted":"0","num_feature":"16","num_nodes":"7","size_leaf_vector":"1"}},{"base_weights":[1.6756973E2,-6.423285E2,1.0806739E4,-2.1716206E2,1.5735435E1,1.0071789E2,5.2743134E2],"categories":[],"categories_nodes":[],"categories_segments":[],"categories_sizes":[],"default_left":[0,0,0,0,0,0,0],"id":78,"left_children":[1,3,5,-1,-1,-1,-1],"loss_changes":[7.0108454E8,4.3705098E8,1.4155085E8,0E0,0E0,0E0,0E0],"parents":[2147483647,0,0,1,1,2,2],"right_children":[2,4,6,-1,-1,-1,-1],"split_conditions":[8.4914664E4,-1.8393656E1,9E0,-2.1716206E2,1.5735435E1,1.0071789E2,5.2743134E2],"split_indices":[10,11,4,0,0,0,0],"split_type":[0,0,0,0,0,0,0],"sum_hessian":[8E1,7.5E1,5E0,1.2E1,6.3E1,2E0,3E0],"tree_param":{"num_deleted":"0","num_feature":"16","num_nodes":"7","size_leaf_vector":"1"}},{"base_weights":[3.0453885E2,-7.8141406E2,7.1910913E3,-5.504418E2,-1.5657199E1,1.5459914E2,5.6657275E2],"categories":[],"categories_nodes":[],"categories_segments":[],"categories_sizes":[],"default_left":[0,0,0,0,0,0,0],"id":79,"left_children":[1,3,5,-1,-1,-1,-1],"loss_changes":[6.455628E8,3.7145862E8,2.3990976E8,0E0,0E0,0E0,0E0],"parents":[2147483647,0,0,1,1,2,2],"right_children":[2,4,6,-1,-1,-1,-1],"split_conditions":[7.5670664E4,-7.601881E1,1.5024823E1,-5.504418E2,-1.5657199E1,1.5459914E2,5.6657275E2],"split_indices":[10,11,11,0,0,0,0],"split_type":[0,0,0,0,0,0,0],"sum_hessian":[8.5E1,7.4E1,1.1E1,1E0,7.3E1,9E0,2E0],"tree_param":{"num_deleted":"0","num_feature":"16","num_nodes":"7","size_leaf_vector":"1"}},{"base_weights":[-1.1221148E2,-7.413857E2,1.2938636E4,-1.8076186E2,2.5155008E1,1.391163E2,5.5163965E2],"categories":[],"categories_nodes":[],"categories_segments":[],"categories_sizes":[],"default_left":[0,0,0,0,0,0,0],"id":80,"left_children":[1,3,5,-1,-1,-1,-1],"loss_changes":[6.703331E8,4.7515798E8,3.3157504E7,0E0,0E0,0E0,0E0],"parents":[2147483647,0,0,1,1,2,2],"right_children":[2,4,6,-1,-1,-1,-1],"split_conditions":[8.4914664E4,-1.3433348E1,9E0,-1.8076186E2,2.5155008E1,1.391163E2,5.5163965E2],"split_indices":[10,11,4,0,0,0,0],"split_type":[0,0,0,0,0,0,0],"sum_hessian":[8E1,7.7E1,3E0,1.9E1,5.8E1,1E0,2E0],"tree_param":{"num_deleted":"0","num_feature":"16","num_nodes":"7","size_leaf_vector":"1"}},{"base_weights":[1.02648415E2,-5.3886847E2,1.0576831E4,-1.6000327E2,3.1159348E1,5.5352397E0,4.8367987E2],"categories":[],"categories_nodes":[],"categories_segments":[],"categories_sizes":[],"default_left":[0,0,0,0,0,0,0],"id":81,"left_children":[1,3,5,-1,-1,-1,-1],"loss_changes":[5.536514E8,4.2306106E8,1.3453562E8,0E0,0E0,0E0,0E0],"parents":[2147483647,0,0,1,1,2,2],"right_children":[2,4,6,-1,-1,-1,-1],"split_conditions":[8.4914664E4,-1.0742431E1,1E0,-1.6000327E2,3.1159348E1,5.5352397E0,4.8367987E2],"split_indices":[10,11,3,0,0,0,0],"split_type":[0,0,0,0,0,0,0],"sum_hessian":[8.1E1,7.7E1,4E0,2E1,5.7E1,1E0,3E0],"tree_param":{"num_deleted":"0","num_feature":"16","num_nodes":"7","size_leaf_vector":"1"}},{"base_weights":[-3.6358566E2,4.6045124E1,-1.1379402E4,-5.5987263E1,1.2724141E2,-5.320046E2,-1.16542305E2],"categories":[],"categories_nodes":[],"categories_segments":[],"categories_sizes":[],"default_left":[0,0,0,0,0,0,0],"id":82,"left_children":[1,3,5,-1,-1,-1,-1],"loss_changes":[3.4675405E8,4.1468672E8,3.815795E7,0E0,0E0,0E0,0E0],"parents":[2147483647,0,0,1,1,2,2],"right_children":[2,4,6,-1,-1,-1,-1],"split_conditions":[3.7E1,6.1379668E4,2E0,-5.5987263E1,1.2724141E2,-5.320046E2,-1.16542305E2],"split_indices":[4,10,1,0,0,0,0],"split_type":[0,0,0,0,0,0,0],"sum_hessian":[7.6E1,7.4E1,2E0,5.1E1,2.3E1,1E0,1E0],"tree_param":{"num_deleted":"0","num_feature":"16","num_nodes":"7","size_leaf_vector":"1"}},{"base_weights":[-2.8535028E2,-2.9751023E3,1.2233757E3,-1.7240958E2,-4.9907303E1,-6.592312E1,1.3931569E2],"categories":[],"categories_nodes":[],"categories_segments":[],"categories_sizes":[],"default_left":[0,0,0,0,0,0,0],"id":83,"left_children":[1,3,5,-1,-1,-1,-1],"loss_changes":[3.5886733E8,8.520957E7,4.5610982E8,0E0,0E0,0E0,0E0],"parents":[2147483647,0,0,1,1,2,2],"right_children":[2,4,6,-1,-1,-1,-1],"split_conditions":[3.9933332E4,8.0663335E3,-2.3179831E-2,-1.7240958E2,-4.9907303E1,-6.592312E1,1.3931569E2],"split_indices":[10,10,11,0,0,0,0],"split_type":[0,0,0,0,0,0,0],"sum_hessian":[8.7E1,3.1E1,5.6E1,1.4E1,1.7E1,2.6E1,3E1],"tree_param":{"num_deleted":"0","num_feature":"16","num_nodes":"7","size_leaf_vector":"1"}},{"base_weights":[-1.1706444E2,-7.2992847E2,8.604515E3,-1.6156767E2,1.6335606E1,9.9230736E1,5.173259E2],"categories":[],"categories_nodes":[],"categories_segments":[],"categories_sizes":[],"default_left":[0,0,0,0,0,0,0],"id":84,"left_children":[1,3,5,-1,-1,-1,-1],"loss_changes":[4.684537E8,3.6036256E8,1.6130675E8,0E0,0E0,0E0,0E0],"parents":[2147483647,0,0,1,1,2,2],"right_children":[2,4,6,-1,-1,-1,-1],"split_conditions":[7.9832E4,-1.449231E1,5.1205072E0,-1.6156767E2,1.6335606E1,9.9230736E1,5.173259E2],"split_indices":[10,11,11,0,0,0,0],"split_type":[0,0,0,0,0,0,0],"sum_hessian":[8.6E1,8.1E1,5E0,1.9E1,6.2E1,3E0,2E0],"tree_param":{"num_deleted":"0","num_feature":"16","num_nodes":"7","size_leaf_vector":"1"}},{"base_weights":[1.6048555E2,-4.8034595E2,8.129677E3,-4.8799853E0,-5.162923E2,5.8331085E2,1.4193993E2],"categories":[],"categories_nodes":[],"categories_segments":[],"categories_sizes":[],"default_left":[0,0,0,0,0,0,0],"id":85,"left_children":[1,3,5,-1,-1,-1,-1],"loss_changes":[3.9493418E8,3.3961008E8,1.4532285E8,0E0,0E0,0E0,0E0],"parents":[2147483647,0,0,1,1,2,2],"right_children":[2,4,6,-1,-1,-1,-1],"split_conditions":[7.9832E4,1.07752E5,2E0,-4.8799853E0,-5.162923E2,5.8331085E2,1.4193993E2],"split_indices":[10,8,1,0,0,0,0],"split_type":[0,0,0,0,0,0,0],"sum_hessian":[7.6E1,7.1E1,5E0,7E1,1E0,1E0,4E0],"tree_param":{"num_deleted":"0","num_feature":"16","num_nodes":"7","size_leaf_vector":"1"}},{"base_weights":[-4.7865456E1,2.06327E3,-2.1581724E3,3.5596817E1,4.760631E2,-5.898066E1,-5.0561127E2],"categories":[],"categories_nodes":[],"categories_segments":[],"categories_sizes":[],"default_left":[0,0,0,0,0,0,0],"id":86,"left_children":[1,3,5,-1,-1,-1,-1],"loss_changes":[3.8095738E8,5.0180992E8,2.514105E8,0E0,0E0,0E0,0E0],"parents":[2147483647,0,0,1,1,2,2],"right_children":[2,4,6,-1,-1,-1,-1],"split_conditions":[2.02E3,5.2537216E1,6.3554E4,3.5596817E1,4.760631E2,-5.898066E1,-5.0561127E2],"split_indices":[0,11,8,0,0,0,0],"split_type":[0,0,0,0,0,0,0],"sum_hessian":[8.4E1,4.2E1,4.2E1,3.9E1,3E0,4.1E1,1E0],"tree_param":{"num_deleted":"0","num_feature":"16","num_nodes":"7","size_leaf_vector":"1"}},{"base_weights":[1.7367665E2,-4.460379E2,8.846995E3,-1.3796979E2,3.1175604E1,7.225877E1,4.3926282E2],"categories":[],"categories_nodes":[],"categories_segments":[],"categories_sizes":[],"default_left":[0,0,0,0,0,0,0],"id":87,"left_children":[1,3,5,-1,-1,-1,-1],"loss_changes":[4.639164E8,3.5586246E8,1.1012653E8,0E0,0E0,0E0,0E0],"parents":[2147483647,0,0,1,1,2,2],"right_children":[2,4,6,-1,-1,-1,-1],"split_conditions":[7.9832E4,-1.0742431E1,9E0,-1.3796979E2,3.1175604E1,7.225877E1,4.3926282E2],"split_indices":[10,11,4,0,0,0,0],"split_type":[0,0,0,0,0,0,0],"sum_hessian":[8.5E1,8E1,5E0,2.2E1,5.8E1,2E0,3E0],"tree_param":{"num_deleted":"0","num_feature":"16","num_nodes":"7","size_leaf_vector":"1"}},{"base_weights":[7.946564E1,-4.8579712E2,8.716E3,-5.842561E0,-4.92297E2,7.035426E1,4.758122E2],"categories":[],"categories_nodes":[],"categories_segments":[],"categories_sizes":[],"default_left":[0,0,0,0,0,0,0],"id":88,"left_children":[1,3,5,-1,-1,-1,-1],"loss_changes":[3.7791334E8,3.0735504E8,1.2228915E8,0E0,0E0,0E0,0E0],"parents":[2147483647,0,0,1,1,2,2],"right_children":[2,4,6,-1,-1,-1,-1],"split_conditions":[8.4914664E4,1.07752E5,9E0,-5.842561E0,-4.92297E2,7.035426E1,4.758122E2],"split_indices":[10,8,4,0,0,0,0],"split_type":[0,0,0,0,0,0,0],"sum_hessian":[7.6E1,7.2E1,4E0,7.1E1,1E0,2E0,2E0],"tree_param":{"num_deleted":"0","num_feature":"16","num_nodes":"7","size_leaf_vector":"1"}},{"base_weights":[3.2990884E2,-1.2787482E3,3.853301E3,-2.203742E1,-1.8381245E2,4.5291644E2,8.597364E1],"categories":[],"categories_nodes":[],"categories_segments":[],"categories_sizes":[],"default_left":[0,0,0,0,0,0,0],"id":89,"left_children":[1,3,5,-1,-1,-1,-1],"loss_changes":[4.8410698E8,1.4703082E8,3.202999E8,0E0,0E0,0E0,0E0],"parents":[2147483647,0,0,1,1,2,2],"right_children":[2,4,6,-1,-1,-1,-1],"split_conditions":[6.5030668E4,1E0,5.653E4,-2.203742E1,-1.8381245E2,4.5291644E2,8.597364E1],"split_indices":[10,15,8,0,0,0,0],"split_type":[0,0,0,0,0,0,0],"sum_hessian":[8.4E1,5.8E1,2.6E1,5E1,8E0,3E0,2.3E1],"tree_param":{"num_deleted":"0","num_feature":"16","num_nodes":"7","size_leaf_vector":"1"}},{"base_weights":[-2.1989429E2,-2.273601E3,1.8896299E3,-1.0996259E2,2.7141237E1,9.228893E1,-4.83891E2],"categories":[],"categories_nodes":[],"categories_segments":[],"categories_sizes":[],"default_left":[0,0,0,0,0,0,0],"id":90,"left_children":[1,3,5,-1,-1,-1,-1],"loss_changes":[3.4876973E8,9.468853E7,4.2020307E8,0E0,0E0,0E0,0E0],"parents":[2147483647,0,0,1,1,2,2],"right_children":[2,4,6,-1,-1,-1,-1],"split_conditions":[5.175E4,1.1E1,3.7E1,-1.0996259E2,2.7141237E1,9.228893E1,-4.83891E2],"split_indices":[8,1,4,0,0,0,0],"split_type":[0,0,0,0,0,0,0],"sum_hessian":[7.9E1,4E1,3.9E1,3.2E1,8E0,3.8E1,1E0],"tree_param":{"num_deleted":"0","num_feature":"16","num_nodes":"7","size_leaf_vector":"1"}},{"base_weights":[1.6734868E2,-1.6074852E3,2.9678655E3,-1.9689102E2,-4.036793E1,1.7555687E2,-2.3338376E2],"categories":[],"categories_nodes":[],"categories_segments":[],"categories_sizes":[],"default_left":[0,0,0,0,0,0,0],"id":91,"left_children":[1,3,5,-1,-1,-1,-1],"loss_changes":[4.1990272E8,9.3314696E7,5.982358E8,0E0,0E0,0E0,0E0],"parents":[2147483647,0,0,1,1,2,2],"right_children":[2,4,6,-1,-1,-1,-1],"split_conditions":[6.0233E4,1.574E3,8.8082E4,-1.9689102E2,-4.036793E1,1.7555687E2,-2.3338376E2],"split_indices":[10,8,9,0,0,0,0],"split_type":[0,0,0,0,0,0,0],"sum_hessian":[8.3E1,5.1E1,3.2E1,5E0,4.6E1,2.7E1,5E0],"tree_param":{"num_deleted":"0","num_feature":"16","num_nodes":"7","size_leaf_vector":"1"}},{"base_weights":[7.5205696E1,-6.133818E2,5.712409E3,-1.0950022E1,-4.6905215E2,4.1192426E2,4.6737007E1],"categories":[],"categories_nodes":[],"categories_segments":[],"categories_sizes":[],"default_left":[0,0,0,0,0,0,0],"id":92,"left_children":[1,3,5,-1,-1,-1,-1],"loss_changes":[3.1223437E8,2.7235462E8,2.0721046E8,0E0,0E0,0E0,0E0],"parents":[2147483647,0,0,1,1,2,2],"right_children":[2,4,6,-1,-1,-1,-1],"split_conditions":[7.7321336E4,9.0596E4,3E0,-1.0950022E1,-4.6905215E2,4.1192426E2,4.6737007E1],"split_indices":[10,8,1,0,0,0,0],"split_type":[0,0,0,0,0,0,0],"sum_hessian":[7.9E1,7.1E1,8E0,7E1,1E0,3E0,5E0],"tree_param":{"num_deleted":"0","num_feature":"16","num_nodes":"7","size_leaf_vector":"1"}},{"base_weights":[1.0924355E2,-1.0234107E3,4.6156274E3,-2.4703835E1,-4.5934845E2,3.3866205E2,6.426402E1],"categories":[],"categories_nodes":[],"categories_segments":[],"categories_sizes":[],"default_left":[0,0,0,0,0,0,0],"id":93,"left_children":[1,3,5,-1,-1,-1,-1],"loss_changes":[4.0044365E8,2.437849E8,1.9878698E8,0E0,0E0,0E0,0E0],"parents":[2147483647,0,0,1,1,2,2],"right_children":[2,4,6,-1,-1,-1,-1],"split_conditions":[7.2792336E4,9.0596E4,7.2422E4,-2.4703835E1,-4.5934845E2,3.3866205E2,6.426402E1],"split_indices":[10,8,9,0,0,0,0],"split_type":[0,0,0,0,0,0,0],"sum_hessian":[7.7E1,6.2E1,1.5E1,6.1E1,1E0,5E0,1E1],"tree_param":{"num_deleted":"0","num_feature":"16","num_nodes":"7","size_leaf_vector":"1"}},{"base_weights":[1.7301062E2,-3.119492E2,8.279921E3,9.177404E0,-2.339304E2,-5.6508007E0,3.8332028E2],"categories":[],"categories_nodes":[],"categories_segments":[],"categories_sizes":[],"default_left":[0,0,0,0,0,0,0],"id":94,"left_children":[1,3,5,-1,-1,-1,-1],"loss_changes":[3.3124042E8,2.7738426E8,9.262E7,0E0,0E0,0E0,0E0],"parents":[2147483647,0,0,1,1,2,2],"right_children":[2,4,6,-1,-1,-1,-1],"split_conditions":[8.4914664E4,8.1452E4,1E0,9.177404E0,-2.339304E2,-5.6508007E0,3.8332028E2],"split_indices":[10,9,3,0,0,0,0],"split_type":[0,0,0,0,0,0,0],"sum_hessian":[8.3E1,7.9E1,4E0,7.3E1,6E0,1E0,3E0],"tree_param":{"num_deleted":"0","num_feature":"16","num_nodes":"7","size_leaf_vector":"1"}},{"base_weights":[-1.597401E2,-9.527616E3,1.6535599E2,-4.45006E2,-9.7999535E1,-8.566981E1,5.414838E1],"categories":[],"categories_nodes":[],"categories_segments":[],"categories_sizes":[],"default_left":[0,0,0,0,0,0,0],"id":95,"left_children":[1,3,5,-1,-1,-1,-1],"loss_changes":[2.5017747E8,2.6355952E7,2.6970058E8,0E0,0E0,0E0,0E0],"parents":[2147483647,0,0,1,1,2,2],"right_children":[2,4,6,-1,-1,-1,-1],"split_conditions":[-7.601881E1,2E0,3.4808E4,-4.45006E2,-9.7999535E1,-8.566981E1,5.414838E1],"split_indices":[11,1,8,0,0,0,0],"split_type":[0,0,0,0,0,0,0],"sum_hessian":[8.1E1,2E0,7.9E1,1E0,1E0,2.7E1,5.2E1],"tree_param":{"num_deleted":"0","num_feature":"16","num_nodes":"7","size_leaf_vector":"1"}},{"base_weights":[2.2308572E2,-2.375858E2,1.02084E4,-1.2331886E2,2.7582264E1,5.0297427E2,1.847496E2],"categories":[],"categories_nodes":[],"categories_segments":[],"categories_sizes":[],"default_left":[0,0,0,0,0,0,0],"id":96,"left_children":[1,3,5,-1,-1,-1,-1],"loss_changes":[3.917067E8,2.595168E8,1.6842304E7,0E0,0E0,0E0,0E0],"parents":[2147483647,0,0,1,1,2,2],"right_children":[2,4,6,-1,-1,-1,-1],"split_conditions":[8.5782664E4,-1.0742431E1,2E0,-1.2331886E2,2.7582264E1,5.0297427E2,1.847496E2],"split_indices":[10,11,1,0,0,0,0],"split_type":[0,0,0,0,0,0,0],"sum_hessian":[8.4E1,8.1E1,3E0,1.9E1,6.2E1,1E0,2E0],"tree_param":{"num_deleted":"0","num_feature":"16","num_nodes":"7","size_leaf_vector":"1"}},{"base_weights":[9.9359085E1,2.0467114E3,-1.716174E3,3.8979137E1,4.1459055E2,-1.822363E2,-1.2654689E1],"categories":[],"categories_nodes":[],"categories_segments":[],"categories_sizes":[],"default_left":[0,0,0,0,0,0,0],"id":97,"left_children":[1,3,5,-1,-1,-1,-1],"loss_changes":[2.9876624E8,3.624345E8,1.9634077E8,0E0,0E0,0E0,0E0],"parents":[2147483647,0,0,1,1,2,2],"right_children":[2,4,6,-1,-1,-1,-1],"split_conditions":[2.02E3,5.2537216E1,2.021E3,3.8979137E1,4.1459055E2,-1.822363E2,-1.2654689E1],"split_indices":[0,11,0,0,0,0,0],"split_type":[0,0,0,0,0,0,0],"sum_hessian":[8.3E1,4E1,4.3E1,3.7E1,3E0,1.2E1,3.1E1],"tree_param":{"num_deleted":"0","num_feature":"16","num_nodes":"7","size_leaf_vector":"1"}},{"base_weights":[4.1079853E1,-2.4496702E3,1.5300139E3,-1.7247618E2,-5.751709E1,-3.20467E1,2.0162793E2],"categories":[],"categories_nodes":[],"categories_segments":[],"categories_sizes":[],"default_left":[0,0,0,0,0,0,0],"id":98,"left_children":[1,3,5,-1,-1,-1,-1],"loss_changes":[2.9489667E8,5.356573E7,4.8669613E8,0E0,0E0,0E0,0E0],"parents":[2147483647,0,0,1,1,2,2],"right_children":[2,4,6,-1,-1,-1,-1],"split_conditions":[3.9933332E4,2.826E3,4.1606784E0,-1.7247618E2,-5.751709E1,-3.20467E1,2.0162793E2],"split_indices":[10,8,11,0,0,0,0],"split_type":[0,0,0,0,0,0,0],"sum_hessian":[7.8E1,2.9E1,4.9E1,7E0,2.2E1,3.1E1,1.8E1],"tree_param":{"num_deleted":"0","num_feature":"16","num_nodes":"7","size_leaf_vector":"1"}},{"base_weights":[-2.9354593E2,-9.076183E3,-2.003252E0,-4.2881546E2,-8.846094E1,-4.353252E1,7.588928E1],"categories":[],"categories_nodes":[],"categories_segments":[],"categories_sizes":[],"default_left":[0,0,0,0,0,0,0],"id":99,"left_children":[1,3,5,-1,-1,-1,-1],"loss_changes":[2.1955659E8,2.8289408E7,2.1165368E8,0E0,0E0,0E0,0E0],"parents":[2147483647,0,0,1,1,2,2],"right_children":[2,4,6,-1,-1,-1,-1],"split_conditions":[-7.601881E1,2E0,6.0233E4,-4.2881546E2,-8.846094E1,-4.353252E1,7.588928E1],"split_indices":[11,1,10,0,0,0,0],"split_type":[0,0,0,0,0,0,0],"sum_hessian":[8.5E1,2E0,8.3E1,1E0,1E0,5.3E1,3E1],"tree_param":{"num_deleted":"0","num_feature":"16","num_nodes":"7","size_leaf_vector":"1"}},{"base_weights":[4.3050317E2,-1.6492906E3,2.3975088E3,-9.9870476E1,3.4984604E1,5.3844654E1,3.9451468E2],"categories":[],"categories_nodes":[],"categories_segments":[],"categories_sizes":[],"default_left":[0,0,0,0,0,0,0],"id":100,"left_children":[1,3,5,-1,-1,-1,-1],"loss_changes":[3.169877E8,1.1066198E8,2.95696E8,0E0,0E0,0E0,0E0],"parents":[2147483647,0,0,1,1,2,2],"right_children":[2,4,6,-1,-1,-1,-1],"split_conditions":[5.175E4,1E1,3.26962E1,-9.9870476E1,3.4984604E1,5.3844654E1,3.9451468E2],"split_indices":[8,1,11,0,0,0,0],"split_type":[0,0,0,0,0,0,0],"sum_hessian":[7.6E1,3.7E1,3.9E1,2.6E1,1.1E1,3.6E1,3E0],"tree_param":{"num_deleted":"0","num_feature":"16","num_nodes":"7","size_leaf_vector":"1"}},{"base_weights":[3.800671E2,-1.0245892E3,2.9959988E3,-1.5926988E2,-1.3227281E1,2.503165E2,1.0436945E1],"categories":[],"categories_nodes":[],"categories_segments":[],"categories_sizes":[],"default_left":[0,0,0,0,0,0,0],"id":101,"left_children":[1,3,5,-1,-1,-1,-1],"loss_changes":[3.027262E8,1.1812432E8,3.0213203E8,0E0,0E0,0E0,0E0],"parents":[2147483647,0,0,1,1,2,2],"right_children":[2,4,6,-1,-1,-1,-1],"split_conditions":[6.5030668E4,5.418E3,7.2422E4,-1.5926988E2,-1.3227281E1,2.503165E2,1.0436945E1],"split_indices":[10,8,9,0,0,0,0],"split_type":[0,0,0,0,0,0,0],"sum_hessian":[8.1E1,5.3E1,2.8E1,8E0,4.5E1,1.1E1,1.7E1],"tree_param":{"num_deleted":"0","num_feature":"16","num_nodes":"7","size_leaf_vector":"1"}},{"base_weights":[-2.3737614E2,3.077489E2,-5.3988687E3,-4.6005676E1,1.2575743E2,-4.21274E2,-1.155793E2],"categories":[],"categories_nodes":[],"categories_segments":[],"categories_sizes":[],"default_left":[0,0,0,0,0,0,0],"id":102,"left_children":[1,3,5,-1,-1,-1,-1],"loss_changes":[2.2847486E8,3.6990848E8,7.869803E7,0E0,0E0,0E0,0E0],"parents":[2147483647,0,0,1,1,2,2],"right_children":[2,4,6,-1,-1,-1,-1],"split_conditions":[8.8082E4,6.1379668E4,2E0,-4.6005676E1,1.2575743E2,-4.21274E2,-1.155793E2],"split_indices":[9,10,1,0,0,0,0],"split_type":[0,0,0,0,0,0,0],"sum_hessian":[8E1,7.3E1,7E0,4.9E1,2.4E1,1E0,6E0],"tree_param":{"num_deleted":"0","num_feature":"16","num_nodes":"7","size_leaf_vector":"1"}},{"base_weights":[2.5647562E2,-2.0370926E2,6.9667837E3,1.0595216E1,-1.3366566E2,4.5344425E1,3.9120987E2],"categories":[],"categories_nodes":[],"categories_segments":[],"categories_sizes":[],"default_left":[0,0,0,0,0,0,0],"id":103,"left_children":[1,3,5,-1,-1,-1,-1],"loss_changes":[2.2883022E8,1.2103064E8,9.337589E7,0E0,0E0,0E0,0E0],"parents":[2147483647,0,0,1,1,2,2],"right_children":[2,4,6,-1,-1,-1,-1],"split_conditions":[8.4914664E4,1E0,9E0,1.0595216E1,-1.3366566E2,4.5344425E1,3.9120987E2],"split_indices":[10,15,4,0,0,0,0],"split_type":[0,0,0,0,0,0,0],"sum_hessian":[7.3E1,6.9E1,4E0,6.1E1,8E0,2E0,2E0],"tree_param":{"num_deleted":"0","num_feature":"16","num_nodes":"7","size_leaf_vector":"1"}},{"base_weights":[5.2103662E0,-7.962553E2,4.4881787E3,-1.8168314E1,-4.127779E2,3.4243817E2,7.191363E1],"categories":[],"categories_nodes":[],"categories_segments":[],"categories_sizes":[],"default_left":[0,0,0,0,0,0,0],"id":104,"left_children":[1,3,5,-1,-1,-1,-1],"loss_changes":[2.78477E8,2.013725E8,1.3160262E8,0E0,0E0,0E0,0E0],"parents":[2147483647,0,0,1,1,2,2],"right_children":[2,4,6,-1,-1,-1,-1],"split_conditions":[7.5670664E4,9.0596E4,3E0,-1.8168314E1,-4.127779E2,3.4243817E2,7.191363E1],"split_indices":[10,8,1,0,0,0,0],"split_type":[0,0,0,0,0,0,0],"sum_hessian":[7.6E1,6.5E1,1.1E1,6.4E1,1E0,3E0,8E0],"tree_param":{"num_deleted":"0","num_feature":"16","num_nodes":"7","size_leaf_vector":"1"}},{"base_weights":[4.2762885E2,-1.3602166E3,2.2953062E3,-1.5168373E2,-2.6153313E1,3.768821E2,6.0843033E1],"categories":[],"categories_nodes":[],"categories_segments":[],"categories_sizes":[],"default_left":[0,0,0,0,0,0,0],"id":105,"left_children":[1,3,5,-1,-1,-1,-1],"loss_changes":[2.7868637E8,7.4808536E7,1.9098867E8,0E0,0E0,0E0,0E0],"parents":[2147483647,0,0,1,1,2,2],"right_children":[2,4,6,-1,-1,-1,-1],"split_conditions":[5.2341E4,2.826E3,2E0,-1.5168373E2,-2.6153313E1,3.768821E2,6.0843033E1],"split_indices":[8,8,1,0,0,0,0],"split_type":[0,0,0,0,0,0,0],"sum_hessian":[8.2E1,4.2E1,4E1,7E0,3.5E1,2E0,3.8E1],"tree_param":{"num_deleted":"0","num_feature":"16","num_nodes":"7","size_leaf_vector":"1"}},{"base_weights":[-3.29129E2,-6.600569E2,9.34103E3,-5.995815E0,-2.1747372E2,4.3933395E2,9.303726E1],"categories":[],"categories_nodes":[],"categories_segments":[],"categories_sizes":[],"default_left":[0,0,0,0,0,0,0],"id":106,"left_children":[1,3,5,-1,-1,-1,-1],"loss_changes":[2.6627483E8,2.0962875E8,2.8114768E7,0E0,0E0,0E0,0E0],"parents":[2147483647,0,0,1,1,2,2],"right_children":[2,4,6,-1,-1,-1,-1],"split_conditions":[8.5782664E4,8.4317E4,2E0,-5.995815E0,-2.1747372E2,4.3933395E2,9.303726E1],"split_indices":[10,9,1,0,0,0,0],"split_type":[0,0,0,0,0,0,0],"sum_hessian":[8.1E1,7.9E1,2E0,7.3E1,6E0,1E0,1E0],"tree_param":{"num_deleted":"0","num_feature":"16","num_nodes":"7","size_leaf_vector":"1"}},{"base_weights":[1.21086235E2,-2.0982478E3,1.535702E3,-5.2571102E1,-3.102815E2,-1.4006656E1,1.9379045E2],"categories":[],"categories_nodes":[],"categories_segments":[],"categories_sizes":[],"default_left":[0,0,0,0,0,0,0],"id":107,"left_children":[1,3,5,-1,-1,-1,-1],"loss_changes":[2.559629E8,1.2379486E8,3.650369E8,0E0,0E0,0E0,0E0],"parents":[2147483647,0,0,1,1,2,2],"right_children":[2,4,6,-1,-1,-1,-1],"split_conditions":[-2.3179831E-2,3.3E1,5.9910332E4,-5.2571102E1,-3.102815E2,-1.4006656E1,1.9379045E2],"split_indices":[11,4,10,0,0,0,0],"split_type":[0,0,0,0,0,0,0],"sum_hessian":[8E1,3.1E1,4.9E1,2.9E1,2E0,3.3E1,1.6E1],"tree_param":{"num_deleted":"0","num_feature":"16","num_nodes":"7","size_leaf_vector":"1"}},{"base_weights":[-1.5825102E2,-7.5837836E2,7.136433E3,-1.7695652E1,-4.0111722E2,7.867385E1,3.393731E2],"categories":[],"categories_nodes":[],"categories_segments":[],"categories_sizes":[],"default_left":[0,0,0,0,0,0,0],"id":108,"left_children":[1,3,5,-1,-1,-1,-1],"loss_changes":[3.3133914E8,1.9042586E8,4.793363E7,0E0,0E0,0E0,0E0],"parents":[2147483647,0,0,1,1,2,2],"right_children":[2,4,6,-1,-1,-1,-1],"split_conditions":[7.7321336E4,9.0596E4,-1E0,-1.7695652E1,-4.0111722E2,7.867385E1,3.393731E2],"split_indices":[10,8,13,0,0,0,0],"split_type":[0,0,0,0,0,0,0],"sum_hessian":[7.4E1,6.9E1,5E0,6.8E1,1E0,2E0,3E0],"tree_param":{"num_deleted":"0","num_feature":"16","num_nodes":"7","size_leaf_vector":"1"}},{"base_weights":[4.2580482E1,-2.823742E3,1.0357338E3,-2.9658405E2,-7.153728E1,-1.8048845E1,1.2358466E2],"categories":[],"categories_nodes":[],"categories_segments":[],"categories_sizes":[],"default_left":[0,0,0,0,0,0,0],"id":109,"left_children":[1,3,5,-1,-1,-1,-1],"loss_changes":[2.4063176E8,8.707406E7,2.290872E8,0E0,0E0,0E0,0E0],"parents":[2147483647,0,0,1,1,2,2],"right_children":[2,4,6,-1,-1,-1,-1],"split_conditions":[-1.3433348E1,-7.601881E1,6.1379668E4,-2.9658405E2,-7.153728E1,-1.8048845E1,1.2358466E2],"split_indices":[11,11,10,0,0,0,0],"split_type":[0,0,0,0,0,0,0],"sum_hessian":[8.3E1,2.1E1,6.2E1,2E0,1.9E1,3.8E1,2.4E1],"tree_param":{"num_deleted":"0","num_feature":"16","num_nodes":"7","size_leaf_vector":"1"}},{"base_weights":[3.44521E1,-6.719651E2,4.679491E3,-1.5017503E1,-3.866832E2,4.1665826E2,1.12350716E2],"categories":[],"categories_nodes":[],"categories_segments":[],"categories_sizes":[],"default_left":[0,0,0,0,0,0,0],"id":110,"left_children":[1,3,5,-1,-1,-1,-1],"loss_changes":[2.673609E8,1.790582E8,8.903728E7,0E0,0E0,0E0,0E0],"parents":[2147483647,0,0,1,1,2,2],"right_children":[2,4,6,-1,-1,-1,-1],"split_conditions":[7.4848E4,9.0596E4,2E0,-1.5017503E1,-3.866832E2,4.1665826E2,1.12350716E2],"split_indices":[10,8,1,0,0,0,0],"split_type":[0,0,0,0,0,0,0],"sum_hessian":[8E1,7E1,1E1,6.9E1,1E0,1E0,9E0],"tree_param":{"num_deleted":"0","num_feature":"16","num_nodes":"7","size_leaf_vector":"1"}},{"base_weights":[-4.8300995E1,-4.052801E2,7.9236934E3,1.9272424E0,-2.0463066E2,4.080385E2,1.3216669E2],"categories":[],"categories_nodes":[],"categories_segments":[],"categories_sizes":[],"default_left":[0,0,0,0,0,0,0],"id":111,"left_children":[1,3,5,-1,-1,-1,-1],"loss_changes":[2.4930944E8,2.0104594E8,2.2421088E7,0E0,0E0,0E0,0E0],"parents":[2147483647,0,0,1,1,2,2],"right_children":[2,4,6,-1,-1,-1,-1],"split_conditions":[8.5782664E4,8.4317E4,2E0,1.9272424E0,-2.0463066E2,4.080385E2,1.3216669E2],"split_indices":[10,9,3,0,0,0,0],"split_type":[0,0,0,0,0,0,0],"sum_hessian":[8.6E1,8.3E1,3E0,7.7E1,6E0,1E0,2E0],"tree_param":{"num_deleted":"0","num_feature":"16","num_nodes":"7","size_leaf_vector":"1"}},{"base_weights":[-7.7362E1,-2.768838E3,7.575174E2,-6.82782E1,-2.8080173E2,-2.0765137E1,1.1516217E2],"categories":[],"categories_nodes":[],"categories_segments":[],"categories_sizes":[],"default_left":[0,0,0,0,0,0,0],"id":112,"left_children":[1,3,5,-1,-1,-1,-1],"loss_changes":[1.8754008E8,7.613942E7,2.0601757E8,0E0,0E0,0E0,0E0],"parents":[2147483647,0,0,1,1,2,2],"right_children":[2,4,6,-1,-1,-1,-1],"split_conditions":[-1.3433348E1,3.3E1,6.1379668E4,-6.82782E1,-2.8080173E2,-2.0765137E1,1.1516217E2],"split_indices":[11,4,10,0,0,0,0],"split_type":[0,0,0,0,0,0,0],"sum_hessian":[8.2E1,1.9E1,6.3E1,1.7E1,2E0,4.1E1,2.2E1],"tree_param":{"num_deleted":"0","num_feature":"16","num_nodes":"7","size_leaf_vector":"1"}},{"base_weights":[1.3256923E2,-1.9074669E3,1.5145814E3,-5.1615616E1,-3.6864102E2,-4.3625065E1,1.2238097E2],"categories":[],"categories_nodes":[],"categories_segments":[],"categories_sizes":[],"default_left":[0,0,0,0,0,0,0],"id":113,"left_children":[1,3,5,-1,-1,-1,-1],"loss_changes":[2.354964E8,1.24315736E8,2.5391032E8,0E0,0E0,0E0,0E0],"parents":[2147483647,0,0,1,1,2,2],"right_children":[2,4,6,-1,-1,-1,-1],"split_conditions":[-2.3179831E-2,9.0596E4,3.7466E4,-5.1615616E1,-3.6864102E2,-4.3625065E1,1.2238097E2],"split_indices":[11,8,8,0,0,0,0],"split_type":[0,0,0,0,0,0,0],"sum_hessian":[8.2E1,3.3E1,4.9E1,3.2E1,1E0,2E1,2.9E1],"tree_param":{"num_deleted":"0","num_feature":"16","num_nodes":"7","size_leaf_vector":"1"}},{"base_weights":[-3.113994E2,1.6671182E2,-4.828339E3,-2.6123753E1,8.387057E1,-3.6101462E2,-1.074545E2],"categories":[],"categories_nodes":[],"categories_segments":[],"categories_sizes":[],"default_left":[0,0,0,0,0,0,0],"id":114,"left_children":[1,3,5,-1,-1,-1,-1],"loss_changes":[1.7500936E8,1.4135706E8,5.1900176E7,0E0,0E0,0E0,0E0],"parents":[2147483647,0,0,1,1,2,2],"right_children":[2,4,6,-1,-1,-1,-1],"split_conditions":[8.8082E4,6.1379668E4,2E0,-2.6123753E1,8.387057E1,-3.6101462E2,-1.074545E2],"split_indices":[9,10,1,0,0,0,0],"split_type":[0,0,0,0,0,0,0],"sum_hessian":[8E1,7.3E1,7E0,5.2E1,2.1E1,1E0,6E0],"tree_param":{"num_deleted":"0","num_feature":"16","num_nodes":"7","size_leaf_vector":"1"}},{"base_weights":[-3.4319653E1,-1.6231482E3,1.5161423E3,-3.1561346E1,-1.8910715E2,-4.818658E1,1.4687852E2],"categories":[],"categories_nodes":[],"categories_segments":[],"categories_sizes":[],"default_left":[0,0,0,0,0,0,0],"id":115,"left_children":[1,3,5,-1,-1,-1,-1],"loss_changes":[1.9832779E8,1.0403103E8,2.9716272E8,0E0,0E0,0E0,0E0],"parents":[2147483647,0,0,1,1,2,2],"right_children":[2,4,6,-1,-1,-1,-1],"split_conditions":[2.3948023E0,8.1452E4,4.1163332E4,-3.1561346E1,-1.8910715E2,-4.818658E1,1.4687852E2],"split_indices":[11,9,10,0,0,0,0],"split_type":[0,0,0,0,0,0,0],"sum_hessian":[7.9E1,3.9E1,4E1,3.3E1,6E0,1.9E1,2.1E1],"tree_param":{"num_deleted":"0","num_feature":"16","num_nodes":"7","size_leaf_vector":"1"}},{"base_weights":[1.0155455E2,-4.318824E2,4.708603E3,-7.6814585E0,-3.496338E2,3.8990912E2,1.0475651E2],"categories":[],"categories_nodes":[],"categories_segments":[],"categories_sizes":[],"default_left":[0,0,0,0,0,0,0],"id":116,"left_children":[1,3,5,-1,-1,-1,-1],"loss_changes":[2.0737195E8,1.5196843E8,7.286347E7,0E0,0E0,0E0,0E0],"parents":[2147483647,0,0,1,1,2,2],"right_children":[2,4,6,-1,-1,-1,-1],"split_conditions":[7.7321336E4,9.0596E4,2E0,-7.6814585E0,-3.496338E2,3.8990912E2,1.0475651E2],"split_indices":[10,8,1,0,0,0,0],"split_type":[0,0,0,0,0,0,0],"sum_hessian":[8.3E1,7.5E1,8E0,7.4E1,1E0,1E0,7E0],"tree_param":{"num_deleted":"0","num_feature":"16","num_nodes":"7","size_leaf_vector":"1"}},{"base_weights":[3.415853E1,-4.3761945E2,5.3911426E3,-8.165651E0,-3.424006E2,3.8184283E2,1.1329796E2],"categories":[],"categories_nodes":[],"categories_segments":[],"categories_sizes":[],"default_left":[0,0,0,0,0,0,0],"id":117,"left_children":[1,3,5,-1,-1,-1,-1],"loss_changes":[2.1093186E8,1.4522045E8,5.3833264E7,0E0,0E0,0E0,0E0],"parents":[2147483647,0,0,1,1,2,2],"right_children":[2,4,6,-1,-1,-1,-1],"split_conditions":[7.7972336E4,9.0596E4,2E0,-8.165651E0,-3.424006E2,3.8184283E2,1.1329796E2],"split_indices":[10,8,1,0,0,0,0],"split_type":[0,0,0,0,0,0,0],"sum_hessian":[8.2E1,7.6E1,6E0,7.5E1,1E0,1E0,5E0],"tree_param":{"num_deleted":"0","num_feature":"16","num_nodes":"7","size_leaf_vector":"1"}},{"base_weights":[3.5636856E2,-2.63164E3,9.502399E2,-1.2258572E2,4.600433E1,-1.5244199E1,1.1799938E2],"categories":[],"categories_nodes":[],"categories_segments":[],"categories_sizes":[],"default_left":[0,0,0,0,0,0,0],"id":118,"left_children":[1,3,5,-1,-1,-1,-1],"loss_changes":[1.4696032E8,4.3171744E7,2.1768376E8,0E0,0E0,0E0,0E0],"parents":[2147483647,0,0,1,1,2,2],"right_children":[2,4,6,-1,-1,-1,-1],"split_conditions":[7.671E3,1.6E1,6.8757796E0,-1.2258572E2,4.600433E1,-1.5244199E1,1.1799938E2],"split_indices":[10,4,11,0,0,0,0],"split_type":[0,0,0,0,0,0,0],"sum_hessian":[8.1E1,1.3E1,6.8E1,1.1E1,2E0,4.3E1,2.5E1],"tree_param":{"num_deleted":"0","num_feature":"16","num_nodes":"7","size_leaf_vector":"1"}},{"base_weights":[-5.532869E1,-1.2470199E3,1.4371545E3,-3.4144386E1,-3.3500162E2,1.9253763E2,1.774344E1],"categories":[],"categories_nodes":[],"categories_segments":[],"categories_sizes":[],"default_left":[0,0,0,0,0,0,0],"id":119,"left_children":[1,3,5,-1,-1,-1,-1],"loss_changes":[1.592106E8,1.1516414E8,1.4380667E8,0E0,0E0,0E0,0E0],"parents":[2147483647,0,0,1,1,2,2],"right_children":[2,4,6,-1,-1,-1,-1],"split_conditions":[3.7E0,9.0596E4,3E0,-3.4144386E1,-3.3500162E2,1.9253763E2,1.774344E1],"split_indices":[13,8,1,0,0,0,0],"split_type":[0,0,0,0,0,0,0],"sum_hessian":[8.8E1,4.9E1,3.9E1,4.8E1,1E0,7E0,3.2E1],"tree_param":{"num_deleted":"0","num_feature":"16","num_nodes":"7","size_leaf_vector":"1"}},{"base_weights":[-3.9903195E0,-2.1674622E3,8.9231964E2,-2.4525673E2,-5.5914837E1,-1.692956E1,1.19145645E2],"categories":[],"categories_nodes":[],"categories_segments":[],"categories_sizes":[],"default_left":[0,0,0,0,0,0,0],"id":120,"left_children":[1,3,5,-1,-1,-1,-1],"loss_changes":[1.6387376E8,6.339097E7,1.9513408E8,0E0,0E0,0E0,0E0],"parents":[2147483647,0,0,1,1,2,2],"right_children":[2,4,6,-1,-1,-1,-1],"split_conditions":[-1.0742431E1,-7.601881E1,6.1379668E4,-2.4525673E2,-5.5914837E1,-1.692956E1,1.19145645E2],"split_indices":[11,11,10,0,0,0,0],"split_type":[0,0,0,0,0,0,0],"sum_hessian":[8.3E1,2.4E1,5.9E1,2E0,2.2E1,3.8E1,2.1E1],"tree_param":{"num_deleted":"0","num_feature":"16","num_nodes":"7","size_leaf_vector":"1"}},{"base_weights":[1.470514E2,-3.505083E2,4.608318E3,2.3219295E0,-1.8037715E2,3.6505392E2,9.723433E1],"categories":[],"categories_nodes":[],"categories_segments":[],"categories_sizes":[],"default_left":[0,0,0,0,0,0,0],"id":121,"left_children":[1,3,5,-1,-1,-1,-1],"loss_changes":[1.71599E8,1.3374398E8,6.1185856E7,0E0,0E0,0E0,0E0],"parents":[2147483647,0,0,1,1,2,2],"right_children":[2,4,6,-1,-1,-1,-1],"split_conditions":[7.7972336E4,8.2345E4,2E0,2.3219295E0,-1.8037715E2,3.6505392E2,9.723433E1],"split_indices":[10,9,1,0,0,0,0],"split_type":[0,0,0,0,0,0,0],"sum_hessian":[7.6E1,6.9E1,7E0,6.4E1,5E0,1E0,6E0],"tree_param":{"num_deleted":"0","num_feature":"16","num_nodes":"7","size_leaf_vector":"1"}},{"base_weights":[1.1675679E2,-3.0918362E2,4.486014E3,-4.25311E0,-3.1926566E2,3.575017E2,9.409865E1],"categories":[],"categories_nodes":[],"categories_segments":[],"categories_sizes":[],"default_left":[0,0,0,0,0,0,0],"id":122,"left_children":[1,3,5,-1,-1,-1,-1],"loss_changes":[1.6250483E8,1.29164296E8,5.947179E7,0E0,0E0,0E0,0E0],"parents":[2147483647,0,0,1,1,2,2],"right_children":[2,4,6,-1,-1,-1,-1],"split_conditions":[7.7972336E4,9.0596E4,2E0,-4.25311E0,-3.1926566E2,3.575017E2,9.409865E1],"split_indices":[10,8,1,0,0,0,0],"split_type":[0,0,0,0,0,0,0],"sum_hessian":[8.6E1,7.9E1,7E0,7.8E1,1E0,1E0,6E0],"tree_param":{"num_deleted":"0","num_feature":"16","num_nodes":"7","size_leaf_vector":"1"}},{"base_weights":[-6.655513E1,-4.3882645E2,4.5836685E3,-8.402003E0,-3.126607E2,3.501058E2,7.219279E1],"categories":[],"categories_nodes":[],"categories_segments":[],"categories_sizes":[],"default_left":[0,0,0,0,0,0,0],"id":123,"left_children":[1,3,5,-1,-1,-1,-1],"loss_changes":[1.3438958E8,1.20122264E8,6.1080496E7,0E0,0E0,0E0,0E0],"parents":[2147483647,0,0,1,1,2,2],"right_children":[2,4,6,-1,-1,-1,-1],"split_conditions":[8.4914664E4,1.07752E5,2E0,-8.402003E0,-3.126607E2,3.501058E2,7.219279E1],"split_indices":[10,8,1,0,0,0,0],"split_type":[0,0,0,0,0,0,0],"sum_hessian":[7.6E1,7.1E1,5E0,7E1,1E0,1E0,4E0],"tree_param":{"num_deleted":"0","num_feature":"16","num_nodes":"7","size_leaf_vector":"1"}},{"base_weights":[-1.1061065E2,2.756559E2,-4.144309E3,-2.891495E1,9.868137E1,-6.3483685E1,-2.5934955E2],"categories":[],"categories_nodes":[],"categories_segments":[],"categories_sizes":[],"default_left":[0,0,0,0,0,0,0],"id":124,"left_children":[1,3,5,-1,-1,-1,-1],"loss_changes":[1.20455784E8,1.8689872E8,3.909807E7,0E0,0E0,0E0,0E0],"parents":[2147483647,0,0,1,1,2,2],"right_children":[2,4,6,-1,-1,-1,-1],"split_conditions":[8.4317E4,6.1379668E4,9.0575E4,-2.891495E1,9.868137E1,-6.3483685E1,-2.5934955E2],"split_indices":[9,10,8,0,0,0,0],"split_type":[0,0,0,0,0,0,0],"sum_hessian":[7.6E1,7E1,6E0,4.9E1,2.1E1,4E0,2E0],"tree_param":{"num_deleted":"0","num_feature":"16","num_nodes":"7","size_leaf_vector":"1"}},{"base_weights":[-2.3358179E2,-6.688075E2,3.8722375E3,-1.726253E1,-3.008271E2,2.5533473E2,2.7644913E1],"categories":[],"categories_nodes":[],"categories_segments":[],"categories_sizes":[],"default_left":[0,0,0,0,0,0,0],"id":125,"left_children":[1,3,5,-1,-1,-1,-1],"loss_changes":[1.444717E8,1.041633E8,7.2196824E7,0E0,0E0,0E0,0E0],"parents":[2147483647,0,0,1,1,2,2],"right_children":[2,4,6,-1,-1,-1,-1],"split_conditions":[7.7321336E4,9.0596E4,3E0,-1.726253E1,-3.008271E2,2.5533473E2,2.7644913E1],"split_indices":[10,8,1,0,0,0,0],"split_type":[0,0,0,0,0,0,0],"sum_hessian":[7.9E1,7.2E1,7E0,7.1E1,1E0,3E0,4E0],"tree_param":{"num_deleted":"0","num_feature":"16","num_nodes":"7","size_leaf_vector":"1"}},{"base_weights":[-1.6739604E2,2.2938258E2,-4.598551E3,-7.758026E0,2.0501212E2,-4.3348083E1,-2.120607E2],"categories":[],"categories_nodes":[],"categories_segments":[],"categories_sizes":[],"default_left":[0,0,0,0,0,0,0],"id":126,"left_children":[1,3,5,-1,-1,-1,-1],"loss_changes":[1.4453998E8,1.8274387E8,2.330064E7,0E0,0E0,0E0,0E0],"parents":[2147483647,0,0,1,1,2,2],"right_children":[2,4,6,-1,-1,-1,-1],"split_conditions":[8.8082E4,7.7972336E4,1.4E-1,-7.758026E0,2.0501212E2,-4.3348083E1,-2.120607E2],"split_indices":[9,10,7,0,0,0,0],"split_type":[0,0,0,0,0,0,0],"sum_hessian":[8.1E1,7.5E1,6E0,7E1,5E0,2E0,4E0],"tree_param":{"num_deleted":"0","num_feature":"16","num_nodes":"7","size_leaf_vector":"1"}},{"base_weights":[-2.3416911E2,1.7066928E2,-4.0095483E3,-2.8587217E1,1.0749881E2,-2.9021646E2,-9.171991E1],"categories":[],"categories_nodes":[],"categories_segments":[],"categories_sizes":[],"default_left":[0,0,0,0,0,0,0],"id":127,"left_children":[1,3,5,-1,-1,-1,-1],"loss_changes":[1.22418296E8,1.962482E8,3.0573744E7,0E0,0E0,0E0,0E0],"parents":[2147483647,0,0,1,1,2,2],"right_children":[2,4,6,-1,-1,-1,-1],"split_conditions":[8.8082E4,6.8343664E4,2E0,-2.8587217E1,1.0749881E2,-2.9021646E2,-9.171991E1],"split_indices":[9,10,1,0,0,0,0],"split_type":[0,0,0,0,0,0,0],"sum_hessian":[7.9E1,7.2E1,7E0,5.4E1,1.8E1,1E0,6E0],"tree_param":{"num_deleted":"0","num_feature":"16","num_nodes":"7","size_leaf_vector":"1"}},{"base_weights":[2.878471E2,4.287907E1,7.033675E3,-8.381316E1,1.995709E1,3.2907364E2,7.179135E1],"categories":[],"categories_nodes":[],"categories_segments":[],"categories_sizes":[],"default_left":[0,0,0,0,0,0,0],"id":128,"left_children":[1,3,5,-1,-1,-1,-1],"loss_changes":[1.2991084E8,9.242474E7,1.474064E7,0E0,0E0,0E0,0E0],"parents":[2147483647,0,0,1,1,2,2],"right_children":[2,4,6,-1,-1,-1,-1],"split_conditions":[1.430117E2,8.0663335E3,2.02E3,-8.381316E1,1.995709E1,3.2907364E2,7.179135E1],"split_indices":[11,10,0,0,0,0,0],"split_type":[0,0,0,0,0,0,0],"sum_hessian":[7.8E1,7.6E1,2E0,1.3E1,6.3E1,1E0,1E0],"tree_param":{"num_deleted":"0","num_feature":"16","num_nodes":"7","size_leaf_vector":"1"}},{"base_weights":[3.056662E2,-6.859897E2,1.3962909E3,-5.254046E1,4.8993053E1,-1.2242779E1,1.14947975E2],"categories":[],"categories_nodes":[],"categories_segments":[],"categories_sizes":[],"default_left":[0,0,0,0,0,0,0],"id":129,"left_children":[1,3,5,-1,-1,-1,-1],"loss_changes":[8.589904E7,6.616359E7,1.1663537E8,0E0,0E0,0E0,0E0],"parents":[2147483647,0,0,1,1,2,2],"right_children":[2,4,6,-1,-1,-1,-1],"split_conditions":[4.1606784E0,7.0859664E4,3.7466E4,-5.254046E1,4.8993053E1,-1.2242779E1,1.14947975E2],"split_indices":[11,10,8,0,0,0,0],"split_type":[0,0,0,0,0,0,0],"sum_hessian":[7.8E1,4.1E1,3.7E1,3E1,1.1E1,1.9E1,1.8E1],"tree_param":{"num_deleted":"0","num_feature":"16","num_nodes":"7","size_leaf_vector":"1"}},{"base_weights":[-8.7323906E1,2.945072E2,-4.3032695E3,-2.801386E1,7.334841E1,-2.8563895E2,-9.627521E1],"categories":[],"categories_nodes":[],"categories_segments":[],"categories_sizes":[],"default_left":[0,0,0,0,0,0,0],"id":130,"left_children":[1,3,5,-1,-1,-1,-1],"loss_changes":[1.3095729E8,1.3871392E8,2.4004288E7,0E0,0E0,0E0,0E0],"parents":[2147483647,0,0,1,1,2,2],"right_children":[2,4,6,-1,-1,-1,-1],"split_conditions":[8.8082E4,5.7914332E4,2E0,-2.801386E1,7.334841E1,-2.8563895E2,-9.627521E1],"split_indices":[9,10,1,0,0,0,0],"split_type":[0,0,0,0,0,0,0],"sum_hessian":[8E1,7.4E1,6E0,4.6E1,2.8E1,1E0,5E0],"tree_param":{"num_deleted":"0","num_feature":"16","num_nodes":"7","size_leaf_vector":"1"}},{"base_weights":[2.448245E2,-8.122065E2,1.3769899E3,-3.8519226E1,1.1218005E2,-2.905736E1,1.3113687E2],"categories":[],"categories_nodes":[],"categories_segments":[],"categories_sizes":[],"default_left":[0,0,0,0,0,0,0],"id":131,"left_children":[1,3,5,-1,-1,-1,-1],"loss_changes":[9.868367E7,4.3971036E7,1.9564102E8,0E0,0E0,0E0,0E0],"parents":[2147483647,0,0,1,1,2,2],"right_children":[2,4,6,-1,-1,-1,-1],"split_conditions":[4.1606784E0,9.0596E4,3.7466E4,-3.8519226E1,1.1218005E2,-2.905736E1,1.3113687E2],"split_indices":[11,8,8,0,0,0,0],"split_type":[0,0,0,0,0,0,0],"sum_hessian":[8.1E1,4.2E1,3.9E1,4E1,2E0,2E1,1.9E1],"tree_param":{"num_deleted":"0","num_feature":"16","num_nodes":"7","size_leaf_vector":"1"}},{"base_weights":[-3.5666016E1,-3.1324634E2,5.8670923E3,-8.342927E1,1.0649266E1,3.1565738E2,8.924424E1],"categories":[],"categories_nodes":[],"categories_segments":[],"categories_sizes":[],"default_left":[0,0,0,0,0,0,0],"id":132,"left_children":[1,3,5,-1,-1,-1,-1],"loss_changes":[1.3697672E8,9.652153E7,2.004732E7,0E0,0E0,0E0,0E0],"parents":[2147483647,0,0,1,1,2,2],"right_children":[2,4,6,-1,-1,-1,-1],"split_conditions":[1.1980367E2,-1.5103882E1,2.02E3,-8.342927E1,1.0649266E1,3.1565738E2,8.924424E1],"split_indices":[11,11,0,0,0,0,0],"split_type":[0,0,0,0,0,0,0],"sum_hessian":[8.2E1,7.9E1,3E0,1.8E1,6.1E1,1E0,2E0],"tree_param":{"num_deleted":"0","num_feature":"16","num_nodes":"7","size_leaf_vector":"1"}},{"base_weights":[-2.8367947E2,-5.8362476E2,4.3506313E3,-1.4628194E1,-2.803244E2,3.0912714E2,5.553791E1],"categories":[],"categories_nodes":[],"categories_segments":[],"categories_sizes":[],"default_left":[0,0,0,0,0,0,0],"id":133,"left_children":[1,3,5,-1,-1,-1,-1],"loss_changes":[1.0860673E8,9.148848E7,4.601019E7,0E0,0E0,0E0,0E0],"parents":[2147483647,0,0,1,1,2,2],"right_children":[2,4,6,-1,-1,-1,-1],"split_conditions":[8.5782664E4,1.07752E5,2E0,-1.4628194E1,-2.803244E2,3.0912714E2,5.553791E1],"split_indices":[10,8,1,0,0,0,0],"split_type":[0,0,0,0,0,0,0],"sum_hessian":[7.6E1,7.2E1,4E0,7.1E1,1E0,1E0,3E0],"tree_param":{"num_deleted":"0","num_feature":"16","num_nodes":"7","size_leaf_vector":"1"}},{"base_weights":[1.4064973E2,5.526985E2,-3.7386824E3,1.462462E2,5.221081E-1,-2.745251E2,-8.4506546E1],"categories":[],"categories_nodes":[],"categories_segments":[],"categories_sizes":[],"default_left":[0,0,0,0,0,0,0],"id":134,"left_children":[1,3,5,-1,-1,-1,-1],"loss_changes":[1.29044E8,1.3606878E8,2.853704E7,0E0,0E0,0E0,0E0],"parents":[2147483647,0,0,1,1,2,2],"right_children":[2,4,6,-1,-1,-1,-1],"split_conditions":[8.8082E4,3E0,2E0,1.462462E2,5.221081E-1,-2.745251E2,-8.4506546E1],"split_indices":[9,1,1,0,0,0,0],"split_type":[0,0,0,0,0,0,0],"sum_hessian":[7.9E1,7.2E1,7E0,9E0,6.3E1,1E0,6E0],"tree_param":{"num_deleted":"0","num_feature":"16","num_nodes":"7","size_leaf_vector":"1"}},{"base_weights":[2.9824575E1,3.7743225E2,-4.0775635E3,-2.4368492E1,8.569583E1,-9.1777725E1,-2.688458E2],"categories":[],"categories_nodes":[],"categories_segments":[],"categories_sizes":[],"default_left":[0,0,0,0,0,0,0],"id":135,"left_children":[1,3,5,-1,-1,-1,-1],"loss_changes":[1.2359674E8,1.6703392E8,2.0692344E7,0E0,0E0,0E0,0E0],"parents":[2147483647,0,0,1,1,2,2],"right_children":[2,4,6,-1,-1,-1,-1],"split_conditions":[8.8082E4,6.1379668E4,2.02E3,-2.4368492E1,8.569583E1,-9.1777725E1,-2.688458E2],"split_indices":[9,10,0,0,0,0,0],"split_type":[0,0,0,0,0,0,0],"sum_hessian":[8.5E1,7.9E1,6E0,5.2E1,2.7E1,5E0,1E0],"tree_param":{"num_deleted":"0","num_feature":"16","num_nodes":"7","size_leaf_vector":"1"}},{"base_weights":[4.0883526E1,-2.9946333E3,4.531364E2,-5.6348984E1,-1.2568381E2,-4.0354355E1,5.7995945E1],"categories":[],"categories_nodes":[],"categories_segments":[],"categories_sizes":[],"default_left":[0,0,0,0,0,0,0],"id":136,"left_children":[1,3,5,-1,-1,-1,-1],"loss_changes":[1.0207947E8,2.513704E6,1.2980725E8,0E0,0E0,0E0,0E0],"parents":[2147483647,0,0,1,1,2,2],"right_children":[2,4,6,-1,-1,-1,-1],"split_conditions":[5.418E3,3.4476593E1,-2.3179831E-2,-5.6348984E1,-1.2568381E2,-4.0354355E1,5.7995945E1],"split_indices":[8,11,11,0,0,0,0],"split_type":[0,0,0,0,0,0,0],"sum_hessian":[8E1,9E0,7.1E1,3E0,6E0,3E1,4.1E1],