{"learner":{"attributes":{"scikit_learn":"{\"_estimator_type\": \"regressor\"}"},"feature_names":["Peak_Season","Philippine_Holidays","Top10Market_Holidays","Avg_HighTemp","Avg_LowTemp","Precipitation","Lag_1","Lag_2","Rolling_Mean_3m","Year","Month_Num","Growth_Rate","Sudden_Increase","Inflation_Rate","is_December","is_Lockdown"],"feature_types":["int","int","int","int","int","float","float","float","float","int","int","float","int","float","int","int"],"gradient_booster":{"model":{"cats":{"enc":[],"feature_segments":[],"sorted_idx":[]},"gbtree_model_param":{"num_parallel_tree":"1","num_trees":"450"},"iteration_indptr":[0,1,2,3,4,5,6,7,8,9,10,11,12,13,14,15,16,17,18,19,20,21,22,23,24,25,26,27,28,29,30,31,32,33,34,35,36,37,38,39,40,41,42,43,44,45,46,47,48,49,50,51,52,53,54,55,56,57,58,59,60,61,62,63,64,65,66,67,68,69,70,71,72,73,74,75,76,77,78,79,80,81,82,83,84,85,86,87,88,89,90,91,92,93,94,95,96,97,98,99,100,101,102,103,104,105,106,107,108,109,110,111,112,113,114,115,116,117,118,119,120,121,122,123,124,125,126,127,128,129,130,131,132,133,134,135,136,137,138,139,140,141,142,143,144,145,146,147,148,149,150,151,152,153,154,155,156,157,158,159,160,161,162,163,164,165,166,167,168,169,170,171,172,173,174,175,176,177,178,179,180,181,182,183,184,185,186,187,188,189,190,191,192,193,194,195,196,197,198,199,200,201,202,203,204,205,206,207,208,209,210,211,212,213,214,215,216,217,218,219,220,221,222,223,224,225,226,227,228,229,230,231,232,233,234,235,236,237,238,239,240,241,242,243,244,245,246,247,248,249,250,251,252,253,254,255,256,257,258,259,260,261,262,263,264,265,266,267,268,269,270,271,272,273,274,275,276,277,278,279,280,281,282,283,284,285,286,287,288,289,290,291,292,293,294,295,296,297,298,299,300,301,302,303,304,305,306,307,308,309,310,311,312,313,314,315,316,317,318,319,320,321,322,323,324,325,326,327,328,329,330,331,332,333,334,335,336,337,338,339,340,341,342,343,344,345,346,347,348,349,350,351,352,353,354,355,356,357,358,359,360,361,362,363,364,365,366,367,368,369,370,371,372,373,374,375,376,377,378,379,380,381,382,383,384,385,386,387,388,389,390,391,392,393,394,395,396,397,398,399,400,401,402,403,404,405,406,407,408,409,410,411,412,413,414,415,416,417,418,419,420,421,422,423,424,425,426,427,428,429,430,431,432,433,434,435,436,437,438,439,440,441,442,443,444,445,446,447,448,449,450],"tree_info":[0,0,0,0,0,0,0,0,0,0,0,0,0,0,0,0,0,0,0,0,0,0,0,0,0,0,0,0,0,0,0,0,0,0,0,0,0,0,0,0,0,0,0,0,0,0,0,0,0,0,0,0,0,0,0,0,0,0,0,0,0,0,0,0,0,0,0,0,0,0,0,0,0,0,0,0,0,0,0,0,0,0,0,0,0,0,0,0,0,0,0,0,0,0,0,0,0,0,0,0,0,0,0,0,0,0,0,0,0,0,0,0,0,0,0,0,0,0,0,0,0,0,0,0,0,0,0,0,0,0,0,0,0,0,0,0,0,0,0,0,0,0,0,0,0,0,0,0,0,0,0,0,0,0,0,0,0,0,0,0,0,0,0,0,0,0,0,0,0,0,0,0,0,0,0,0,0,0,0,0,0,0,0,0,0,0,0,0,0,0,0,0,0,0,0,0,0,0,0,0,0,0,0,0,0,0,0,0,0,0,0,0,0,0,0,0,0,0,0,0,0,0,0,0,0,0,0,0,0,0,0,0,0,0,0,0,0,0,0,0,0,0,0,0,0,0,0,0,0,0,0,0,0,0,0,0,0,0,0,0,0,0,0,0,0,0,0,0,0,0,0,0,0,0,0,0,0,0,0,0,0,0,0,0,0,0,0,0,0,0,0,0,0,0,0,0,0,0,0,0,0,0,0,0,0,0,0,0,0,0,0,0,0,0,0,0,0,0,0,0,0,0,0,0,0,0,0,0,0,0,0,0,0,0,0,0,0,0,0,0,0,0,0,0,0,0,0,0,0,0,0,0,0,0,0,0,0,0,0,0,0,0,0,0,0,0,0,0,0,0,0,0,0,0,0,0,0,0,0,0,0,0,0,0,0,0,0,0,0,0,0,0,0,0,0,0,0,0,0,0,0,0,0,0,0,0,0,0,0,0,0,0,0,0,0,0,0,0,0,0,0,0,0,0,0,0,0,0,0,0,0,0,0,0,0,0,0,0,0,0,0,0,0,0,0,0,0,0,0,0],"trees":[{"base_weights":[6.099726E2,-3.462264E4,1.5739359E4,-2.3860754E3,-9.4583594E2,4.4297818E2,1.8661196E3],"categories":[],"categories_nodes":[],"categories_segments":[],"categories_sizes":[],"default_left":[0,0,0,0,0,0,0],"id":0,"left_children":[1,3,5,-1,-1,-1,-1],"loss_changes":[4.0087495E10,1.7156915E9,6.5614817E9,0E0,0E0,0E0,0E0],"parents":[2147483647,0,0,1,1,2,2],"right_children":[2,4,6,-1,-1,-1,-1],"split_conditions":[3.5973332E4,1.227E4,7.2463E4,-2.3860754E3,-9.4583594E2,4.4297818E2,1.8661196E3],"split_indices":[8,6,8,0,0,0,0],"split_type":[0,0,0,0,0,0,0],"sum_hessian":[7.4E1,2.2E1,5.2E1,1.7E1,5E0,3.4E1,1.8E1],"tree_param":{"num_deleted":"0","num_feature":"16","num_nodes":"7","size_leaf_vector":"1"}},{"base_weights":[8.4761316E2,-2.9148275E4,1.6026449E4,-2.1427708E3,-5.852201E2,1.2706774E2,1.4955175E3],"categories":[],"categories_nodes":[],"categories_segments":[],"categories_sizes":[],"default_left":[0,0,0,0,0,0,0],"id":1,"left_children":[1,3,5,-1,-1,-1,-1],"loss_changes":[3.1965217E10,2.6931507E9,5.6268636E9,0E0,0E0,0E0,0E0],"parents":[2147483647,0,0,1,1,2,2],"right_children":[2,4,6,-1,-1,-1,-1],"split_conditions":[3.9165668E4,2.5664E4,5.7803332E4,-2.1427708E3,-5.852201E2,1.2706774E2,1.4955175E3],"split_indices":[8,8,8,0,0,0,0],"split_type":[0,0,0,0,0,0,0],"sum_hessian":[6.9E1,2.3E1,4.6E1,1.7E1,6E0,1.8E1,2.8E1],"tree_param":{"num_deleted":"0","num_feature":"16","num_nodes":"7","size_leaf_vector":"1"}},{"base_weights":[-1.2184E3,-2.2698643E4,1.7799184E4,-1.9897869E3,-3.9436627E2,8.268334E2,2.592672E3],"categories":[],"categories_nodes":[],"categories_segments":[],"categories_sizes":[],"default_left":[0,0,0,0,0,0,0],"id":2,"left_children":[1,3,5,-1,-1,-1,-1],"loss_changes":[2.6628043E10,4.9327135E9,3.2258642E9,0E0,0E0,0E0,0E0],"parents":[2147483647,0,0,1,1,2,2],"right_children":[2,4,6,-1,-1,-1,-1],"split_conditions":[4.9526E4,2.5664E4,1E0,-1.9897869E3,-3.9436627E2,8.268334E2,2.592672E3],"split_indices":[6,8,12,0,0,0,0],"split_type":[0,0,0,0,0,0,0],"sum_hessian":[6.4E1,3E1,3.4E1,1.8E1,1.2E1,3E1,4E0],"tree_param":{"num_deleted":"0","num_feature":"16","num_nodes":"7","size_leaf_vector":"1"}},{"base_weights":[1.5936108E3,-2.8259977E4,1.5806422E4,-2.0243148E3,-6.6120074E2,4.8554138E2,1.7731396E3],"categories":[],"categories_nodes":[],"categories_segments":[],"categories_sizes":[],"default_left":[0,0,0,0,0,0,0],"id":3,"left_children":[1,3,5,-1,-1,-1,-1],"loss_changes":[3.2341445E10,2.0126515E9,5.286907E9,0E0,0E0,0E0,0E0],"parents":[2147483647,0,0,1,1,2,2],"right_children":[2,4,6,-1,-1,-1,-1],"split_conditions":[3.9165668E4,4E0,7.2463E4,-2.0243148E3,-6.6120074E2,4.8554138E2,1.7731396E3],"split_indices":[8,13,8,0,0,0,0],"split_type":[0,0,0,0,0,0,0],"sum_hessian":[7.5E1,2.4E1,5.1E1,1.8E1,6E0,3.3E1,1.8E1],"tree_param":{"num_deleted":"0","num_feature":"16","num_nodes":"7","size_leaf_vector":"1"}},{"base_weights":[1.4139875E3,-2.2799285E4,1.5644741E4,-1.8087235E3,-6.5313293E2,2.6048056E2,1.3433427E3],"categories":[],"categories_nodes":[],"categories_segments":[],"categories_sizes":[],"default_left":[0,0,0,0,0,0,0],"id":4,"left_children":[1,3,5,-1,-1,-1,-1],"loss_changes":[2.6605177E10,2.2524375E9,3.5695555E9,0E0,0E0,0E0,0E0],"parents":[2147483647,0,0,1,1,2,2],"right_children":[2,4,6,-1,-1,-1,-1],"split_conditions":[4.213E4,1.5348667E4,6.2334332E4,-1.8087235E3,-6.5313293E2,2.6048056E2,1.3433427E3],"split_indices":[8,8,8,0,0,0,0],"split_type":[0,0,0,0,0,0,0],"sum_hessian":[7.6E1,2.8E1,4.8E1,1.7E1,1.1E1,1.8E1,3E1],"tree_param":{"num_deleted":"0","num_feature":"16","num_nodes":"7","size_leaf_vector":"1"}},{"base_weights":[2.1211604E3,-1.8304568E4,1.7022338E4,-1.6157882E3,-3.232041E2,7.9295215E2,2.3152773E3],"categories":[],"categories_nodes":[],"categories_segments":[],"categories_sizes":[],"default_left":[0,0,0,0,0,0,0],"id":5,"left_children":[1,3,5,-1,-1,-1,-1],"loss_changes":[2.3498746E10,3.4761175E9,3.4041805E9,0E0,0E0,0E0,0E0],"parents":[2147483647,0,0,1,1,2,2],"right_children":[2,4,6,-1,-1,-1,-1],"split_conditions":[5.0258E4,2.5664E4,1.9512337E1,-1.6157882E3,-3.232041E2,7.9295215E2,2.3152773E3],"split_indices":[6,8,11,0,0,0,0],"split_type":[0,0,0,0,0,0,0],"sum_hessian":[7.6E1,3.2E1,4.4E1,1.9E1,1.3E1,3.8E1,6E0],"tree_param":{"num_deleted":"0","num_feature":"16","num_nodes":"7","size_leaf_vector":"1"}},{"base_weights":[1.1593113E3,-2.0433955E4,1.5132349E4,-1.5905103E3,-3.385066E2,7.110667E2,2.504268E3],"categories":[],"categories_nodes":[],"categories_segments":[],"categories_sizes":[],"default_left":[0,0,0,0,0,0,0],"id":6,"left_children":[1,3,5,-1,-1,-1,-1],"loss_changes":[2.118275E10,2.3209984E9,3.4812764E9,0E0,0E0,0E0,0E0],"parents":[2147483647,0,0,1,1,2,2],"right_children":[2,4,6,-1,-1,-1,-1],"split_conditions":[4.2892332E4,2.9633E4,7.9832E4,-1.5905103E3,-3.385066E2,7.110667E2,2.504268E3],"split_indices":[8,7,8,0,0,0,0],"split_type":[0,0,0,0,0,0,0],"sum_hessian":[6.9E1,2.7E1,4.2E1,1.9E1,8E0,3.8E1,4E0],"tree_param":{"num_deleted":"0","num_feature":"16","num_nodes":"7","size_leaf_vector":"1"}},{"base_weights":[2.5016443E3,-2.0844033E4,1.4567558E4,-1.5126165E3,-3.3006778E2,4.5911255E2,1.549182E3],"categories":[],"categories_nodes":[],"categories_segments":[],"categories_sizes":[],"default_left":[0,0,0,0,0,0,0],"id":7,"left_children":[1,3,5,-1,-1,-1,-1],"loss_changes":[1.865823E10,1.3734932E9,3.2471593E9,0E0,0E0,0E0,0E0],"parents":[2147483647,0,0,1,1,2,2],"right_children":[2,4,6,-1,-1,-1,-1],"split_conditions":[4.2892332E4,2.2309666E4,7.2463E4,-1.5126165E3,-3.3006778E2,4.5911255E2,1.549182E3],"split_indices":[8,8,8,0,0,0,0],"split_type":[0,0,0,0,0,0,0],"sum_hessian":[6.5E1,2.2E1,4.3E1,1.7E1,5E0,2.7E1,1.6E1],"tree_param":{"num_deleted":"0","num_feature":"16","num_nodes":"7","size_leaf_vector":"1"}},{"base_weights":[-6.790153E2,-2.0037426E4,1.0146581E4,-1.4893185E3,-5.246561E2,3.2088858E2,1.2609285E3],"categories":[],"categories_nodes":[],"categories_segments":[],"categories_sizes":[],"default_left":[0,0,0,0,0,0,0],"id":8,"left_children":[1,3,5,-1,-1,-1,-1],"loss_changes":[1.5544243E10,1.2639386E9,2.4014602E9,0E0,0E0,0E0,0E0],"parents":[2147483647,0,0,1,1,2,2],"right_children":[2,4,6,-1,-1,-1,-1],"split_conditions":[3.9165668E4,4E0,7.2463E4,-1.4893185E3,-5.246561E2,3.2088858E2,1.2609285E3],"split_indices":[8,13,8,0,0,0,0],"split_type":[0,0,0,0,0,0,0],"sum_hessian":[7.3E1,2.6E1,4.7E1,1.8E1,8E0,3.3E1,1.4E1],"tree_param":{"num_deleted":"0","num_feature":"16","num_nodes":"7","size_leaf_vector":"1"}},{"base_weights":[9.070542E0,-1.7007307E4,1.2020082E4,-1.306199E3,-3.4999014E2,5.886566E2,2.3144297E3],"categories":[],"categories_nodes":[],"categories_segments":[],"categories_sizes":[],"default_left":[0,0,0,0,0,0,0],"id":9,"left_children":[1,3,5,-1,-1,-1,-1],"loss_changes":[1.659417E10,1.6613745E9,2.6284498E9,0E0,0E0,0E0,0E0],"parents":[2147483647,0,0,1,1,2,2],"right_children":[2,4,6,-1,-1,-1,-1],"split_conditions":[4.2892332E4,2.5664E4,5.2537216E1,-1.306199E3,-3.4999014E2,5.886566E2,2.3144297E3],"split_indices":[8,8,11,0,0,0,0],"split_type":[0,0,0,0,0,0,0],"sum_hessian":[8E1,3.3E1,4.7E1,2.3E1,1E1,4.4E1,3E0],"tree_param":{"num_deleted":"0","num_feature":"16","num_nodes":"7","size_leaf_vector":"1"}},{"base_weights":[-1.0698223E3,-1.9982045E4,8.865021E3,-1.3835891E3,-5.2210614E2,3.3678818E2,1.8928014E3],"categories":[],"categories_nodes":[],"categories_segments":[],"categories_sizes":[],"default_left":[0,0,0,0,0,0,0],"id":10,"left_children":[1,3,5,-1,-1,-1,-1],"loss_changes":[1.5060716E10,7.9392256E8,3.7841554E9,0E0,0E0,0E0,0E0],"parents":[2147483647,0,0,1,1,2,2],"right_children":[2,4,6,-1,-1,-1,-1],"split_conditions":[3.5973332E4,4E0,7.9832E4,-1.3835891E3,-5.2210614E2,3.3678818E2,1.8928014E3],"split_indices":[8,13,8,0,0,0,0],"split_type":[0,0,0,0,0,0,0],"sum_hessian":[7.9E1,2.7E1,5.2E1,2.1E1,6E0,4.6E1,6E0],"tree_param":{"num_deleted":"0","num_feature":"16","num_nodes":"7","size_leaf_vector":"1"}},{"base_weights":[3.3869904E1,-1.2163739E4,1.0650815E4,-1.2178365E3,-3.531529E2,2.9741916E2,1.142896E3],"categories":[],"categories_nodes":[],"categories_segments":[],"categories_sizes":[],"default_left":[0,0,0,0,0,0,0],"id":11,"left_children":[1,3,5,-1,-1,-1,-1],"loss_changes":[9.348871E9,1.6259497E9,1.7713065E9,0E0,0E0,0E0,0E0],"parents":[2147483647,0,0,1,1,2,2],"right_children":[2,4,6,-1,-1,-1,-1],"split_conditions":[5.028E4,1.545E4,1.9246377E0,-1.2178365E3,-3.531529E2,2.9741916E2,1.142896E3],"split_indices":[6,6,11,0,0,0,0],"split_type":[0,0,0,0,0,0,0],"sum_hessian":[7.1E1,3.3E1,3.8E1,1.4E1,1.9E1,2.3E1,1.5E1],"tree_param":{"num_deleted":"0","num_feature":"16","num_nodes":"7","size_leaf_vector":"1"}},{"base_weights":[1.9848308E3,-1.1115162E4,1.543962E4,-1.2012488E3,-2.7701025E2,7.3837805E2,1.8285469E3],"categories":[],"categories_nodes":[],"categories_segments":[],"categories_sizes":[],"default_left":[0,0,0,0,0,0,0],"id":12,"left_children":[1,3,5,-1,-1,-1,-1],"loss_changes":[1.2016441E10,1.9256422E9,1.3834E9,0E0,0E0,0E0,0E0],"parents":[2147483647,0,0,1,1,2,2],"right_children":[2,4,6,-1,-1,-1,-1],"split_conditions":[5.5328332E4,1.5348667E4,1.5081594E1,-1.2012488E3,-2.7701025E2,7.3837805E2,1.8285469E3],"split_indices":[8,8,11,0,0,0,0],"split_type":[0,0,0,0,0,0,0],"sum_hessian":[6.7E1,3.4E1,3.3E1,1.4E1,2E1,2.8E1,5E0],"tree_param":{"num_deleted":"0","num_feature":"16","num_nodes":"7","size_leaf_vector":"1"}},{"base_weights":[1.6331951E3,-1.2809208E4,1.1843735E4,-1.1072489E3,-2.1915317E2,5.401195E2,1.8822698E3],"categories":[],"categories_nodes":[],"categories_segments":[],"categories_sizes":[],"default_left":[0,0,0,0,0,0,0],"id":13,"left_children":[1,3,5,-1,-1,-1,-1],"loss_changes":[1.1238024E10,1.5599247E9,2.3358034E9,0E0,0E0,0E0,0E0],"parents":[2147483647,0,0,1,1,2,2],"right_children":[2,4,6,-1,-1,-1,-1],"split_conditions":[5.028E4,2.1765E4,1.9512337E1,-1.1072489E3,-2.1915317E2,5.401195E2,1.8822698E3],"split_indices":[6,6,11,0,0,0,0],"split_type":[0,0,0,0,0,0,0],"sum_hessian":[7.5E1,3.1E1,4.4E1,1.9E1,1.2E1,3.9E1,5E0],"tree_param":{"num_deleted":"0","num_feature":"16","num_nodes":"7","size_leaf_vector":"1"}},{"base_weights":[3.695274E2,-1.1522958E4,9.801881E3,-9.8697894E2,-2.5783582E2,4.1092697E2,1.7806271E3],"categories":[],"categories_nodes":[],"categories_segments":[],"categories_sizes":[],"default_left":[0,0,0,0,0,0,0],"id":14,"left_children":[1,3,5,-1,-1,-1,-1],"loss_changes":[8.771472E9,1.1657528E9,2.4540447E9,0E0,0E0,0E0,0E0],"parents":[2147483647,0,0,1,1,2,2],"right_children":[2,4,6,-1,-1,-1,-1],"split_conditions":[5.0258E4,2.5664E4,1.9512337E1,-9.8697894E2,-2.5783582E2,4.1092697E2,1.7806271E3],"split_indices":[6,8,11,0,0,0,0],"split_type":[0,0,0,0,0,0,0],"sum_hessian":[7.7E1,3.4E1,4.3E1,2E1,1.4E1,3.8E1,5E0],"tree_param":{"num_deleted":"0","num_feature":"16","num_nodes":"7","size_leaf_vector":"1"}},{"base_weights":[-1.6604004E3,-1.5814836E4,5.996558E3,-1.027659E3,-5.0943716E2,1.1114799E2,7.584085E2],"categories":[],"categories_nodes":[],"categories_segments":[],"categories_sizes":[],"default_left":[0,0,0,0,0,0,0],"id":15,"left_children":[1,3,5,-1,-1,-1,-1],"loss_changes":[7.599253E9,1.3080934E8,1.2284384E9,0E0,0E0,0E0,0E0],"parents":[2147483647,0,0,1,1,2,2],"right_children":[2,4,6,-1,-1,-1,-1],"split_conditions":[2.1765E4,3.4E0,7.0405E4,-1.027659E3,-5.0943716E2,1.1114799E2,7.584085E2],"split_indices":[6,13,6,0,0,0,0],"split_type":[0,0,0,0,0,0,0],"sum_hessian":[6.9E1,2.4E1,4.5E1,2E1,4E0,2.8E1,1.7E1],"tree_param":{"num_deleted":"0","num_feature":"16","num_nodes":"7","size_leaf_vector":"1"}},{"base_weights":[-3.2691025E1,-9.296022E3,7.593448E3,-8.372166E2,-2.6616876E2,-7.836038E2,5.734964E2],"categories":[],"categories_nodes":[],"categories_segments":[],"categories_sizes":[],"default_left":[0,0,0,0,0,0,0],"id":16,"left_children":[1,3,5,-1,-1,-1,-1],"loss_changes":[5.0997975E9,6.903557E8,1.6172255E9,0E0,0E0,0E0,0E0],"parents":[2147483647,0,0,1,1,2,2],"right_children":[2,4,6,-1,-1,-1,-1],"split_conditions":[5.028E4,2.1597E4,-3.4079456E1,-8.372166E2,-2.6616876E2,-7.836038E2,5.734964E2],"split_indices":[7,7,11,0,0,0,0],"split_type":[0,0,0,0,0,0,0],"sum_hessian":[7.1E1,3.2E1,3.9E1,1.6E1,1.6E1,3E0,3.6E1],"tree_param":{"num_deleted":"0","num_feature":"16","num_nodes":"7","size_leaf_vector":"1"}},{"base_weights":[5.3315875E2,-6.5305293E3,1.6740744E4,-8.9640344E2,-6.560945E1,6.6690485E2,1.4868881E3],"categories":[],"categories_nodes":[],"categories_segments":[],"categories_sizes":[],"default_left":[0,0,0,0,0,0,0],"id":17,"left_children":[1,3,5,-1,-1,-1,-1],"loss_changes":[8.147278E9,2.2324675E9,8.070733E8,0E0,0E0,0E0,0E0],"parents":[2147483647,0,0,1,1,2,2],"right_children":[2,4,6,-1,-1,-1,-1],"split_conditions":[6.6966664E4,2.2236E4,7.7321336E4,-8.9640344E2,-6.560945E1,6.6690485E2,1.4868881E3],"split_indices":[8,8,8,0,0,0,0],"split_type":[0,0,0,0,0,0,0],"sum_hessian":[7E1,4.9E1,2.1E1,1.9E1,3E1,1.3E1,8E0],"tree_param":{"num_deleted":"0","num_feature":"16","num_nodes":"7","size_leaf_vector":"1"}},{"base_weights":[-1.7414369E2,-1.0046637E4,8.622046E3,-8.504088E2,-2.7241415E2,5.9663434E2,-1.3597068E3],"categories":[],"categories_nodes":[],"categories_segments":[],"categories_sizes":[],"default_left":[0,0,0,0,0,0,0],"id":18,"left_children":[1,3,5,-1,-1,-1,-1],"loss_changes":[6.0084485E9,6.889738E8,1.5568415E9,0E0,0E0,0E0,0E0],"parents":[2147483647,0,0,1,1,2,2],"right_children":[2,4,6,-1,-1,-1,-1],"split_conditions":[5.028E4,1.545E4,2.6E1,-8.504088E2,-2.7241415E2,5.9663434E2,-1.3597068E3],"split_indices":[6,6,2,0,0,0,0],"split_type":[0,0,0,0,0,0,0],"sum_hessian":[6.8E1,3.2E1,3.6E1,1.8E1,1.4E1,3.5E1,1E0],"tree_param":{"num_deleted":"0","num_feature":"16","num_nodes":"7","size_leaf_vector":"1"}},{"base_weights":[7.2480994E2,-8.237736E3,8.695974E3,-7.549585E2,-1.498948E2,-4.764556E1,8.4250305E2],"categories":[],"categories_nodes":[],"categories_segments":[],"categories_sizes":[],"default_left":[0,0,0,0,0,0,0],"id":19,"left_children":[1,3,5,-1,-1,-1,-1],"loss_changes":[4.9432596E9,7.800297E8,1.827178E9,0E0,0E0,0E0,0E0],"parents":[2147483647,0,0,1,1,2,2],"right_children":[2,4,6,-1,-1,-1,-1],"split_conditions":[5.5328332E4,2.1597E4,-1.471028E0,-7.549585E2,-1.498948E2,-4.764556E1,8.4250305E2],"split_indices":[8,7,11,0,0,0,0],"split_type":[0,0,0,0,0,0,0],"sum_hessian":[6.8E1,3.2E1,3.6E1,1.8E1,1.4E1,1.3E1,2.3E1],"tree_param":{"num_deleted":"0","num_feature":"16","num_nodes":"7","size_leaf_vector":"1"}},{"base_weights":[-2.602782E2,-7.774335E3,7.8574546E3,-7.643077E2,-1.8963919E2,2.7635513E2,1.3827808E3],"categories":[],"categories_nodes":[],"categories_segments":[],"categories_sizes":[],"default_left":[0,0,0,0,0,0,0],"id":20,"left_children":[1,3,5,-1,-1,-1,-1],"loss_changes":[4.769483E9,8.935132E8,1.7928369E9,0E0,0E0,0E0,0E0],"parents":[2147483647,0,0,1,1,2,2],"right_children":[2,4,6,-1,-1,-1,-1],"split_conditions":[5.5328332E4,2.1597E4,1E0,-7.643077E2,-1.8963919E2,2.7635513E2,1.3827808E3],"split_indices":[8,6,12,0,0,0,0],"split_type":[0,0,0,0,0,0,0],"sum_hessian":[7.7E1,4E1,3.7E1,1.9E1,2.1E1,3.1E1,6E0],"tree_param":{"num_deleted":"0","num_feature":"16","num_nodes":"7","size_leaf_vector":"1"}},{"base_weights":[1.372243E3,-7.0355386E3,7.132704E3,-1.9389357E2,-9.4985706E2,5.8793604E2,-4.5460513E2],"categories":[],"categories_nodes":[],"categories_segments":[],"categories_sizes":[],"default_left":[0,0,0,0,0,0,0],"id":21,"left_children":[1,3,5,-1,-1,-1,-1],"loss_changes":[3.4005855E9,9.20101E8,1.6262289E9,0E0,0E0,0E0,0E0],"parents":[2147483647,0,0,1,1,2,2],"right_children":[2,4,6,-1,-1,-1,-1],"split_conditions":[5.028E4,1E0,8.8082E4,-1.9389357E2,-9.4985706E2,5.8793604E2,-4.5460513E2],"split_indices":[7,15,7,0,0,0,0],"split_type":[0,0,0,0,0,0,0],"sum_hessian":[6.9E1,2.8E1,4.1E1,2E1,8E0,3.5E1,6E0],"tree_param":{"num_deleted":"0","num_feature":"16","num_nodes":"7","size_leaf_vector":"1"}},{"base_weights":[-1.0569752E2,-7.671427E3,9.617072E3,-6.480599E2,-6.887246E1,2.0218354E3,4.947318E2],"categories":[],"categories_nodes":[],"categories_segments":[],"categories_sizes":[],"default_left":[0,0,0,0,0,0,0],"id":22,"left_children":[1,3,5,-1,-1,-1,-1],"loss_changes":[5.31049E9,8.020749E8,9.1426586E8,0E0,0E0,0E0,0E0],"parents":[2147483647,0,0,1,1,2,2],"right_children":[2,4,6,-1,-1,-1,-1],"split_conditions":[5.2746E4,3.4409E4,5.5246E4,-6.480599E2,-6.887246E1,2.0218354E3,4.947318E2],"split_indices":[6,6,6,0,0,0,0],"split_type":[0,0,0,0,0,0,0],"sum_hessian":[7.1E1,4E1,3.1E1,2.7E1,1.3E1,1E0,3E1],"tree_param":{"num_deleted":"0","num_feature":"16","num_nodes":"7","size_leaf_vector":"1"}},{"base_weights":[5.354539E2,-6.602265E3,6.2927607E3,-6.3318475E2,-1.0449572E2,1.8339442E2,1.1234594E3],"categories":[],"categories_nodes":[],"categories_segments":[],"categories_sizes":[],"default_left":[0,0,0,0,0,0,0],"id":23,"left_children":[1,3,5,-1,-1,-1,-1],"loss_changes":[3.090174E9,6.236522E8,1.6329523E9,0E0,0E0,0E0,0E0],"parents":[2147483647,0,0,1,1,2,2],"right_children":[2,4,6,-1,-1,-1,-1],"split_conditions":[5.028E4,2.1597E4,1.3058462E1,-6.3318475E2,-1.0449572E2,1.8339442E2,1.1234594E3],"split_indices":[6,7,11,0,0,0,0],"split_type":[0,0,0,0,0,0,0],"sum_hessian":[7.4E1,3.3E1,4.1E1,1.8E1,1.5E1,3.3E1,8E0],"tree_param":{"num_deleted":"0","num_feature":"16","num_nodes":"7","size_leaf_vector":"1"}},{"base_weights":[-1.9669393E3,-7.525951E3,3.7985046E3,-6.2319867E2,-2.1016478E2,-1.0031193E3,3.2965778E2],"categories":[],"categories_nodes":[],"categories_segments":[],"categories_sizes":[],"default_left":[0,0,0,0,0,0,0],"id":24,"left_children":[1,3,5,-1,-1,-1,-1],"loss_changes":[2.1193793E9,3.5758707E8,1.1552927E9,0E0,0E0,0E0,0E0],"parents":[2147483647,0,0,1,1,2,2],"right_children":[2,4,6,-1,-1,-1,-1],"split_conditions":[5.0258E4,2.1765E4,-4.2713936E1,-6.2319867E2,-2.1016478E2,-1.0031193E3,3.2965778E2],"split_indices":[6,6,11,0,0,0,0],"split_type":[0,0,0,0,0,0,0],"sum_hessian":[6.5E1,3.3E1,3.2E1,1.9E1,1.4E1,2E0,3E1],"tree_param":{"num_deleted":"0","num_feature":"16","num_nodes":"7","size_leaf_vector":"1"}},{"base_weights":[8.768594E2,-4.2188394E3,1.0094988E4,-5.6107477E2,-1.3199927E2,8.085685E2,-6.8325134E2],"categories":[],"categories_nodes":[],"categories_segments":[],"categories_sizes":[],"default_left":[0,0,0,0,0,0,0],"id":25,"left_children":[1,3,5,-1,-1,-1,-1],"loss_changes":[3.2474985E9,4.4751885E8,1.8191537E9,0E0,0E0,0E0,0E0],"parents":[2147483647,0,0,1,1,2,2],"right_children":[2,4,6,-1,-1,-1,-1],"split_conditions":[6.6966664E4,1.1583E4,8.8082E4,-5.6107477E2,-1.3199927E2,8.085685E2,-6.8325134E2],"split_indices":[8,8,7,0,0,0,0],"split_type":[0,0,0,0,0,0,0],"sum_hessian":[6.8E1,4.4E1,2.4E1,1.2E1,3.2E1,2.1E1,3E0],"tree_param":{"num_deleted":"0","num_feature":"16","num_nodes":"7","size_leaf_vector":"1"}},{"base_weights":[2.3772728E1,-4.8687153E3,5.0573184E3,-5.658577E2,-1.4179483E2,3.7463318E2,-1.2614636E3],"categories":[],"categories_nodes":[],"categories_segments":[],"categories_sizes":[],"default_left":[0,0,0,0,0,0,0],"id":26,"left_children":[1,3,5,-1,-1,-1,-1],"loss_changes":[1.7285631E9,3.904654E8,1.101503E9,0E0,0E0,0E0,0E0],"parents":[2147483647,0,0,1,1,2,2],"right_children":[2,4,6,-1,-1,-1,-1],"split_conditions":[5.6852332E4,1.1583E4,3.7E1,-5.658577E2,-1.4179483E2,3.7463318E2,-1.2614636E3],"split_indices":[8,8,2,0,0,0,0],"split_type":[0,0,0,0,0,0,0],"sum_hessian":[6.9E1,3.5E1,3.4E1,1.2E1,2.3E1,3.3E1,1E0],"tree_param":{"num_deleted":"0","num_feature":"16","num_nodes":"7","size_leaf_vector":"1"}},{"base_weights":[-2.1044028E2,-6.7427686E3,6.6923936E3,-2.8456915E2,-7.484558E2,-7.776729E1,6.839144E2],"categories":[],"categories_nodes":[],"categories_segments":[],"categories_sizes":[],"default_left":[0,0,0,0,0,0,0],"id":27,"left_children":[1,3,5,-1,-1,-1,-1],"loss_changes":[3.3003213E9,3.9667315E8,1.3222331E9,0E0,0E0,0E0,0E0],"parents":[2147483647,0,0,1,1,2,2],"right_children":[2,4,6,-1,-1,-1,-1],"split_conditions":[5.028E4,1E0,-2.3179831E-2,-2.8456915E2,-7.484558E2,-7.776729E1,6.839144E2],"split_indices":[6,15,11,0,0,0,0],"split_type":[0,0,0,0,0,0,0],"sum_hessian":[7.2E1,3.7E1,3.5E1,2.8E1,9E0,1.3E1,2.2E1],"tree_param":{"num_deleted":"0","num_feature":"16","num_nodes":"7","size_leaf_vector":"1"}},{"base_weights":[9.592918E2,-2.9768486E3,1.0601258E4,-4.4368756E2,-8.165018E1,4.33881E2,1.3043104E3],"categories":[],"categories_nodes":[],"categories_segments":[],"categories_sizes":[],"default_left":[0,0,0,0,0,0,0],"id":28,"left_children":[1,3,5,-1,-1,-1,-1],"loss_changes":[2.6980582E9,3.5312982E8,6.815552E8,0E0,0E0,0E0,0E0],"parents":[2147483647,0,0,1,1,2,2],"right_children":[2,4,6,-1,-1,-1,-1],"split_conditions":[6.6966664E4,1.1583E4,8.4914664E4,-4.4368756E2,-8.165018E1,4.33881E2,1.3043104E3],"split_indices":[8,8,8,0,0,0,0],"split_type":[0,0,0,0,0,0,0],"sum_hessian":[7E1,5E1,2E1,1.3E1,3.7E1,1.6E1,4E0],"tree_param":{"num_deleted":"0","num_feature":"16","num_nodes":"7","size_leaf_vector":"1"}},{"base_weights":[-9.6270004E1,5.5192734E3,-5.1571255E3,1.1061947E3,1.604814E2,-8.090231E2,-1.3334116E2],"categories":[],"categories_nodes":[],"categories_segments":[],"categories_sizes":[],"default_left":[0,0,0,0,0,0,0],"id":29,"left_children":[1,3,5,-1,-1,-1,-1],"loss_changes":[2.193754E9,1.3109245E9,9.682291E8,0E0,0E0,0E0,0E0],"parents":[2147483647,0,0,1,1,2,2],"right_children":[2,4,6,-1,-1,-1,-1],"split_conditions":[2.02E3,3E0,2.021E3,1.1061947E3,1.604814E2,-8.090231E2,-1.3334116E2],"split_indices":[9,10,9,0,0,0,0],"split_type":[0,0,0,0,0,0,0],"sum_hessian":[7.6E1,3.6E1,4E1,6E0,3E1,1E1,3E1],"tree_param":{"num_deleted":"0","num_feature":"16","num_nodes":"7","size_leaf_vector":"1"}},{"base_weights":[-4.1501193E2,-5.4700146E3,3.991483E3,-4.5425116E2,-1.5100798E2,1.6173386E2,8.0825323E2],"categories":[],"categories_nodes":[],"categories_segments":[],"categories_sizes":[],"default_left":[0,0,0,0,0,0,0],"id":30,"left_children":[1,3,5,-1,-1,-1,-1],"loss_changes":[1.6077844E9,1.9310131E8,4.5494586E8,0E0,0E0,0E0,0E0],"parents":[2147483647,0,0,1,1,2,2],"right_children":[2,4,6,-1,-1,-1,-1],"split_conditions":[5.028E4,3.1E0,1.9512337E1,-4.5425116E2,-1.5100798E2,1.6173386E2,8.0825323E2],"split_indices":[6,13,11,0,0,0,0],"split_type":[0,0,0,0,0,0,0],"sum_hessian":[7.1E1,3.3E1,3.8E1,1.9E1,1.4E1,3.4E1,4E0],"tree_param":{"num_deleted":"0","num_feature":"16","num_nodes":"7","size_leaf_vector":"1"}},{"base_weights":[1.13078186E2,-1.6350044E3,1.5891413E4,-3.0610214E2,5.761984E1,1.372634E3,5.133007E2],"categories":[],"categories_nodes":[],"categories_segments":[],"categories_sizes":[],"default_left":[0,0,0,0,0,0,0],"id":31,"left_children":[1,3,5,-1,-1,-1,-1],"loss_changes":[2.1005604E9,6.1194925E8,2.683886E8,0E0,0E0,0E0,0E0],"parents":[2147483647,0,0,1,1,2,2],"right_children":[2,4,6,-1,-1,-1,-1],"split_conditions":[7.7321336E4,3.1E0,3E0,-3.0610214E2,5.761984E1,1.372634E3,5.133007E2],"split_indices":[8,13,10,0,0,0,0],"split_type":[0,0,0,0,0,0,0],"sum_hessian":[7.5E1,6.8E1,7E0,2.9E1,3.9E1,3E0,4E0],"tree_param":{"num_deleted":"0","num_feature":"16","num_nodes":"7","size_leaf_vector":"1"}},{"base_weights":[1.1346204E2,-2.978359E3,9.187342E3,-4.0612927E2,-4.225893E1,1.6456008E3,4.3753516E2],"categories":[],"categories_nodes":[],"categories_segments":[],"categories_sizes":[],"default_left":[0,0,0,0,0,0,0],"id":32,"left_children":[1,3,5,-1,-1,-1,-1],"loss_changes":[2.0529603E9,4.628084E8,5.3586534E8,0E0,0E0,0E0,0E0],"parents":[2147483647,0,0,1,1,2,2],"right_children":[2,4,6,-1,-1,-1,-1],"split_conditions":[6.6966664E4,2.1765E4,5.5246E4,-4.0612927E2,-4.225893E1,1.6456008E3,4.3753516E2],"split_indices":[8,6,6,0,0,0,0],"split_type":[0,0,0,0,0,0,0],"sum_hessian":[7.2E1,5.4E1,1.8E1,2E1,3.4E1,1E0,1.7E1],"tree_param":{"num_deleted":"0","num_feature":"16","num_nodes":"7","size_leaf_vector":"1"}},{"base_weights":[-4.3024136E2,-9.246166E3,1.4372795E3,-1.2076349E3,-4.407719E2,-9.730008E1,4.960148E2],"categories":[],"categories_nodes":[],"categories_segments":[],"categories_sizes":[],"default_left":[0,0,0,0,0,0,0],"id":33,"left_children":[1,3,5,-1,-1,-1,-1],"loss_changes":[1.1866706E9,1.7720742E8,1.2374767E9,0E0,0E0,0E0,0E0],"parents":[2147483647,0,0,1,1,2,2],"right_children":[2,4,6,-1,-1,-1,-1],"split_conditions":[-1.9861324E1,1.6E-1,6.5030668E4,-1.2076349E3,-4.407719E2,-9.730008E1,4.960148E2],"split_indices":[11,5,8,0,0,0,0],"split_type":[0,0,0,0,0,0,0],"sum_hessian":[7.1E1,1.2E1,5.9E1,1E0,1.1E1,4.1E1,1.8E1],"tree_param":{"num_deleted":"0","num_feature":"16","num_nodes":"7","size_leaf_vector":"1"}},{"base_weights":[6.4188684E2,-3.1819316E3,7.3269272E3,-3.617263E2,-1.7995995E1,2.8140472E2,1.0184494E3],"categories":[],"categories_nodes":[],"categories_segments":[],"categories_sizes":[],"default_left":[0,0,0,0,0,0,0],"id":34,"left_children":[1,3,5,-1,-1,-1,-1],"loss_changes":[1.869606E9,3.7572042E8,6.2975834E8,0E0,0E0,0E0,0E0],"parents":[2147483647,0,0,1,1,2,2],"right_children":[2,4,6,-1,-1,-1,-1],"split_conditions":[6.5030668E4,3.4E0,8.4914664E4,-3.617263E2,-1.7995995E1,2.8140472E2,1.0184494E3],"split_indices":[8,13,8,0,0,0,0],"split_type":[0,0,0,0,0,0,0],"sum_hessian":[7.2E1,4.6E1,2.6E1,2.3E1,2.3E1,2.1E1,5E0],"tree_param":{"num_deleted":"0","num_feature":"16","num_nodes":"7","size_leaf_vector":"1"}},{"base_weights":[-2.9230197E2,-9.921538E3,1.1633057E3,-1.0577336E3,-3.9599185E2,-1.27962456E2,2.1866328E2],"categories":[],"categories_nodes":[],"categories_segments":[],"categories_sizes":[],"default_left":[0,0,0,0,0,0,0],"id":35,"left_children":[1,3,5,-1,-1,-1,-1],"loss_changes":[1.02441536E9,1.767314E8,5.1679165E8,0E0,0E0,0E0,0E0],"parents":[2147483647,0,0,1,1,2,2],"right_children":[2,4,6,-1,-1,-1,-1],"split_conditions":[-3.4079456E1,1.6E-1,5.028E4,-1.0577336E3,-3.9599185E2,-1.27962456E2,2.1866328E2],"split_indices":[11,5,7,0,0,0,0],"split_type":[0,0,0,0,0,0,0],"sum_hessian":[7.2E1,9E0,6.3E1,2E0,7E0,2.7E1,3.6E1],"tree_param":{"num_deleted":"0","num_feature":"16","num_nodes":"7","size_leaf_vector":"1"}},{"base_weights":[-1.0362798E3,-1.03336875E4,1.3929068E2,-3.7988147E2,-1.00847925E3,-1.4696158E2,2.930786E2],"categories":[],"categories_nodes":[],"categories_segments":[],"categories_sizes":[],"default_left":[0,0,0,0,0,0,0],"id":36,"left_children":[1,3,5,-1,-1,-1,-1],"loss_changes":[7.396768E8,1.3283923E8,7.409165E8,0E0,0E0,0E0,0E0],"parents":[2147483647,0,0,1,1,2,2],"right_children":[2,4,6,-1,-1,-1,-1],"split_conditions":[-3.4079456E1,3.3E1,6.1379668E4,-3.7988147E2,-1.00847925E3,-1.4696158E2,2.930786E2],"split_indices":[11,2,8,0,0,0,0],"split_type":[0,0,0,0,0,0,0],"sum_hessian":[6.7E1,7E0,6E1,5E0,2E0,3.9E1,2.1E1],"tree_param":{"num_deleted":"0","num_feature":"16","num_nodes":"7","size_leaf_vector":"1"}},{"base_weights":[9.758146E1,-7.698706E3,2.0385918E3,-3.7103625E2,-1.0942947E3,1.0289586E3,6.3295788E1],"categories":[],"categories_nodes":[],"categories_segments":[],"categories_sizes":[],"default_left":[0,0,0,0,0,0,0],"id":37,"left_children":[1,3,5,-1,-1,-1,-1],"loss_changes":[1.107902E9,1.7059853E8,8.598616E8,0E0,0E0,0E0,0E0],"parents":[2147483647,0,0,1,1,2,2],"right_children":[2,4,6,-1,-1,-1,-1],"split_conditions":[-1.8393656E1,3.3E1,2E0,-3.7103625E2,-1.0942947E3,1.0289586E3,6.3295788E1],"split_indices":[11,2,10,0,0,0,0],"split_type":[0,0,0,0,0,0,0],"sum_hessian":[7.2E1,1.4E1,5.8E1,1.3E1,1E0,3E0,5.5E1],"tree_param":{"num_deleted":"0","num_feature":"16","num_nodes":"7","size_leaf_vector":"1"}},{"base_weights":[-2.4783008E2,-1.3560134E3,1.5360708E4,-4.0280408E2,3.7694443E1,2.7318533E2,1.370337E3],"categories":[],"categories_nodes":[],"categories_segments":[],"categories_sizes":[],"default_left":[0,0,0,0,0,0,0],"id":38,"left_children":[1,3,5,-1,-1,-1,-1],"loss_changes":[1.198887E9,6.814755E8,3.0331738E8,0E0,0E0,0E0,0E0],"parents":[2147483647,0,0,1,1,2,2],"right_children":[2,4,6,-1,-1,-1,-1],"split_conditions":[7.9832E4,-1.0742431E1,9E0,-4.0280408E2,3.7694443E1,2.7318533E2,1.370337E3],"split_indices":[8,11,2,0,0,0,0],"split_type":[0,0,0,0,0,0,0],"sum_hessian":[6.8E1,6.4E1,4E0,1.7E1,4.7E1,2E0,2E0],"tree_param":{"num_deleted":"0","num_feature":"16","num_nodes":"7","size_leaf_vector":"1"}},{"base_weights":[-5.4295883E1,-1.4906945E3,1.1030795E4,-5.2367855E1,-8.9180475E2,9.5034686E2,-9.798917E1],"categories":[],"categories_nodes":[],"categories_segments":[],"categories_sizes":[],"default_left":[0,0,0,0,0,0,0],"id":39,"left_children":[1,3,5,-1,-1,-1,-1],"loss_changes":[1.05422906E9,4.7753405E8,4.664164E8,0E0,0E0,0E0,0E0],"parents":[2147483647,0,0,1,1,2,2],"right_children":[2,4,6,-1,-1,-1,-1],"split_conditions":[7.7321336E4,3.3E1,8.8082E4,-5.2367855E1,-8.9180475E2,9.5034686E2,-9.798917E1],"split_indices":[8,2,7,0,0,0,0],"split_type":[0,0,0,0,0,0,0],"sum_hessian":[6.5E1,5.8E1,7E0,5.6E1,2E0,5E0,2E0],"tree_param":{"num_deleted":"0","num_feature":"16","num_nodes":"7","size_leaf_vector":"1"}},{"base_weights":[4.0410825E2,-6.83285E2,1.1278657E3,-1.3230547E2,2.2636726E2],"categories":[],"categories_nodes":[],"categories_segments":[],"categories_sizes":[],"default_left":[0,0,0,0,0],"id":40,"left_children":[1,3,-1,-1,-1],"loss_changes":[1.2703185E9,4.0908192E8,0E0,0E0,0E0],"parents":[2147483647,0,0,1,1],"right_children":[2,4,-1,-1,-1],"split_conditions":[7.9832E4,6.2334332E4,1.1278657E3,-1.3230547E2,2.2636726E2],"split_indices":[8,8,0,0,0],"split_type":[0,0,0,0,0],"sum_hessian":[6.3E1,6E1,3E0,4.5E1,1.5E1],"tree_param":{"num_deleted":"0","num_feature":"16","num_nodes":"5","size_leaf_vector":"1"}},{"base_weights":[4.1986404E1,-3.3663296E3,2.7122856E3,-4.0453458E2,-1.1651333E2,7.8668175E1,1.0517242E3],"categories":[],"categories_nodes":[],"categories_segments":[],"categories_sizes":[],"default_left":[0,0,0,0,0,0,0],"id":41,"left_children":[1,3,5,-1,-1,-1,-1],"loss_changes":[6.7524595E8,1.4831296E8,8.484284E8,0E0,0E0,0E0,0E0],"parents":[2147483647,0,0,1,1,2,2],"right_children":[2,4,6,-1,-1,-1,-1],"split_conditions":[5.028E4,6.372E3,5.2537216E1,-4.0453458E2,-1.1651333E2,7.8668175E1,1.0517242E3],"split_indices":[6,6,11,0,0,0,0],"split_type":[0,0,0,0,0,0,0],"sum_hessian":[7.3E1,3.2E1,4.1E1,9E0,2.3E1,3.8E1,3E0],"tree_param":{"num_deleted":"0","num_feature":"16","num_nodes":"7","size_leaf_vector":"1"}},{"base_weights":[-2.8189404E2,-1.9007968E3,5.053944E3,-4.2745697E2,-2.0827595E1,4.0861206E2,-1.3533702E2],"categories":[],"categories_nodes":[],"categories_segments":[],"categories_sizes":[],"default_left":[0,0,0,0,0,0,0],"id":42,"left_children":[1,3,5,-1,-1,-1,-1],"loss_changes":[6.155344E8,4.3799258E8,2.1571037E8,0E0,0E0,0E0,0E0],"parents":[2147483647,0,0,1,1,2,2],"right_children":[2,4,6,-1,-1,-1,-1],"split_conditions":[7.2463E4,-1.7619486E1,8.8082E4,-4.2745697E2,-2.0827595E1,4.0861206E2,-1.3533702E2],"split_indices":[8,11,7,0,0,0,0],"split_type":[0,0,0,0,0,0,0],"sum_hessian":[7E1,5.4E1,1.6E1,1.2E1,4.2E1,1.3E1,3E0],"tree_param":{"num_deleted":"0","num_feature":"16","num_nodes":"7","size_leaf_vector":"1"}},{"base_weights":[-1.7225581E2,3.360304E2,-8.316811E2,-2.2127946E2,1.2741952E2],"categories":[],"categories_nodes":[],"categories_segments":[],"categories_sizes":[],"default_left":[0,0,0,0,0],"id":43,"left_children":[1,3,-1,-1,-1],"loss_changes":[4.97332E8,4.977273E8,0E0,0E0,0E0],"parents":[2147483647,0,0,1,1],"right_children":[2,4,-1,-1,-1],"split_conditions":[2.7E1,3.4808E4,-8.316811E2,-2.2127946E2,1.2741952E2],"split_indices":[2,6,0,0,0],"split_type":[0,0,0,0,0],"sum_hessian":[7.1E1,6.9E1,2E0,2.1E1,4.8E1],"tree_param":{"num_deleted":"0","num_feature":"16","num_nodes":"5","size_leaf_vector":"1"}},{"base_weights":[1.8972342E2,-9.9572345E2,1.0704489E4,-4.127408E2,1.7434134E1,1.0041076E3,1.8250172E2],"categories":[],"categories_nodes":[],"categories_segments":[],"categories_sizes":[],"default_left":[0,0,0,0,0,0,0],"id":44,"left_children":[1,3,5,-1,-1,-1,-1],"loss_changes":[8.1152736E8,4.4019907E8,2.6967834E8,0E0,0E0,0E0,0E0],"parents":[2147483647,0,0,1,1,2,2],"right_children":[2,4,6,-1,-1,-1,-1],"split_conditions":[7.7321336E4,-1.7619486E1,7.0405E4,-4.127408E2,1.7434134E1,1.0041076E3,1.8250172E2],"split_indices":[8,11,7,0,0,0,0],"split_type":[0,0,0,0,0,0,0],"sum_hessian":[6.4E1,5.8E1,6E0,1E1,4.8E1,3E0,3E0],"tree_param":{"num_deleted":"0","num_feature":"16","num_nodes":"7","size_leaf_vector":"1"}},{"base_weights":[-2.9300003E2,2.3697536E2,-1.2803413E4,-1.1153769E2,1.824533E2,-9.5204395E2,-3.0656262E2],"categories":[],"categories_nodes":[],"categories_segments":[],"categories_sizes":[],"default_left":[0,0,0,0,0,0,0],"id":45,"left_children":[1,3,5,-1,-1,-1,-1],"loss_changes":[4.234794E8,3.6022515E8,1.1575136E7,0E0,0E0,0E0,0E0],"parents":[2147483647,0,0,1,1,2,2],"right_children":[2,4,6,-1,-1,-1,-1],"split_conditions":[3.7E1,6.1379668E4,3E0,-1.1153769E2,1.824533E2,-9.5204395E2,-3.0656262E2],"split_indices":[2,8,1,0,0,0,0],"split_type":[0,0,0,0,0,0,0],"sum_hessian":[6.3E1,6.1E1,2E0,3.5E1,2.6E1,1E0,1E0],"tree_param":{"num_deleted":"0","num_feature":"16","num_nodes":"7","size_leaf_vector":"1"}},{"base_weights":[-1.6486674E2,-1.364048E3,8.439684E3,-2.374812E2,5.9850163E1,7.218566E2,-1.4524582E2],"categories":[],"categories_nodes":[],"categories_segments":[],"categories_sizes":[],"default_left":[0,0,0,0,0,0,0],"id":46,"left_children":[1,3,5,-1,-1,-1,-1],"loss_changes":[7.2496006E8,3.7440406E8,3.4381606E8,0E0,0E0,0E0,0E0],"parents":[2147483647,0,0,1,1,2,2],"right_children":[2,4,6,-1,-1,-1,-1],"split_conditions":[7.7068E4,3.1E0,8.8082E4,-2.374812E2,5.9850163E1,7.218566E2,-1.4524582E2],"split_indices":[8,13,7,0,0,0,0],"split_type":[0,0,0,0,0,0,0],"sum_hessian":[6.9E1,6.1E1,8E0,2.9E1,3.2E1,6E0,2E0],"tree_param":{"num_deleted":"0","num_feature":"16","num_nodes":"7","size_leaf_vector":"1"}},{"base_weights":[7.556903E2,-2.8367368E3,2.9369717E3,-1.0060799E2,-3.770845E2,1.0544798E2,9.614144E2],"categories":[],"categories_nodes":[],"categories_segments":[],"categories_sizes":[],"default_left":[0,0,0,0,0,0,0],"id":47,"left_children":[1,3,5,-1,-1,-1,-1],"loss_changes":[5.503191E8,9.986755E7,6.575816E8,0E0,0E0,0E0,0E0],"parents":[2147483647,0,0,1,1,2,2],"right_children":[2,4,6,-1,-1,-1,-1],"split_conditions":[4.1123E4,1E0,5.2537216E1,-1.0060799E2,-3.770845E2,1.0544798E2,9.614144E2],"split_indices":[6,15,11,0,0,0,0],"split_type":[0,0,0,0,0,0,0],"sum_hessian":[6.9E1,2.6E1,4.3E1,2E1,6E0,4E1,3E0],"tree_param":{"num_deleted":"0","num_feature":"16","num_nodes":"7","size_leaf_vector":"1"}},{"base_weights":[-8.6481995E1,3.2109917E3,-2.6331863E3,6.994367E2,5.381797E1,-4.3410007E2,-5.7479736E1],"categories":[],"categories_nodes":[],"categories_segments":[],"categories_sizes":[],"default_left":[0,0,0,0,0,0,0],"id":48,"left_children":[1,3,5,-1,-1,-1,-1],"loss_changes":[5.894762E8,5.875712E8,2.9896064E8,0E0,0E0,0E0,0E0],"parents":[2147483647,0,0,1,1,2,2],"right_children":[2,4,6,-1,-1,-1,-1],"split_conditions":[2.02E3,3E0,2.021E3,6.994367E2,5.381797E1,-4.3410007E2,-5.7479736E1],"split_indices":[9,10,9,0,0,0,0],"split_type":[0,0,0,0,0,0,0],"sum_hessian":[6.9E1,3E1,3.9E1,6E0,2.4E1,1E1,2.9E1],"tree_param":{"num_deleted":"0","num_feature":"16","num_nodes":"7","size_leaf_vector":"1"}},{"base_weights":[1.9943431E2,2.8581802E3,-2.260827E3,2.3243033E2,-1.198184E2,-3.123194E2,1.8423868E1],"categories":[],"categories_nodes":[],"categories_segments":[],"categories_sizes":[],"default_left":[0,0,0,0,0,0,0],"id":49,"left_children":[1,3,5,-1,-1,-1,-1],"loss_changes":[4.9833552E8,1.7956954E8,2.9629965E8,0E0,0E0,0E0,0E0],"parents":[2147483647,0,0,1,1,2,2],"right_children":[2,4,6,-1,-1,-1,-1],"split_conditions":[2.02E3,7.3E-1,2.022E3,2.3243033E2,-1.198184E2,-3.123194E2,1.8423868E1],"split_indices":[9,5,9,0,0,0,0],"split_type":[0,0,0,0,0,0,0],"sum_hessian":[7.5E1,3.6E1,3.9E1,3E1,6E0,1.8E1,2.1E1],"tree_param":{"num_deleted":"0","num_feature":"16","num_nodes":"7","size_leaf_vector":"1"}},{"base_weights":[-3.8633112E2,-4.059468E3,1.2658638E3,-1.8483075E2,-6.9228864E2,-6.595743E1,2.9974908E2],"categories":[],"categories_nodes":[],"categories_segments":[],"categories_sizes":[],"default_left":[0,0,0,0,0,0,0],"id":50,"left_children":[1,3,5,-1,-1,-1,-1],"loss_changes":[4.6183446E8,1.5379696E8,4.6125702E8,0E0,0E0,0E0,0E0],"parents":[2147483647,0,0,1,1,2,2],"right_children":[2,4,6,-1,-1,-1,-1],"split_conditions":[-6.534178E0,2.3E1,6.0233E4,-1.8483075E2,-6.9228864E2,-6.595743E1,2.9974908E2],"split_indices":[11,2,8,0,0,0,0],"split_type":[0,0,0,0,0,0,0],"sum_hessian":[7.5E1,2.3E1,5.2E1,2.1E1,2E0,3.2E1,2E1],"tree_param":{"num_deleted":"0","num_feature":"16","num_nodes":"7","size_leaf_vector":"1"}},{"base_weights":[-1.3580914E2,-8.05985E2,1.4535723E4,-3.0138452E2,2.931148E1,1.02157556E3,3.176074E2],"categories":[],"categories_nodes":[],"categories_segments":[],"categories_sizes":[],"default_left":[0,0,0,0,0,0,0],"id":51,"left_children":[1,3,5,-1,-1,-1,-1],"loss_changes":[8.092432E8,4.257072E8,2.6095424E7,0E0,0E0,0E0,0E0],"parents":[2147483647,0,0,1,1,2,2],"right_children":[2,4,6,-1,-1,-1,-1],"split_conditions":[8.5782664E4,-1.449231E1,1.5E1,-3.0138452E2,2.931148E1,1.02157556E3,3.176074E2],"split_indices":[8,11,2,0,0,0,0],"split_type":[0,0,0,0,0,0,0],"sum_hessian":[8.1E1,7.8E1,3E0,1.8E1,6E1,2E0,1E0],"tree_param":{"num_deleted":"0","num_feature":"16","num_nodes":"7","size_leaf_vector":"1"}},{"base_weights":[-3.85323E1,-3.2408032E3,1.0940592E3,-1.3676599E2,-2.3275977E2,2.2280144E2,-8.063689E1],"categories":[],"categories_nodes":[],"categories_segments":[],"categories_sizes":[],"default_left":[0,0,0,0,0,0,0],"id":52,"left_children":[1,3,5,-1,-1,-1,-1],"loss_changes":[2.5815557E8,5.903296E6,3.340899E8,0E0,0E0,0E0,0E0],"parents":[2147483647,0,0,1,1,2,2],"right_children":[2,4,6,-1,-1,-1,-1],"split_conditions":[-1.0742431E1,4.8E-1,2.02E3,-1.3676599E2,-2.3275977E2,2.2280144E2,-8.063689E1],"split_indices":[11,5,9,0,0,0,0],"split_type":[0,0,0,0,0,0,0],"sum_hessian":[7E1,1.8E1,5.2E1,8E0,1E1,2.5E1,2.7E1],"tree_param":{"num_deleted":"0","num_feature":"16","num_nodes":"7","size_leaf_vector":"1"}},{"base_weights":[-2.5152403E2,-1.4409623E3,3.8455923E3,-6.8118414E2,-5.618622E1,3.989513E1,3.5027875E2],"categories":[],"categories_nodes":[],"categories_segments":[],"categories_sizes":[],"default_left":[0,0,0,0,0,0,0],"id":53,"left_children":[1,3,5,-1,-1,-1,-1],"loss_changes":[3.3758054E8,2.6309714E8,9.461683E7,0E0,0E0,0E0,0E0],"parents":[2147483647,0,0,1,1,2,2],"right_children":[2,4,6,-1,-1,-1,-1],"split_conditions":[7.2792336E4,1.3E0,-2.7089357E0,-6.8118414E2,-5.618622E1,3.989513E1,3.5027875E2],"split_indices":[8,13,11,0,0,0,0],"split_type":[0,0,0,0,0,0,0],"sum_hessian":[6.8E1,5.3E1,1.5E1,2E0,5.1E1,6E0,9E0],"tree_param":{"num_deleted":"0","num_feature":"16","num_nodes":"7","size_leaf_vector":"1"}},{"base_weights":[-2.8885193E2,-1.0327809E3,1.0366873E4,-2.0601224E2,6.2057037E1,-4.5855007E1,8.211055E2],"categories":[],"categories_nodes":[],"categories_segments":[],"categories_sizes":[],"default_left":[0,0,0,0,0,0,0],"id":54,"left_children":[1,3,5,-1,-1,-1,-1],"loss_changes":[5.580519E8,3.231293E8,1.708167E8,0E0,0E0,0E0,0E0],"parents":[2147483647,0,0,1,1,2,2],"right_children":[2,4,6,-1,-1,-1,-1],"split_conditions":[7.9832E4,3.3E0,1E0,-2.0601224E2,6.2057037E1,-4.5855007E1,8.211055E2],"split_indices":[8,13,1,0,0,0,0],"split_type":[0,0,0,0,0,0,0],"sum_hessian":[6.9E1,6.5E1,4E0,3E1,3.5E1,1E0,3E0],"tree_param":{"num_deleted":"0","num_feature":"16","num_nodes":"7","size_leaf_vector":"1"}},{"base_weights":[2.7843796E2,-9.052041E2,2.7644111E3,-1.3972144E2,4.3040424E1,2.5257181E2,-2.0059354E2],"categories":[],"categories_nodes":[],"categories_segments":[],"categories_sizes":[],"default_left":[0,0,0,0,0,0,0],"id":55,"left_children":[1,3,5,-1,-1,-1,-1],"loss_changes":[2.0627835E8,1.0928509E8,2.0278258E8,0E0,0E0,0E0,0E0],"parents":[2147483647,0,0,1,1,2,2],"right_children":[2,4,6,-1,-1,-1,-1],"split_conditions":[6.6966664E4,3.7E0,8.8082E4,-1.3972144E2,4.3040424E1,2.5257181E2,-2.0059354E2],"split_indices":[8,13,7,0,0,0,0],"split_type":[0,0,0,0,0,0,0],"sum_hessian":[6.9E1,4.7E1,2.2E1,2.5E1,2.2E1,1.8E1,4E0],"tree_param":{"num_deleted":"0","num_feature":"16","num_nodes":"7","size_leaf_vector":"1"}},{"base_weights":[-7.134525E1,-4.2904814E3,1.3119893E3,-1.8972815E2,-7.9869666E2,6.057585E2,3.577772E1],"categories":[],"categories_nodes":[],"categories_segments":[],"categories_sizes":[],"default_left":[0,0,0,0,0,0,0],"id":56,"left_children":[1,3,5,-1,-1,-1,-1],"loss_changes":[3.686946E8,1.354798E8,2.9497392E8,0E0,0E0,0E0,0E0],"parents":[2147483647,0,0,1,1,2,2],"right_children":[2,4,6,-1,-1,-1,-1],"split_conditions":[-1.0742431E1,9.0596E4,2E0,-1.8972815E2,-7.9869666E2,6.057585E2,3.577772E1],"split_indices":[11,6,10,0,0,0,0],"split_type":[0,0,0,0,0,0,0],"sum_hessian":[6.2E1,1.5E1,4.7E1,1.4E1,1E0,3E0,4.4E1],"tree_param":{"num_deleted":"0","num_feature":"16","num_nodes":"7","size_leaf_vector":"1"}},{"base_weights":[1.0293681E2,7.832659E2,-5.9594204E3,-7.660298E1,1.6687692E2,-2.2883075E2,-7.684457E2],"categories":[],"categories_nodes":[],"categories_segments":[],"categories_sizes":[],"default_left":[0,0,0,0,0,0,0],"id":57,"left_children":[1,3,5,-1,-1,-1,-1],"loss_changes":[3.104331E8,2.763149E8,8.280541E7,0E0,0E0,0E0,0E0],"parents":[2147483647,0,0,1,1,2,2],"right_children":[2,4,6,-1,-1,-1,-1],"split_conditions":[8.8082E4,5.2746E4,1.6E1,-7.660298E1,1.6687692E2,-2.2883075E2,-7.684457E2],"split_indices":[7,6,2,0,0,0,0],"split_type":[0,0,0,0,0,0,0],"sum_hessian":[7.4E1,6.7E1,7E0,3.3E1,3.4E1,6E0,1E0],"tree_param":{"num_deleted":"0","num_feature":"16","num_nodes":"7","size_leaf_vector":"1"}},{"base_weights":[-5.0187065E1,-1.4602744E3,2.103238E3,-1.1501667E2,2.062496E2,3.1173502E2,-1.5022069E1],"categories":[],"categories_nodes":[],"categories_segments":[],"categories_sizes":[],"default_left":[0,0,0,0,0,0,0],"id":58,"left_children":[1,3,5,-1,-1,-1,-1],"loss_changes":[2.0404656E8,9.149939E7,1.9186918E8,0E0,0E0,0E0,0E0],"parents":[2147483647,0,0,1,1,2,2],"right_children":[2,4,6,-1,-1,-1,-1],"split_conditions":[6.1379668E4,1.2E1,7.2422E4,-1.1501667E2,2.062496E2,3.1173502E2,-1.5022069E1],"split_indices":[8,10,7,0,0,0,0],"split_type":[0,0,0,0,0,0,0],"sum_hessian":[6.6E1,4E1,2.6E1,3.7E1,3E0,1.1E1,1.5E1],"tree_param":{"num_deleted":"0","num_feature":"16","num_nodes":"7","size_leaf_vector":"1"}},{"base_weights":[3.6466473E1,-5.9487225E2,1.2426714E4,-2.4187375E2,4.475228E0,2.8070398E2,8.677058E2],"categories":[],"categories_nodes":[],"categories_segments":[],"categories_sizes":[],"default_left":[0,0,0,0,0,0,0],"id":59,"left_children":[1,3,5,-1,-1,-1,-1],"loss_changes":[5.801188E8,1.6109856E8,1.4298112E7,0E0,0E0,0E0,0E0],"parents":[2147483647,0,0,1,1,2,2],"right_children":[2,4,6,-1,-1,-1,-1],"split_conditions":[8.5782664E4,8.0663335E3,2.4E1,-2.4187375E2,4.475228E0,2.8070398E2,8.677058E2],"split_indices":[8,8,4,0,0,0,0],"split_type":[0,0,0,0,0,0,0],"sum_hessian":[7.3E1,7E1,3E0,1.1E1,5.9E1,1E0,2E0],"tree_param":{"num_deleted":"0","num_feature":"16","num_nodes":"7","size_leaf_vector":"1"}},{"base_weights":[2.42742E2,-2.8792773E3,1.0314252E3,-2.1528392E2,6.622704E1,-3.3743137E1,1.8323335E2],"categories":[],"categories_nodes":[],"categories_segments":[],"categories_sizes":[],"default_left":[0,0,0,0,0,0,0],"id":60,"left_children":[1,3,5,-1,-1,-1,-1],"loss_changes":[1.7805414E8,4.196529E7,1.8420106E8,0E0,0E0,0E0,0E0],"parents":[2147483647,0,0,1,1,2,2],"right_children":[2,4,6,-1,-1,-1,-1],"split_conditions":[8.0663335E3,1.6E1,3.9731116E0,-2.1528392E2,6.622704E1,-3.3743137E1,1.8323335E2],"split_indices":[8,2,11,0,0,0,0],"split_type":[0,0,0,0,0,0,0],"sum_hessian":[7.1E1,1.4E1,5.7E1,1.2E1,2E0,3.2E1,2.5E1],"tree_param":{"num_deleted":"0","num_feature":"16","num_nodes":"7","size_leaf_vector":"1"}},{"base_weights":[-3.299498E2,-3.9046658E3,5.3430133E2,-1.6674452E2,-7.3766296E2,-4.486427E1,1.5440855E2],"categories":[],"categories_nodes":[],"categories_segments":[],"categories_sizes":[],"default_left":[0,0,0,0,0,0,0],"id":61,"left_children":[1,3,5,-1,-1,-1,-1],"loss_changes":[2.3170738E8,1.1871158E8,1.5746486E8,0E0,0E0,0E0,0E0],"parents":[2147483647,0,0,1,1,2,2],"right_children":[2,4,6,-1,-1,-1,-1],"split_conditions":[-1.7619486E1,9.0596E4,6.1379668E4,-1.6674452E2,-7.3766296E2,-4.486427E1,1.5440855E2],"split_indices":[11,6,8,0,0,0,0],"split_type":[0,0,0,0,0,0,0],"sum_hessian":[7.4E1,1.4E1,6E1,1.3E1,1E0,3.7E1,2.3E1],"tree_param":{"num_deleted":"0","num_feature":"16","num_nodes":"7","size_leaf_vector":"1"}},{"base_weights":[-2.1491153E2,-7.2229565E2,8.794506E3,-1.1808464E1,-4.508918E2,-3.530077E1,7.579684E2],"categories":[],"categories_nodes":[],"categories_segments":[],"categories_sizes":[],"default_left":[0,0,0,0,0,0,0],"id":62,"left_children":[1,3,5,-1,-1,-1,-1],"loss_changes":[3.0819363E8,2.2492605E8,1.3077149E8,0E0,0E0,0E0,0E0],"parents":[2147483647,0,0,1,1,2,2],"right_children":[2,4,6,-1,-1,-1,-1],"split_conditions":[7.9832E4,8.2345E4,7E0,-1.1808464E1,-4.508918E2,-3.530077E1,7.579684E2],"split_indices":[8,7,2,0,0,0,0],"split_type":[0,0,0,0,0,0,0],"sum_hessian":[6.6E1,6.3E1,3E0,5.9E1,4E0,1E0,2E0],"tree_param":{"num_deleted":"0","num_feature":"16","num_nodes":"7","size_leaf_vector":"1"}},{"base_weights":[5.8238025E2,1.4344606E1,8.614545E3,-2.0936644E2,4.0926167E1,-3.3963882E1,6.8048035E2],"categories":[],"categories_nodes":[],"categories_segments":[],"categories_sizes":[],"default_left":[0,0,0,0,0,0,0],"id":63,"left_children":[1,3,5,-1,-1,-1,-1],"loss_changes":[3.174458E8,1.5266102E8,1.1536125E8,0E0,0E0,0E0,0E0],"parents":[2147483647,0,0,1,1,2,2],"right_children":[2,4,6,-1,-1,-1,-1],"split_conditions":[8.5782664E4,7.671E3,1E0,-2.0936644E2,4.0926167E1,-3.3963882E1,6.8048035E2],"split_indices":[8,8,1,0,0,0,0],"split_type":[0,0,0,0,0,0,0],"sum_hessian":[6.9E1,6.5E1,4E0,1E1,5.5E1,1E0,3E0],"tree_param":{"num_deleted":"0","num_feature":"16","num_nodes":"7","size_leaf_vector":"1"}},{"base_weights":[-5.6289435E2,-1.6029741E3,2.5027983E3,-2.4952652E2,-7.1876526E1,3.3945782E2,2.5581144E1],"categories":[],"categories_nodes":[],"categories_segments":[],"categories_sizes":[],"default_left":[0,0,0,0,0,0,0],"id":64,"left_children":[1,3,5,-1,-1,-1,-1],"loss_changes":[2.0835485E8,4.7837616E7,1.0605306E8,0E0,0E0,0E0,0E0],"parents":[2147483647,0,0,1,1,2,2],"right_children":[2,4,6,-1,-1,-1,-1],"split_conditions":[6.9022664E4,1.574E3,7.2422E4,-2.4952652E2,-7.1876526E1,3.3945782E2,2.5581144E1],"split_indices":[8,7,7,0,0,0,0],"split_type":[0,0,0,0,0,0,0],"sum_hessian":[6.4E1,4.8E1,1.6E1,6E0,4.2E1,6E0,1E1],"tree_param":{"num_deleted":"0","num_feature":"16","num_nodes":"7","size_leaf_vector":"1"}},{"base_weights":[2.929412E2,-1.9542781E3,2.1385154E3,-6.951649E2,-8.6730255E1,8.528773E1,7.3609625E2],"categories":[],"categories_nodes":[],"categories_segments":[],"categories_sizes":[],"default_left":[0,0,0,0,0,0,0],"id":65,"left_children":[1,3,5,-1,-1,-1,-1],"loss_changes":[2.9942525E8,1.5172029E8,2.7889488E8,0E0,0E0,0E0,0E0],"parents":[2147483647,0,0,1,1,2,2],"right_children":[2,4,6,-1,-1,-1,-1],"split_conditions":[-2.3179831E-2,-7.601881E1,8.5782664E4,-6.951649E2,-8.6730255E1,8.528773E1,7.3609625E2],"split_indices":[11,11,8,0,0,0,0],"split_type":[0,0,0,0,0,0,0],"sum_hessian":[7.1E1,3.2E1,3.9E1,1E0,3.1E1,3.7E1,2E0],"tree_param":{"num_deleted":"0","num_feature":"16","num_nodes":"7","size_leaf_vector":"1"}},{"base_weights":[1.6451802E2,5.280468E2,-8.919787E3,-8.737197E1,1.0854073E2,-2.079826E2,-6.6883527E2],"categories":[],"categories_nodes":[],"categories_segments":[],"categories_sizes":[],"default_left":[0,0,0,0,0,0,0],"id":66,"left_children":[1,3,5,-1,-1,-1,-1],"loss_changes":[2.2271678E8,1.6322376E8,7.83128E6,0E0,0E0,0E0,0E0],"parents":[2147483647,0,0,1,1,2,2],"right_children":[2,4,6,-1,-1,-1,-1],"split_conditions":[8.4317E4,3.9165668E4,1E1,-8.737197E1,1.0854073E2,-2.079826E2,-6.6883527E2],"split_indices":[7,8,2,0,0,0,0],"split_type":[0,0,0,0,0,0,0],"sum_hessian":[6.6E1,6.4E1,2E0,2.5E1,3.9E1,1E0,1E0],"tree_param":{"num_deleted":"0","num_feature":"16","num_nodes":"7","size_leaf_vector":"1"}},{"base_weights":[-7.862336E1,-1.7916957E3,1.4580786E3,-7.8099396E1,-4.6235284E2,-8.527968E1,2.5883548E2],"categories":[],"categories_nodes":[],"categories_segments":[],"categories_sizes":[],"default_left":[0,0,0,0,0,0,0],"id":67,"left_children":[1,3,5,-1,-1,-1,-1],"loss_changes":[1.9266278E8,9.531283E7,3.1644787E8,0E0,0E0,0E0,0E0],"parents":[2147483647,0,0,1,1,2,2],"right_children":[2,4,6,-1,-1,-1,-1],"split_conditions":[-1.1364977E0,3.3E1,3.7466E4,-7.8099396E1,-4.6235284E2,-8.527968E1,2.5883548E2],"split_indices":[11,2,6,0,0,0,0],"split_type":[0,0,0,0,0,0,0],"sum_hessian":[7.2E1,3.4E1,3.8E1,3.2E1,2E0,1.9E1,1.9E1],"tree_param":{"num_deleted":"0","num_feature":"16","num_nodes":"7","size_leaf_vector":"1"}},{"base_weights":[-1.3462126E2,4.0136206E2,-5.2907754E3,-5.104363E1,1.2359173E2,-1.9835565E2,-6.25991E2],"categories":[],"categories_nodes":[],"categories_segments":[],"categories_sizes":[],"default_left":[0,0,0,0,0,0,0],"id":68,"left_children":[1,3,5,-1,-1,-1,-1],"loss_changes":[1.9360778E8,1.3128512E8,4.68628E7,0E0,0E0,0E0,0E0],"parents":[2147483647,0,0,1,1,2,2],"right_children":[2,4,6,-1,-1,-1,-1],"split_conditions":[8.4317E4,3.7E0,1.6E1,-5.104363E1,1.2359173E2,-1.9835565E2,-6.25991E2],"split_indices":[7,13,2,0,0,0,0],"split_type":[0,0,0,0,0,0,0],"sum_hessian":[6.9E1,6.3E1,6E0,3.6E1,2.7E1,5E0,1E0],"tree_param":{"num_deleted":"0","num_feature":"16","num_nodes":"7","size_leaf_vector":"1"}},{"base_weights":[2.802501E2,-3.526185E2,6.1655347E3,-4.2505963E2,-3.5104012E0,1.21883606E2,7.3096216E2],"categories":[],"categories_nodes":[],"categories_segments":[],"categories_sizes":[],"default_left":[0,0,0,0,0,0,0],"id":69,"left_children":[1,3,5,-1,-1,-1,-1],"loss_changes":[2.5307144E8,1.2095151E8,1.4771198E8,0E0,0E0,0E0,0E0],"parents":[2147483647,0,0,1,1,2,2],"right_children":[2,4,6,-1,-1,-1,-1],"split_conditions":[7.1758995E1,-7.601881E1,7.334E3,-4.2505963E2,-3.5104012E0,1.21883606E2,7.3096216E2],"split_indices":[11,11,6,0,0,0,0],"split_type":[0,0,0,0,0,0,0],"sum_hessian":[6.7E1,6.1E1,6E0,2E0,5.9E1,4E0,2E0],"tree_param":{"num_deleted":"0","num_feature":"16","num_nodes":"7","size_leaf_vector":"1"}},{"base_weights":[7.9091835E1,-8.1204095E2,5.7947E3,-2.5765106E1,-4.2076157E2,2.0740787E2,6.876153E2],"categories":[],"categories_nodes":[],"categories_segments":[],"categories_sizes":[],"default_left":[0,0,0,0,0,0,0],"id":70,"left_children":[1,3,5,-1,-1,-1,-1],"loss_changes":[3.6237942E8,1.4433747E8,1.0330307E8,0E0,0E0,0E0,0E0],"parents":[2147483647,0,0,1,1,2,2],"right_children":[2,4,6,-1,-1,-1,-1],"split_conditions":[7.5670664E4,8.2345E4,1E0,-2.5765106E1,-4.2076157E2,2.0740787E2,6.876153E2],"split_indices":[8,7,12,0,0,0,0],"split_type":[0,0,0,0,0,0,0],"sum_hessian":[7E1,6.1E1,9E0,5.8E1,3E0,7E0,2E0],"tree_param":{"num_deleted":"0","num_feature":"16","num_nodes":"7","size_leaf_vector":"1"}},{"base_weights":[5.613677E2,1.830254E2,7.685927E3,-6.089084E1,9.164251E1,-1.9735723E1,6.555958E2],"categories":[],"categories_nodes":[],"categories_segments":[],"categories_sizes":[],"default_left":[0,0,0,0,0,0,0],"id":71,"left_children":[1,3,5,-1,-1,-1,-1],"loss_changes":[1.9213667E8,1.09814264E8,9.323926E7,0E0,0E0,0E0,0E0],"parents":[2147483647,0,0,1,1,2,2],"right_children":[2,4,6,-1,-1,-1,-1],"split_conditions":[8.5782664E4,4.4652915E0,1E0,-6.089084E1,9.164251E1,-1.9735723E1,6.555958E2],"split_indices":[8,11,1,0,0,0,0],"split_type":[0,0,0,0,0,0,0],"sum_hessian":[7.1E1,6.8E1,3E0,3.6E1,3.2E1,1E0,2E0],"tree_param":{"num_deleted":"0","num_feature":"16","num_nodes":"7","size_leaf_vector":"1"}},{"base_weights":[1.89083E2,-5.43835E2,5.257721E3,-5.8237815E0,-3.557206E2,4.553462E2,-1.0481925E2],"categories":[],"categories_nodes":[],"categories_segments":[],"categories_sizes":[],"default_left":[0,0,0,0,0,0,0],"id":72,"left_children":[1,3,5,-1,-1,-1,-1],"loss_changes":[2.5282102E8,1.4211997E8,1.4465422E8,0E0,0E0,0E0,0E0],"parents":[2147483647,0,0,1,1,2,2],"right_children":[2,4,6,-1,-1,-1,-1],"split_conditions":[7.5670664E4,8.2345E4,8.8082E4,-5.8237815E0,-3.557206E2,4.553462E2,-1.0481925E2],"split_indices":[8,7,7,0,0,0,0],"split_type":[0,0,0,0,0,0,0],"sum_hessian":[6.7E1,5.9E1,8E0,5.5E1,4E0,6E0,2E0],"tree_param":{"num_deleted":"0","num_feature":"16","num_nodes":"7","size_leaf_vector":"1"}},{"base_weights":[-5.5129913E1,3.8051938E2,-4.1189165E3,5.842166E1,-1.9947818E2,-1.3527695E2,-5.544661E2],"categories":[],"categories_nodes":[],"categories_segments":[],"categories_sizes":[],"default_left":[0,0,0,0,0,0,0],"id":73,"left_children":[1,3,5,-1,-1,-1,-1],"loss_changes":[1.2060972E8,1.3482598E8,5.045787E7,0E0,0E0,0E0,0E0],"parents":[2147483647,0,0,1,1,2,2],"right_children":[2,4,6,-1,-1,-1,-1],"split_conditions":[8.1452E4,1E0,1.6E1,5.842166E1,-1.9947818E2,-1.3527695E2,-5.544661E2],"split_indices":[7,15,2,0,0,0,0],"split_type":[0,0,0,0,0,0,0],"sum_hessian":[6.7E1,6.1E1,6E0,5.3E1,8E0,5E0,1E0],"tree_param":{"num_deleted":"0","num_feature":"16","num_nodes":"7","size_leaf_vector":"1"}},{"base_weights":[1.7742908E2,3.3785308E3,-7.301267E2,5.4281475E1,4.3946124E2,-2.8170057E1,-5.3346545E2],"categories":[],"categories_nodes":[],"categories_segments":[],"categories_sizes":[],"default_left":[0,0,0,0,0,0,0],"id":74,"left_children":[1,3,5,-1,-1,-1,-1],"loss_changes":[1.9204013E8,1.3704614E8,1.0782295E8,0E0,0E0,0E0,0E0],"parents":[2147483647,0,0,1,1,2,2],"right_children":[2,4,6,-1,-1,-1,-1],"split_conditions":[3.1E1,1E0,9.0596E4,5.4281475E1,4.3946124E2,-2.8170057E1,-5.3346545E2],"split_indices":[3,12,6,0,0,0,0],"split_type":[0,0,0,0,0,0,0],"sum_hessian":[6.5E1,1.4E1,5.1E1,9E0,5E0,5E1,1E0],"tree_param":{"num_deleted":"0","num_feature":"16","num_nodes":"7","size_leaf_vector":"1"}},{"base_weights":[-4.5232486E2,-8.102787E1,-4.2728306E3,-6.823885E1,1.1006712E2,-1.5799019E2,-5.1326025E2],"categories":[],"categories_nodes":[],"categories_segments":[],"categories_sizes":[],"default_left":[0,0,0,0,0,0,0],"id":75,"left_children":[1,3,5,-1,-1,-1,-1],"loss_changes":[1.0560359E8,1.3800248E8,3.292308E7,0E0,0E0,0E0,0E0],"parents":[2147483647,0,0,1,1,2,2],"right_children":[2,4,6,-1,-1,-1,-1],"split_conditions":[8.4317E4,6.0233E4,1.4E1,-6.823885E1,1.1006712E2,-1.5799019E2,-5.1326025E2],"split_indices":[7,8,2,0,0,0,0],"split_type":[0,0,0,0,0,0,0],"sum_hessian":[7.4E1,6.8E1,6E0,4.4E1,2.4E1,5E0,1E0],"tree_param":{"num_deleted":"0","num_feature":"16","num_nodes":"7","size_leaf_vector":"1"}},{"base_weights":[3.2130703E1,6.582648E3,-4.7328723E2,7.010235E2,1.9732838E2,-9.903966E1,6.1012615E1],"categories":[],"categories_nodes":[],"categories_segments":[],"categories_sizes":[],"default_left":[0,0,0,0,0,0,0],"id":76,"left_children":[1,3,5,-1,-1,-1,-1],"loss_changes":[2.1241429E8,5.3910624E7,1.0399344E8,0E0,0E0,0E0,0E0],"parents":[2147483647,0,0,1,1,2,2],"right_children":[2,4,6,-1,-1,-1,-1],"split_conditions":[2E0,1.5E1,6.0233E4,7.010235E2,1.9732838E2,-9.903966E1,6.1012615E1],"split_indices":[10,2,8,0,0,0,0],"split_type":[0,0,0,0,0,0,0],"sum_hessian":[6.3E1,4E0,5.9E1,1E0,3E0,3.3E1,2.6E1],"tree_param":{"num_deleted":"0","num_feature":"16","num_nodes":"7","size_leaf_vector":"1"}},{"base_weights":[-1.4342021E2,4.211429E3,-6.5419324E2,1.2633061E1,4.107408E2,-1.8628782E1,-1.9494223E2],"categories":[],"categories_nodes":[],"categories_segments":[],"categories_sizes":[],"default_left":[0,0,0,0,0,0,0],"id":77,"left_children":[1,3,5,-1,-1,-1,-1],"loss_changes":[1.6088773E8,7.773717E7,5.6866744E7,0E0,0E0,0E0,0E0],"parents":[2147483647,0,0,1,1,2,2],"right_children":[2,4,6,-1,-1,-1,-1],"split_conditions":[2E0,3.3E0,1E0,1.2633061E1,4.107408E2,-1.8628782E1,-1.9494223E2],"split_indices":[10,13,15,0,0,0,0],"split_type":[0,0,0,0,0,0,0],"sum_hessian":[7.1E1,7E0,6.4E1,3E0,4E0,5.7E1,7E0],"tree_param":{"num_deleted":"0","num_feature":"16","num_nodes":"7","size_leaf_vector":"1"}},{"base_weights":[1.0272008E2,-1.3070414E3,2.0527002E3,-6.0287556E1,-5.0177258E2,-3.389226E1,2.7693433E2],"categories":[],"categories_nodes":[],"categories_segments":[],"categories_sizes":[],"default_left":[0,0,0,0,0,0,0],"id":78,"left_children":[1,3,5,-1,-1,-1,-1],"loss_changes":[1.8741963E8,8.076754E7,1.9060976E8,0E0,0E0,0E0,0E0],"parents":[2147483647,0,0,1,1,2,2],"right_children":[2,4,6,-1,-1,-1,-1],"split_conditions":[6.8757796E0,1.07752E5,3.4808E4,-6.0287556E1,-5.0177258E2,-3.389226E1,2.7693433E2],"split_indices":[11,6,6,0,0,0,0],"split_type":[0,0,0,0,0,0,0],"sum_hessian":[6.7E1,3.9E1,2.8E1,3.8E1,1E0,1.4E1,1.4E1],"tree_param":{"num_deleted":"0","num_feature":"16","num_nodes":"7","size_leaf_vector":"1"}},{"base_weights":[-4.4600742E1,-2.3726353E3,7.636004E2,-1.0774909E2,-4.827677E2,3.748795E2,1.512906E1],"categories":[],"categories_nodes":[],"categories_segments":[],"categories_sizes":[],"default_left":[0,0,0,0,0,0,0],"id":79,"left_children":[1,3,5,-1,-1,-1,-1],"loss_changes":[1.3579006E8,5.307985E7,1.487009E8,0E0,0E0,0E0,0E0],"parents":[2147483647,0,0,1,1,2,2],"right_children":[2,4,6,-1,-1,-1,-1],"split_conditions":[-1.3433348E1,3.3E1,2E0,-1.0774909E2,-4.827677E2,3.748795E2,1.512906E1],"split_indices":[11,2,10,0,0,0,0],"split_type":[0,0,0,0,0,0,0],"sum_hessian":[7.1E1,1.8E1,5.3E1,1.7E1,1E0,4E0,4.9E1],"tree_param":{"num_deleted":"0","num_feature":"16","num_nodes":"7","size_leaf_vector":"1"}},{"base_weights":[1.9566956E1,-3.1824997E2,5.4834436E2,-1.6347556E2,9.505797E0],"categories":[],"categories_nodes":[],"categories_segments":[],"categories_sizes":[],"default_left":[0,0,0,0,0],"id":80,"left_children":[1,3,-1,-1,-1],"loss_changes":[2.2072075E8,7.925361E7,0E0,0E0,0E0],"parents":[2147483647,0,0,1,1],"right_children":[2,4,-1,-1,-1],"split_conditions":[8.5782664E4,-1.7619486E1,5.4834436E2,-1.6347556E2,9.505797E0],"split_indices":[8,11,0,0,0],"split_type":[0,0,0,0,0],"sum_hessian":[7.1E1,6.9E1,2E0,1.1E1,5.8E1],"tree_param":{"num_deleted":"0","num_feature":"16","num_nodes":"5","size_leaf_vector":"1"}},{"base_weights":[-5.8805073E1,-1.5672021E3,8.8378217E2,-6.98369E1,-4.582908E2,-2.0236003E2,9.863878E1],"categories":[],"categories_nodes":[],"categories_segments":[],"categories_sizes":[],"default_left":[0,0,0,0,0,0,0],"id":81,"left_children":[1,3,5,-1,-1,-1,-1],"loss_changes":[9.835483E7,6.062163E7,1.3818227E8,0E0,0E0,0E0,0E0],"parents":[2147483647,0,0,1,1,2,2],"right_children":[2,4,6,-1,-1,-1,-1],"split_conditions":[-2.3179831E-2,3.3E1,5.418E3,-6.98369E1,-4.582908E2,-2.0236003E2,9.863878E1],"split_indices":[11,2,6,0,0,0,0],"split_type":[0,0,0,0,0,0,0],"sum_hessian":[6.8E1,2.6E1,4.2E1,2.5E1,1E0,6E0,3.6E1],"tree_param":{"num_deleted":"0","num_feature":"16","num_nodes":"7","size_leaf_vector":"1"}},{"base_weights":[4.473685E1,-3.5302493E2,2.0868867E3,1.12593445E2,-5.303138E1,-1.1509077E1,2.7492822E2],"categories":[],"categories_nodes":[],"categories_segments":[],"categories_sizes":[],"default_left":[0,0,0,0,0,0,0],"id":82,"left_children":[1,3,5,-1,-1,-1,-1],"loss_changes":[5.7785584E7,7.0247016E7,6.5550412E7,0E0,0E0,0E0,0E0],"parents":[2147483647,0,0,1,1,2,2],"right_children":[2,4,6,-1,-1,-1,-1],"split_conditions":[1.1E1,3E0,9.800925E0,1.12593445E2,-5.303138E1,-1.1509077E1,2.7492822E2],"split_indices":[10,10,11,0,0,0,0],"split_type":[0,0,0,0,0,0,0],"sum_hessian":[7E1,5.9E1,1.1E1,1.1E1,4.8E1,6E0,5E0],"tree_param":{"num_deleted":"0","num_feature":"16","num_nodes":"7","size_leaf_vector":"1"}},{"base_weights":[-3.780715E2,-2.3390234E3,7.842664E1,-7.2001686E1,-1.8134459E2,-5.696386E1,1.1668534E2],"categories":[],"categories_nodes":[],"categories_segments":[],"categories_sizes":[],"default_left":[0,0,0,0,0,0,0],"id":83,"left_children":[1,3,5,-1,-1,-1,-1],"loss_changes":[5.9727356E7,7.429544E6,1.04348024E8,0E0,0E0,0E0,0E0],"parents":[2147483647,0,0,1,1,2,2],"right_children":[2,4,6,-1,-1,-1,-1],"split_conditions":[7.671E3,8.506993E0,4.1606784E0,-7.2001686E1,-1.8134459E2,-5.696386E1,1.1668534E2],"split_indices":[8,11,11,0,0,0,0],"split_type":[0,0,0,0,0,0,0],"sum_hessian":[6.6E1,1.2E1,5.4E1,5E0,7E0,3.5E1,1.9E1],"tree_param":{"num_deleted":"0","num_feature":"16","num_nodes":"7","size_leaf_vector":"1"}},{"base_weights":[4.525493E1,-1.204764E3,1.6012926E3,-5.6789608E1,-4.4303986E2,-4.242855E1,2.7017288E2],"categories":[],"categories_nodes":[],"categories_segments":[],"categories_sizes":[],"default_left":[0,0,0,0,0,0,0],"id":84,"left_children":[1,3,5,-1,-1,-1,-1],"loss_changes":[1.4235344E8,6.1799372E7,2.1731107E8,0E0,0E0,0E0,0E0],"parents":[2147483647,0,0,1,1,2,2],"right_children":[2,4,6,-1,-1,-1,-1],"split_conditions":[6.8757796E0,9.0596E4,3.5641E4,-5.6789608E1,-4.4303986E2,-4.242855E1,2.7017288E2],"split_indices":[11,6,6,0,0,0,0],"split_type":[0,0,0,0,0,0,0],"sum_hessian":[7.2E1,4E1,3.2E1,3.9E1,1E0,1.8E1,1.4E1],"tree_param":{"num_deleted":"0","num_feature":"16","num_nodes":"7","size_leaf_vector":"1"}},{"base_weights":[2.3048656E1,-4.4750327E2,5.3688994E3,-1.3293529E1,-3.4710336E2,4.9065234E2,1.9736444E1],"categories":[],"categories_nodes":[],"categories_segments":[],"categories_sizes":[],"default_left":[0,0,0,0,0,0,0],"id":85,"left_children":[1,3,5,-1,-1,-1,-1],"loss_changes":[1.73991E8,7.587262E7,7.600258E7,0E0,0E0,0E0,0E0],"parents":[2147483647,0,0,1,1,2,2],"right_children":[2,4,6,-1,-1,-1,-1],"split_conditions":[7.7321336E4,8.2345E4,3E0,-1.3293529E1,-3.4710336E2,4.9065234E2,1.9736444E1],"split_indices":[8,6,10,0,0,0,0],"split_type":[0,0,0,0,0,0,0],"sum_hessian":[6.8E1,6.3E1,5E0,6.1E1,2E0,3E0,2E0],"tree_param":{"num_deleted":"0","num_feature":"16","num_nodes":"7","size_leaf_vector":"1"}},{"base_weights":[-9.511018E1,2.3914104E2,-3.0624954E3,-8.562782E0,1.5410414E2,1.1136578E1,-2.5640558E2],"categories":[],"categories_nodes":[],"categories_segments":[],"categories_sizes":[],"default_left":[0,0,0,0,0,0,0],"id":86,"left_children":[1,3,5,-1,-1,-1,-1],"loss_changes":[7.4428536E7,5.970818E7,2.9582088E7,0E0,0E0,0E0,0E0],"parents":[2147483647,0,0,1,1,2,2],"right_children":[2,4,6,-1,-1,-1,-1],"split_conditions":[8.4317E4,6.04432E1,1.4E-1,-8.562782E0,1.5410414E2,1.1136578E1,-2.5640558E2],"split_indices":[7,11,5,0,0,0,0],"split_type":[0,0,0,0,0,0,0],"sum_hessian":[7.4E1,6.7E1,7E0,5.8E1,9E0,2E0,5E0],"tree_param":{"num_deleted":"0","num_feature":"16","num_nodes":"7","size_leaf_vector":"1"}},{"base_weights":[4.143208E2,1.8309375E2,6.7858926E3,-1.3672024E1,1.2955458E2,5.6638477E2,1.0065573E2],"categories":[],"categories_nodes":[],"categories_segments":[],"categories_sizes":[],"default_left":[0,0,0,0,0,0,0],"id":87,"left_children":[1,3,5,-1,-1,-1,-1],"loss_changes":[1.0914872E8,5.8556216E7,2.50582E7,0E0,0E0,0E0,0E0],"parents":[2147483647,0,0,1,1,2,2],"right_children":[2,4,6,-1,-1,-1,-1],"split_conditions":[1.430117E2,1.1E1,2E0,-1.3672024E1,1.2955458E2,5.6638477E2,1.0065573E2],"split_indices":[11,10,1,0,0,0,0],"split_type":[0,0,0,0,0,0,0],"sum_hessian":[7.4E1,7.2E1,2E0,6E1,1.2E1,1E0,1E0],"tree_param":{"num_deleted":"0","num_feature":"16","num_nodes":"7","size_leaf_vector":"1"}},{"base_weights":[2.769838E2,5.1162944E3,-6.9828926E1,6.4446465E1,4.8294708E2,-4.3441128E1,1.0200987E2],"categories":[],"categories_nodes":[],"categories_segments":[],"categories_sizes":[],"default_left":[0,0,0,0,0,0,0],"id":88,"left_children":[1,3,5,-1,-1,-1,-1],"loss_changes":[1.1534731E8,4.842289E7,7.441618E7,0E0,0E0,0E0,0E0],"parents":[2147483647,0,0,1,1,2,2],"right_children":[2,4,6,-1,-1,-1,-1],"split_conditions":[2E0,5.0858E4,7.0405E4,6.4446465E1,4.8294708E2,-4.3441128E1,1.0200987E2],"split_indices":[10,6,6,0,0,0,0],"split_type":[0,0,0,0,0,0,0],"sum_hessian":[6.8E1,4E0,6.4E1,2E0,2E0,4.7E1,1.7E1],"tree_param":{"num_deleted":"0","num_feature":"16","num_nodes":"7","size_leaf_vector":"1"}},{"base_weights":[2.2529321E2,-1.1720332E2,5.0851616E3,-4.3319996E1,7.3341064E1,-1.7529179E1,4.0058035E2],"categories":[],"categories_nodes":[],"categories_segments":[],"categories_sizes":[],"default_left":[0,0,0,0,0,0,0],"id":89,"left_children":[1,3,5,-1,-1,-1,-1],"loss_changes":[1.16204056E8,5.2863172E7,3.928243E7,0E0,0E0,0E0,0E0],"parents":[2147483647,0,0,1,1,2,2],"right_children":[2,4,6,-1,-1,-1,-1],"split_conditions":[7.9832E4,6.2334332E4,1E0,-4.3319996E1,7.3341064E1,-1.7529179E1,4.0058035E2],"split_indices":[8,8,1,0,0,0,0],"split_type":[0,0,0,0,0,0,0],"sum_hessian":[6.9E1,6.5E1,4E0,4.5E1,2E1,1E0,3E0],"tree_param":{"num_deleted":"0","num_feature":"16","num_nodes":"7","size_leaf_vector":"1"}},{"base_weights":[8.1363266E1,-4.25285E2,2.4627896E3,-6.2528205E0,-1.455381E2,2.9874432E2,7.579833E1],"categories":[],"categories_nodes":[],"categories_segments":[],"categories_sizes":[],"default_left":[0,0,0,0,0,0,0],"id":90,"left_children":[1,3,5,-1,-1,-1,-1],"loss_changes":[7.977111E7,3.4688536E7,3.106012E7,0E0,0E0,0E0,0E0],"parents":[2147483647,0,0,1,1,2,2],"right_children":[2,4,6,-1,-1,-1,-1],"split_conditions":[7.2834E4,7.0552E4,6.5097E4,-6.2528205E0,-1.455381E2,2.9874432E2,7.579833E1],"split_indices":[6,7,7,0,0,0,0],"split_type":[0,0,0,0,0,0,0],"sum_hessian":[6.5E1,5.4E1,1.1E1,4.7E1,7E0,3E0,8E0],"tree_param":{"num_deleted":"0","num_feature":"16","num_nodes":"7","size_leaf_vector":"1"}},{"base_weights":[5.724791E1,2.1329102E2,-4.2682413E2,-8.4310936E1,5.08076E1],"categories":[],"categories_nodes":[],"categories_segments":[],"categories_sizes":[],"default_left":[0,0,0,0,0],"id":91,"left_children":[1,3,-1,-1,-1],"loss_changes":[8.265428E7,7.396203E7,0E0,0E0,0E0],"parents":[2147483647,0,0,1,1],"right_children":[2,4,-1,-1,-1],"split_conditions":[3.7E1,2.9633E4,-4.2682413E2,-8.4310936E1,5.08076E1],"split_indices":[2,6,0,0,0],"split_type":[0,0,0,0,0],"sum_hessian":[7.3E1,7.2E1,1E0,2E1,5.2E1],"tree_param":{"num_deleted":"0","num_feature":"16","num_nodes":"5","size_leaf_vector":"1"}},{"base_weights":[-3.105769E1,-2.8179416E2,6.60196E3,-2.8306043E0,-2.1438019E2,5.0978134E2,1.3917722E2],"categories":[],"categories_nodes":[],"categories_segments":[],"categories_sizes":[],"default_left":[0,0,0,0,0,0,0],"id":92,"left_children":[1,3,5,-1,-1,-1,-1],"loss_changes":[1.1850779E8,5.252753E7,8.87268E6,0E0,0E0,0E0,0E0],"parents":[2147483647,0,0,1,1,2,2],"right_children":[2,4,6,-1,-1,-1,-1],"split_conditions":[8.5782664E4,8.4317E4,2E0,-2.8306043E0,-2.1438019E2,5.0978134E2,1.3917722E2],"split_indices":[8,7,1,0,0,0,0],"split_type":[0,0,0,0,0,0,0],"sum_hessian":[7E1,6.8E1,2E0,6.4E1,4E0,1E0,1E0],"tree_param":{"num_deleted":"0","num_feature":"16","num_nodes":"7","size_leaf_vector":"1"}},{"base_weights":[9.930551E1,3.3089062E2,-3.0172185E3,1.7045372E2,4.9085917E0,1.3390572E2,-2.9249667E2],"categories":[],"categories_nodes":[],"categories_segments":[],"categories_sizes":[],"default_left":[0,0,0,0,0,0,0],"id":93,"left_children":[1,3,5,-1,-1,-1,-1],"loss_changes":[4.793312E7,3.8146156E7,5.0229384E7,0E0,0E0,0E0,0E0],"parents":[2147483647,0,0,1,1,2,2],"right_children":[2,4,6,-1,-1,-1,-1],"split_conditions":[9.0575E4,2E0,2.4E1,1.7045372E2,4.9085917E0,1.3390572E2,-2.9249667E2],"split_indices":[6,10,4,0,0,0,0],"split_type":[0,0,0,0,0,0,0],"sum_hessian":[6.5E1,6.1E1,4E0,5E0,5.6E1,1E0,3E0],"tree_param":{"num_deleted":"0","num_feature":"16","num_nodes":"7","size_leaf_vector":"1"}},{"base_weights":[2.612242E2,5.565386E2,-2.699145E3,-1.4259517E2,5.6136307E1,-8.06245E1,-3.9145975E2],"categories":[],"categories_nodes":[],"categories_segments":[],"categories_sizes":[],"default_left":[0,0,0,0,0,0,0],"id":94,"left_children":[1,3,5,-1,-1,-1,-1],"loss_changes":[6.348273E7,7.253432E7,2.8858636E7,0E0,0E0,0E0,0E0],"parents":[2147483647,0,0,1,1,2,2],"right_children":[2,4,6,-1,-1,-1,-1],"split_conditions":[8.8082E4,5.418E3,1.6E1,-1.4259517E2,5.6136307E1,-8.06245E1,-3.9145975E2],"split_indices":[7,6,2,0,0,0,0],"split_type":[0,0,0,0,0,0,0],"sum_hessian":[7.1E1,6.5E1,6E0,7E0,5.8E1,5E0,1E0],"tree_param":{"num_deleted":"0","num_feature":"16","num_nodes":"7","size_leaf_vector":"1"}},{"base_weights":[-2.6758408E2,-6.1921954E2,2.189294E3,-2.3839142E1,-2.7141406E2,4.619906E1,2.683079E2],"categories":[],"categories_nodes":[],"categories_segments":[],"categories_sizes":[],"default_left":[0,0,0,0,0,0,0],"id":95,"left_children":[1,3,5,-1,-1,-1,-1],"loss_changes":[6.6113684E7,5.68881E7,2.8739248E7,0E0,0E0,0E0,0E0],"parents":[2147483647,0,0,1,1,2,2],"right_children":[2,4,6,-1,-1,-1,-1],"split_conditions":[7.4848E4,7.9494E4,8.8082E4,-2.3839142E1,-2.7141406E2,4.619906E1,2.683079E2],"split_indices":[8,6,6,0,0,0,0],"split_type":[0,0,0,0,0,0,0],"sum_hessian":[7.5E1,6.6E1,9E0,6.3E1,3E0,6E0,3E0],"tree_param":{"num_deleted":"0","num_feature":"16","num_nodes":"7","size_leaf_vector":"1"}},{"base_weights":[1.0006482E2,-2.29257E2,5.146415E3,-5.668927E1,6.276948E1,3.9212268E2,1.2067418E1],"categories":[],"categories_nodes":[],"categories_segments":[],"categories_sizes":[],"default_left":[0,0,0,0,0,0,0],"id":96,"left_children":[1,3,5,-1,-1,-1,-1],"loss_changes":[1.2467906E8,6.4026584E7,2.973092E7,0E0,0E0,0E0,0E0],"parents":[2147483647,0,0,1,1,2,2],"right_children":[2,4,6,-1,-1,-1,-1],"split_conditions":[7.7972336E4,8.969805E0,3.1E1,-5.668927E1,6.276948E1,3.9212268E2,1.2067418E1],"split_indices":[8,11,3,0,0,0,0],"split_type":[0,0,0,0,0,0,0],"sum_hessian":[7.4E1,7E1,4E0,4.5E1,2.5E1,3E0,1E0],"tree_param":{"num_deleted":"0","num_feature":"16","num_nodes":"7","size_leaf_vector":"1"}},{"base_weights":[-1.01684784E2,1.2222315E2,-4.4815522E3,-5.794583E0,2.5398627E2,-1.5124782E2,-3.6420596E2],"categories":[],"categories_nodes":[],"categories_segments":[],"categories_sizes":[],"default_left":[0,0,0,0,0,0,0],"id":97,"left_children":[1,3,5,-1,-1,-1,-1],"loss_changes":[7.250756E7,6.307852E7,1.996632E6,0E0,0E0,0E0,0E0],"parents":[2147483647,0,0,1,1,2,2],"right_children":[2,4,6,-1,-1,-1,-1],"split_conditions":[9.0575E4,8.5782664E4,6E0,-5.794583E0,2.5398627E2,-1.5124782E2,-3.6420596E2],"split_indices":[6,8,2,0,0,0,0],"split_type":[0,0,0,0,0,0,0],"sum_hessian":[7.3E1,7E1,3E0,6.7E1,3E0,2E0,1E0],"tree_param":{"num_deleted":"0","num_feature":"16","num_nodes":"7","size_leaf_vector":"1"}},{"base_weights":[-2.1992967E2,-5.429541E2,3.7863633E3,-6.588363E1,9.890911E1,-7.273446E1,3.2475977E2],"categories":[],"categories_nodes":[],"categories_segments":[],"categories_sizes":[],"default_left":[0,0,0,0,0,0,0],"id":98,"left_children":[1,3,5,-1,-1,-1,-1],"loss_changes":[7.963753E7,6.857126E7,4.0265356E7,0E0,0E0,0E0,0E0],"parents":[2147483647,0,0,1,1,2,2],"right_children":[2,4,6,-1,-1,-1,-1],"split_conditions":[7.9832E4,1.1E1,1E0,-6.588363E1,9.890911E1,-7.273446E1,3.2475977E2],"split_indices":[8,10,1,0,0,0,0],"split_type":[0,0,0,0,0,0,0],"sum_hessian":[6E1,5.6E1,4E0,4.5E1,1.1E1,1E0,3E0],"tree_param":{"num_deleted":"0","num_feature":"16","num_nodes":"7","size_leaf_vector":"1"}},{"base_weights":[-5.370207E1,-5.8646094E2,9.3516693E2,-2.5348326E1,-1.9678899E2,-7.942264E1,9.361824E1],"categories":[],"categories_nodes":[],"categories_segments":[],"categories_sizes":[],"default_left":[0,0,0,0,0,0,0],"id":99,"left_children":[1,3,5,-1,-1,-1,-1],"loss_changes":[3.6990972E7,1.9511422E7,3.518219E7,0E0,0E0,0E0,0E0],"parents":[2147483647,0,0,1,1,2,2],"right_children":[2,4,6,-1,-1,-1,-1],"split_conditions":[6.8757796E0,3.3E1,5.698E3,-2.5348326E1,-1.9678899E2,-7.942264E1,9.361824E1],"split_indices":[11,2,8,0,0,0,0],"split_type":[0,0,0,0,0,0,0],"sum_hessian":[6.9E1,4.5E1,2.4E1,4.3E1,2E0,5E0,1.9E1],"tree_param":{"num_deleted":"0","num_feature":"16","num_nodes":"7","size_leaf_vector":"1"}},{"base_weights":[2.518108E2,-1.8777232E2,4.884841E2,-5.852456E0,1.5094107E2],"categories":[],"categories_nodes":[],"categories_segments":[],"categories_sizes":[],"default_left":[0,0,0,0,0],"id":100,"left_children":[1,-1,3,-1,-1],"loss_changes":[5.543187E7,0E0,7.611594E7,0E0,0E0],"parents":[2147483647,0,0,2,2],"right_children":[2,-1,4,-1,-1],"split_conditions":[1.574E3,-1.8777232E2,1E0,-5.852456E0,1.5094107E2],"split_indices":[7,0,12,0,0],"split_type":[0,0,0,0,0],"sum_hessian":[6.8E1,4E0,6.4E1,5E1,1.4E1],"tree_param":{"num_deleted":"0","num_feature":"16","num_nodes":"5","size_leaf_vector":"1"}},{"base_weights":[1.8144083E2,2.5246523E3,-3.2406564E2,6.257062E1,3.674538E2,-1.2201121E2,-4.27726E0],"categories":[],"categories_nodes":[],"categories_segments":[],"categories_sizes":[],"default_left":[0,0,0,0,0,0,0],"id":101,"left_children":[1,3,5,-1,-1,-1,-1],"loss_changes":[8.411188E7,6.2939136E7,2.50667E7,0E0,0E0,0E0,0E0],"parents":[2147483647,0,0,1,1,2,2],"right_children":[2,4,6,-1,-1,-1,-1],"split_conditions":[3E0,7.0859664E4,6.372E3,6.257062E1,3.674538E2,-1.2201121E2,-4.27726E0],"split_indices":[10,8,6,0,0,0,0],"split_type":[0,0,0,0,0,0,0],"sum_hessian":[7E1,1.2E1,5.8E1,9E0,3E0,7E0,5.1E1],"tree_param":{"num_deleted":"0","num_feature":"16","num_nodes":"7","size_leaf_vector":"1"}},{"base_weights":[5.8597164E0,3.3675168E2,-2.7212947E3,-1.9867712E1,8.2972595E1,-2.9999902E2,-8.405784E1],"categories":[],"categories_nodes":[],"categories_segments":[],"categories_sizes":[],"default_left":[0,0,0,0,0,0,0],"id":102,"left_children":[1,3,5,-1,-1,-1,-1],"loss_changes":[6.33444E7,4.34386E7,1.85417E7,0E0,0E0,0E0,0E0],"parents":[2147483647,0,0,1,1,2,2],"right_children":[2,4,6,-1,-1,-1,-1],"split_conditions":[8.8082E4,6.8757796E0,3E0,-1.9867712E1,8.2972595E1,-2.9999902E2,-8.405784E1],"split_indices":[7,11,10,0,0,0,0],"split_type":[0,0,0,0,0,0,0],"sum_hessian":[6.9E1,6.2E1,7E0,3.8E1,2.4E1,2E0,5E0],"tree_param":{"num_deleted":"0","num_feature":"16","num_nodes":"7","size_leaf_vector":"1"}},{"base_weights":[2.0359013E2,-2.577696E3,4.7645956E2,-4.7322254E1,-1.7322025E2,6.9232094E-1,1.0263682E2],"categories":[],"categories_nodes":[],"categories_segments":[],"categories_sizes":[],"default_left":[0,0,0,0,0,0,0],"id":103,"left_children":[1,3,5,-1,-1,-1,-1],"loss_changes":[4.7474548E7,1.556172E6,3.21433E7,0E0,0E0,0E0,0E0],"parents":[2147483647,0,0,1,1,2,2],"right_children":[2,4,6,-1,-1,-1,-1],"split_conditions":[3E0,2.4E1,1E0,-4.7322254E1,-1.7322025E2,6.9232094E-1,1.0263682E2],"split_indices":[2,4,12,0,0,0,0],"split_type":[0,0,0,0,0,0,0],"sum_hessian":[6.1E1,5E0,5.6E1,1E0,4E0,4.1E1,1.5E1],"tree_param":{"num_deleted":"0","num_feature":"16","num_nodes":"7","size_leaf_vector":"1"}},{"base_weights":[1.7911074E1,-7.875414E2,1.4374253E3,-6.66028E1,4.2712265E1,4.0059802E2,4.67591E1],"categories":[],"categories_nodes":[],"categories_segments":[],"categories_sizes":[],"default_left":[0,0,0,0,0,0,0],"id":104,"left_children":[1,3,5,-1,-1,-1,-1],"loss_changes":[7.453063E7,2.0017588E7,7.823101E7,0E0,0E0,0E0,0E0],"parents":[2147483647,0,0,1,1,2,2],"right_children":[2,4,6,-1,-1,-1,-1],"split_conditions":[6.8343664E4,1.1E1,5.653E4,-6.66028E1,4.2712265E1,4.0059802E2,4.67591E1],"split_indices":[8,10,6,0,0,0,0],"split_type":[0,0,0,0,0,0,0],"sum_hessian":[6.4E1,4.1E1,2.3E1,3.4E1,7E0,2E0,2.1E1],"tree_param":{"num_deleted":"0","num_feature":"16","num_nodes":"7","size_leaf_vector":"1"}},{"base_weights":[1.7207178E2,-6.873037E1,4.537123E3,-1.6353369E2,7.7761335E0,3.9798624E2,1.3513438E2],"categories":[],"categories_nodes":[],"categories_segments":[],"categories_sizes":[],"default_left":[0,0,0,0,0,0,0],"id":105,"left_children":[1,3,5,-1,-1,-1,-1],"loss_changes":[7.229477E7,3.4362692E7,8.163688E6,0E0,0E0,0E0,0E0],"parents":[2147483647,0,0,1,1,2,2],"right_children":[2,4,6,-1,-1,-1,-1],"split_conditions":[8.5782664E4,3E0,2E0,-1.6353369E2,7.7761335E0,3.9798624E2,1.3513438E2],"split_indices":[8,2,1,0,0,0,0],"split_type":[0,0,0,0,0,0,0],"sum_hessian":[6.8E1,6.5E1,3E0,4E0,6.1E1,1E0,2E0],"tree_param":{"num_deleted":"0","num_feature":"16","num_nodes":"7","size_leaf_vector":"1"}},{"base_weights":[-3.1980154E2,-1.11120865E2,-4.0734592E3,-1.780328E1,1.1405704E2,-1.2895985E2,-3.4488766E2],"categories":[],"categories_nodes":[],"categories_segments":[],"categories_sizes":[],"default_left":[0,0,0,0,0,0,0],"id":106,"left_children":[1,3,5,-1,-1,-1,-1],"loss_changes":[5.3455532E7,2.4381294E7,4.126104E6,0E0,0E0,0E0,0E0],"parents":[2147483647,0,0,1,1,2,2],"right_children":[2,4,6,-1,-1,-1,-1],"split_conditions":[8.8082E4,2.3E1,6E0,-1.780328E1,1.1405704E2,-1.2895985E2,-3.4488766E2],"split_indices":[6,2,2,0,0,0,0],"split_type":[0,0,0,0,0,0,0],"sum_hessian":[6.8E1,6.5E1,3E0,6E1,5E0,2E0,1E0],"tree_param":{"num_deleted":"0","num_feature":"16","num_nodes":"7","size_leaf_vector":"1"}},{"base_weights":[-7.372765E1,5.66951E1,-3.3182492E2,-2.5643772E1,9.193606E1],"categories":[],"categories_nodes":[],"categories_segments":[],"categories_sizes":[],"default_left":[0,0,0,0,0],"id":107,"left_children":[1,3,-1,-1,-1],"loss_changes":[4.7952076E7,4.7305396E7,0E0,0E0,0E0],"parents":[2147483647,0,0,1,1],"right_children":[2,4,-1,-1,-1],"split_conditions":[1.07752E5,7.0405E4,-3.3182492E2,-2.5643772E1,9.193606E1],"split_indices":[6,6,0,0,0],"split_type":[0,0,0,0,0],"sum_hessian":[6.7E1,6.6E1,1E0,5E1,1.6E1],"tree_param":{"num_deleted":"0","num_feature":"16","num_nodes":"5","size_leaf_vector":"1"}},{"base_weights":[-6.2686832E1,-3.0300925E2,5.283866E3,-1.357962E2,-1.037255E1,3.8455792E2,1.3482243E2],"categories":[],"categories_nodes":[],"categories_segments":[],"categories_sizes":[],"default_left":[0,0,0,0,0,0,0],"id":108,"left_children":[1,3,5,-1,-1,-1,-1],"loss_changes":[7.7519416E7,1.4475793E7,8.5976E4,0E0,0E0,0E0,0E0],"parents":[2147483647,0,0,1,1,2,2],"right_children":[2,4,6,-1,-1,-1,-1],"split_conditions":[8.5782664E4,4.214E3,1E0,-1.357962E2,-1.037255E1,3.8455792E2,1.3482243E2],"split_indices":[8,8,0,0,0,0,0],"split_type":[0,0,0,0,0,0,0],"sum_hessian":[5.9E1,5.7E1,2E0,3E0,5.4E1,1E0,1E0],"tree_param":{"num_deleted":"0","num_feature":"16","num_nodes":"7","size_leaf_vector":"1"}},{"base_weights":[-2.3188051E2,2.328854E1,-2.7102722E3,-3.8845436E1,4.6898594E1,-2.7108475E2,-8.193837E1],"categories":[],"categories_nodes":[],"categories_segments":[],"categories_sizes":[],"default_left":[0,0,0,0,0,0,0],"id":109,"left_children":[1,3,5,-1,-1,-1,-1],"loss_changes":[4.468725E7,3.2686116E7,1.2228848E7,0E0,0E0,0E0,0E0],"parents":[2147483647,0,0,1,1,2,2],"right_children":[2,4,6,-1,-1,-1,-1],"split_conditions":[8.8082E4,4.4652915E0,3E0,-3.8845436E1,4.6898594E1,-2.7108475E2,-8.193837E1],"split_indices":[7,11,10,0,0,0,0],"split_type":[0,0,0,0,0,0,0],"sum_hessian":[7E1,6.4E1,6E0,3.4E1,3E1,2E0,4E0],"tree_param":{"num_deleted":"0","num_feature":"16","num_nodes":"7","size_leaf_vector":"1"}},{"base_weights":[6.936282E1,-3.3230038E2,3.4271655E3,-7.8776393E0,-2.2239937E2,3.1358298E2,3.6692318E1],"categories":[],"categories_nodes":[],"categories_segments":[],"categories_sizes":[],"default_left":[0,0,0,0,0,0,0],"id":110,"left_children":[1,3,5,-1,-1,-1,-1],"loss_changes":[9.589593E7,4.270398E7,3.585241E7,0E0,0E0,0E0,0E0],"parents":[2147483647,0,0,1,1,2,2],"right_children":[2,4,6,-1,-1,-1,-1],"split_conditions":[7.4848E4,7.6164E4,7.2422E4,-7.8776393E0,-2.2239937E2,3.1358298E2,3.6692318E1],"split_indices":[8,6,7,0,0,0,0],"split_type":[0,0,0,0,0,0,0],"sum_hessian":[7E1,6.3E1,7E0,6E1,3E0,4E0,3E0],"tree_param":{"num_deleted":"0","num_feature":"16","num_nodes":"7","size_leaf_vector":"1"}},{"base_weights":[-2.067673E2,1.0938947E3,-6.1057294E2,1.4628541E1,2.784111E2,-2.5309991E2,-2.6771654E1],"categories":[],"categories_nodes":[],"categories_segments":[],"categories_sizes":[],"default_left":[0,0,0,0,0,0,0],"id":111,"left_children":[1,3,5,-1,-1,-1,-1],"loss_changes":[4.115128E7,5.497662E7,3.4614384E7,0E0,0E0,0E0,0E0],"parents":[2147483647,0,0,1,1,2,2],"right_children":[2,4,6,-1,-1,-1,-1],"split_conditions":[3.1E1,6.04432E1,3E0,1.4628541E1,2.784111E2,-2.5309991E2,-2.6771654E1],"split_indices":[3,11,10,0,0,0,0],"split_type":[0,0,0,0,0,0,0],"sum_hessian":[7.7E1,1.8E1,5.9E1,1.5E1,3E0,2E0,5.7E1],"tree_param":{"num_deleted":"0","num_feature":"16","num_nodes":"7","size_leaf_vector":"1"}},{"base_weights":[1.2775648E2,4.2303693E2,-2.820224E3,-1.9298223E1,9.178852E1,-1.18012566E2,-2.9058688E2],"categories":[],"categories_nodes":[],"categories_segments":[],"categories_sizes":[],"default_left":[0,0,0,0,0,0,0],"id":112,"left_children":[1,3,5,-1,-1,-1,-1],"loss_changes":[6.302913E7,5.3654476E7,5.771628E6,0E0,0E0,0E0,0E0],"parents":[2147483647,0,0,1,1,2,2],"right_children":[2,4,6,-1,-1,-1,-1],"split_conditions":[8.8082E4,6.0233E4,1.4E1,-1.9298223E1,9.178852E1,-1.18012566E2,-2.9058688E2],"split_indices":[7,8,2,0,0,0,0],"split_type":[0,0,0,0,0,0,0],"sum_hessian":[7.1E1,6.5E1,6E0,3.9E1,2.6E1,5E0,1E0],"tree_param":{"num_deleted":"0","num_feature":"16","num_nodes":"7","size_leaf_vector":"1"}},{"base_weights":[2.5031827E2,-4.3563098E2,1.2789264E3,-6.692376E1,9.571139E0,-1.6434839E2,1.2240315E2],"categories":[],"categories_nodes":[],"categories_segments":[],"categories_sizes":[],"default_left":[0,0,0,0,0,0,0],"id":113,"left_children":[1,3,5,-1,-1,-1,-1],"loss_changes":[4.8732344E7,1.670484E7,8.5654E7,0E0,0E0,0E0,0E0],"parents":[2147483647,0,0,1,1,2,2],"right_children":[2,4,6,-1,-1,-1,-1],"split_conditions":[6.0233E4,2.021E3,-1.5103882E1,-6.692376E1,9.571139E0,-1.6434839E2,1.2240315E2],"split_indices":[8,9,11,0,0,0,0],"split_type":[0,0,0,0,0,0,0],"sum_hessian":[6.8E1,4.1E1,2.7E1,1.9E1,2.2E1,4E0,2.3E1],"tree_param":{"num_deleted":"0","num_feature":"16","num_nodes":"7","size_leaf_vector":"1"}},{"base_weights":[-1.6727382E2,4.3847862E1,-2.6624375E3,-2.7180954E1,5.770298E1,-1.00978325E2,-2.7335605E2],"categories":[],"categories_nodes":[],"categories_segments":[],"categories_sizes":[],"default_left":[0,0,0,0,0,0,0],"id":114,"left_children":[1,3,5,-1,-1,-1,-1],"loss_changes":[3.778915E7,3.0204096E7,5.81292E6,0E0,0E0,0E0,0E0],"parents":[2147483647,0,0,1,1,2,2],"right_children":[2,4,6,-1,-1,-1,-1],"split_conditions":[8.8082E4,6.0233E4,1.4E1,-2.7180954E1,5.770298E1,-1.00978325E2,-2.7335605E2],"split_indices":[7,8,2,0,0,0,0],"split_type":[0,0,0,0,0,0,0],"sum_hessian":[7.1E1,6.6E1,5E0,4.3E1,2.3E1,4E0,1E0],"tree_param":{"num_deleted":"0","num_feature":"16","num_nodes":"7","size_leaf_vector":"1"}},{"base_weights":[-1.0469324E2,1.9339035E2,-1.8599598E3,-1.4772435E2,2.7054981E1,-2.0439384E2,-6.002749E1],"categories":[],"categories_nodes":[],"categories_segments":[],"categories_sizes":[],"default_left":[0,0,0,0,0,0,0],"id":115,"left_children":[1,3,5,-1,-1,-1,-1],"loss_changes":[3.8200116E7,4.2638868E7,1.1970416E7,0E0,0E0,0E0,0E0],"parents":[2147483647,0,0,1,1,2,2],"right_children":[2,4,6,-1,-1,-1,-1],"split_conditions":[7.5403E4,1.574E3,-1.9861324E1,-1.4772435E2,2.7054981E1,-2.0439384E2,-6.002749E1],"split_indices":[7,7,11,0,0,0,0],"split_type":[0,0,0,0,0,0,0],"sum_hessian":[7.2E1,6.2E1,1E1,5E0,5.7E1,3E0,7E0],"tree_param":{"num_deleted":"0","num_feature":"16","num_nodes":"7","size_leaf_vector":"1"}},{"base_weights":[2.3025006E2,6.7832367E2,-1.2186654E3,-8.8224945E0,2.1543549E2,-3.611194E1,-2.8223782E2],"categories":[],"categories_nodes":[],"categories_segments":[],"categories_sizes":[],"default_left":[0,0,0,0,0,0,0],"id":116,"left_children":[1,3,5,-1,-1,-1,-1],"loss_changes":[4.827117E7,1.3498328E8,3.605138E7,0E0,0E0,0E0,0E0],"parents":[2147483647,0,0,1,1,2,2],"right_children":[2,4,6,-1,-1,-1,-1],"split_conditions":[7.2834E4,6.1875E4,2.1E1,-8.8224945E0,2.1543549E2,-3.611194E1,-2.8223782E2],"split_indices":[7,8,2,0,0,0,0],"split_type":[0,0,0,0,0,0,0],"sum_hessian":[7.3E1,5.6E1,1.7E1,4.4E1,1.2E1,1.5E1,2E0],"tree_param":{"num_deleted":"0","num_feature":"16","num_nodes":"7","size_leaf_vector":"1"}},{"base_weights":[2.498346E1,-3.2033926E2,2.4980225E3,7.7178663E-1,-1.2850766E2,3.1157892E2,3.1666166E1],"categories":[],"categories_nodes":[],"categories_segments":[],"categories_sizes":[],"default_left":[0,0,0,0,0,0,0],"id":117,"left_children":[1,3,5,-1,-1,-1,-1],"loss_changes":[5.991449E7,3.7078468E7,4.3479652E7,0E0,0E0,0E0,0E0],"parents":[2147483647,0,0,1,1,2,2],"right_children":[2,4,6,-1,-1,-1,-1],"split_conditions":[7.4848E4,7.2834E4,7.2422E4,7.7178663E-1,-1.2850766E2,3.1157892E2,3.1666166E1],"split_indices":[8,7,7,0,0,0,0],"split_type":[0,0,0,0,0,0,0],"sum_hessian":[6.9E1,6.1E1,8E0,5.2E1,9E0,3E0,5E0],"tree_param":{"num_deleted":"0","num_feature":"16","num_nodes":"7","size_leaf_vector":"1"}},{"base_weights":[1.6814651E2,4.9542258E2,-1.2496282E3,-9.276388E1,5.0434547E1,-1.4168463E2,-3.913088E1],"categories":[],"categories_nodes":[],"categories_segments":[],"categories_sizes":[],"default_left":[0,0,0,0,0,0,0],"id":118,"left_children":[1,3,5,-1,-1,-1,-1],"loss_changes":[3.3588052E7,4.1111696E7,8.053864E6,0E0,0E0,0E0,0E0],"parents":[2147483647,0,0,1,1,2,2],"right_children":[2,4,6,-1,-1,-1,-1],"split_conditions":[7.2422E4,5.418E3,7.0405E4,-9.276388E1,5.0434547E1,-1.4168463E2,-3.913088E1],"split_indices":[7,6,6,0,0,0,0],"split_type":[0,0,0,0,0,0,0],"sum_hessian":[7.1E1,5.8E1,1.3E1,8E0,5E1,4E0,9E0],"tree_param":{"num_deleted":"0","num_feature":"16","num_nodes":"7","size_leaf_vector":"1"}},{"base_weights":[-1.4773453E1,-2.6458694E2,2.6980732E3,-3.489127E1,9.4782616E1,2.555533E2,-3.810651E1],"categories":[],"categories_nodes":[],"categories_segments":[],"categories_sizes":[],"default_left":[0,0,0,0,0,0,0],"id":119,"left_children":[1,3,5,-1,-1,-1,-1],"loss_changes":[5.300808E7,4.158532E7,3.519955E7,0E0,0E0,0E0,0E0],"parents":[2147483647,0,0,1,1,2,2],"right_children":[2,4,6,-1,-1,-1,-1],"split_conditions":[7.7972336E4,1.1E1,3.2E1,-3.489127E1,9.4782616E1,2.555533E2,-3.810651E1],"split_indices":[8,10,3,0,0,0,0],"split_type":[0,0,0,0,0,0,0],"sum_hessian":[7.7E1,7.1E1,6E0,6.1E1,1E1,4E0,2E0],"tree_param":{"num_deleted":"0","num_feature":"16","num_nodes":"7","size_leaf_vector":"1"}},{"base_weights":[-1.654985E2,-4.5263968E2,1.7476628E3,1.2233958E1,-7.029416E1,-1.1963838E2,2.1888904E2],"categories":[],"categories_nodes":[],"categories_segments":[],"categories_sizes":[],"default_left":[0,0,0,0,0,0,0],"id":120,"left_children":[1,3,5,-1,-1,-1,-1],"loss_changes":[4.034915E7,2.9743884E7,7.131421E7,0E0,0E0,0E0,0E0],"parents":[2147483647,0,0,1,1,2,2],"right_children":[2,4,6,-1,-1,-1,-1],"split_conditions":[6.04432E1,1.1E1,2.826E3,1.2233958E1,-7.029416E1,-1.1963838E2,2.1888904E2],"split_indices":[11,2,6,0,0,0,0],"split_type":[0,0,0,0,0,0,0],"sum_hessian":[7.2E1,6.3E1,9E0,3.3E1,3E1,3E0,6E0],"tree_param":{"num_deleted":"0","num_feature":"16","num_nodes":"7","size_leaf_vector":"1"}},{"base_weights":[3.6324036E2,-9.752061E2,6.488113E2,-7.860483E1,9.363347E1,-1.2792923E0,1.7107097E2],"categories":[],"categories_nodes":[],"categories_segments":[],"categories_sizes":[],"default_left":[0,0,0,0,0,0,0],"id":121,"left_children":[1,3,5,-1,-1,-1,-1],"loss_changes":[2.5066072E7,1.0728967E7,7.839142E7,0E0,0E0,0E0,0E0],"parents":[2147483647,0,0,1,1,2,2],"right_children":[2,4,6,-1,-1,-1,-1],"split_conditions":[8.0663335E3,4E0,1E0,-7.860483E1,9.363347E1,-1.2792923E0,1.7107097E2],"split_indices":[8,1,12,0,0,0,0],"split_type":[0,0,0,0,0,0,0],"sum_hessian":[6.4E1,1.1E1,5.3E1,1E1,1E0,4.1E1,1.2E1],"tree_param":{"num_deleted":"0","num_feature":"16","num_nodes":"7","size_leaf_vector":"1"}},{"base_weights":[4.670751E1,-2.8155258E2,1.7598596E3,-6.1673956E0,-2.5795633E2,-3.7360153E1,1.5910953E2],"categories":[],"categories_nodes":[],"categories_segments":[],"categories_sizes":[],"default_left":[0,0,0,0,0,0,0],"id":122,"left_children":[1,3,5,-1,-1,-1,-1],"loss_changes":[4.0559944E7,4.3098884E7,2.504622E7,0E0,0E0,0E0,0E0],"parents":[2147483647,0,0,1,1,2,2],"right_children":[2,4,6,-1,-1,-1,-1],"split_conditions":[7.2792336E4,7.2278336E4,-1.5103882E1,-6.1673956E0,-2.5795633E2,-3.7360153E1,1.5910953E2],"split_indices":[8,8,11,0,0,0,0],"split_type":[0,0,0,0,0,0,0],"sum_hessian":[7.1E1,6E1,1.1E1,5.8E1,2E0,3E0,8E0],"tree_param":{"num_deleted":"0","num_feature":"16","num_nodes":"7","size_leaf_vector":"1"}},{"base_weights":[1.0749226E2,5.2608307E2,-1.3081935E3,-1.9365221E1,1.6577913E2,-1.5464041E2,-6.777021E0],"categories":[],"categories_nodes":[],"categories_segments":[],"categories_sizes":[],"default_left":[0,0,0,0,0,0,0],"id":123,"left_children":[1,3,5,-1,-1,-1,-1],"loss_changes":[4.046522E7,9.924372E7,2.3154652E7,0E0,0E0,0E0,0E0],"parents":[2147483647,0,0,1,1,2,2],"right_children":[2,4,6,-1,-1,-1,-1],"split_conditions":[7.2834E4,6.2334332E4,7.4793E4,-1.9365221E1,1.6577913E2,-1.5464041E2,-6.777021E0],"split_indices":[7,8,8,0,0,0,0],"split_type":[0,0,0,0,0,0,0],"sum_hessian":[6.7E1,5.2E1,1.5E1,3.8E1,1.4E1,7E0,8E0],"tree_param":{"num_deleted":"0","num_feature":"16","num_nodes":"7","size_leaf_vector":"1"}},{"base_weights":[-6.9061325E1,6.0104535E2,-6.024384E2,-9.967177E1,6.904676E1,-1.628958E1,-2.0712422E2],"categories":[],"categories_nodes":[],"categories_segments":[],"categories_sizes":[],"default_left":[0,0,0,0,0,0,0],"id":124,"left_children":[1,3,5,-1,-1,-1,-1],"loss_changes":[2.2231094E7,3.4749396E7,3.1977018E7,0E0,0E0,0E0,0E0],"parents":[2147483647,0,0,1,1,2,2],"right_children":[2,4,6,-1,-1,-1,-1],"split_conditions":[2.02E3,-1.7619486E1,6.8938E4,-9.967177E1,6.904676E1,-1.628958E1,-2.0712422E2],"split_indices":[9,11,7,0,0,0,0],"split_type":[0,0,0,0,0,0,0],"sum_hessian":[6.1E1,2.7E1,3.4E1,5E0,2.2E1,3.1E1,3E0],"tree_param":{"num_deleted":"0","num_feature":"16","num_nodes":"7","size_leaf_vector":"1"}},{"base_weights":[-3.2357532E2,-1.6922197E1,-1.2282933E3,-3.8637253E1,1.002633E2,-4.2508236E1,-2.3552855E2],"categories":[],"categories_nodes":[],"categories_segments":[],"categories_sizes":[],"default_left":[0,0,0,0,0,0,0],"id":125,"left_children":[1,3,5,-1,-1,-1,-1],"loss_changes":[1.8184048E7,5.2368944E7,2.1609936E7,0E0,0E0,0E0,0E0],"parents":[2147483647,0,0,1,1,2,2],"right_children":[2,4,6,-1,-1,-1,-1],"split_conditions":[7.2834E4,6.0233E4,2.1E1,-3.8637253E1,1.002633E2,-4.2508236E1,-2.3552855E2],"split_indices":[7,8,2,0,0,0,0],"split_type":[0,0,0,0,0,0,0],"sum_hessian":[6.5E1,4.9E1,1.6E1,3.6E1,1.3E1,1.4E1,2E0],"tree_param":{"num_deleted":"0","num_feature":"16","num_nodes":"7","size_leaf_vector":"1"}},{"base_weights":[-6.4028915E1,-4.646329E2,8.5767346E2,1.3959477E1,-7.868333E1,-5.1999596E1,2.124794E2],"categories":[],"categories_nodes":[],"categories_segments":[],"categories_sizes":[],"default_left":[0,0,0,0,0,0,0],"id":126,"left_children":[1,3,5,-1,-1,-1,-1],"loss_changes":[2.6303212E7,2.9070726E7,1.0044185E8,0E0,0E0,0E0,0E0],"parents":[2147483647,0,0,1,1,2,2],"right_children":[2,4,6,-1,-1,-1,-1],"split_conditions":[8.506993E0,1E1,3.5641E4,1.3959477E1,-7.868333E1,-5.1999596E1,2.124794E2],"split_indices":[11,2,6,0,0,0,0],"split_type":[0,0,0,0,0,0,0],"sum_hessian":[7E1,4.9E1,2.1E1,2.7E1,2.2E1,1.3E1,8E0],"tree_param":{"num_deleted":"0","num_feature":"16","num_nodes":"7","size_leaf_vector":"1"}},{"base_weights":[-1.9400446E2,-4.556132E2,1.0528345E3,-9.649801E0,-1.0968665E2,-4.6689953E1,1.6820944E2],"categories":[],"categories_nodes":[],"categories_segments":[],"categories_sizes":[],"default_left":[0,0,0,0,0,0,0],"id":127,"left_children":[1,3,5,-1,-1,-1,-1],"loss_changes":[2.3638006E7,2.3799488E7,4.107522E7,0E0,0E0,0E0,0E0],"parents":[2147483647,0,0,1,1,2,2],"right_children":[2,4,6,-1,-1,-1,-1],"split_conditions":[1.1E1,9E0,9.800925E0,-9.649801E0,-1.0968665E2,-4.6689953E1,1.6820944E2],"split_indices":[10,10,11,0,0,0,0],"split_type":[0,0,0,0,0,0,0],"sum_hessian":[7.1E1,5.9E1,1.2E1,4.9E1,1E1,6E0,6E0],"tree_param":{"num_deleted":"0","num_feature":"16","num_nodes":"7","size_leaf_vector":"1"}},{"base_weights":[2.4227331E1,-7.057247E1,2.707314E3,1.0498494E1,-4.8271824E1,6.8859474E1,1.97227E2],"categories":[],"categories_nodes":[],"categories_segments":[],"categories_sizes":[],"default_left":[0,0,0,0,0,0,0],"id":128,"left_children":[1,3,5,-1,-1,-1,-1],"loss_changes":[1.93463E7,1.317627E7,4.1984E4,0E0,0E0,0E0,0E0],"parents":[2147483647,0,0,1,1,2,2],"right_children":[2,4,6,-1,-1,-1,-1],"split_conditions":[1.03E1,7.8E-1,1E0,1.0498494E1,-4.8271824E1,6.8859474E1,1.97227E2],"split_indices":[13,5,0,0,0,0,0],"split_type":[0,0,0,0,0,0,0],"sum_hessian":[7.5E1,7.3E1,2E0,5.5E1,1.8E1,1E0,1E0],"tree_param":{"num_deleted":"0","num_feature":"16","num_nodes":"7","size_leaf_vector":"1"}},{"base_weights":[6.946604E1,4.2835315E2,-6.943726E2,5.299181E1,-4.6954697E1,-8.351878E1,-1.9597689E0],"categories":[],"categories_nodes":[],"categories_segments":[],"categories_sizes":[],"default_left":[0,0,0,0,0,0,0],"id":129,"left_children":[1,3,5,-1,-1,-1,-1],"loss_changes":[1.6787866E7,2.28939E7,8.890725E6,0E0,0E0,0E0,0E0],"parents":[2147483647,0,0,1,1,2,2],"right_children":[2,4,6,-1,-1,-1,-1],"split_conditions":[7.3E-1,7.0552E4,1.9246377E0,5.299181E1,-4.6954697E1,-8.351878E1,-1.9597689E0],"split_indices":[5,7,11,0,0,0,0],"split_type":[0,0,0,0,0,0,0],"sum_hessian":[6E1,4.1E1,1.9E1,3E1,1.1E1,9E0,1E1],"tree_param":{"num_deleted":"0","num_feature":"16","num_nodes":"7","size_leaf_vector":"1"}},{"base_weights":[-4.832876E0,-1.3044215E3,1.9592476E2,-1.01754715E2,8.8409615E1,-8.927728E0,9.625351E1],"categories":[],"categories_nodes":[],"categories_segments":[],"categories_sizes":[],"default_left":[0,0,0,0,0,0,0],"id":130,"left_children":[1,3,5,-1,-1,-1,-1],"loss_changes":[2.0659782E7,1.259131E7,3.3070628E7,0E0,0E0,0E0,0E0],"parents":[2147483647,0,0,1,1,2,2],"right_children":[2,4,6,-1,-1,-1,-1],"split_conditions":[5.418E3,5E0,2.1003792E1,-1.01754715E2,8.8409615E1,-8.927728E0,9.625351E1],"split_indices":[6,1,11,0,0,0,0],"split_type":[0,0,0,0,0,0,0],"sum_hessian":[7.8E1,1E1,6.8E1,9E0,1E0,5.5E1,1.3E1],"tree_param":{"num_deleted":"0","num_feature":"16","num_nodes":"7","size_leaf_vector":"1"}},{"base_weights":[1.1451094E2,-3.3736722E2,7.6451013E2,-3.0860104E1,1.6014973E2,-8.553297E1,8.57678E1],"categories":[],"categories_nodes":[],"categories_segments":[],"categories_sizes":[],"default_left":[0,0,0,0,0,0,0],"id":131,"left_children":[1,3,5,-1,-1,-1,-1],"loss_changes":[2.2651978E7,2.4407444E7,4.6290976E7,0E0,0E0,0E0,0E0],"parents":[2147483647,0,0,1,1,2,2],"right_children":[2,4,6,-1,-1,-1,-1],"split_conditions":[6.8757796E0,9.0596E4,5.418E3,-3.0860104E1,1.6014973E2,-8.553297E1,8.57678E1],"split_indices":[11,6,6,0,0,0,0],"split_type":[0,0,0,0,0,0,0],"sum_hessian":[7.6E1,4.5E1,3.1E1,4.3E1,2E0,7E0,2.4E1],"tree_param":{"num_deleted":"0","num_feature":"16","num_nodes":"7","size_leaf_vector":"1"}},{"base_weights":[-1.0022225E2,-2.3242001E2,3.4668276E3,5.5909634E0,-8.8276306E1,2.524515E2,8.830069E1],"categories":[],"categories_nodes":[],"categories_segments":[],"categories_sizes":[],"default_left":[0,0,0,0,0,0,0],"id":132,"left_children":[1,3,5,-1,-1,-1,-1],"loss_changes":[3.4235856E7,2.7860586E7,5.5E4,0E0,0E0,0E0,0E0],"parents":[2147483647,0,0,1,1,2,2],"right_children":[2,4,6,-1,-1,-1,-1],"split_conditions":[1.430117E2,7.2422E4,2E0,5.5909634E0,-8.8276306E1,2.524515E2,8.830069E1],"split_indices":[11,7,1,0,0,0,0],"split_type":[0,0,0,0,0,0,0],"sum_hessian":[7.1E1,6.9E1,2E0,5.5E1,1.4E1,1E0,1E0],"tree_param":{"num_deleted":"0","num_feature":"16","num_nodes":"7","size_leaf_vector":"1"}},{"base_weights":[-2.4812532E2,-1.8610398E3,-2.099384E1,-1.19471306E2,-4.1467506E1,-2.829482E1,5.651402E1],"categories":[],"categories_nodes":[],"categories_segments":[],"categories_sizes":[],"default_left":[0,0,0,0,0,0,0],"id":133,"left_children":[1,3,5,-1,-1,-1,-1],"loss_changes":[2.2538776E7,2.22174E5,2.3605736E7,0E0,0E0,0E0,0E0],"parents":[2147483647,0,0,1,1,2,2],"right_children":[2,4,6,-1,-1,-1,-1],"split_conditions":[4.447E3,3E0,6.8757796E0,-1.19471306E2,-4.1467506E1,-2.829482E1,5.651402E1],"split_indices":[6,1,11,0,0,0,0],"split_type":[0,0,0,0,0,0,0],"sum_hessian":[6.1E1,7E0,5.4E1,6E0,1E0,3.7E1,1.7E1],"tree_param":{"num_deleted":"0","num_feature":"16","num_nodes":"7","size_leaf_vector":"1"}},{"base_weights":[7.30291E-1,2.875762E2,-9.4285455E2,-9.286671E1,2.7189632E1,2.3825097E-1,-1.6950096E2],"categories":[],"categories_nodes":[],"categories_segments":[],"categories_sizes":[],"default_left":[0,0,0,0,0,0,0],"id":134,"left_children":[1,3,5,-1,-1,-1,-1],"loss_changes":[1.9268032E7,1.6579401E7,2.9267676E7,0E0,0E0,0E0,0E0],"parents":[2147483647,0,0,1,1,2,2],"right_children":[2,4,6,-1,-1,-1,-1],"split_conditions":[1.8E1,3E0,6.8938E4,-9.286671E1,2.7189632E1,2.3825097E-1,-1.6950096E2],"split_indices":[2,2,7,0,0,0,0],"split_type":[0,0,0,0,0,0,0],"sum_hessian":[7E1,5.4E1,1.6E1,4E0,5E1,1.1E1,5E0],"tree_param":{"num_deleted":"0","num_feature":"16","num_nodes":"7","size_leaf_vector":"1"}},{"base_weights":[1.6324173E2,1.5330883E3,-8.802878E1,1.722573E2,-1.1032913E1,1.7955484E2,-9.983103E0],"categories":[],"categories_nodes":[],"categories_segments":[],"categories_sizes":[],"default_left":[0,0,0,0,0,0,0],"id":135,"left_children":[1,3,5,-1,-1,-1,-1],"loss_changes":[2.5758682E7,2.6521652E7,1.5300856E7,0E0,0E0,0E0,0E0],"parents":[2147483647,0,0,1,1,2,2],"right_children":[2,4,6,-1,-1,-1,-1],"split_conditions":[3E0,2.02E3,3E1,1.722573E2,-1.1032913E1,1.7955484E2,-9.983103E0],"split_indices":[10,9,3,0,0,0,0],"split_type":[0,0,0,0,0,0,0],"sum_hessian":[7.4E1,1.1E1,6.3E1,6E0,5E0,1E0,6.2E1],"tree_param":{"num_deleted":"0","num_feature":"16","num_nodes":"7","size_leaf_vector":"1"}},{"base_weights":[-1.546194E2,-5.053782E2,1.1876444E3,-2.0564476E1,-1.7139014E2,2.0824612E2,2.5758821E1],"categories":[],"categories_nodes":[],"categories_segments":[],"categories_sizes":[],"default_left":[0,0,0,0,0,0,0],"id":136,"left_children":[1,3,5,-1,-1,-1,-1],"loss_changes":[3.3122664E7,2.0811416E7,2.4215694E7,0E0,0E0,0E0,0E0],"parents":[2147483647,0,0,1,1,2,2],"right_children":[2,4,6,-1,-1,-1,-1],"split_conditions":[7.4308336E4,7.2278336E4,3E0,-2.0564476E1,-1.7139014E2,2.0824612E2,2.5758821E1],"split_indices":[8,8,10,0,0,0,0],"split_type":[0,0,0,0,0,0,0],"sum_hessian":[6.9E1,5.5E1,1.4E1,5.2E1,3E0,3E0,1.1E1],"tree_param":{"num_deleted":"0","num_feature":"16","num_nodes":"7","size_leaf_vector":"1"}},{"base_weights":[-1.7311034E2,2.4171472E0,-2.5036873E3,9.577795E1,-1.1198931E1,-8.4405106E1,-1.8344545E2],"categories":[],"categories_nodes":[],"categories_segments":[],"categories_sizes":[],"default_left":[0,0,0,0,0,0,0],"id":137,"left_children":[1,3,5,-1,-1,-1,-1],"loss_changes":[2.6841552E7,1.8476124E7,1.73596E5,0E0,0E0,0E0,0E0],"parents":[2147483647,0,0,1,1,2,2],"right_children":[2,4,6,-1,-1,-1,-1],"split_conditions":[8.1452E4,2E0,3.1E1,9.577795E1,-1.1198931E1,-8.4405106E1,-1.8344545E2],"split_indices":[6,10,3,0,0,0,0],"split_type":[0,0,0,0,0,0,0],"sum_hessian":[6.5E1,6.1E1,4E0,6E0,5.5E1,2E0,2E0],